{"learner":{"attributes":{"best_iteration":"71","best_score":"0.2867470810360423","scikit_learn":"{\"_estimator_type\": \"classifier\"}"},"feature_names":[],"feature_types":[],"gradient_booster":{"model":{"cats":{"enc":[],"feature_segments":[],"sorted_idx":[]},"gbtree_model_param":{"num_parallel_tree":"1","num_trees":"896"},"iteration_indptr":[0,8,16,24,32,40,48,56,64,72,80,88,96,104,112,120,128,136,144,152,160,168,176,184,192,200,208,216,224,232,240,248,256,264,272,280,288,296,304,312,320,328,336,344,352,360,368,376,384,392,400,408,416,424,432,440,448,456,464,472,480,488,496,504,512,520,528,536,544,552,560,568,576,584,592,600,608,616,624,632,640,648,656,664,672,680,688,696,704,712,720,728,736,744,752,760,768,776,784,792,800,808,816,824,832,840,848,856,864,872,880,888,896],"tree_info":[0,1,2,3,4,5,6,7,0,1,2,3,4,5,6,7,0,1,2,3,4,5,6,7,0,1,2,3,4,5,6,7,0,1,2,3,4,5,6,7,0,1,2,3,4,5,6,7,0,1,2,3,4,5,6,7,0,1,2,3,4,5,6,7,0,1,2,3,4,5,6,7,0,1,2,3,4,5,6,7,0,1,2,3,4,5,6,7,0,1,2,3,4,5,6,7,0,1,2,3,4,5,6,7,0,1,2,3,4,5,6,7,0,1,2,3,4,5,6,7,0,1,2,3,4,5,6,7,0,1,2,3,4,5,6,7,0,1,2,3,4,5,6,7,0,1,2,3,4,5,6,7,0,1,2,3,4,5,6,7,0,1,2,3,4,5,6,7,0,1,2,3,4,5,6,7,0,1,2,3,4,5,6,7,0,1,2,3,4,5,6,7,0,1,2,3,4,5,6,7,0,1,2,3,4,5,6,7,0,1,2,3,4,5,6,7,0,1,2,3,4,5,6,7,0,1,2,3,4,5,6,7,0,1,2,3,4,5,6,7,0,1,2,3,4,5,6,7,0,1,2,3,4,5,6,7,0,1,2,3,4,5,6,7,0,1,2,3,4,5,6,7,0,1,2,3,4,5,6,7,0,1,2,3,4,5,6,7,0,1,2,3,4,5,6,7,0,1,2,3,4,5,6,7,0,1,2,3,4,5,6,7,0,1,2,3,4,5,6,7,0,1,2,3,4,5,6,7,0,1,2,3,4,5,6,7,0,1,2,3,4,5,6,7,0,1,2,3,4,5,6,7,0,1,2,3,4,5,6,7,0,1,2,3,4,5,6,7,0,1,2,3,4,5,6,7,0,1,2,3,4,5,6,7,0,1,2,3,4,5,6,7,0,1,2,3,4,5,6,7,0,1,2,3,4,5,6,7,0,1,2,3,4,5,6,7,0,1,2,3,4,5,6,7,0,1,2,3,4,5,6,7,0,1,2,3,4,5,6,7,0,1,2,3,4,5,6,7,0,1,2,3,4,5,6,7,0,1,2,3,4,5,6,7,0,1,2,3,4,5,6,7,0,1,2,3,4,5,6,7,0,1,2,3,4,5,6,7,0,1,2,3,4,5,6,7,0,1,2,3,4,5,6,7,0,1,2,3,4,5,6,7,0,1,2,3,4,5,6,7,0,1,2,3,4,5,6,7,0,1,2,3,4,5,6,7,0,1,2,3,4,5,6,7,0,1,2,3,4,5,6,7,0,1,2,3,4,5,6,7,0,1,2,3,4,5,6,7,0,1,2,3,4,5,6,7,0,1,2,3,4,5,6,7,0,1,2,3,4,5,6,7,0,1,2,3,4,5,6,7,0,1,2,3,4,5,6,7,0,1,2,3,4,5,6,7,0,1,2,3,4,5,6,7,0,1,2,3,4,5,6,7,0,1,2,3,4,5,6,7,0,1,2,3,4,5,6,7,0,1,2,3,4,5,6,7,0,1,2,3,4,5,6,7,0,1,2,3,4,5,6,7,0,1,2,3,4,5,6,7,0,1,2,3,4,5,6,7,0,1,2,3,4,5,6,7,0,1,2,3,4,5,6,7,0,1,2,3,4,5,6,7,0,1,2,3,4,5,6,7,0,1,2,3,4,5,6,7,0,1,2,3,4,5,6,7,0,1,2,3,4,5,6,7,0,1,2,3,4,5,6,7,0,1,2,3,4,5,6,7,0,1,2,3,4,5,6,7,0,1,2,3,4,5,6,7,0,1,2,3,4,5,6,7,0,1,2,3,4,5,6,7,0,1,2,3,4,5,6,7,0,1,2,3,4,5,6,7,0,1,2,3,4,5,6,7,0,1,2,3,4,5,6,7,0,1,2,3,4,5,6,7,0,1,2,3,4,5,6,7,0,1,2,3,4,5,6,7,0,1,2,3,4,5,6,7,0,1,2,3,4,5,6,7,0,1,2,3,4,5,6,7,0,1,2,3,4,5,6,7,0,1,2,3,4,5,6,7,0,1,2,3,4,5,6,7],"trees":[{"base_weights":[-1.4426465E-3,9.4374454E-1,-7.399399E-1,7.1979755E-1,1.4768922E0,1.0222593E-1,-7.421021E-1,8.0618566E-1,-7.230729E-1,1.1845505E-1,-4.6434265E-2,-2.575218E-1,-7.4699825E-1,7.765605E-1,1.2037851E0,-7.384966E-1,2.1809195E-1,1.274553E0,-5.8756776E-2,6.586012E-2,-7.473006E-1,-2.8367138E-2,7.815798E-1,1.2471392E0,-5.1016316E-2,-5.9755497E-2,-1.1026602E-1,5.4267716E-1,-2.551791E-2,-2.5790794E-2,1.3697486E0,-5.7318324E-1,-7.490813E-1,7.8794277E-1,1.3059875E-1,3.388792E-1,1.2719765E0,5.1928893E-2,-4.3892182E-2,-0E0,7.2927274E-2,1.9592892E-2,1.13345675E-1,9.796829E-2,-5.906562E-2,-3.8148028E-1,-7.494207E-1,6.193759E-2,8.152026E-2,-2.9530856E-3,5.4355964E-2,5.7098374E-2,-7.0640775E-3,1.0506366E-1,6.658594E-2,-5.3587735E-2,6.964776E-2,-5.510039E-2,-6.012904E-2],"categories":[],"categories_nodes":[],"categories_segments":[],"categories_sizes":[],"default_left":[0,0,0,0,0,0,0,0,0,0,0,0,0,0,0,0,0,0,0,0,0,0,0,0,0,0,0,0,0,0,0,0,0,0,0,0,0,0,0,0,0,0,0,0,0,0,0,0,0,0,0,0,0,0,0,0,0,0,0],"id":0,"left_children":[1,3,5,7,9,-1,11,13,15,-1,-1,17,19,21,23,25,27,29,-1,-1,31,-1,33,35,-1,-1,37,39,-1,-1,41,43,45,47,49,51,53,-1,-1,-1,-1,-1,-1,-1,-1,55,57,-1,-1,-1,-1,-1,-1,-1,-1,-1,-1,-1,-1],"loss_changes":[3.0218135E4,2.2645605E3,1.0856152E2,1.6688525E3,4.585547E1,0E0,5.660547E1,1.4657422E2,1.1433014E1,0E0,0E0,1.8364882E2,1.3053711E1,6.746582E1,7.146216E1,3.1101074E0,3.2963777E0,1.0171677E1,0E0,0E0,6.131836E0,0E0,4.7551758E1,1.7276733E1,0E0,0E0,6.02782E0,2.3307343E0,0E0,0E0,1.071312E0,7.826087E1,1.8369141E0,3.4878906E1,1.1596313E1,4.883355E0,1.2008911E1,0E0,0E0,0E0,0E0,0E0,0E0,0E0,0E0,1.1913332E1,1.71875E0,0E0,0E0,0E0,0E0,0E0,0E0,0E0,0E0,0E0,0E0,0E0,0E0],"parents":[2147483647,0,0,1,1,2,2,3,3,4,4,6,6,7,7,8,8,11,11,12,12,13,13,14,14,15,15,16,16,17,17,20,20,22,22,23,23,26,26,27,27,30,30,31,31,32,32,33,33,34,34,35,35,36,36,45,45,46,46],"right_children":[2,4,6,8,10,-1,12,14,16,-1,-1,18,20,22,24,26,28,30,-1,-1,32,-1,34,36,-1,-1,38,40,-1,-1,42,44,46,48,50,52,54,-1,-1,-1,-1,-1,-1,-1,-1,56,58,-1,-1,-1,-1,-1,-1,-1,-1,-1,-1,-1,-1],"split_conditions":[-4.7654605E-1,3.128222E-1,-7.246956E-1,-3.589818E-1,-1.6844039E-1,1.0222593E-1,-4.3251923E-1,6.227945E-1,1.0827156E0,1.1845505E-1,-4.6434265E-2,5.106874E-3,-7.02787E-1,-9.299139E-1,-5.322417E-2,2.4683413E-1,-3.0234274E-1,-1.6859192E-1,-5.8756776E-2,6.586012E-2,-3.9317238E-1,-2.8367138E-2,-6.4063525E-1,2.5800484E-1,-5.1016316E-2,-5.9755497E-2,-3.6806315E-1,-1.4790042E-1,-2.551791E-2,-2.5790794E-2,3.7002647E-1,-5.1701583E-2,-6.952487E-1,-7.5901115E-1,-3.7019563E-1,-1.5824206E-1,1.1785571E-1,5.1928893E-2,-4.3892182E-2,-0E0,7.2927274E-2,1.9592892E-2,1.13345675E-1,9.796829E-2,-5.906562E-2,-5.3986925E-1,-4.7654894E-1,6.193759E-2,8.152026E-2,-2.9530856E-3,5.4355964E-2,5.7098374E-2,-7.0640775E-3,1.0506366E-1,6.658594E-2,-5.3587735E-2,6.964776E-2,-5.510039E-2,-6.012904E-2],"split_indices":[3,6,2,14,10,0,3,11,28,0,0,8,10,5,2,6,2,9,0,0,3,0,14,21,0,0,10,17,0,0,6,8,2,15,15,7,7,0,0,0,0,0,0,0,0,1,10,0,0,0,0,0,0,0,0,0,0,0,0],"split_type":[0,0,0,0,0,0,0,0,0,0,0,0,0,0,0,0,0,0,0,0,0,0,0,0,0,0,0,0,0,0,0,0,0,0,0,0,0,0,0,0,0,0,0,0,0,0,0,0,0,0,0,0,0,0,0,0,0,0,0],"sum_hessian":[4.3285066E4,1.8985145E4,2.429992E4,1.3373349E4,5.611795E3,2.4500427E1,2.427542E4,1.2619046E4,7.5430316E2,5.6022617E3,9.533206E0,2.4491779E2,2.4030502E4,1.1750667E4,8.683785E2,7.4308746E2,1.1215725E1,5.7100353E1,1.8781743E2,3.259675E0,2.4027242E4,5.0855907E1,1.1699812E4,8.493005E2,1.9078026E1,7.320703E2,1.10171385E1,7.5580015E0,3.657723E0,2.6483278E0,5.4452026E1,2.5262221E2,2.3774621E4,1.1585382E4,1.14429245E2,2.3922173E1,8.253783E2,3.2630088E0,7.75413E0,3.483408E0,4.0745935E0,3.1121447E0,5.133988E1,1.991843E1,2.3270378E2,2.536174E1,2.374926E4,1.09461455E4,6.3923615E2,8.840273E1,2.6026514E1,1.2650363E1,1.1271811E1,7.497992E2,7.5579094E1,2.1694605E1,3.6671343E0,8.5826074E2,2.2890998E4],"tree_param":{"num_deleted":"0","num_feature":"32","num_nodes":"59","size_leaf_vector":"1"}},{"base_weights":[-6.309553E-3,-3.5650524E-1,3E0,-5.047693E-1,-4.5744453E-2,-3.961375E-2,2.4E-1,-5.153223E-1,2.4E-1,-1.1356227E-1,3E0,-4.1290063E-2,-7.425282E-2,-2.1434339E-2,-4.906733E-1,-3.0734124E-2,3E0,4.241893E-2,-2.9270923E-2,-2.8237669E-2,-1.5565526E-3,1.6906825E-1,-4.0637597E-2,2.4E-1,-2.7307723E-2,-2.9333541E-2,1.2194322E-1],"categories":[],"categories_nodes":[],"categories_segments":[],"categories_sizes":[],"default_left":[0,0,0,0,0,0,0,0,0,0,0,0,0,0,0,0,0,0,0,0,0,0,0,0,0,0,0],"id":1,"left_children":[1,3,5,7,9,-1,-1,11,-1,13,15,-1,17,19,21,-1,23,-1,-1,-1,-1,25,-1,-1,-1,-1,-1],"loss_changes":[1.3469488E4,3.266042E2,7.2666895E2,2.8576868E2,6.535705E2,0E0,0E0,1.145874E0,0E0,7.877061E1,1.1332892E2,0E0,3.2399378E0,1.3359852E0,5.3445663E0,0E0,7.986597E1,0E0,0E0,0E0,0E0,1.2115849E1,0E0,0E0,0E0,0E0,0E0],"parents":[2147483647,0,0,1,1,2,2,3,3,4,4,7,7,9,9,10,10,12,12,13,13,14,14,16,16,21,21],"right_children":[2,4,6,8,10,-1,-1,12,-1,14,16,-1,18,20,22,-1,24,-1,-1,-1,-1,26,-1,-1,-1,-1,-1],"split_conditions":[1.8560745E0,6.8592197E-1,5.05058E-1,2.0146208E0,1.1809421E-1,-3.961375E-2,2.4E-1,1.588168E0,2.4E-1,-6.129158E-1,7.4832493E-1,-4.1290063E-2,1.1544911E0,-9.299139E-1,-3.4702846E-1,-3.0734124E-2,-1.6482592E-1,4.241893E-2,-2.9270923E-2,-2.8237669E-2,-1.5565526E-3,-3.5012495E-2,-4.0637597E-2,2.4E-1,-2.7307723E-2,-2.9333541E-2,1.2194322E-1],"split_indices":[3,28,2,19,19,0,0,23,0,20,2,0,12,5,29,0,25,0,0,0,0,19,0,0,0,0,0],"split_type":[0,0,0,0,0,0,0,0,0,0,0,0,0,0,0,0,0,0,0,0,0,0,0,0,0,0,0],"sum_hessian":[7.3502056E3,7.093217E3,2.569887E2,4.800188E3,2.293029E3,5.8793957E1,1.9819473E2,4.796E3,4.1877384E0,2.2634102E3,2.9618809E1,4.785808E3,1.0192196E1,1.8217883E3,4.4162195E2,9.302601E0,2.0316208E1,2.2264597E0,7.965736E0,7.197519E0,1.8145908E3,1.0095506E1,4.3152646E2,1.3715399E1,6.6008086E0,8.016437E0,2.079069E0],"tree_param":{"num_deleted":"0","num_feature":"32","num_nodes":"27","size_leaf_vector":"1"}},{"base_weights":[-1.2131213E-3,-3.885294E-1,3E0,-4.9136317E-1,3.951728E-1,-4.394792E-2,3E0,-5.5386597E-1,-3.8228127E-1,-5.299724E-1,3E0,2.4E-1,-2.1279976E-2,-5.654964E-1,-4.4516215E-1,-4.0573254E-1,6.1668414E-1,-5.5840015E-1,8.7458736E-1,9.683289E-1,3E0,-4.541455E-2,-4.4579002E-1,2.2016933E0,-4.922241E-1,3.6256623E-2,-4.0771946E-1,1.1893416E-1,1.216641E0,8.281069E-1,-4.544976E-2,1.7941971E-1,2.2647123E-1,2.4812536E0,-3.3640578E-1,3E0,-2.7804863E-2,-4.1964073E-2,6.8838733E-1,2.6950295E0,-1.8087307E-2,2.9124597E-1,-5.370916E-1,-3.9809814E-1,-5.375911E-1,4.1203526E-1,-4.0474236E-2,1.604142E0,1.2501425E-1,-1.785742E-2,1.7187285E-1,1.3498881E0,-3.8629208E-2,3.8574436E-1,2.4E-1,3.3040732E-1,-4.0174726E-2,2.4E-1,-1.4991902E-2,-3.0240893E-2,1.6635072E-1,3.2495707E-2,2.4E-1,-3.194704E-2,1.3614371E-1,-4.368636E-2,1.025845E-1,-3.2142177E-2,4.825179E-3,5.9757293E-3,-4.3736305E-2,8.441772E-2,-3.403485E-3,8.935227E-2,2.1445386E-1,-2.0443518E-2,3.553208E-2,-2.2305263E-2,1.8602811E-1,1.09240204E-1,-2.4849882E-2,-1.4737346E-2,6.666822E-2],"categories":[],"categories_nodes":[],"categories_segments":[],"categories_sizes":[],"default_left":[0,0,0,0,0,0,0,0,0,0,0,0,0,0,0,0,0,0,0,0,0,0,0,0,0,0,0,0,0,0,0,0,0,0,0,0,0,0,0,0,0,0,0,0,0,0,0,0,0,0,0,0,0,0,0,0,0,0,0,0,0,0,0,0,0,0,0,0,0,0,0,0,0,0,0,0,0,0,0,0,0,0,0],"id":2,"left_children":[1,3,5,7,9,-1,11,13,15,17,19,-1,-1,21,23,25,27,29,31,33,35,-1,37,39,41,-1,43,45,47,49,-1,51,-1,53,55,57,-1,-1,59,61,-1,63,65,67,69,71,-1,73,75,-1,-1,77,-1,79,-1,81,-1,-1,-1,-1,-1,-1,-1,-1,-1,-1,-1,-1,-1,-1,-1,-1,-1,-1,-1,-1,-1,-1,-1,-1,-1,-1,-1],"loss_changes":[2.9112463E4,1.5231299E3,1.7614531E3,1.131709E2,6.3934937E3,0E0,4.132617E1,1.2584717E1,1.4358118E2,6.9634735E1,1.8547461E2,0E0,0E0,1.6572266E0,1.3276216E2,1.0762024E1,4.1278355E1,2.3950256E1,4.5829575E1,1.0310257E2,6.650635E1,0E0,1.771529E1,2.4026657E1,3.64747E1,0E0,6.8536987E0,1.5618682E1,2.5218552E1,1.987452E1,0E0,2.4722254E1,0E0,3.0693558E1,3.897509E0,2.724414E1,0E0,0E0,2.2343645E1,7.2593155E0,0E0,5.8308628E1,1.789386E1,9.434509E0,2.3678665E0,1.732423E1,0E0,1.7563072E1,3.137241E0,0E0,0E0,2.0034838E1,0E0,8.302429E0,0E0,2.779727E0,0E0,0E0,0E0,0E0,0E0,0E0,0E0,0E0,0E0,0E0,0E0,0E0,0E0,0E0,0E0,0E0,0E0,0E0,0E0,0E0,0E0,0E0,0E0,0E0,0E0,0E0,0E0],"parents":[2147483647,0,0,1,1,2,2,3,3,4,4,6,6,7,7,8,8,9,9,10,10,13,13,14,14,15,15,16,16,17,17,18,18,19,19,20,20,22,22,23,23,24,24,26,26,27,27,28,28,29,29,31,31,33,33,34,34,35,35,38,38,39,39,41,41,42,42,43,43,44,44,45,45,47,47,48,48,51,51,53,53,55,55],"right_children":[2,4,6,8,10,-1,12,14,16,18,20,-1,-1,22,24,26,28,30,32,34,36,-1,38,40,42,-1,44,46,48,50,-1,52,-1,54,56,58,-1,-1,60,62,-1,64,66,68,70,72,-1,74,76,-1,-1,78,-1,80,-1,82,-1,-1,-1,-1,-1,-1,-1,-1,-1,-1,-1,-1,-1,-1,-1,-1,-1,-1,-1,-1,-1,-1,-1,-1,-1,-1,-1],"split_conditions":[9.53768E-1,1.2846904E-1,-1.9998899E-1,8.9984256E-1,3.1867886E-1,-4.394792E-2,3.4180784E-1,6.5153E-1,-4.2905605E-1,1.0033888E0,2.4364756E-1,2.4E-1,-2.1279976E-2,-3.1360142E-2,-7.107071E-2,-9.0892625E-1,1.1558375E0,1.0990226E-1,5.280242E-1,4.8816685E-2,5.483168E-1,-4.541455E-2,3.6165372E-1,3.9284623E-1,4.4514632E-1,3.6256623E-2,5.655795E-1,7.346298E-1,6.679468E-1,8.2147455E-1,-4.544976E-2,8.222082E-1,2.2647123E-1,4.086354E-1,3.8630417E-1,2.8244635E-1,-2.7804863E-2,-4.1964073E-2,1.610348E-1,-1.7961533E-1,-1.8087307E-2,-6.4048216E-2,9.7775394E-1,-6.782687E-1,-4.8197633E-1,-1.3443384E-1,-4.0474236E-2,3.4180784E-1,-3.18831E-1,-1.785742E-2,1.7187285E-1,5.724048E-1,-3.8629208E-2,-3.5012495E-2,2.4E-1,2.6308373E-1,-4.0174726E-2,2.4E-1,-1.4991902E-2,-3.0240893E-2,1.6635072E-1,3.2495707E-2,2.4E-1,-3.194704E-2,1.3614371E-1,-4.368636E-2,1.025845E-1,-3.2142177E-2,4.825179E-3,5.9757293E-3,-4.3736305E-2,8.441772E-2,-3.403485E-3,8.935227E-2,2.1445386E-1,-2.0443518E-2,3.553208E-2,-2.2305263E-2,1.8602811E-1,1.09240204E-1,-2.4849882E-2,-1.4737346E-2,6.666822E-2],"split_indices":[21,22,16,28,21,0,11,30,22,28,22,0,0,22,9,2,28,11,12,20,11,0,29,31,31,0,23,2,11,28,0,4,0,1,8,20,0,0,4,8,0,16,8,26,6,20,0,11,6,0,0,4,0,19,0,31,0,0,0,0,0,0,0,0,0,0,0,0,0,0,0,0,0,0,0,0,0,0,0,0,0,0,0],"split_type":[0,0,0,0,0,0,0,0,0,0,0,0,0,0,0,0,0,0,0,0,0,0,0,0,0,0,0,0,0,0,0,0,0,0,0,0,0,0,0,0,0,0,0,0,0,0,0,0,0,0,0,0,0,0,0,0,0,0,0,0,0,0,0,0,0,0,0,0,0,0,0,0,0,0,0,0,0,0,0,0,0,0,0],"sum_hessian":[2.0844578E4,1.888831E4,1.9562659E3,1.6698584E4,2.1897268E3,1.390875E2,1.8171783E3,1.0607728E4,6.0908574E3,1.7055034E3,4.842234E2,1.8137821E3,3.396296E0,9.570734E3,1.0369924E3,5.9528003E3,1.3805693E2,1.6731993E3,3.230409E1,4.8150616E1,4.3607278E2,9.38768E3,1.8305518E2,1.6330723E1,1.0206617E3,1.2109578E1,5.940691E3,7.722097E1,6.0835968E1,1.0119956E1,1.6630795E3,2.5634089E1,6.6700015E0,2.1638792E1,2.6511826E1,4.306966E2,5.3761854E0,1.725861E2,1.0469071E1,1.3560885E1,2.769836E0,5.40864E1,9.6657526E2,5.5420938E3,3.9859714E2,5.3573074E1,2.3647892E1,4.3867165E1,1.6968805E1,6.3482075E0,3.7717485E0,8.785613E0,1.6848475E1,6.5437536E0,1.5095037E1,4.2828064E0,2.222902E1,4.284093E2,2.2872844E0,6.5469384E0,3.922133E0,2.5100715E0,1.1050815E1,3.703429E1,1.7052109E1,9.634901E2,3.0851638E0,5.499296E3,4.2797718E1,4.8296313E0,3.937675E2,2.1545502E1,3.2027573E1,3.3324116E1,1.054305E1,7.2067904E0,9.762014E0,3.6339214E0,5.151692E0,2.2185624E0,4.325191E0,2.25191E0,2.0308964E0],"tree_param":{"num_deleted":"0","num_feature":"32","num_nodes":"83","size_leaf_vector":"1"}},{"base_weights":[2.1696854E-3,-4.539424E-1,1.7406018E0,-5.26954E-1,1.127963E-2,3E0,-4.6181846E-1,-4.9026665E-1,-4.53591E-2,-4.5834026E-1,3E0,2.4E-1,-2.6549548E-1,-5.611567E-1,3E0,-5.0732404E-1,6.9202656E-1,7.6063746E-1,-5.444586E-1,3E0,-2.6797208E-1,9.6404237E-1,-4.2586215E-2,1.8024252E-1,-4.554354E-2,-1.9210951E-2,2.4E-1,-4.9108878E-1,-4.5566395E-2,2.3480465E0,-4.460974E-2,2.3467703E0,-3.320089E-1,-5.497142E-1,6.4671355E-1,-1.9589092E-3,3E0,8.5961804E-2,-4.012871E-2,-2.0715535E-2,1.4336835E-1,2.0417555E-1,-3.9162826E-2,-4.9355817E-1,1.9990036E-1,-0E0,2.779156E0,-2.8170308E-1,8.0202353E-1,1.2368928E0,3E0,-4.3553692E-1,9.665798E-2,-1.7442009E-1,-4.470257E-2,-2.5548054E-2,1.5793353E-1,8.2503654E-2,2.4E-1,-3.963331E-2,-2.1297054E-2,6.81834E-2,-2.16215E-2,2.4E-1,1.7957402E-2,3.1400558E-2,-3.5342686E-2,1.3112813E-1,2.0233097E-2,1.1987923E-1,-8.486949E-3,-1.3137165E-2,2.4E-1,6.2337108E-2,-4.247056E-2,-3.277099E-2,7.073705E-2],"categories":[],"categories_nodes":[],"categories_segments":[],"categories_sizes":[],"default_left":[0,0,0,0,0,0,0,0,0,0,0,0,0,0,0,0,0,0,0,0,0,0,0,0,0,0,0,0,0,0,0,0,0,0,0,0,0,0,0,0,0,0,0,0,0,0,0,0,0,0,0,0,0,0,0,0,0,0,0,0,0,0,0,0,0,0,0,0,0,0,0,0,0,0,0,0,0],"id":3,"left_children":[1,3,5,7,9,11,13,15,-1,17,19,-1,21,23,25,27,29,31,33,35,37,39,-1,41,-1,-1,-1,43,-1,45,47,49,51,53,55,-1,57,-1,-1,-1,-1,-1,-1,59,61,-1,63,65,67,69,71,73,-1,75,-1,-1,-1,-1,-1,-1,-1,-1,-1,-1,-1,-1,-1,-1,-1,-1,-1,-1,-1,-1,-1,-1,-1],"loss_changes":[1.6692375E4,5.6646387E2,1.9203426E4,2.0351074E1,3.6175486E3,5.183828E2,8.69016E2,1.5317163E2,0E0,2.1059708E2,2.6072314E2,0E0,1.8357084E1,1.3173218E1,3.587378E1,6.725952E0,1.3408841E2,2.3284932E2,1.2707642E1,5.260547E1,1.0099742E1,1.173557E1,0E0,4.4435883E1,0E0,0E0,0E0,1.0400879E1,0E0,3.4160553E1,1.6522419E1,4.5210938E1,1.4523296E1,5.6657715E0,1.4551257E1,0E0,4.1154785E0,0E0,0E0,0E0,0E0,0E0,0E0,1.8690186E0,8.255125E0,0E0,1.897525E1,7.42523E0,6.612541E0,1.0782623E1,2.4095978E1,1.0216799E1,0E0,1.3474916E1,0E0,0E0,0E0,0E0,0E0,0E0,0E0,0E0,0E0,0E0,0E0,0E0,0E0,0E0,0E0,0E0,0E0,0E0,0E0,0E0,0E0,0E0,0E0],"parents":[2147483647,0,0,1,1,2,2,3,3,4,4,5,5,6,6,7,7,9,9,10,10,12,12,13,13,14,14,15,15,16,16,17,17,18,18,19,19,20,20,21,21,23,23,27,27,29,29,30,30,31,31,32,32,33,33,34,34,36,36,43,43,44,44,46,46,47,47,48,48,49,49,50,50,51,51,53,53],"right_children":[2,4,6,8,10,12,14,16,-1,18,20,-1,22,24,26,28,30,32,34,36,38,40,-1,42,-1,-1,-1,44,-1,46,48,50,52,54,56,-1,58,-1,-1,-1,-1,-1,-1,60,62,-1,64,66,68,70,72,74,-1,76,-1,-1,-1,-1,-1,-1,-1,-1,-1,-1,-1,-1,-1,-1,-1,-1,-1,-1,-1,-1,-1,-1,-1],"split_conditions":[9.0979284E-1,5.0272214E-1,-1.6618052E-2,3.6593235E-1,3.2384425E-2,2.4364756E-1,6.430351E-1,2.26168E-1,-4.53591E-2,2.9090455E-1,2.4364756E-1,2.4E-1,3.2677048E-1,-4.5014117E-2,-1.2023489E-1,8.594663E-2,7.2417185E-2,-1.987082E-1,7.274741E-1,4.085724E-2,-8.201946E-3,-1.3099587E-1,-4.2586215E-2,2.987227E-1,-4.554354E-2,-1.9210951E-2,2.4E-1,-4.5508376E-1,-4.5566395E-2,-1.6376826E-1,2.4920493E-2,2.7062E-1,1.1961794E0,3.3672655E-1,-2.0602727E-1,-1.9589092E-3,3.128222E-1,8.5961804E-2,-4.012871E-2,-2.0715535E-2,1.4336835E-1,2.0417555E-1,-3.9162826E-2,-3.9016324E-1,-1.7786047E-1,-0E0,1.0438421E0,-2.5014052E-1,-1.147036E-1,4.0984803E-1,-7.846286E-2,-8.658107E-2,9.665798E-2,3.9512256E-1,-4.470257E-2,-2.5548054E-2,1.5793353E-1,8.2503654E-2,2.4E-1,-3.963331E-2,-2.1297054E-2,6.81834E-2,-2.16215E-2,2.4E-1,1.7957402E-2,3.1400558E-2,-3.5342686E-2,1.3112813E-1,2.0233097E-2,1.1987923E-1,-8.486949E-3,-1.3137165E-2,2.4E-1,6.2337108E-2,-4.247056E-2,-3.277099E-2,7.073705E-2],"split_indices":[6,12,18,27,20,22,13,12,0,23,22,0,22,23,3,18,17,18,29,26,24,17,0,5,0,0,0,3,0,13,20,3,8,23,13,0,6,0,0,0,0,0,0,0,22,0,0,24,19,27,21,24,0,29,0,0,0,0,0,0,0,0,0,0,0,0,0,0,0,0,0,0,0,0,0,0,0],"split_type":[0,0,0,0,0,0,0,0,0,0,0,0,0,0,0,0,0,0,0,0,0,0,0,0,0,0,0,0,0,0,0,0,0,0,0,0,0,0,0,0,0,0,0,0,0,0,0,0,0,0,0,0,0,0,0,0,0,0,0,0,0,0,0,0,0,0,0,0,0,0,0,0,0,0,0,0,0],"sum_hessian":[2.104421E4,1.6671344E4,4.372867E3,1.4410569E4,2.260775E3,2.1922842E3,2.180583E3,7.5400005E3,6.870569E3,1.9913943E3,2.6938055E2,2.1441487E3,4.8135403E1,2.1304695E3,5.0113495E1,7.434308E3,1.0569263E2,1.2998785E2,1.8614065E3,2.4544757E2,2.3932995E1,7.3174796E0,4.0817924E1,2.200382E1,2.1084656E3,2.9658227E0,4.714767E1,5.917054E3,1.5172539E3,3.1402004E1,7.429063E1,5.2271015E1,7.771684E1,1.8547201E3,6.686392E0,5.5518746E0,2.3989569E2,2.1634347E0,2.176956E1,3.2654338E0,4.052046E0,3.7718136E0,1.8232006E1,5.897274E3,1.9780087E1,5.0400486E0,2.6361956E1,5.954156E1,1.47490635E1,2.6518833E1,2.575218E1,7.447034E1,3.2465043E0,4.6012634E1,1.8087074E3,4.5310698E0,2.155322E0,4.6010466E0,2.3529465E2,5.844942E3,5.2331997E1,8.049217E0,1.1730869E1,2.2870644E1,3.4913123E0,1.0268112E1,4.927345E1,3.9091897E0,1.0839873E1,2.2313187E1,4.2056475E0,2.038228E0,2.3713951E1,3.994092E0,7.047624E1,3.903735E1,6.975284E0],"tree_param":{"num_deleted":"0","num_feature":"32","num_nodes":"77","size_leaf_vector":"1"}},{"base_weights":[-2.992591E-3,-4.7593042E-1,2.4E-1,-4.817473E-1,3E0,-4.884645E-1,1.0908974E0,2.4E-1,-2.8638946E-2,-5.052082E-1,-3.5776302E-1,3E0,-4.092788E-1,-4.2913187E-1,-4.324849E-2,1.8143457E0,-4.9236587E-1,2.4E-1,-1.5625391E-2,-4.004777E-2,2.1614483E-2,-4.4110096E-1,2.6482284E-1,4.0849093E-1,2.4E-1,-4.276313E-2,2.0505284E-1,-3.5452135E-2,-6.6565583E-3,-1.946491E-3,3.5996437E-2,2.4E-1,-2.2874493E-2,9.201061E-2,-3.7621014E-2],"categories":[],"categories_nodes":[],"categories_segments":[],"categories_sizes":[],"default_left":[0,0,0,0,0,0,0,0,0,0,0,0,0,0,0,0,0,0,0,0,0,0,0,0,0,0,0,0,0,0,0,0,0,0,0],"id":4,"left_children":[1,3,-1,5,7,9,11,-1,-1,13,15,17,19,21,-1,23,25,-1,-1,-1,-1,27,29,31,-1,-1,33,-1,-1,-1,-1,-1,-1,-1,-1],"loss_changes":[3.1392223E4,2.972959E2,0E0,1.4041919E2,8.05132E1,2.7972656E1,2.5717313E2,0E0,0E0,3.0476318E1,4.403238E2,3.0268433E1,3.0791445E0,3.1072388E1,0E0,2.7173532E2,4.1874725E1,0E0,0E0,0E0,0E0,2.194519E0,3.694243E0,1.2825665E2,0E0,0E0,5.4562557E1,0E0,0E0,0E0,0E0,0E0,0E0,0E0,0E0],"parents":[2147483647,0,0,1,1,3,3,4,4,5,5,6,6,9,9,10,10,11,11,12,12,13,13,15,15,16,16,21,21,22,22,23,23,26,26],"right_children":[2,4,-1,6,8,10,12,-1,-1,14,16,18,20,22,-1,24,26,-1,-1,-1,-1,28,30,32,-1,-1,34,-1,-1,-1,-1,-1,-1,-1,-1],"split_conditions":[1.2945166E0,1.243571E0,2.4E-1,1.1519711E0,2.074654E0,5.753009E-1,6.5552485E-1,2.4E-1,-2.8638946E-2,-6.792148E-1,7.286882E-1,7.5185245E-1,4.2497998E-1,-8.676525E-1,-4.324849E-2,-8.5117556E-2,2.084163E-2,2.4E-1,-1.5625391E-2,-4.004777E-2,2.1614483E-2,-6.2767625E-1,-9.2109114E-1,-4.4307178E-1,2.4E-1,-4.276313E-2,1.3551112E-1,-3.5452135E-2,-6.6565583E-3,-1.946491E-3,3.5996437E-2,2.4E-1,-2.2874493E-2,9.201061E-2,-3.7621014E-2],"split_indices":[4,13,0,4,0,15,5,0,0,1,5,1,0,3,0,10,22,0,0,0,0,13,10,1,0,0,1,0,0,0,0,0,0,0,0],"split_type":[0,0,0,0,0,0,0,0,0,0,0,0,0,0,0,0,0,0,0,0,0,0,0,0,0,0,0,0,0,0,0,0,0,0,0],"sum_hessian":[1.4142303E4,1.3154875E4,9.8742834E2,1.3136978E4,1.7896942E1,1.3082794E4,5.4183754E1,1.1325235E1,6.571706E0,1.1588659E4,1.4941351E3,1.5302385E1,3.8881367E1,3.6927268E3,7.895932E3,8.5513664E1,1.4086215E3,1.274089E1,2.5614953E0,3.5387684E1,3.493685E0,3.6315405E3,6.118637E1,5.9804344E1,2.570932E1,1.3294152E3,7.920633E1,3.6089878E3,2.255267E1,2.3507298E1,3.7679077E1,1.0342015E1,4.946233E1,3.2732525E1,4.6473804E1],"tree_param":{"num_deleted":"0","num_feature":"32","num_nodes":"35","size_leaf_vector":"1"}},{"base_weights":[-9.35701E-4,-4.8667362E-1,3E0,2.4E-1,-4.9258828E-1,3E0,-2.7930655E-2,-4.9879453E-1,9.188207E-1,1.6651893E-2,2.4E-1,-3.0947546E-2,-5.402332E-1,-2.6779738E-1,2.238448E0,-4.3538306E-2,-4.892385E-1,4.6355134E-1,-3.8830508E-2,3E0,-3.2474E-2,1.1765896E0,-5.091773E-1,-2.1542797E-2,1.08515315E-1,2.4E-1,-1.9389149E-3,-1.6015919E-2,1.4992312E-1,-3.0331586E-3,-4.273817E-2],"categories":[],"categories_nodes":[],"categories_segments":[],"categories_sizes":[],"default_left":[0,0,0,0,0,0,0,0,0,0,0,0,0,0,0,0,0,0,0,0,0,0,0,0,0,0,0,0,0,0,0],"id":5,"left_children":[1,3,5,-1,7,9,-1,11,13,-1,-1,-1,15,17,19,-1,21,23,-1,25,-1,27,29,-1,-1,-1,-1,-1,-1,-1,-1],"loss_changes":[3.2766281E4,3.4302124E2,7.5041016E1,0E0,1.1953076E2,2.2679688E1,0E0,6.1601562E1,9.632489E1,0E0,0E0,0E0,1.1696777E0,6.2375593E0,1.014274E2,0E0,2.6412018E1,7.4597087E0,0E0,4.4444077E1,0E0,1.060218E1,8.140091E0,0E0,0E0,0E0,0E0,0E0,0E0,0E0,0E0],"parents":[2147483647,0,0,1,1,2,2,4,4,5,5,7,7,8,8,12,12,13,13,14,14,16,16,17,17,19,19,21,21,22,22],"right_children":[2,4,6,-1,8,10,-1,12,14,-1,-1,-1,16,18,20,-1,22,24,-1,26,-1,28,30,-1,-1,-1,-1,-1,-1,-1,-1],"split_conditions":[1.4531695E0,-9.021205E-1,2.8244635E-1,2.4E-1,1.0794364E0,1.6535151E-1,-2.7930655E-2,-7.332439E-1,6.227871E-1,1.6651893E-2,2.4E-1,-3.0947546E-2,5.726348E-1,-9.294891E-2,1.6573392E-1,-4.3538306E-2,-4.6248555E-1,-2.099589E-1,-3.8830508E-2,1.21551864E-1,-3.2474E-2,-9.3555264E-2,-1.0820199E-1,-2.1542797E-2,1.08515315E-1,2.4E-1,-1.9389149E-3,-1.6015919E-2,1.4992312E-1,-3.0331586E-3,-4.273817E-2],"split_indices":[0,4,20,0,0,27,0,23,5,0,0,0,0,20,6,0,25,22,0,20,0,10,10,0,0,0,0,0,0,0,0],"split_type":[0,0,0,0,0,0,0,0,0,0,0,0,0,0,0,0,0,0,0,0,0,0,0,0,0,0,0,0,0,0,0],"sum_hessian":[1.458663E4,1.3501729E4,1.0849016E3,1.6082329E1,1.34856455E4,1.0787716E3,6.129915E0,1.3428247E4,5.7399105E1,3.769461E0,1.0750022E3,3.6365444E3,9.791702E3,3.0862535E1,2.653657E1,9.053197E3,7.3850525E2,6.0312595E0,2.4831276E1,1.7077473E1,9.459098E0,7.0660024E0,7.314393E2,3.772137E0,2.2591228E0,1.2416659E1,4.6608133E0,2.6143E0,4.451702E0,3.8178265E1,6.93261E2],"tree_param":{"num_deleted":"0","num_feature":"32","num_nodes":"31","size_leaf_vector":"1"}},{"base_weights":[-1.1032345E-3,-3.5699955E-1,2.04312E0,-1.2912174E-1,-5.940737E-1,-4.7910504E-2,2.3884435E-1,-2.2948337E-1,2.8497531E0,-5.2115434E-1,-4.786776E-2,-7.465965E-2,-5.9455913E-1,-3.3905637E-2,2.3735109E-1,-4.711596E-2,1.2781951E0,-8.420871E-2,1.4319593E0,-4.773821E-2,7.051726E-2,-3.5685804E-2,1.9361962E-1,-7.047785E-2,-3.0129135E-1,2.395962E0,-4.05242E-2,-6.153356E-3,1.16196886E-1,6.969372E-2,-2.5442071E-2,8.370298E-2,2.1371508E-1],"categories":[],"categories_nodes":[],"categories_segments":[],"categories_sizes":[],"default_left":[0,0,0,0,0,0,0,0,0,0,0,0,0,0,0,0,0,0,0,0,0,0,0,0,0,0,0,0,0,0,0,0,0],"id":6,"left_children":[1,3,5,7,9,-1,-1,11,13,15,-1,17,19,-1,-1,-1,21,23,25,-1,-1,-1,-1,27,29,31,-1,-1,-1,-1,-1,-1,-1],"loss_changes":[1.9673287E4,1.2438335E3,9.987879E3,3.5146082E3,2.5612793E0,0E0,0E0,6.4230396E2,1.4970068E2,8.1139435E1,0E0,1.1583731E2,1.2325073E1,0E0,0E0,0E0,5.105214E1,2.3672352E1,9.768747E1,0E0,0E0,0E0,0E0,7.420021E1,1.0223381E1,5.3009644E0,0E0,0E0,0E0,0E0,0E0,0E0,0E0],"parents":[2147483647,0,0,1,1,2,2,3,3,4,4,7,7,8,8,9,9,11,11,12,12,16,16,17,17,18,18,23,23,24,24,25,25],"right_children":[2,4,6,8,10,-1,-1,12,14,16,-1,18,20,-1,-1,-1,22,24,26,-1,-1,-1,-1,28,30,32,-1,-1,-1,-1,-1,-1,-1],"split_conditions":[9.794911E-1,-7.640239E-2,2.0590219E-1,5.4243314E-1,8.594663E-2,-4.7910504E-2,2.3884435E-1,5.742977E-1,2.9484615E-1,8.826507E-1,-4.786776E-2,2.4927023E-1,6.227945E-1,-3.3905637E-2,2.3735109E-1,-4.711596E-2,-2.339222E-2,3.1867886E-1,2.4364756E-1,-4.773821E-2,7.051726E-2,-3.5685804E-2,1.9361962E-1,6.954408E-1,-4.4004864E-1,8.528802E-1,-4.05242E-2,-6.153356E-3,1.16196886E-1,6.969372E-2,-2.5442071E-2,8.370298E-2,2.1371508E-1],"split_indices":[19,18,7,19,18,0,0,1,11,11,0,19,11,0,0,0,16,21,22,0,0,0,0,11,5,11,0,0,0,0,0,0,0],"split_type":[0,0,0,0,0,0,0,0,0,0,0,0,0,0,0,0,0,0,0,0,0,0,0,0,0,0,0,0,0,0,0,0,0],"sum_hessian":[2.7035008E4,2.3027797E4,4.0072112E3,1.1744284E4,1.1283513E4,1.0536447E3,2.9535664E3,1.136345E4,3.808336E2,6.4473267E2,1.063878E4,7.9821196E3,3.3813308E3,1.2827931E1,3.6800568E2,6.22887E2,2.1845627E1,7.934053E3,4.80665E1,3.3778984E3,3.4323854E0,9.015315E0,1.2830312E1,7.466722E3,4.6733078E2,3.1959385E1,1.6107117E1,7.4375034E3,2.9218992E1,4.7189E0,4.626119E2,7.351676E0,2.460771E1],"tree_param":{"num_deleted":"0","num_feature":"32","num_nodes":"33","size_leaf_vector":"1"}},{"base_weights":[-6.1455923E-3,-4.2080826E-1,3E0,-1.649868E-1,-5.1194924E-1,2.4E-1,-3.674331E-2,-1.2987556E-2,-3.527941E-2,-4.1449897E-2,-4.026686E-1,-4.1669272E-2,2.4E-1],"categories":[],"categories_nodes":[],"categories_segments":[],"categories_sizes":[],"default_left":[0,0,0,0,0,0,0,0,0,0,0,0,0],"id":7,"left_children":[1,3,5,7,9,-1,-1,-1,-1,-1,11,-1,-1],"loss_changes":[1.9479238E4,1.989292E2,2.649043E2,1.5525055E0,3.5280762E0,0E0,0E0,0E0,0E0,0E0,2.1935483E2,0E0,0E0],"parents":[2147483647,0,0,1,1,2,2,3,3,4,4,10,10],"right_children":[2,4,6,8,10,-1,-1,-1,-1,-1,12,-1,-1],"split_conditions":[1.173291E0,-7.332439E-1,1.01761326E-1,-4.7024658E-1,1.095402E0,2.4E-1,-3.674331E-2,-1.2987556E-2,-3.527941E-2,-4.1449897E-2,1.16533846E-1,-4.1669272E-2,2.4E-1],"split_indices":[9,23,2,30,18,0,0,0,0,0,12,0,0],"split_type":[0,0,0,0,0,0,0,0,0,0,0,0,0],"sum_hessian":[8.914218E3,8.549743E3,3.6447433E2,2.248786E3,6.300958E3,3.4299725E2,2.1477089E1,2.2324019E3,1.6384005E1,5.95257E3,3.4838824E2,3.4441132E2,3.9769237E0],"tree_param":{"num_deleted":"0","num_feature":"32","num_nodes":"13","size_leaf_vector":"1"}},{"base_weights":[-3.5705422E-3,8.6982346E-1,-7.236467E-1,9.307429E-1,-7.0560706E-1,-2.5179747E-1,-7.3112506E-1,7.221797E-1,1.3073866E0,-5.7849888E-2,3.7961897E-1,1.2585416E0,-7.1095294E-1,-7.327701E-1,-3.8343343E-1,7.2945476E-1,-1.5393363E-1,1.088647E0,1.0665127E-1,5.469726E-2,-1.582937E-2,-0E0,1.0382691E-1,1.28781805E-2,-5.7743944E-2,6.1252035E-2,-7.330587E-1,1.044293E-1,-5.7315458E-2,-3.390888E-1,7.342293E-1,4.6110883E-2,-5.0833877E-2,1.1782426E0,5.0410247E-1,-5.454143E-1,-5.8726497E-2,-4.139294E-2,-7.257564E-2,7.1922374E-1,9.9339646E-1,-7.52801E-2,5.2113906E-2,6.4749706E-1,9.552769E-2,6.842572E-1,-2.0720473E-1,9.11871E-2,-5.8184512E-2,1.686397E-2,-3.153167E-2,5.7804484E-2,2.7951548E-2,3.8004298E-2,8.276532E-2,-1.2547793E-2,5.4913882E-2,6.7386195E-2,-1.800738E-2,-3.299654E-3,6.799338E-2,-3.9661083E-2,4.4068016E-2],"categories":[],"categories_nodes":[],"categories_segments":[],"categories_sizes":[],"default_left":[0,0,0,0,0,0,0,0,0,0,0,0,0,0,0,0,0,0,0,0,0,0,0,0,0,0,0,0,0,0,0,0,0,0,0,0,0,0,0,0,0,0,0,0,0,0,0,0,0,0,0,0,0,0,0,0,0,0,0,0,0,0,0],"id":8,"left_children":[1,3,5,7,9,11,13,15,17,-1,19,21,23,25,27,29,31,33,-1,-1,-1,-1,-1,-1,-1,-1,35,-1,-1,37,39,41,-1,43,45,47,-1,-1,49,51,53,55,-1,57,-1,59,61,-1,-1,-1,-1,-1,-1,-1,-1,-1,-1,-1,-1,-1,-1,-1,-1],"loss_changes":[2.7237479E4,1.8799365E3,8.27959E1,1.4778633E3,1.463028E1,2.6276797E2,1.2261719E1,7.7640625E1,3.415918E1,0E0,3.0109646E0,3.5211334E0,3.059204E0,1.1561523E1,6.806343E1,6.2066406E1,1.0532074E1,3.572638E1,0E0,0E0,0E0,0E0,0E0,0E0,0E0,0E0,3.2001953E0,0E0,0E0,2.298161E0,4.4918457E1,6.3698444E0,0E0,2.8410645E0,1.3461981E1,4.432109E1,0E0,0E0,3.0567174E0,1.292041E1,1.2124084E1,4.500747E0,0E0,4.749527E0,0E0,1.0044891E1,5.8846908E0,0E0,0E0,0E0,0E0,0E0,0E0,0E0,0E0,0E0,0E0,0E0,0E0,0E0,0E0,0E0,0E0],"parents":[2147483647,0,0,1,1,2,2,3,3,4,4,5,5,6,6,7,7,8,8,10,10,11,11,12,12,13,13,14,14,15,15,16,16,17,17,26,26,29,29,30,30,31,31,33,33,34,34,35,35,38,38,39,39,40,40,41,41,43,43,45,45,46,46],"right_children":[2,4,6,8,10,12,14,16,18,-1,20,22,24,26,28,30,32,34,-1,-1,-1,-1,-1,-1,-1,-1,36,-1,-1,38,40,42,-1,44,46,48,-1,-1,50,52,54,56,-1,58,-1,60,62,-1,-1,-1,-1,-1,-1,-1,-1,-1,-1,-1,-1,-1,-1,-1,-1],"split_conditions":[-4.7654605E-1,1.1802632E-1,-4.110943E-1,1.9290106E-1,1.0827156E0,-9.280341E-2,9.8083115E-1,-5.860888E-1,-1.987082E-1,-5.7849888E-2,3.6617503E-2,-7.455268E-2,-9.778499E-2,-7.055843E-1,-1.5860704E-1,-9.0727466E-1,-4.2094392E-1,-5.68259E-1,1.0665127E-1,5.469726E-2,-1.582937E-2,-0E0,1.0382691E-1,1.28781805E-2,-5.7743944E-2,6.1252035E-2,-5.860888E-1,1.044293E-1,-5.7315458E-2,-4.5058262E-1,-5.881106E-1,-4.149611E-1,-5.0833877E-2,2.6786366E-1,-3.7852538E-1,2.931483E-1,-5.8726497E-2,-4.139294E-2,-4.099347E-1,-7.9022366E-1,1.1986246E0,6.909188E-1,5.2113906E-2,6.7646635E-1,9.552769E-2,3.5875243E-1,-2.8902143E-1,9.11871E-2,-5.8184512E-2,1.686397E-2,-3.153167E-2,5.7804484E-2,2.7951548E-2,3.8004298E-2,8.276532E-2,-1.2547793E-2,5.4913882E-2,6.7386195E-2,-1.800738E-2,-3.299654E-3,6.799338E-2,-3.9661083E-2,4.4068016E-2],"split_indices":[3,8,3,31,28,25,31,25,18,0,25,20,16,10,26,17,25,16,0,0,0,0,0,0,0,0,25,0,0,30,21,26,0,21,14,3,0,0,30,14,28,30,0,11,0,31,22,0,0,0,0,0,0,0,0,0,0,0,0,0,0,0,0],"split_type":[0,0,0,0,0,0,0,0,0,0,0,0,0,0,0,0,0,0,0,0,0,0,0,0,0,0,0,0,0,0,0,0,0,0,0,0,0,0,0,0,0,0,0,0,0,0,0,0,0,0,0,0,0,0,0,0,0,0,0,0,0,0,0],"sum_hessian":[4.3302598E4,1.956759E4,2.373501E4,1.8840203E4,7.273859E2,3.7243082E2,2.3362578E4,1.2130311E4,6.7098936E3,7.169419E2,1.0444027E1,8.576052E1,2.8667032E2,2.3248928E4,1.1365134E2,1.2031312E4,9.899922E1,7.1795953E2,5.991934E3,7.167586E0,3.276441E0,2.7930942E0,8.296743E1,2.6157086E0,2.840546E2,3.1219144E0,2.3245807E4,1.7510204E1,9.6141136E1,5.2432026E1,1.1978879E4,7.04849E1,2.8514326E1,6.2003723E2,9.7922295E1,1.3442953E2,2.3111377E4,2.9161362E1,2.3270664E1,1.13322295E4,6.4665015E2,5.9481564E1,1.1003334E1,2.1325712E1,5.9871155E2,7.875483E1,1.9167469E1,1.1801854E1,1.22627686E2,1.19096575E1,1.1361006E1,1.1227802E4,1.0442758E2,5.0320675E1,5.9632947E2,5.575555E1,3.7260137E0,1.7958364E1,3.3673482E0,1.4358042E1,6.439679E1,1.4861812E1,4.3056564E0],"tree_param":{"num_deleted":"0","num_feature":"32","num_nodes":"63","size_leaf_vector":"1"}},{"base_weights":[1.1452059E-2,-3.4538272E-1,3E0,-5.0588703E-1,-2.4411978E-2,-3.9482202E-2,2.4E-1,-5.152183E-1,2.4E-1,-8.212306E-2,3E0,-4.135287E-2,2.5419894E-1,2.4765117E-2,-4.1302953E-2,-2.0034768E-2,2.4E-1,-2.7440839E-2,1.2115751E-1,3.1712E-3,3E0,-3.472234E-2,6.2040717E-4,3.8302276E-2,2.4E-1],"categories":[],"categories_nodes":[],"categories_segments":[],"categories_sizes":[],"default_left":[0,0,0,0,0,0,0,0,0,0,0,0,0,0,0,0,0,0,0,0,0,0,0,0,0],"id":9,"left_children":[1,3,5,7,9,-1,-1,11,-1,13,15,-1,17,19,-1,-1,-1,-1,-1,21,23,-1,-1,-1,-1],"loss_changes":[1.2745425E4,3.546236E2,6.889658E2,2.2496484E2,6.2784314E2,0E0,0E0,6.3657227E0,0E0,1.0660469E2,4.4065613E1,0E0,1.1199398E1,1.6159332E2,0E0,0E0,0E0,0E0,0E0,3.8902805E0,6.2108765E0,0E0,0E0,0E0,0E0],"parents":[2147483647,0,0,1,1,2,2,3,3,4,4,7,7,9,9,10,10,12,12,13,13,19,19,20,20],"right_children":[2,4,6,8,10,-1,-1,12,-1,14,16,-1,18,20,-1,-1,-1,-1,-1,22,24,-1,-1,-1,-1],"split_conditions":[1.8560745E0,6.689911E-1,5.05058E-1,2.0146208E0,2.2916214E-1,-3.9482202E-2,2.4E-1,1.588168E0,2.4E-1,-1.2171505E-1,7.852055E-1,-4.135287E-2,1.2621589E0,7.2108215E-1,-4.1302953E-2,-2.0034768E-2,2.4E-1,-2.7440839E-2,1.2115751E-1,1.5654912E0,-2.2132374E-1,-3.472234E-2,6.2040717E-4,3.8302276E-2,2.4E-1],"split_indices":[3,28,2,19,19,0,0,23,0,30,2,0,3,0,0,0,0,0,0,28,24,0,0,0,0],"split_type":[0,0,0,0,0,0,0,0,0,0,0,0,0,0,0,0,0,0,0,0,0,0,0,0,0],"sum_hessian":[7.201959E3,6.886986E3,3.1497348E2,4.589337E3,2.297649E3,5.576227E1,2.592112E2,4.584676E3,4.661181E0,2.280318E3,1.7330683E1,4.5759155E3,8.760093E0,1.8304164E3,4.499018E2,3.7087858E0,1.3621897E1,6.6620393E0,2.0980535E0,1.8241051E3,6.31129E0,1.5850734E1,1.8082544E3,2.4414124E0,3.8698773E0],"tree_param":{"num_deleted":"0","num_feature":"32","num_nodes":"25","size_leaf_vector":"1"}},{"base_weights":[2.1456943E-3,-3.751912E-1,3E0,-4.8597828E-1,4.0678877E-1,-4.3779757E-2,3E0,-5.512808E-1,-3.7247264E-1,-5.1889724E-1,2.9167733E0,1.0563872E-2,2.4E-1,3.6242956E-1,-5.5415004E-1,-3.9375523E-1,7.7085906E-1,-5.4742867E-1,8.406872E-1,8.949843E-1,3E0,1.7239416E-1,-3.5873037E-2,-5.622525E-1,-4.637932E-1,-3.991411E-1,-4.041197E-3,-7.594794E-2,1.2617776E0,-5.655333E-1,3.1223348E-1,-5.7883557E-2,1.8591375E0,2.2229395E0,-3.7979764E-1,-1.2694491E-2,3E0,-4.513498E-2,-4.5661247E-1,9.802551E-1,-5.30343E-1,-3.8954148E-1,-5.431729E-1,1.1921772E0,-2.6016805E-1,2.4984738E-1,-3.8838904E-2,1.3888266E0,-2.5637321E-2,-4.5366365E-2,1.0717068E-2,-3.9658308E-2,1.5583669E0,9.616676E-2,-3.787207E-2,-2.065894E-2,1.9600141E-1,8.077767E-2,2.1237254E-1,1.3186229E-2,-3.6666658E-2,2.4E-1,-0E0,-4.0675666E-2,4.5451224E-2,1.4355816E-1,-3.0944489E-2,-1.7252432E-2,-4.4941425E-2,2.005015E-2,-3.13118E-2,9.267716E-3,-4.40157E-2,3.358834E-2,1.289147E-1,4.139437E-3,-4.2155452E-2,-4.914094E-3,1.1656119E-1,7.6207705E-2,1.5291703E-1,1.7581248E-1,-2.1171898E-2,3.7636757E-2,-1.6529199E-2],"categories":[],"categories_nodes":[],"categories_segments":[],"categories_sizes":[],"default_left":[0,0,0,0,0,0,0,0,0,0,0,0,0,0,0,0,0,0,0,0,0,0,0,0,0,0,0,0,0,0,0,0,0,0,0,0,0,0,0,0,0,0,0,0,0,0,0,0,0,0,0,0,0,0,0,0,0,0,0,0,0,0,0,0,0,0,0,0,0,0,0,0,0,0,0,0,0,0,0,0,0,0,0,0,0],"id":10,"left_children":[1,3,5,7,9,-1,11,13,15,17,19,-1,-1,21,23,25,27,29,31,33,35,-1,-1,37,39,41,43,45,47,49,51,53,55,57,59,-1,61,-1,63,65,67,69,71,73,75,77,-1,79,-1,-1,-1,-1,81,-1,-1,-1,-1,83,-1,-1,-1,-1,-1,-1,-1,-1,-1,-1,-1,-1,-1,-1,-1,-1,-1,-1,-1,-1,-1,-1,-1,-1,-1,-1,-1],"loss_changes":[2.374263E4,1.6029539E3,1.0994121E3,1.1940283E2,5.34058E3,0E0,1.4361328E1,2.7530273E1,1.4521014E2,6.649707E1,2.1018164E2,0E0,0E0,5.25685E1,6.661621E0,1.1821472E1,4.6084084E1,2.6149109E1,3.3738125E1,9.4012184E1,5.3566406E1,0E0,0E0,1.0705566E0,8.4245346E1,7.378662E0,2.691052E1,6.497866E0,1.5149719E1,1.9658813E0,3.8560566E1,1.2956788E1,2.3167042E1,2.217128E1,1.5782046E0,0E0,1.8520996E1,0E0,1.071241E1,4.537241E1,7.493805E0,6.7285156E0,1.8170319E0,2.5960274E0,6.3074512E0,1.091296E1,0E0,1.0461395E1,0E0,0E0,0E0,0E0,1.899012E1,0E0,0E0,0E0,0E0,1.6339997E0,0E0,0E0,0E0,0E0,0E0,0E0,0E0,0E0,0E0,0E0,0E0,0E0,0E0,0E0,0E0,0E0,0E0,0E0,0E0,0E0,0E0,0E0,0E0,0E0,0E0,0E0,0E0],"parents":[2147483647,0,0,1,1,2,2,3,3,4,4,6,6,7,7,8,8,9,9,10,10,13,13,14,14,15,15,16,16,17,17,18,18,19,19,20,20,23,23,24,24,25,25,26,26,27,27,28,28,29,29,30,30,31,31,32,32,33,33,34,34,36,36,38,38,39,39,40,40,41,41,42,42,43,43,44,44,45,45,47,47,52,52,57,57],"right_children":[2,4,6,8,10,-1,12,14,16,18,20,-1,-1,22,24,26,28,30,32,34,36,-1,-1,38,40,42,44,46,48,50,52,54,56,58,60,-1,62,-1,64,66,68,70,72,74,76,78,-1,80,-1,-1,-1,-1,82,-1,-1,-1,-1,84,-1,-1,-1,-1,-1,-1,-1,-1,-1,-1,-1,-1,-1,-1,-1,-1,-1,-1,-1,-1,-1,-1,-1,-1,-1,-1,-1],"split_conditions":[9.655459E-1,1.2846904E-1,-1.3134225E-1,8.9984256E-1,3.774226E-1,-4.3779757E-2,1.3369043E-2,-6.3834995E-1,-2.586903E-1,1.0033888E0,2.4364756E-1,1.0563872E-2,2.4E-1,7.5185245E-1,6.652704E-1,-4.8248634E-1,1.1785571E-1,2.3378636E-1,2.288612E-1,4.8816685E-2,1.16533846E-1,1.7239416E-1,-3.5873037E-2,-3.1360142E-2,4.4514632E-1,-4.867893E-1,1.5304805E-1,4.6087745E-1,6.5200657E-1,6.221153E-1,4.843382E-1,8.162439E-1,8.934746E-2,-6.4048216E-2,1.4579502E-1,-1.2694491E-2,2.6219416E-1,-4.513498E-2,3.6165372E-1,-8.729512E-2,4.6833053E-1,-9.0892625E-1,-5.267415E-1,-6.13489E-1,-2.2228162E-1,2.251383E-1,-3.8838904E-2,-2.465499E-1,-2.5637321E-2,-4.5366365E-2,1.0717068E-2,-3.9658308E-2,1.0219989E0,9.616676E-2,-3.787207E-2,-2.065894E-2,1.9600141E-1,6.861951E-1,2.1237254E-1,1.3186229E-2,-3.6666658E-2,2.4E-1,-0E0,-4.0675666E-2,4.5451224E-2,1.4355816E-1,-3.0944489E-2,-1.7252432E-2,-4.4941425E-2,2.005015E-2,-3.13118E-2,9.267716E-3,-4.40157E-2,3.358834E-2,1.289147E-1,4.139437E-3,-4.2155452E-2,-4.914094E-3,1.1656119E-1,7.6207705E-2,1.5291703E-1,1.7581248E-1,-2.1171898E-2,3.7636757E-2,-1.6529199E-2],"split_indices":[21,22,22,28,21,0,12,15,4,28,22,0,0,1,30,4,7,21,26,20,12,0,0,22,31,19,31,12,7,12,3,4,1,16,26,0,20,0,29,20,2,2,5,10,20,14,0,22,0,0,0,0,4,0,0,0,0,15,0,0,0,0,0,0,0,0,0,0,0,0,0,0,0,0,0,0,0,0,0,0,0,0,0,0,0],"split_type":[0,0,0,0,0,0,0,0,0,0,0,0,0,0,0,0,0,0,0,0,0,0,0,0,0,0,0,0,0,0,0,0,0,0,0,0,0,0,0,0,0,0,0,0,0,0,0,0,0,0,0,0,0,0,0,0,0,0,0,0,0,0,0,0,0,0,0,0,0,0,0,0,0,0,0,0,0,0,0,0,0,0,0,0,0],"sum_hessian":[2.0797396E4,1.8491918E4,2.305479E3,1.6198403E4,2.2935137E3,8.664086E1,2.2188381E3,1.0274894E4,5.9235103E3,1.6765769E3,6.169367E2,2.465646E0,2.2163726E3,3.0834639E1,1.0244059E4,5.8169785E3,1.0653174E2,1.6436469E3,3.2930115E1,5.1248463E1,5.6568823E2,8.763307E0,2.2071331E1,9.386385E3,8.576742E2,5.7363696E3,8.060854E1,3.934166E1,6.719008E1,1.6109851E3,3.2661743E1,1.8236013E1,1.4694102E1,2.4564255E1,2.6684208E1,5.006705E0,5.606816E2,9.2043955E3,1.8198933E2,3.624434E1,8.214299E2,5.388135E3,3.4823492E2,1.2582348E1,6.80262E1,2.1665405E1,1.7676256E1,6.271478E1,4.475298E0,1.6085226E3,2.4624426E0,2.0301731E1,1.2360012E1,3.2851639E0,1.4950849E1,3.2669532E0,1.1427149E1,4.7126555E0,1.98516E1,2.283641E0,2.4400568E1,5.5846783E2,2.2137127E0,1.7465085E2,7.3384833E0,2.2552504E1,1.3691835E1,7.745302E1,7.439768E2,1.4022691E1,5.3741123E3,2.5946696E0,3.4564026E2,6.255104E0,6.327244E0,3.1239317E1,3.678688E1,1.8403912E1,3.261493E0,3.778157E1,2.493321E1,9.049739E0,3.3102736E0,2.1980581E0,2.5145974E0],"tree_param":{"num_deleted":"0","num_feature":"32","num_nodes":"85","size_leaf_vector":"1"}},{"base_weights":[9.2251296E-4,-4.5006174E-1,1.5186998E0,-5.282265E-1,-1.903608E-1,3E0,-4.653899E-1,-4.8196572E-1,-4.512818E-2,2.0543764E0,-4.8507926E-1,3E0,-2.4196817E-1,2.3627019E-1,-5.486752E-1,-4.8568892E-1,3.2809025E-1,1.7718607E-1,2.8907719E0,4.3521515E-1,-5.2567446E-1,2.4E-1,3.5897514E-1,7.972594E-1,-4.2021718E-2,6.5781736E-1,-4.532096E-2,-3.9538343E-2,-3.58592E-1,1.4574276E-1,-4.61638E-2,9.80788E-1,-3.6862814E-1,2.9849052E0,-3.2355145E-2,2.1494415E0,-4.2149603E-1,-3.27547E-1,-5.597615E-1,8.0519E-2,-2.002486E-2,1.2765886E-1,-2.3195053E-2,2.0874855E-1,-3.9193656E-2,-1.7655592E-2,-3.3392325E-2,3.2604914E-2,-2.1008228E-1,1.5972737E0,1.5134647E-1,-4.4967052E-1,4.1658172E-1,1.0506687E0,3E0,6.089425E-1,2.324283E-1,-4.285481E-2,7.640654E-1,1.6357663E0,-5.214585E-1,-3.150039E-1,-5.646925E-1,7.6676887E-3,-2.8882423E-2,-2.068743E-2,1.4719793E-1,3.8058706E-2,-2.5543565E-2,2.2378465E-2,-3.9604872E-2,6.568762E-2,-1.5744412E-2,1.6289543E-1,-1.1129159E-2,2.4E-1,7.085152E-2,9.189621E-2,-2.8757589E-2,-6.65911E-3,1.2653513E-1,-2.59773E-2,1.7969814E-1,3.216635E-2,-4.3051474E-2,5.6837033E-2,-3.757889E-2,-4.524994E-2,-0E0],"categories":[],"categories_nodes":[],"categories_segments":[],"categories_sizes":[],"default_left":[0,0,0,0,0,0,0,0,0,0,0,0,0,0,0,0,0,0,0,0,0,0,0,0,0,0,0,0,0,0,0,0,0,0,0,0,0,0,0,0,0,0,0,0,0,0,0,0,0,0,0,0,0,0,0,0,0,0,0,0,0,0,0,0,0,0,0,0,0,0,0,0,0,0,0,0,0,0,0,0,0,0,0,0,0,0,0,0,0],"id":11,"left_children":[1,3,5,7,9,11,13,15,-1,17,19,21,23,-1,25,27,29,31,33,35,37,-1,39,41,-1,43,-1,-1,45,-1,47,49,51,53,-1,55,57,59,61,-1,-1,-1,-1,-1,-1,-1,-1,-1,63,65,67,69,71,73,75,77,-1,-1,79,81,83,85,87,-1,-1,-1,-1,-1,-1,-1,-1,-1,-1,-1,-1,-1,-1,-1,-1,-1,-1,-1,-1,-1,-1,-1,-1,-1,-1],"loss_changes":[1.4384131E4,3.2828296E2,1.4887996E4,1.9845459E1,2.4855679E3,4.740078E2,6.085751E2,1.6945923E1,0E0,6.8136926E2,1.2470471E2,2.8416016E1,1.5394576E1,0E0,4.568506E1,5.2407227E0,1.6711954E1,6.2019657E1,9.613403E1,2.1131657E2,2.0761414E1,0E0,4.459712E0,1.1303663E1,0E0,7.4491875E1,0E0,0E0,2.4603348E0,0E0,2.2652886E0,2.7637184E1,5.9493E0,4.3607178E1,0E0,5.022406E1,1.4277998E1,1.8315504E2,2.5125122E0,0E0,0E0,0E0,0E0,0E0,0E0,0E0,0E0,0E0,1.1919212E0,1.5705833E1,4.995804E0,3.0093193E0,3.0559735E0,2.2202894E1,1.0592529E1,1.1412249E1,0E0,0E0,7.63826E0,5.3797905E1,7.328903E0,1.0775238E1,1.1035156E0,0E0,0E0,0E0,0E0,0E0,0E0,0E0,0E0,0E0,0E0,0E0,0E0,0E0,0E0,0E0,0E0,0E0,0E0,0E0,0E0,0E0,0E0,0E0,0E0,0E0,0E0],"parents":[2147483647,0,0,1,1,2,2,3,3,4,4,5,5,6,6,7,7,9,9,10,10,11,11,12,12,14,14,15,15,16,16,17,17,18,18,19,19,20,20,22,22,23,23,25,25,28,28,30,30,31,31,32,32,33,33,35,35,36,36,37,37,38,38,48,48,49,49,50,50,51,51,52,52,53,53,54,54,55,55,58,58,59,59,60,60,61,61,62,62],"right_children":[2,4,6,8,10,12,14,16,-1,18,20,22,24,-1,26,28,30,32,34,36,38,-1,40,42,-1,44,-1,-1,46,-1,48,50,52,54,-1,56,58,60,62,-1,-1,-1,-1,-1,-1,-1,-1,-1,64,66,68,70,72,74,76,78,-1,-1,80,82,84,86,88,-1,-1,-1,-1,-1,-1,-1,-1,-1,-1,-1,-1,-1,-1,-1,-1,-1,-1,-1,-1,-1,-1,-1,-1,-1,-1],"split_conditions":[9.0979284E-1,-2.4349883E-2,-1.6618052E-2,2.5564837E-1,-2.643245E-1,2.4364756E-1,-2.4612722E-1,2.4471425E-1,-4.512818E-2,3.7002647E-1,-1.3933711E-1,4.664615E-2,3.2677048E-1,2.3627019E-1,-4.5014117E-2,-6.7977384E-2,1.8433404E-1,1.9557816E-1,2.4364756E-1,-8.658107E-2,1.376013E-1,2.4E-1,2.987227E-1,1.3345796E0,-4.2021718E-2,2.1207968E-2,-4.532096E-2,-3.9538343E-2,-8.3045036E-1,1.4574276E-1,-4.9222505E-1,-3.1255177E-1,5.650329E-1,-7.983411E-2,-3.2355145E-2,3.9072603E-1,3.0553222E-1,5.844208E-1,-6.165514E-3,8.0519E-2,-2.002486E-2,1.2765886E-1,-2.3195053E-2,2.0874855E-1,-3.9193656E-2,-1.7655592E-2,-3.3392325E-2,3.2604914E-2,-3.286507E-1,-2.630873E-1,2.1207968E-2,6.4154613E-1,-2.5471216E-1,-3.854792E-1,6.831057E-1,-2.592868E-1,2.324283E-1,-4.285481E-2,5.726348E-1,1.6968934E-2,8.0784686E-2,-8.658107E-2,1.0433401E0,7.6676887E-3,-2.8882423E-2,-2.068743E-2,1.4719793E-1,3.8058706E-2,-2.5543565E-2,2.2378465E-2,-3.9604872E-2,6.568762E-2,-1.5744412E-2,1.6289543E-1,-1.1129159E-2,2.4E-1,7.085152E-2,9.189621E-2,-2.8757589E-2,-6.65911E-3,1.2653513E-1,-2.59773E-2,1.7969814E-1,3.216635E-2,-4.3051474E-2,5.6837033E-2,-3.757889E-2,-4.524994E-2,-0E0],"split_indices":[6,4,18,11,18,22,23,7,0,6,18,24,22,0,23,30,23,17,22,24,18,0,5,7,0,16,0,0,26,0,2,24,29,8,0,26,3,5,14,0,0,0,0,0,0,0,0,0,22,0,16,7,24,22,29,24,0,0,0,6,22,24,8,0,0,0,0,0,0,0,0,0,0,0,0,0,0,0,0,0,0,0,0,0,0,0,0,0,0],"split_type":[0,0,0,0,0,0,0,0,0,0,0,0,0,0,0,0,0,0,0,0,0,0,0,0,0,0,0,0,0,0,0,0,0,0,0,0,0,0,0,0,0,0,0,0,0,0,0,0,0,0,0,0,0,0,0,0,0,0,0,0,0,0,0,0,0,0,0,0,0,0,0,0,0,0,0,0,0,0,0,0,0,0,0,0,0,0,0,0,0],"sum_hessian":[2.1006613E4,1.6195459E4,4.811155E3,1.2445592E4,3.7498667E3,2.6928093E3,2.1183457E3,5.4547075E3,6.990885E3,4.3361093E2,3.3162559E3,2.648163E3,4.464627E1,4.8596313E1,2.0697493E3,5.4311626E3,2.3544884E1,1.3458112E2,2.9902982E2,1.3876192E2,3.177494E3,2.642915E3,5.2478385E0,8.408518E0,3.6237755E1,2.8699667E1,2.0410497E3,5.0800913E3,3.5107147E2,3.435163E0,2.0109722E1,5.4161453E1,8.041966E1,2.910554E2,7.9744353E0,4.5428345E1,9.333358E1,4.7169595E2,2.705798E3,2.3098621E0,2.9379764E0,4.5737724E0,3.8347452E0,9.846314E0,1.8853352E1,1.1034688E2,2.4072458E2,3.7385128E0,1.6371208E1,2.9661308E1,2.4500143E1,7.424788E1,6.171783E0,1.5132185E1,2.759232E2,1.6360115E1,2.9068228E1,8.6518486E1,6.815096E0,4.0831882E1,4.3086407E2,5.800053E1,2.6477974E3,4.5557303E0,1.1815478E1,3.1769462E0,2.6484364E1,1.5119696E1,9.380448E0,3.0994918E0,7.114839E1,3.8022127E0,2.3695705E0,7.7281957E0,7.40399E0,2.7071887E2,5.2043157E0,1.0597432E1,5.7626834E0,3.928671E0,2.8864248E0,9.723179E0,3.1108704E1,6.2944174E0,4.2456964E2,6.238855E0,5.1761677E1,2.6434036E3,4.393967E0],"tree_param":{"num_deleted":"0","num_feature":"32","num_nodes":"89","size_leaf_vector":"1"}},{"base_weights":[5.1453724E-3,-4.7489136E-1,3E0,-4.7820237E-1,2.4E-1,-4.0375736E-2,2.4E-1,-4.8662516E-1,-4.6495914E-2,-4.45217E-1,-4.318609E-2,2.4E-1,-5.163251E-1,-4.648343E-1,1.3463914E0,-4.268333E-2,3.0635852E-2,-4.1244516E-1,-5.352819E-1,3E0,-1.8573605E-1,-3.4967806E-2,4.5501437E-2,-4.3136377E-2,-6.3048146E-4,4.9589388E-2,2.4E-1,1.3067067E-1,-3.6161393E-2],"categories":[],"categories_nodes":[],"categories_segments":[],"categories_sizes":[],"default_left":[0,0,0,0,0,0,0,0,0,0,0,0,0,0,0,0,0,0,0,0,0,0,0,0,0,0,0,0,0],"id":12,"left_children":[1,3,5,7,-1,-1,-1,9,11,13,-1,-1,15,17,19,-1,-1,21,23,25,27,-1,-1,-1,-1,-1,-1,-1,-1],"loss_changes":[2.7683582E4,1.6510522E2,5.209922E2,4.5595703E1,0E0,0E0,0E0,2.666919E1,4.6688873E2,2.4824329E2,0E0,0E0,4.0905685E0,2.4923828E1,2.0861374E2,0E0,0E0,9.7312256E1,5.5577393E0,4.683972E1,2.324643E1,0E0,0E0,0E0,0E0,0E0,0E0,0E0,0E0],"parents":[2147483647,0,0,1,1,2,2,3,3,7,7,8,8,9,9,12,12,13,13,14,14,17,17,18,18,19,19,20,20],"right_children":[2,4,6,8,-1,-1,-1,10,12,14,-1,-1,16,18,20,-1,-1,22,24,26,28,-1,-1,-1,-1,-1,-1,-1,-1],"split_conditions":[9.9125063E-1,1.261105E0,2.7691063E-2,6.408926E-1,2.4E-1,-4.0375736E-2,2.4E-1,4.3418038E-1,1.6968934E-2,1.02064E0,-4.318609E-2,2.4E-1,-2.339222E-2,6.4483863E-1,-1.5214929E-1,-4.268333E-2,3.0635852E-2,9.104338E-3,1.2007959E0,-1.631186E-1,1.3551112E-1,-3.4967806E-2,4.5501437E-2,-4.3136377E-2,-6.3048146E-4,4.9589388E-2,2.4E-1,1.3067067E-1,-3.6161393E-2],"split_indices":[20,13,14,20,0,0,0,23,6,17,0,0,16,2,6,0,0,18,13,20,1,0,0,0,0,0,0,0,0],"split_type":[0,0,0,0,0,0,0,0,0,0,0,0,0,0,0,0,0,0,0,0,0,0,0,0,0,0,0,0,0],"sum_hessian":[1.398743E4,1.26828955E4,1.3045338E3,1.2673912E4,8.984033E0,4.171857E1,1.2628153E3,1.2429984E4,2.4392725E2,7.0055015E3,5.424483E3,2.21481E1,2.2177914E2,6.931366E3,7.4135025E1,2.1895663E2,2.8225083E0,3.9871128E3,2.9442537E3,3.37036E1,4.043142E1,3.890973E3,9.6139786E1,2.9215303E3,2.2723307E1,1.0130533E1,2.3573069E1,3.6117427E0,3.6819675E1],"tree_param":{"num_deleted":"0","num_feature":"32","num_nodes":"29","size_leaf_vector":"1"}},{"base_weights":[5.298836E-3,-4.7315586E-1,3E0,2.3449057E-1,-4.788269E-1,3E0,-5.161278E-1,-3.6464262E-1,-5.210704E-1,2.4E-1,-2.115191E-2,2.3546957E-3,-4.245804E-2,-2.9245278E-2,2.7573152E-2,-4.3360565E-2,-4.05238E-1,2.0205107E0,-5.3456986E-1,3.608004E-1,3E0,-4.341386E-2,-2.605488E-1,9.5410265E-2,-3.0500395E-2,2.4E-1,-0E0,1.1325197E-1,-3.3605438E-2],"categories":[],"categories_nodes":[],"categories_segments":[],"categories_sizes":[],"default_left":[0,0,0,0,0,0,0,0,0,0,0,0,0,0,0,0,0,0,0,0,0,0,0,0,0,0,0,0,0],"id":13,"left_children":[1,3,5,-1,7,9,11,13,15,-1,-1,-1,-1,-1,-1,-1,17,19,21,23,25,-1,27,-1,-1,-1,-1,-1,-1],"loss_changes":[2.6939229E4,2.5455884E2,1.549002E3,0E0,6.178125E1,4.4228516E1,1.0759659E0,2.7216187E0,2.2147705E1,0E0,0E0,0E0,0E0,0E0,0E0,0E0,4.603887E2,1.7235654E2,2.3919373E0,2.5741669E1,3.503421E1,0E0,1.427432E1,0E0,0E0,0E0,0E0,0E0,0E0],"parents":[2147483647,0,0,1,1,2,2,4,4,5,5,6,6,7,7,8,8,16,16,17,17,18,18,19,19,20,20,22,22],"right_children":[2,4,6,-1,8,10,12,14,16,-1,-1,-1,-1,-1,-1,-1,18,20,22,24,26,-1,28,-1,-1,-1,-1,-1,-1],"split_conditions":[1.1398556E0,-9.030299E-1,5.2108914E-1,2.3449057E-1,-6.9725376E-1,2.8244635E-1,-3.1420425E-1,-5.460623E-1,5.753009E-1,2.4E-1,-2.115191E-2,2.3546957E-3,-4.245804E-2,-2.9245278E-2,2.7573152E-2,-4.3360565E-2,2.978968E-1,5.328962E-1,-3.890151E-2,1.17160074E-1,6.3115335E-1,-4.341386E-2,-1.6081706E-1,9.5410265E-2,-3.0500395E-2,2.4E-1,-0E0,1.1325197E-1,-3.3605438E-2],"split_indices":[26,1,4,0,9,20,13,21,15,0,0,0,0,0,0,0,14,2,1,9,1,0,10,0,0,0,0,0,0],"split_type":[0,0,0,0,0,0,0,0,0,0,0,0,0,0,0,0,0,0,0,0,0,0,0,0,0,0,0,0,0],"sum_hessian":[1.442992E4,1.2961778E4,1.4681416E3,1.9694113E1,1.2942084E4,1.343557E3,1.2458463E2,3.503425E3,9.438659E3,1.3398827E3,3.6742806E0,2.3010788E0,1.22283554E2,3.5005422E3,2.8828127E0,7.983899E3,1.4547599E3,7.196032E1,1.3827996E3,3.589946E1,3.606086E1,1.3394049E3,4.3394627E1,1.667102E1,1.9228441E1,3.2165863E1,3.8949964E0,2.1299646E0,4.126466E1],"tree_param":{"num_deleted":"0","num_feature":"32","num_nodes":"29","size_leaf_vector":"1"}},{"base_weights":[-6.750514E-3,-3.6029825E-1,1.9533594E0,-5.7230043E-1,-5.5971723E-2,-4.689113E-1,1.8892932E-1,-5.770795E-1,-1.7839158E-2,-1.4058578E-1,1.8202865E0,-4.6978973E-2,1.4504535E-1,-4.7226027E-2,-4.7125477E-1,-4.6401016E-2,1.7209901E-1,-7.377378E-2,-5.61107E-1,-3.773089E-1,2.3365023E0,-2.1633649E-1,1.6017386E-1,-5.788646E-1,1.8181755E-1,-8.245407E-2,1.8706806E0,-4.6962246E-2,-2.597314E-1,3.1347412E-1,-4.329803E-2,5.498589E-2,1.8787664E-1,2.6264936E-1,-4.5059446E-2,1.5731706E-1,-4.725578E-2,-5.7579786E-2,-2.3823635E-1,1.7599858E-1,-2.5548393E-2,-3.2364923E-1,5.065765E-1,-2.6648363E-2,1.1038777E0,-2.1772167E-2,1.3395357E-1,1.07346684E-1,-2.1273486E-2,-4.1401036E-2,-4.4229818E-3,-2.6284494E-2,-3.997764E-3,7.6361946E-3,-3.696114E-2,-1.6432935E-2,7.610842E-2,1.333927E-1,-1.301098E-5,3.4786604E-2,-1.4141952E-2],"categories":[],"categories_nodes":[],"categories_segments":[],"categories_sizes":[],"default_left":[0,0,0,0,0,0,0,0,0,0,0,0,0,0,0,0,0,0,0,0,0,0,0,0,0,0,0,0,0,0,0,0,0,0,0,0,0,0,0,0,0,0,0,0,0,0,0,0,0,0,0,0,0,0,0,0,0,0,0,0,0],"id":14,"left_children":[1,3,5,7,9,11,-1,13,15,17,19,-1,21,-1,23,-1,-1,25,27,29,31,33,-1,35,-1,37,39,-1,41,43,-1,-1,-1,45,-1,47,-1,49,51,-1,-1,53,55,-1,57,59,-1,-1,-1,-1,-1,-1,-1,-1,-1,-1,-1,-1,-1,-1,-1],"loss_changes":[1.880697E4,1.4829812E3,4.10358E3,3.532129E1,1.500668E3,4.3976395E1,0E0,1.79375E1,1.4921033E2,2.5393864E2,4.6484546E2,0E0,6.939726E1,0E0,4.4932785E2,0E0,0E0,1.3293842E2,8.945496E0,9.689909E0,1.2979736E0,1.48137245E1,0E0,1.2941559E1,0E0,3.0102482E1,2.6940819E1,0E0,5.7287507E0,1.0181176E1,0E0,0E0,0E0,1.6580666E1,0E0,1.460495E1,0E0,7.212496E0,1.7930977E1,0E0,0E0,5.969468E0,3.7314067E0,0E0,5.7843237E0,2.8320072E0,0E0,0E0,0E0,0E0,0E0,0E0,0E0,0E0,0E0,0E0,0E0,0E0,0E0,0E0,0E0],"parents":[2147483647,0,0,1,1,2,2,3,3,4,4,5,5,7,7,8,8,9,9,10,10,12,12,14,14,17,17,18,18,19,19,20,20,21,21,23,23,25,25,26,26,28,28,29,29,33,33,35,35,37,37,38,38,41,41,42,42,44,44,45,45],"right_children":[2,4,6,8,10,12,-1,14,16,18,20,-1,22,-1,24,-1,-1,26,28,30,32,34,-1,36,-1,38,40,-1,42,44,-1,-1,-1,46,-1,48,-1,50,52,-1,-1,54,56,-1,58,60,-1,-1,-1,-1,-1,-1,-1,-1,-1,-1,-1,-1,-1,-1,-1],"split_conditions":[8.110747E-1,4.9257547E-1,6.6614836E-1,1.2535452E0,1.0099648E0,3.848105E-1,1.8892932E-1,6.3649994E-1,6.992867E-2,5.415885E-1,2.4471425E-1,-4.6978973E-2,4.3256646E-1,-4.7226027E-2,6.0369384E-1,-4.6401016E-2,1.7209901E-1,1.6240962E-1,8.9984256E-1,-5.3333692E-2,2.9087654E-1,4.2754874E-1,1.6017386E-1,2.9787067E-1,1.8181755E-1,-9.0247035E-1,2.4683413E-1,-4.6962246E-2,6.4154613E-1,-5.532922E-1,-4.329803E-2,5.498589E-2,1.8787664E-1,8.826507E-1,-4.5059446E-2,1.610348E-1,-4.725578E-2,-9.476952E-1,-1.5824206E-1,1.7599858E-1,-2.5548393E-2,-3.5867184E-1,-3.7840796E-1,-2.6648363E-2,4.373109E-1,2.4405982E-1,1.3395357E-1,1.07346684E-1,-2.1273486E-2,-4.1401036E-2,-4.4229818E-3,-2.6284494E-2,-3.997764E-3,7.6361946E-3,-3.696114E-2,-1.6432935E-2,7.610842E-2,1.333927E-1,-1.301098E-5,3.4786604E-2,-1.4141952E-2],"split_indices":[8,29,19,11,11,11,0,8,7,21,7,0,19,0,19,0,0,19,28,13,7,24,0,2,0,22,6,0,7,14,0,0,0,11,0,4,0,16,7,0,0,13,2,0,21,4,0,0,0,0,0,0,0,0,0,0,0,0,0,0,0],"split_type":[0,0,0,0,0,0,0,0,0,0,0,0,0,0,0,0,0,0,0,0,0,0,0,0,0,0,0,0,0,0,0,0,0,0,0,0,0,0,0,0,0,0,0,0,0,0,0,0,0,0,0,0,0,0,0,0,0,0,0,0,0],"sum_hessian":[2.7132576E4,2.2988072E4,4.1445034E3,1.354727E4,9.440804E3,5.975573E2,3.546946E3,1.3430526E4,1.1674385E2,9.035446E3,4.0535703E2,5.0175674E2,9.580054E1,1.1924124E4,1.506402E3,9.4061134E1,2.2682716E1,7.7997666E3,1.2356797E3,7.702433E1,3.283327E2,8.144901E1,1.43515215E1,1.4512489E3,5.5153015E1,7.767265E3,3.2501724E1,1.1345437E3,1.01136024E2,1.3836957E1,6.3187374E1,3.506062E0,3.2482663E2,3.3810356E1,4.763866E1,2.1899603E1,1.4293494E3,6.7029336E3,1.0643314E3,2.8444E1,4.057722E0,9.501831E1,6.1177077E0,7.899456E0,5.937501E0,2.9485138E1,4.3252163E0,4.9332833E0,1.696632E1,2.9933632E1,6.673E3,7.164623E2,3.4786908E2,2.2840885E1,7.217743E1,2.333885E0,3.7838228E0,3.5551717E0,2.3823292E0,5.739963E0,2.3745174E1],"tree_param":{"num_deleted":"0","num_feature":"32","num_nodes":"61","size_leaf_vector":"1"}},{"base_weights":[1.4977966E-2,-4.1002414E-1,3E0,-1.2934908E-1,-5.100757E-1,2.4E-1,-3.6253303E-2,-3.5017572E-2,-1.0116668E-2,-5.159697E-1,-3.7113628E-1,-4.193253E-2,-4.6762246E-1,-4.148933E-2,2.4E-1,-5.147596E-1,1.0816555E0,-4.1478213E-2,4.1579563E-2,-3.614078E-2,2.4E-1,-1.4984544E-2,3.2655027E-2],"categories":[],"categories_nodes":[],"categories_segments":[],"categories_sizes":[],"default_left":[0,0,0,0,0,0,0,0,0,0,0,0,0,0,0,0,0,0,0,0,0,0,0],"id":15,"left_children":[1,3,5,7,9,-1,-1,-1,-1,11,13,-1,15,-1,-1,17,19,-1,21,-1,-1,-1,-1],"loss_changes":[1.8316043E4,2.3207446E2,2.4141797E2,1.9204102E0,4.2923584E0,0E0,0E0,0E0,0E0,1.5452881E0,1.898888E2,0E0,6.553667E1,0E0,0E0,1.8270721E0,1.4434187E2,0E0,1.3502523E0,0E0,0E0,0E0,0E0],"parents":[2147483647,0,0,1,1,2,2,3,3,4,4,9,9,10,10,12,12,15,15,16,16,18,18],"right_children":[2,4,6,8,10,-1,-1,-1,-1,12,14,-1,16,-1,-1,18,20,-1,22,-1,-1,-1,-1],"split_conditions":[1.173291E0,-7.332439E-1,1.01761326E-1,1.5654912E0,9.077698E-1,2.4E-1,-3.6253303E-2,-3.5017572E-2,-1.0116668E-2,5.255566E-1,7.0085245E-1,-4.193253E-2,2.0160939E-1,-4.148933E-2,2.4E-1,2.6398737E-2,7.6527625E-2,-4.1478213E-2,-1.440476E-1,-3.614078E-2,2.4E-1,-1.4984544E-2,3.2655027E-2],"split_indices":[9,23,2,28,9,0,0,0,0,29,10,0,10,0,0,10,9,0,27,0,0,0,0],"split_type":[0,0,0,0,0,0,0,0,0,0,0,0,0,0,0,0,0,0,0,0,0,0,0],"sum_hessian":[8.745947E3,8.277394E3,4.6855316E2,2.1777434E3,6.0996504E3,4.4896176E2,1.9591383E1,1.5824627E1,2.1619187E3,5.8427656E3,2.5688495E2,4.9709756E3,8.7178986E2,2.524323E2,4.452664E0,8.476579E2,2.4131964E1,8.430584E2,4.599488E0,1.9291393E1,4.840569E0,2.5941684E0,2.0053196E0],"tree_param":{"num_deleted":"0","num_feature":"32","num_nodes":"23","size_leaf_vector":"1"}},{"base_weights":[-5.202478E-3,8.0201256E-1,-7.0565736E-1,8.569707E-1,-6.850702E-1,8.4855676E-2,-7.076721E-1,6.6773546E-1,1.1934191E0,-2.0063825E-1,-5.6697186E-2,-2.9404068E-1,-7.140249E-1,6.747464E-1,-9.426063E-2,9.98169E-1,1.2158077E0,-5.121692E-2,6.406609E-1,1.1487583E0,-6.9113374E-1,-7.156807E-1,-3.3676752E-1,-3.4681058E-1,6.7913055E-1,-5.643488E-1,1.2954697E-1,1.0837669E0,5.266988E-1,2.07544E-2,9.732785E-2,-0E0,6.749958E-2,-0E0,9.450196E-2,-8.681012E-2,-5.651445E-2,6.058783E-2,-7.1599174E-1,9.501843E-2,-5.5582598E-2,-3.9795022E-2,-1.1589194E-1,6.639669E-1,9.0471625E-1,1.0115167E-2,-5.015369E-2,2.1778038E-1,-3.8515355E-2,-0E0,1.091155E0,-4.2932354E-2,6.974451E-1,-3.2640666E-2,1.4699017E-2,-6.4630216E-1,-5.7451792E-2,1.044205E-2,-3.1042928E-2,5.3330436E-2,2.6967473E-2,7.2950006E-2,-1.0678425E-2,4.8110154E-3,4.644908E-2,1.695885E-2,8.78312E-2,6.549168E-2,1.7764606E-3,8.4220156E-2,-5.64234E-2],"categories":[],"categories_nodes":[],"categories_segments":[],"categories_sizes":[],"default_left":[0,0,0,0,0,0,0,0,0,0,0,0,0,0,0,0,0,0,0,0,0,0,0,0,0,0,0,0,0,0,0,0,0,0,0,0,0,0,0,0,0,0,0,0,0,0,0,0,0,0,0,0,0,0,0,0,0,0,0,0,0,0,0,0,0,0,0,0,0,0,0],"id":16,"left_children":[1,3,5,7,9,-1,11,13,15,17,-1,19,21,23,25,27,29,-1,31,33,35,37,39,41,43,45,47,49,51,-1,-1,-1,-1,-1,-1,53,-1,-1,55,-1,-1,-1,57,59,61,-1,-1,63,-1,-1,65,-1,67,-1,-1,69,-1,-1,-1,-1,-1,-1,-1,-1,-1,-1,-1,-1,-1,-1,-1],"loss_changes":[2.4357697E4,1.6371924E3,8.411426E1,1.2268906E3,7.321472E0,0E0,5.95625E1,6.620654E1,2.7246094E1,1.5484396E1,0E0,2.0504837E2,1.3145508E1,5.549951E1,1.2886217E1,2.7539734E1,2.9833984E0,0E0,1.7200036E0,1.864418E0,1.8108978E0,1.180957E1,5.967582E1,1.5205488E0,4.028076E1,1.9490738E0,4.786839E0,4.461609E0,2.244822E1,0E0,0E0,0E0,0E0,0E0,0E0,1.5891325E0,0E0,0E0,2.0722656E0,0E0,0E0,0E0,2.245175E0,9.01416E0,5.9735107E0,0E0,0E0,3.9411857E0,0E0,0E0,2.159546E0,0E0,7.6663513E0,0E0,0E0,7.2711914E1,0E0,0E0,0E0,0E0,0E0,0E0,0E0,0E0,0E0,0E0,0E0,0E0,0E0,0E0,0E0],"parents":[2147483647,0,0,1,1,2,2,3,3,4,4,6,6,7,7,8,8,9,9,11,11,12,12,13,13,14,14,15,15,16,16,18,18,19,19,20,20,21,21,22,22,23,23,24,24,25,25,26,26,27,27,28,28,35,35,38,38,42,42,43,43,44,44,47,47,50,50,52,52,55,55],"right_children":[2,4,6,8,10,-1,12,14,16,18,-1,20,22,24,26,28,30,-1,32,34,36,38,40,42,44,46,48,50,52,-1,-1,-1,-1,-1,-1,54,-1,-1,56,-1,-1,-1,58,60,62,-1,-1,64,-1,-1,66,-1,68,-1,-1,70,-1,-1,-1,-1,-1,-1,-1,-1,-1,-1,-1,-1,-1,-1,-1],"split_conditions":[-4.7654605E-1,1.1802632E-1,-7.246956E-1,1.9290106E-1,-2.339222E-2,8.4855676E-2,-4.110943E-1,-6.4063525E-1,-6.0277373E-2,-1.5113658E-1,-5.6697186E-2,-9.280341E-2,9.843954E-1,-9.299139E-1,-2.8867E-1,-5.89534E-1,-5.756553E-1,-5.121692E-2,-4.012692E-1,-4.7674075E-1,-2.339222E-2,-7.055843E-1,-1.8766986E-1,-4.5058262E-1,-5.91369E-1,-5.643685E-1,-4.3213096E-1,-4.801773E-1,-4.1236082E-1,2.07544E-2,9.732785E-2,-0E0,6.749958E-2,-0E0,9.450196E-2,-2.806978E-1,-5.651445E-2,6.058783E-2,-3.5203928E-1,9.501843E-2,-5.5582598E-2,-3.9795022E-2,-4.099347E-1,-7.9022366E-1,-3.3780807E-1,1.0115167E-2,-5.015369E-2,4.9838614E-2,-3.8515355E-2,-0E0,-4.8197633E-1,-4.2932354E-2,-2.1917625E-1,-3.2640666E-2,1.4699017E-2,3.6617503E-2,-5.7451792E-2,1.044205E-2,-3.1042928E-2,5.3330436E-2,2.6967473E-2,7.2950006E-2,-1.0678425E-2,4.8110154E-3,4.644908E-2,1.695885E-2,8.78312E-2,6.549168E-2,1.7764606E-3,8.4220156E-2,-5.64234E-2],"split_indices":[3,8,2,31,16,0,3,14,20,0,0,25,31,5,20,14,24,0,14,24,16,10,2,30,31,12,14,5,5,0,0,0,0,0,0,0,0,0,3,0,0,0,30,14,0,0,0,31,0,0,6,0,25,0,0,25,0,0,0,0,0,0,0,0,0,0,0,0,0,0,0],"split_type":[0,0,0,0,0,0,0,0,0,0,0,0,0,0,0,0,0,0,0,0,0,0,0,0,0,0,0,0,0,0,0,0,0,0,0,0,0,0,0,0,0,0,0,0,0,0,0,0,0,0,0,0,0,0,0,0,0,0,0,0,0,0,0,0,0,0,0,0,0,0,0],"sum_hessian":[4.3072555E4,2.0010799E4,2.3061758E4,1.9298758E4,7.120411E2,2.4795326E1,2.303696E4,1.2356376E4,6.9423813E3,3.500357E1,6.770375E2,3.510834E2,2.2685879E4,1.2244602E4,1.11774055E2,7.2583923E2,6.2165425E3,2.3695293E1,1.1308276E1,7.4683426E1,2.7639996E2,2.2583637E4,1.02241875E2,5.1170177E1,1.2193432E4,3.579039E1,7.5983665E1,6.1121234E2,1.14626854E2,6.2002406E0,6.2103423E3,3.054686E0,8.25359E0,2.4391272E0,7.224429E1,7.9601665E0,2.684398E2,3.4000437E0,2.2580236E4,1.829719E1,8.394469E1,2.8261635E1,2.2908543E1,1.1434893E4,7.5853925E2,2.1394176E0,3.3650974E1,6.823523E1,7.748437E0,4.0795903E0,6.0713275E2,1.4861277E1,9.976558E1,4.019773E0,3.9403937E0,7.025157E2,2.187772E4,1.1604539E1,1.1304004E1,1.1338888E4,9.600398E1,7.540645E2,4.4746814E0,5.0153996E1,1.8081232E1,5.6738176E0,6.01459E2,8.359552E1,1.617006E1,2.2157644E1,6.803581E2],"tree_param":{"num_deleted":"0","num_feature":"32","num_nodes":"71","size_leaf_vector":"1"}},{"base_weights":[1.54566355E-2,-3.3425763E-1,3E0,-5.054306E-1,-9.097935E-3,2.4E-1,-3.8608756E-2,-5.133424E-1,3E0,-1.0502602E-1,3E0,-4.11373E-2,2.8971145E-2,2.4E-1,-1.8831788E-2,1.1601527E-3,-4.059782E-2,-2.5140756E-1,3E0,4.5516957E-2,-2.112937E-2,-2.026922E-3,1.2474988E-1,4.6525028E-2,-3.4835227E-2,-1.1788884E-2,2.4E-1,-3.0447857E-2,3.1197085E-6],"categories":[],"categories_nodes":[],"categories_segments":[],"categories_sizes":[],"default_left":[0,0,0,0,0,0,0,0,0,0,0,0,0,0,0,0,0,0,0,0,0,0,0,0,0,0,0,0,0],"id":17,"left_children":[1,3,5,7,9,-1,-1,11,13,15,17,-1,19,-1,-1,21,-1,23,25,-1,-1,27,-1,-1,-1,-1,-1,-1,-1],"loss_changes":[1.1645026E4,3.753667E2,4.8731934E2,1.3184717E2,8.4591003E2,0E0,0E0,2.1365967E0,4.0080696E1,9.796739E1,1.9762653E2,0E0,2.5200262E0,0E0,0E0,1.1302013E1,0E0,4.1745906E0,2.458551E1,0E0,0E0,1.9769962E0,0E0,0E0,0E0,0E0,0E0,0E0,0E0],"parents":[2147483647,0,0,1,1,2,2,3,3,4,4,7,7,8,8,9,9,10,10,12,12,15,15,17,17,18,18,21,21],"right_children":[2,4,6,8,10,-1,-1,12,14,16,18,-1,20,-1,-1,22,-1,24,26,-1,-1,28,-1,-1,-1,-1,-1,-1,-1],"split_conditions":[1.9468459E0,6.3168454E-1,1.6521686E0,1.6823603E0,8.760955E-1,2.4E-1,-3.8608756E-2,1.588168E0,3.76334E-2,-1.3411744E-1,3.7804803E-1,-4.11373E-2,9.6568966E-1,2.4E-1,-1.8831788E-2,3.6276206E-1,-4.059782E-2,-3.1457865E-1,8.672902E-2,4.5516957E-2,-2.112937E-2,1.5654912E0,1.2474988E-1,4.6525028E-2,-3.4835227E-2,-1.1788884E-2,2.4E-1,-3.0447857E-2,3.1197085E-6],"split_indices":[3,28,4,23,3,0,0,23,0,30,23,0,24,0,0,23,0,24,27,0,0,28,0,0,0,0,0,0,0],"split_type":[0,0,0,0,0,0,0,0,0,0,0,0,0,0,0,0,0,0,0,0,0,0,0,0,0,0,0,0,0],"sum_hessian":[7.112218E3,6.746651E3,3.655666E2,4.418163E3,2.3284883E3,3.260665E2,3.950008E1,4.410437E3,7.725894E0,2.276311E3,5.2177242E1,4.4043657E3,6.0715013E0,4.3431664E0,3.3827276E0,1.8016854E3,4.7462555E2,1.8230997E1,3.3946247E1,2.0739186E0,3.9975827E0,1.7996809E3,2.0044398E0,2.0255992E0,1.6205399E1,2.1327121E0,3.1813534E1,9.092462E0,1.7905885E3],"tree_param":{"num_deleted":"0","num_feature":"32","num_nodes":"29","size_leaf_vector":"1"}},{"base_weights":[2.448755E-4,-3.720299E-1,2.3588634E0,-4.6886936E-1,6.081969E-1,-5.3081805E-1,2.498303E0,-3.4811503E-1,-5.3863025E-1,-4.5783016E-1,2.0538037E0,-4.395563E-2,1.6971072E-2,2.0004028E-1,2.155534E-2,-3.8529867E-1,1.5309601E0,-5.4623866E-1,3.2915395E-2,-5.2273256E-1,4.5678842E-1,-3.8379812E-1,2.4202695E0,-3.6632565E-1,-5.4288197E-1,1.1045588E0,2.189973E0,-5.481415E-1,3.769789E-1,-4.3883912E-2,2.028194E0,7.89167E-2,-5.338459E-1,8.1798714E-1,-3.8379885E-2,-4.602877E-1,5.139026E-2,-2.15178E-1,1.9723718E-1,-3.7366772E-1,7.501684E-1,-0E0,-5.487514E-1,1.3729931E0,-2.8039863E-2,1.6636811E-2,2.3460765E0,-5.5065495E-1,-3.021766E-1,8.950583E-2,-2.6678115E-2,1.8173765E-1,-1.8870043E-2,-5.504344E-1,-6.517418E-2,1.2608718E-2,1.5694294E0,-4.2421952E-2,6.769702E-2,-3.170554E-2,1.5385547E-2,1.3053763E-2,-3.0080192E-2,1.3405524E-1,-8.205169E-3,-2.4817253E-2,4.176297E-2,-4.421771E-2,4.014167E-3,7.8685075E-2,1.6135569E-1,1.9683588E-1,2.7974196E-2,-4.4404652E-2,-3.5557948E-2,-3.9041284E-2,1.1648419E-1,-4.461607E-2,-1.1439209E-2,7.848391E-2,-4.0104073E-2,1.2242849E-1,-3.4367397E-2,1.8652502E-1,7.597306E-3],"categories":[],"categories_nodes":[],"categories_segments":[],"categories_sizes":[],"default_left":[0,0,0,0,0,0,0,0,0,0,0,0,0,0,0,0,0,0,0,0,0,0,0,0,0,0,0,0,0,0,0,0,0,0,0,0,0,0,0,0,0,0,0,0,0,0,0,0,0,0,0,0,0,0,0,0,0,0,0,0,0,0,0,0,0,0,0,0,0,0,0,0,0,0,0,0,0,0,0,0,0,0,0,0,0],"id":18,"left_children":[1,3,5,7,9,11,13,15,17,19,21,-1,-1,-1,-1,23,25,27,29,31,33,35,37,39,41,43,45,47,49,-1,51,-1,53,55,-1,57,-1,59,-1,61,63,65,67,69,-1,-1,71,73,75,-1,-1,-1,-1,77,79,81,83,-1,-1,-1,-1,-1,-1,-1,-1,-1,-1,-1,-1,-1,-1,-1,-1,-1,-1,-1,-1,-1,-1,-1,-1,-1,-1,-1,-1],"loss_changes":[1.8264516E4,1.7060251E3,1.1455332E3,1.3708228E2,2.4936191E3,2.1938858E0,9.560547E0,4.2084442E2,4.5096924E1,5.607863E1,6.1555835E2,0E0,0E0,0E0,0E0,1.7059326E1,2.7238922E1,1.8559326E1,1.6451694E2,1.6170303E1,2.262616E1,8.187671E0,7.233911E1,4.404181E1,1.7886047E0,3.0914711E1,1.0399445E1,5.578369E0,1.3445225E1,0E0,1.8950638E1,0E0,6.1694183E0,2.7395386E1,0E0,9.336285E0,0E0,1.3852298E0,0E0,6.7561035E0,2.9063187E1,2.5528927E0,1.556961E0,1.1570175E1,0E0,0E0,5.2229156E0,3.8996582E0,3.8249687E1,0E0,0E0,0E0,0E0,1.8381348E0,1.7144243E1,2.0293741E1,2.4809242E1,0E0,0E0,0E0,0E0,0E0,0E0,0E0,0E0,0E0,0E0,0E0,0E0,0E0,0E0,0E0,0E0,0E0,0E0,0E0,0E0,0E0,0E0,0E0,0E0,0E0,0E0,0E0,0E0],"parents":[2147483647,0,0,1,1,2,2,3,3,4,4,5,5,6,6,7,7,8,8,9,9,10,10,15,15,16,16,17,17,18,18,19,19,20,20,21,21,22,22,23,23,24,24,25,25,26,26,27,27,28,28,30,30,32,32,33,33,35,35,37,37,39,39,40,40,41,41,42,42,43,43,46,46,47,47,48,48,53,53,54,54,55,55,56,56],"right_children":[2,4,6,8,10,12,14,16,18,20,22,-1,-1,-1,-1,24,26,28,30,32,34,36,38,40,42,44,46,48,50,-1,52,-1,54,56,-1,58,-1,60,-1,62,64,66,68,70,-1,-1,72,74,76,-1,-1,-1,-1,78,80,82,84,-1,-1,-1,-1,-1,-1,-1,-1,-1,-1,-1,-1,-1,-1,-1,-1,-1,-1,-1,-1,-1,-1,-1,-1,-1,-1,-1,-1],"split_conditions":[9.53768E-1,3.129319E-1,1.2846904E-1,-7.3808567E-3,2.824492E-1,8.2147455E-1,8.9984256E-1,-2.2767824E-1,1.2937549E0,1.0033888E0,-1.3783446E-1,-4.395563E-2,1.6971072E-2,2.0004028E-1,2.155534E-2,-2.5891945E-1,2.987227E-1,1.1986246E0,1.8537383E-1,-3.449939E-1,-2.754133E-1,2.9384616E-1,3.5645172E-1,-5.643685E-1,-7.9672885E-1,-7.957671E-2,-2.3001547E-1,8.9984256E-1,-4.5375052E-1,-4.3883912E-2,-3.2309264E-2,7.89167E-2,8.9984256E-1,-1.2171505E-1,-3.8379885E-2,2.4364756E-1,5.139026E-2,-6.0586736E-2,1.9723718E-1,-9.030299E-1,2.0627409E-1,7.3145354E-1,8.934746E-2,-1.7885315E-1,-2.8039863E-2,1.6636811E-2,-1.6782954E-1,2.1509518E-1,6.3115335E-1,8.950583E-2,-2.6678115E-2,1.8173765E-1,-1.8870043E-2,2.3115379E-1,-3.184118E-1,8.934746E-2,-3.0612838E-1,-4.2421952E-2,6.769702E-2,-3.170554E-2,1.5385547E-2,1.3053763E-2,-3.0080192E-2,1.3405524E-1,-8.205169E-3,-2.4817253E-2,4.176297E-2,-4.421771E-2,4.014167E-3,7.8685075E-2,1.6135569E-1,1.9683588E-1,2.7974196E-2,-4.4404652E-2,-3.5557948E-2,-3.9041284E-2,1.1648419E-1,-4.461607E-2,-1.1439209E-2,7.848391E-2,-4.0104073E-2,1.2242849E-1,-3.4367397E-2,1.8652502E-1,7.597306E-3],"split_indices":[21,17,22,9,1,28,28,12,12,28,24,0,0,0,0,20,5,28,22,9,29,29,5,12,3,20,25,28,19,0,15,0,28,30,0,22,0,31,0,1,31,23,1,14,0,0,19,17,1,0,0,0,0,1,29,1,29,0,0,0,0,0,0,0,0,0,0,0,0,0,0,0,0,0,0,0,0,0,0,0,0,0,0,0,0],"split_type":[0,0,0,0,0,0,0,0,0,0,0,0,0,0,0,0,0,0,0,0,0,0,0,0,0,0,0,0,0,0,0,0,0,0,0,0,0,0,0,0,0,0,0,0,0,0,0,0,0,0,0,0,0,0,0,0,0,0,0,0,0,0,0,0,0,0,0,0,0,0,0,0,0,0,0,0,0,0,0,0,0,0,0,0,0],"sum_hessian":[2.0792885E4,1.7959676E4,2.83321E3,1.6346328E4,1.6133478E3,1.2999774E2,2.7032122E3,5.99254E3,1.0353788E4,9.291729E2,6.841749E2,1.2798288E2,2.0148716E0,2.7000781E3,3.1338956E0,5.878079E3,1.1446098E2,1.0218719E4,1.3506853E2,8.689171E2,6.0255775E1,8.9224724E1,5.949502E2,5.255178E3,6.22901E2,7.320561E1,4.1255367E1,1.0199053E4,1.9666983E1,1.0551801E2,2.955051E1,4.739767E0,8.6417737E2,4.4052776E1,1.6203E1,8.451524E1,4.7094793E0,9.717449E0,5.852328E2,5.222613E3,3.256549E1,6.474734E0,6.164263E2,6.2189156E1,1.1016457E1,3.5864406E0,3.7668926E1,1.0091421E4,1.0763099E2,9.402866E0,1.0264115E1,2.687399E1,2.6765215E0,8.332683E2,3.090903E1,2.2566002E1,2.1486774E1,8.170919E1,2.8060484E0,7.614504E0,2.1029456E0,2.1090475E1,5.201522E3,1.4971842E1,1.7593649E1,4.432412E0,2.042322E0,6.1334985E2,3.0764313E0,4.2386936E1,1.9802217E1,3.4951263E1,2.717665E0,9.676958E3,4.1446313E2,9.8906166E1,8.724828E0,8.1673773E2,1.6530611E1,8.021327E0,2.2887705E1,4.2360306E0,1.8329971E1,1.3175044E1,8.31173E0],"tree_param":{"num_deleted":"0","num_feature":"32","num_nodes":"85","size_leaf_vector":"1"}},{"base_weights":[-3.3761596E-3,-4.7983035E-1,1.2517371E0,-5.2833235E-1,2.540986E-1,2.4212935E0,-5.321649E-1,-4.7583506E-1,-5.596593E-1,1.9359902E0,-4.718921E-1,2.4743724E0,-4.155313E-2,-5.586945E-1,1.0652454E0,-3.9085414E-2,-3.1657597E-1,-4.4934787E-2,-4.2008495E-1,1.1724538E0,2.3766472E0,-5.3171647E-1,1.1074506E0,1.9807449E-1,-0E0,-4.508416E-2,4.3141197E-2,1.8596781E0,-3.6483347E-2,-2.5731057E-1,-4.382123E-2,4.2744458E-1,-4.251661E-2,2.6125464E-1,1.6934718E0,1.9668621E-1,-2.6099479E-2,1.488517E-1,-5.5446154E-1,-3.0753648E-2,1.7644361E0,1.204706E-1,-3.6738593E-2,3.4469372E-1,1.8664904E-1,-2.6995417E-1,4.8618525E-2,-3.1242793E-2,9.47015E-2,1.0966247E0,1.1354279E-2,1.9846544E0,5.8911955E-1,8.555157E-1,-3.4969773E-2,-4.4833846E-2,1.5159748E-2,-0E0,1.6563949E-1,1.0449216E-1,-2.6015291E-2,2.3460934E-2,-2.2297302E-2,-0E0,1.2874117E-1,-3.42909E-2,1.8088495E-2,1.6894226E-1,-4.243682E-4,-2.3347251E-2,7.317326E-2,1.0090569E-1,-4.6849245E-4],"categories":[],"categories_nodes":[],"categories_segments":[],"categories_sizes":[],"default_left":[0,0,0,0,0,0,0,0,0,0,0,0,0,0,0,0,0,0,0,0,0,0,0,0,0,0,0,0,0,0,0,0,0,0,0,0,0,0,0,0,0,0,0,0,0,0,0,0,0,0,0,0,0,0,0,0,0,0,0,0,0,0,0,0,0,0,0,0,0,0,0,0,0],"id":19,"left_children":[1,3,5,7,9,11,13,15,17,19,21,23,-1,25,27,-1,29,-1,31,33,35,37,39,-1,-1,-1,41,43,-1,45,-1,47,-1,49,51,-1,-1,53,55,-1,57,-1,-1,59,-1,61,-1,-1,-1,63,65,67,69,71,-1,-1,-1,-1,-1,-1,-1,-1,-1,-1,-1,-1,-1,-1,-1,-1,-1,-1,-1],"loss_changes":[1.2546451E4,5.4176514E2,1.2047267E4,2.2652344E1,1.1564268E3,5.471758E2,9.869043E1,1.0229004E1,1.6999512E0,8.9194214E1,6.4209335E1,1.1978516E1,0E0,6.659363E0,4.8732834E1,0E0,5.190563E0,0E0,1.3956947E1,4.9920776E1,4.138745E1,1.0147522E1,2.6491714E1,0E0,0E0,0E0,1.7812876E1,1.5163254E1,0E0,4.2340336E0,0E0,1.260639E1,0E0,8.955845E0,1.8409302E1,0E0,0E0,1.0927025E1,3.05867E0,0E0,9.321636E0,0E0,0E0,8.02365E0,0E0,1.9263134E0,0E0,0E0,0E0,5.711562E0,4.0371633E0,1.3607971E1,6.180738E0,4.403949E0,0E0,0E0,0E0,0E0,0E0,0E0,0E0,0E0,0E0,0E0,0E0,0E0,0E0,0E0,0E0,0E0,0E0,0E0,0E0],"parents":[2147483647,0,0,1,1,2,2,3,3,4,4,5,5,6,6,7,7,8,8,9,9,10,10,11,11,13,13,14,14,16,16,18,18,19,19,20,20,21,21,22,22,26,26,27,27,29,29,31,31,33,33,34,34,37,37,38,38,40,40,43,43,45,45,49,49,50,50,51,51,52,52,53,53],"right_children":[2,4,6,8,10,12,14,16,18,20,22,24,-1,26,28,-1,30,-1,32,34,36,38,40,-1,-1,-1,42,44,-1,46,-1,48,-1,50,52,-1,-1,54,56,-1,58,-1,-1,60,-1,62,-1,-1,-1,64,66,68,70,72,-1,-1,-1,-1,-1,-1,-1,-1,-1,-1,-1,-1,-1,-1,-1,-1,-1,-1,-1],"split_conditions":[8.576236E-1,4.086354E-1,2.5378263E-1,-2.9644462E-1,6.9041654E-2,3.2677048E-1,1.1480974E0,-4.494748E-1,2.3115379E-1,2.5558957E-1,8.199596E-2,8.818351E-1,-4.155313E-2,8.9792955E-1,7.2832274E-1,-3.9085414E-2,7.7348304E-1,-4.4934787E-2,-9.778499E-2,4.8630768E-1,3.2677048E-1,-1.1986054E-1,1.1785571E-1,1.9807449E-1,-0E0,-4.508416E-2,2.4364756E-1,1.3620787E0,-3.6483347E-2,5.522556E-1,-4.382123E-2,1.16533846E-1,-4.251661E-2,-3.854792E-1,-2.339222E-2,1.9668621E-1,-2.6099479E-2,4.647995E-1,8.514907E-1,-3.0753648E-2,-6.0601823E-2,1.204706E-1,-3.6738593E-2,7.7348304E-1,1.8664904E-1,-6.313863E-1,4.8618525E-2,-3.1242793E-2,9.47015E-2,2.8805057E-2,-1.6081703E-1,4.1537145E-1,-1.2781751E-1,1.3141458E-1,-3.4969773E-2,-4.4833846E-2,1.5159748E-2,-0E0,1.6563949E-1,1.0449216E-1,-2.6015291E-2,2.3460934E-2,-2.2297302E-2,-0E0,1.2874117E-1,-3.42909E-2,1.8088495E-2,1.6894226E-1,-4.243682E-4,-2.3347251E-2,7.317326E-2,1.0090569E-1,-4.6849245E-4],"split_indices":[1,1,16,9,16,22,8,20,1,3,20,0,0,14,4,0,2,0,16,7,22,22,7,0,0,0,22,12,0,12,0,12,0,22,16,0,0,9,3,0,27,0,0,2,0,13,0,0,0,23,11,9,20,17,0,0,0,0,0,0,0,0,0,0,0,0,0,0,0,0,0,0,0],"split_type":[0,0,0,0,0,0,0,0,0,0,0,0,0,0,0,0,0,0,0,0,0,0,0,0,0,0,0,0,0,0,0,0,0,0,0,0,0,0,0,0,0,0,0,0,0,0,0,0,0,0,0,0,0,0,0,0,0,0,0,0,0,0,0,0,0,0,0,0,0,0,0,0,0],"sum_hessian":[2.0974299E4,1.5204242E4,5.7700566E3,1.4262913E4,9.413294E2,3.4848774E3,2.2851792E3,5.3484214E3,8.914492E3,2.8301895E2,6.583104E2,3.42357E3,6.1307304E1,2.2494343E3,3.5744892E1,4.9457383E3,4.0268307E2,8.777478E3,1.3701471E2,1.06661026E2,1.7635794E2,6.358675E2,2.2442947E1,3.4214143E3,2.1559281E0,2.2323743E3,1.7059929E1,2.340588E1,1.233901E1,3.2560336E2,7.7079735E1,1.4733052E1,1.2228166E2,4.0243103E1,6.641792E1,1.7152444E2,4.8335023E0,1.9494383E1,6.163731E2,6.8826466E0,1.5560301E1,3.5944161E0,1.3465513E1,6.6471977E0,1.6758682E1,3.2283856E2,2.7647984E0,7.225126E0,7.5079265E0,7.2454915E0,3.2997612E1,5.0939735E1,1.5478186E1,8.806887E0,1.0687497E1,6.126294E2,3.743687E0,2.4989572E0,1.3061344E1,2.256008E0,4.3911896E0,3.076607E0,3.1976196E2,2.7329557E0,4.512536E0,9.406036E0,2.3591574E1,4.800206E1,2.9376738E0,3.8178625E0,1.1660323E1,5.7498717E0,3.0570154E0],"tree_param":{"num_deleted":"0","num_feature":"32","num_nodes":"73","size_leaf_vector":"1"}},{"base_weights":[1.3790412E-2,-4.6683753E-1,3E0,-4.7450832E-1,1.0457662E0,2.4E-1,4.2952024E-3,-4.806819E-1,3.2961947E-1,2.4E-1,-4.0166672E-2,-4.3442437E-1,-4.3089285E-2,-4.1406903E-2,2.4E-1,-4.488147E-1,1.3600339E0,-4.5360586E-1,5.9780777E-1,2.1579046E0,-2.0265495E-2,-3.201947E-2,-4.201799E-2,-3.7726615E-2,2.4E-1,6.029298E-2,2.3586018E-1,-3.5566352E-2,6.721486E-2],"categories":[],"categories_nodes":[],"categories_segments":[],"categories_sizes":[],"default_left":[0,0,0,0,0,0,0,0,0,0,0,0,0,0,0,0,0,0,0,0,0,0,0,0,0,0,0,0,0],"id":20,"left_children":[1,3,5,7,9,-1,-1,11,13,-1,-1,15,-1,-1,-1,17,19,21,23,25,27,-1,-1,-1,-1,-1,-1,-1,-1],"loss_changes":[2.3989412E4,1.440935E2,1.3847656E1,6.1189697E1,2.4476302E2,0E0,0E0,3.1818604E1,2.4574818E2,0E0,0E0,1.765553E2,0E0,0E0,0E0,3.4499634E1,6.0787567E1,2.4897827E1,8.64003E1,3.2438507E1,9.667851E0,0E0,0E0,0E0,0E0,0E0,0E0,0E0,0E0],"parents":[2147483647,0,0,1,1,2,2,3,3,4,4,7,7,8,8,11,11,15,15,16,16,17,17,18,18,19,19,20,20],"right_children":[2,4,6,8,10,-1,-1,12,14,-1,-1,16,-1,-1,-1,18,20,22,24,26,28,-1,-1,-1,-1,-1,-1,-1,-1],"split_conditions":[1.2945166E0,1.1519711E0,5.174112E-1,9.1852987E-1,6.8486565E-1,2.4E-1,4.2952024E-3,4.3418038E-1,6.911987E-1,2.4E-1,-4.0166672E-2,1.1526573E0,-4.3089285E-2,-4.1406903E-2,2.4E-1,6.8155676E-1,-4.352848E-2,6.4483863E-1,4.2754874E-1,-1.631186E-1,4.8816685E-2,-3.201947E-2,-4.201799E-2,-3.7726615E-2,2.4E-1,6.029298E-2,2.3586018E-1,-3.5566352E-2,6.721486E-2],"split_indices":[4,4,1,20,12,0,0,23,24,0,0,17,0,0,0,20,31,2,24,20,20,0,0,0,0,0,0,0,0],"split_type":[0,0,0,0,0,0,0,0,0,0,0,0,0,0,0,0,0,0,0,0,0,0,0,0,0,0,0,0,0],"sum_hessian":[1.3867279E4,1.2285212E4,1.5820674E3,1.222492E4,6.029233E1,1.5798865E3,2.1809742E0,1.2133195E4,9.1724754E1,2.187305E1,3.841928E1,6.7607236E3,5.372471E3,7.284352E1,1.8881226E1,6.7087026E3,5.2020836E1,6.679736E3,2.896709E1,3.2480988E1,1.9539846E1,3.8392874E3,2.8404485E3,2.1027256E1,7.9398346E0,1.3332466E1,1.9148521E1,1.4123072E1,5.4167757E0],"tree_param":{"num_deleted":"0","num_feature":"32","num_nodes":"29","size_leaf_vector":"1"}},{"base_weights":[1.8573881E-3,-4.7806442E-1,3E0,2.0286639E-1,-4.8417482E-1,3E0,-2.7027441E-2,-4.9059772E-1,7.483741E-1,2.4E-1,6.875154E-4,-2.9281719E-2,-5.364525E-1,-3.9336126E-2,1.7470778E0,-4.32462E-2,-4.7641864E-1,2.8284776E0,-1.8795875E-1,1.9322015E-1,-5.3060365E-1,4.195514E-2,2.4E-1,-3.3729933E-2,4.240866E-2,-0E0,1.3851683E-1,-4.2709973E-2,5.2149785E-3],"categories":[],"categories_nodes":[],"categories_segments":[],"categories_sizes":[],"default_left":[0,0,0,0,0,0,0,0,0,0,0,0,0,0,0,0,0,0,0,0,0,0,0,0,0,0,0,0,0],"id":21,"left_children":[1,3,5,-1,7,9,-1,11,13,-1,-1,-1,15,-1,17,-1,19,21,23,25,27,-1,-1,-1,-1,-1,-1,-1,-1],"loss_changes":[2.403109E4,2.3484692E2,6.907422E1,0E0,1.0028125E2,1.7298828E1,0E0,7.051489E1,8.436418E1,0E0,0E0,0E0,1.4433594E0,0E0,7.9881874E1,0E0,2.2511887E1,1.2989288E1,3.5658004E0,1.5286035E1,1.2090759E0,0E0,0E0,0E0,0E0,0E0,0E0,0E0,0E0],"parents":[2147483647,0,0,1,1,2,2,4,4,5,5,7,7,8,8,12,12,14,14,16,16,17,17,18,18,19,19,20,20],"right_children":[2,4,6,-1,8,10,-1,12,14,-1,-1,-1,16,-1,18,-1,20,22,24,26,28,-1,-1,-1,-1,-1,-1,-1,-1],"split_conditions":[1.4531695E0,-9.021205E-1,2.8244635E-1,2.0286639E-1,1.0794364E0,5.308182E-1,-2.7027441E-2,-6.8835104E-1,5.947322E-1,2.4E-1,6.875154E-4,-2.9281719E-2,8.9984256E-1,-3.9336126E-2,-6.9159694E-2,-4.32462E-2,-2.1379794E-1,1.7800584E-1,4.2910075E-1,2.5564837E-1,1.0438421E0,4.195514E-2,2.4E-1,-3.3729933E-2,4.240866E-2,-0E0,1.3851683E-1,-4.2709973E-2,5.2149785E-3],"split_indices":[0,4,20,0,0,4,0,7,28,0,0,0,28,0,6,0,29,25,13,11,0,0,0,0,0,0,0,0,0],"split_type":[0,0,0,0,0,0,0,0,0,0,0,0,0,0,0,0,0,0,0,0,0,0,0,0,0,0,0,0,0],"sum_hessian":[1.4212171E4,1.2547611E4,1.6645597E3,2.3546732E1,1.2524064E4,1.6589089E3,5.6507344E0,1.246074E4,6.332441E1,1.6564624E3,2.446497E0,3.3603484E3,9.100392E3,2.8478163E1,3.4846245E1,8.492516E3,6.0787573E2,2.1927158E1,1.2919087E1,4.4430264E1,5.634455E2,3.7782564E0,1.8148901E1,1.0895557E1,2.0235295E0,4.123411E1,3.1961536E0,5.614103E2,2.0352068E0],"tree_param":{"num_deleted":"0","num_feature":"32","num_nodes":"29","size_leaf_vector":"1"}},{"base_weights":[-8.023724E-3,-3.499856E-1,1.6653665E0,-5.677242E-1,-4.2496797E-2,-4.742084E-1,1.5731628E-1,-4.6808235E-2,-4.328015E-1,-1.2530997E-1,1.5717555E0,1.1660875E0,-5.4351145E-1,-5.781716E-1,1.5393332E-1,-5.2071135E-2,-5.295216E-1,6.401638E-2,1.8723944E0,1.596727E0,-1.8006949E-2,-4.6823084E-2,-2.2651596E-1,1.779231E-2,-4.7005847E-2,-6.375743E-2,1.5691558E0,-3.1312948E-1,-4.6656407E-2,-1.9428141E-1,1.276493E0,1.5694843E-1,-3.8263164E-2,-0E0,1.4489177E-1,4.4430095E-1,-4.3344248E-2,7.612059E-1,-3.4178726E-2,-5.0216638E-2,-3.4639004E-1,2.3116852E-1,1.5454333E-1,-3.3558685E-1,6.1744723E-2,9.1591395E-2,-3.2883543E-1,4.3348247E-1,1.2447545E-1,-1.8195894E-1,1.13702945E-1,9.635247E-2,-1.717715E-2,-3.439054E-3,-2.3138177E-2,-3.159658E-2,2.276134E-2,4.332918E-2,-2.4788478E-2,-4.1967195E-2,-1.8644175E-2,-3.8461786E-2,-2.317398E-3,-0E0,6.0195837E-2,-2.8887944E-2,9.789465E-3],"categories":[],"categories_nodes":[],"categories_segments":[],"categories_sizes":[],"default_left":[0,0,0,0,0,0,0,0,0,0,0,0,0,0,0,0,0,0,0,0,0,0,0,0,0,0,0,0,0,0,0,0,0,0,0,0,0,0,0,0,0,0,0,0,0,0,0,0,0,0,0,0,0,0,0,0,0,0,0,0,0,0,0,0,0,0,0],"id":22,"left_children":[1,3,5,7,9,11,-1,-1,13,15,17,19,21,23,-1,25,27,29,31,33,-1,-1,35,37,-1,39,41,43,-1,45,47,-1,-1,-1,-1,49,-1,51,-1,53,55,57,-1,59,-1,-1,61,63,-1,65,-1,-1,-1,-1,-1,-1,-1,-1,-1,-1,-1,-1,-1,-1,-1,-1,-1],"loss_changes":[1.55078E4,1.5061743E3,2.9643867E3,3.0034668E1,1.2486641E3,6.65907E1,0E0,0E0,5.221265E2,2.6286206E2,2.0469641E2,1.54917755E1,6.572113E0,8.043304E0,0E0,1.4346078E2,1.5093536E1,2.6846071E1,8.1984985E1,5.024929E0,0E0,0E0,1.5637799E1,9.683745E0,0E0,2.8646723E1,2.383377E1,7.677067E0,0E0,1.3368277E1,1.1012211E0,0E0,0E0,0E0,0E0,1.5811687E1,0E0,5.554175E0,0E0,1.2384562E1,1.08390045E1,3.3063273E0,0E0,4.9184246E0,0E0,0E0,2.5406384E0,1.3777386E0,0E0,1.2438651E0,0E0,0E0,0E0,0E0,0E0,0E0,0E0,0E0,0E0,0E0,0E0,0E0,0E0,0E0,0E0,0E0,0E0],"parents":[2147483647,0,0,1,1,2,2,3,3,4,4,5,5,8,8,9,9,10,10,11,11,12,12,13,13,15,15,16,16,17,17,18,18,19,19,22,22,23,23,25,25,26,26,27,27,29,29,30,30,35,35,37,37,39,39,40,40,41,41,43,43,46,46,47,47,49,49],"right_children":[2,4,6,8,10,12,-1,-1,14,16,18,20,22,24,-1,26,28,30,32,34,-1,-1,36,38,-1,40,42,44,-1,46,48,-1,-1,-1,-1,50,-1,52,-1,54,56,58,-1,60,-1,-1,62,64,-1,66,-1,-1,-1,-1,-1,-1,-1,-1,-1,-1,-1,-1,-1,-1,-1,-1,-1],"split_conditions":[8.110747E-1,4.9257547E-1,6.6614836E-1,6.3649994E-1,1.0099648E0,2.7555072E-1,1.5731628E-1,-4.6808235E-2,5.809856E-1,3.774226E-1,4.9568817E-1,2.8340256E-1,4.2264003E-1,2.9787067E-1,1.5393332E-1,-3.0245656E-1,2.4683413E-1,-4.609833E-1,4.5369673E-1,-3.9966825E-1,-1.8006949E-2,-4.6823084E-2,1.3389345E-1,3.3413458E-1,-4.7005847E-2,6.405922E-1,6.131713E-1,2.066293E-1,-4.6656407E-2,-2.40761E-1,-5.139503E-1,1.5694843E-1,-3.8263164E-2,-0E0,1.4489177E-1,6.227945E-1,-4.3344248E-2,3.7748542E-1,-3.4178726E-2,1.5976802E0,-3.9332506E-1,-1.9447854E-1,1.5454333E-1,-5.2802664E-1,6.1744723E-2,9.1591395E-2,1.0371026E0,3.512629E-1,1.2447545E-1,3.9633557E-1,1.13702945E-1,9.635247E-2,-1.717715E-2,-3.439054E-3,-2.3138177E-2,-3.159658E-2,2.276134E-2,4.332918E-2,-2.4788478E-2,-4.1967195E-2,-1.8644175E-2,-3.8461786E-2,-2.317398E-3,-0E0,6.0195837E-2,-2.8887944E-2,9.789465E-3],"split_indices":[8,29,19,8,11,26,0,0,19,21,19,4,11,2,0,19,6,12,21,24,0,0,24,21,0,11,11,19,0,15,4,0,0,0,0,11,0,4,0,28,19,22,0,4,0,0,29,19,0,4,0,0,0,0,0,0,0,0,0,0,0,0,0,0,0,0,0],"split_type":[0,0,0,0,0,0,0,0,0,0,0,0,0,0,0,0,0,0,0,0,0,0,0,0,0,0,0,0,0,0,0,0,0,0,0,0,0,0,0,0,0,0,0,0,0,0,0,0,0,0,0,0,0,0,0,0,0,0,0,0,0,0,0,0,0,0,0],"sum_hessian":[2.7093984E4,2.249828E4,4.5957046E3,1.3169436E4,9.328845E3,5.6659247E2,4.029112E3,1.1657507E4,1.5119282E3,8.875666E3,4.531784E2,2.139274E1,5.451997E2,1.4257162E3,8.6212E1,7.5171357E3,1.3585304E3,7.6019714E1,3.771587E2,1.6384727E1,5.0080123E0,4.788249E2,6.637482E1,2.128803E1,1.4044282E3,7.4655513E3,5.158421E1,2.746056E2,1.0839248E3,6.3713726E1,1.2305991E1,3.6385483E2,1.3303848E1,2.385531E0,1.3999197E1,2.0453318E1,4.59215E1,7.8602004E0,1.342783E1,7.128169E3,3.3738272E2,1.1992013E1,3.9592197E1,2.708416E2,3.7639756E0,4.1067696E0,5.9606956E1,4.779479E0,7.5265117E0,1.3143746E1,7.3095713E0,5.4357324E0,2.4244678E0,6.923239E3,2.0492978E2,3.1469775E2,2.2684956E1,8.205558E0,3.7864552E0,9.0645355E1,1.8019624E2,3.7654327E1,2.1952631E1,2.2766082E0,2.5028706E0,9.0729065E0,4.0708404E0],"tree_param":{"num_deleted":"0","num_feature":"32","num_nodes":"67","size_leaf_vector":"1"}},{"base_weights":[9.405487E-3,-4.0998837E-1,3E0,-1.4281933E-1,-5.074523E-1,2.4E-1,-3.602215E-2,-3.4625188E-2,-1.1211566E-2,-5.1406056E-1,-3.538428E-1,-4.179768E-2,-4.6334684E-1,-4.1407593E-2,2.4E-1,-5.130136E-1,1.0575987E0,-4.135488E-2,2.3354007E-2,-3.5661258E-2,2.4E-1,3.261336E-2,-1.6212424E-2],"categories":[],"categories_nodes":[],"categories_segments":[],"categories_sizes":[],"default_left":[0,0,0,0,0,0,0,0,0,0,0,0,0,0,0,0,0,0,0,0,0,0,0],"id":23,"left_children":[1,3,5,7,9,-1,-1,-1,-1,11,13,-1,15,-1,-1,17,19,-1,21,-1,-1,-1,-1],"loss_changes":[1.6349997E4,2.08672E2,2.3278125E2,1.6191216E0,5.279663E0,0E0,0E0,0E0,0E0,1.6396484E0,1.929928E2,0E0,6.417824E1,0E0,0E0,1.7305756E0,1.2270641E2,0E0,1.4350431E0,0E0,0E0,0E0,0E0],"parents":[2147483647,0,0,1,1,2,2,3,3,4,4,9,9,10,10,12,12,15,15,16,16,18,18],"right_children":[2,4,6,8,10,-1,-1,-1,-1,12,14,-1,16,-1,-1,18,20,-1,22,-1,-1,-1,-1],"split_conditions":[1.173291E0,-7.332439E-1,5.106874E-3,1.5654912E0,9.077698E-1,2.4E-1,-3.602215E-2,-3.4625188E-2,-1.1211566E-2,5.255566E-1,7.0085245E-1,-4.179768E-2,2.0160939E-1,-4.1407593E-2,2.4E-1,2.6398737E-2,1.3550852E-1,-4.135488E-2,6.9041654E-2,-3.5661258E-2,2.4E-1,3.261336E-2,-1.6212424E-2],"split_indices":[9,23,8,28,9,0,0,0,0,29,10,0,10,0,0,10,27,0,16,0,0,0,0],"split_type":[0,0,0,0,0,0,0,0,0,0,0,0,0,0,0,0,0,0,0,0,0,0,0],"sum_hessian":[8.609279E3,8.0284224E3,5.8085706E2,2.1486318E3,5.879791E3,5.6195465E2,1.8902376E1,1.4988888E1,2.1336428E3,5.629655E3,2.5013618E2,4.804418E3,8.252365E2,2.4426064E2,5.8755436E0,8.007423E2,2.4494253E1,7.959264E2,4.8158627E0,1.786034E1,6.633913E0,2.007324E0,2.808539E0],"tree_param":{"num_deleted":"0","num_feature":"32","num_nodes":"23","size_leaf_vector":"1"}},{"base_weights":[-6.6772527E-3,7.397723E-1,-6.8917537E-1,7.88831E-1,-6.7106676E-1,7.812891E-2,-6.9110686E-1,6.102594E-1,1.0921637E0,-5.479789E-2,2.0637174E-1,-2.9616538E-1,-6.9707215E-1,-2.582162E-2,6.141454E-1,8.276414E-2,1.0987484E0,4.4898205E-2,-2.397261E-2,1.0014378E0,-6.7436725E-1,-5.95591E-1,-7.002758E-1,6.1741734E-1,-3.0942482E-1,4.7923902E-1,-4.36483E-1,9.283125E-1,8.974034E-2,-2.6516715E-2,8.711631E-2,-1.2364209E-1,-5.506342E-2,9.032625E-2,-6.765838E-1,-6.787642E-1,-5.6441125E-2,6.081653E-1,7.7642E-1,-4.4578046E-1,1.8486148E-1,7.352244E-2,1.7073166E-2,-0E0,-4.5419674E-2,9.7691894E-1,4.4054943E-1,2.0733472E-2,-3.1544667E-2,-0E0,-5.528005E-2,6.1556727E-1,-6.9153076E-1,4.8821237E-2,2.7359135E-2,6.7357056E-2,2.4428006E-2,-4.873714E-3,-4.6535395E-2,4.020019E-2,-1.699035E-2,-2.0523293E-2,2.6844956E-2,1.8459806E-2,7.899008E-2,4.222627E-2,-3.657145E-2,4.992011E-2,-3.791574E-2,7.882123E-2,-4.3355327E-2,-3.3515688E-2,-5.5479158E-2],"categories":[],"categories_nodes":[],"categories_segments":[],"categories_sizes":[],"default_left":[0,0,0,0,0,0,0,0,0,0,0,0,0,0,0,0,0,0,0,0,0,0,0,0,0,0,0,0,0,0,0,0,0,0,0,0,0,0,0,0,0,0,0,0,0,0,0,0,0,0,0,0,0,0,0,0,0,0,0,0,0,0,0,0,0,0,0,0,0,0,0,0,0],"id":24,"left_children":[1,3,5,7,9,-1,11,13,15,-1,17,19,21,-1,23,25,27,-1,-1,29,31,33,35,37,39,41,43,45,-1,-1,-1,47,-1,-1,49,51,-1,53,55,57,59,-1,-1,61,-1,63,65,-1,-1,67,-1,69,71,-1,-1,-1,-1,-1,-1,-1,-1,-1,-1,-1,-1,-1,-1,-1,-1,-1,-1,-1,-1],"loss_changes":[2.1801594E4,1.4160557E3,7.376074E1,1.0682529E3,8.796387E0,0E0,5.165332E1,4.5663086E1,4.7396484E1,0E0,3.1199512E0,1.6779103E2,5.9189453E0,0E0,3.7976562E1,1.1539182E1,2.5791016E1,0E0,0E0,9.949158E0,1.2367401E0,9.876999E1,1.0869141E0,1.6983398E1,3.4627295E0,2.9495625E0,1.3061543E0,1.9283813E1,0E0,0E0,0E0,1.7548926E0,0E0,0E0,6.070709E0,7.1298706E1,0E0,5.675293E0,1.9540253E1,1.4793153E0,2.0891898E0,0E0,0E0,1.362226E0,0E0,4.9016724E0,7.4381313E0,0E0,0E0,6.388465E0,0E0,1.9918795E1,1.1824951E0,0E0,0E0,0E0,0E0,0E0,0E0,0E0,0E0,0E0,0E0,0E0,0E0,0E0,0E0,0E0,0E0,0E0,0E0,0E0,0E0],"parents":[2147483647,0,0,1,1,2,2,3,3,4,4,6,6,7,7,8,8,10,10,11,11,12,12,14,14,15,15,16,16,19,19,20,20,21,21,22,22,23,23,24,24,25,25,26,26,27,27,31,31,34,34,35,35,37,37,38,38,39,39,40,40,43,43,45,45,46,46,49,49,51,51,52,52],"right_children":[2,4,6,8,10,-1,12,14,16,-1,18,20,22,-1,24,26,28,-1,-1,30,32,34,36,38,40,42,44,46,-1,-1,-1,48,-1,-1,50,52,-1,54,56,58,60,-1,-1,62,-1,64,66,-1,-1,68,-1,70,72,-1,-1,-1,-1,-1,-1,-1,-1,-1,-1,-1,-1,-1,-1,-1,-1,-1,-1,-1,-1],"split_conditions":[-4.7654605E-1,1.4573975E-1,-7.246956E-1,-2.1983783E-1,1.0827156E0,7.812891E-2,-4.110943E-1,-9.299139E-1,2.4592069E-1,-5.479789E-2,-2.764865E-1,-2.4340691E-2,-3.5203928E-1,-2.582162E-2,-4.5111355E-1,-4.434293E-1,-2.1942924E-1,4.4898205E-2,-2.397261E-2,-1.6859192E-1,2.1207968E-2,-7.983411E-2,-5.6579597E-2,-6.038751E-1,-2.6108384E-1,-1.5824206E-1,5.9359676E-1,-5.68259E-1,8.974034E-2,-2.6516715E-2,8.711631E-2,7.055489E-1,-5.506342E-2,9.032625E-2,6.9041654E-2,-1.8766986E-1,-5.6441125E-2,-7.9022366E-1,-7.0580375E-1,-4.4577497E-1,-2.2805016E-1,7.352244E-2,1.7073166E-2,-5.267415E-1,-4.5419674E-2,-5.61333E-1,-9.384669E-2,2.0733472E-2,-3.1544667E-2,2.9087654E-1,-5.528005E-2,6.9041654E-2,-5.5805976E-3,4.8821237E-2,2.7359135E-2,6.7357056E-2,2.4428006E-2,-4.873714E-3,-4.6535395E-2,4.020019E-2,-1.699035E-2,-2.0523293E-2,2.6844956E-2,1.8459806E-2,7.899008E-2,4.222627E-2,-3.657145E-2,4.992011E-2,-3.791574E-2,7.882123E-2,-4.3355327E-2,-3.3515688E-2,-5.5479158E-2],"split_indices":[3,8,2,9,28,0,3,5,21,0,2,8,3,0,16,19,18,0,0,9,16,8,3,21,9,7,23,16,0,0,0,29,0,0,16,2,0,14,26,18,17,0,0,5,0,0,19,0,0,7,0,16,2,0,0,0,0,0,0,0,0,0,0,0,0,0,0,0,0,0,0,0,0],"split_type":[0,0,0,0,0,0,0,0,0,0,0,0,0,0,0,0,0,0,0,0,0,0,0,0,0,0,0,0,0,0,0,0,0,0,0,0,0,0,0,0,0,0,0,0,0,0,0,0,0,0,0,0,0,0,0,0,0,0,0,0,0,0,0,0,0,0,0,0,0,0,0,0,0],"sum_hessian":[4.2787594E4,2.0435904E4,2.235169E4,1.9750367E4,6.8553784E2,2.4417662E1,2.2327273E4,1.2436617E4,7.31375E3,6.758348E2,9.703045E0,3.349747E2,2.1992299E4,5.036811E1,1.2386249E4,4.807017E1,7.26568E3,6.1560235E0,3.5470212E0,7.455617E1,2.6041855E2,6.8923804E2,2.130306E4,1.2343724E4,4.2525322E1,2.7890905E1,2.0179268E1,8.7651984E2,6.38916E3,3.898147E0,7.065802E1,7.795255E0,2.5262329E2,2.9477917E1,6.5976013E2,4.241518E3,1.7061541E4,1.1677057E4,6.6666724E2,3.427729E1,8.248032E0,7.9472013E0,1.9943705E1,4.7481422E0,1.5431126E1,7.9433246E2,8.218741E1,2.4988008E0,5.2964544E0,1.3933181E1,6.4582697E2,4.0122337E1,4.2013955E3,1.1581215E4,9.584187E1,5.829247E2,8.374251E1,1.066181E1,2.361548E1,4.988143E0,3.259889E0,2.5937378E0,2.1544042E0,1.2276559E1,7.8205585E2,7.6163376E1,6.024034E0,5.661602E0,8.271579E0,3.0962698E1,9.159639E0,3.4862816E1,4.1665327E3],"tree_param":{"num_deleted":"0","num_feature":"32","num_nodes":"73","size_leaf_vector":"1"}},{"base_weights":[2.2404358E-2,-3.4765238E-1,3E0,-1.941615E-2,-4.7381327E-1,2.4E-1,-3.926827E-2,-4.531739E-2,2.4E-1,-4.9409962E-1,5.956199E-1,-3.2355427E-3,-3.538885E-2,-4.0801302E-1,-4.1004118E-2,2.4E-1,-3.9804734E-2,-5.01282E-1,1.4225588E0,-4.0882286E-2,-0E0,3E0,-3.68476E-2,1.2121596E-1,-3.281116E-2,-1.3156452E-2,2.4E-1],"categories":[],"categories_nodes":[],"categories_segments":[],"categories_sizes":[],"default_left":[0,0,0,0,0,0,0,0,0,0,0,0,0,0,0,0,0,0,0,0,0,0,0,0,0,0,0],"id":25,"left_children":[1,3,5,7,9,-1,-1,11,-1,13,15,-1,-1,17,-1,-1,-1,19,21,-1,23,25,-1,-1,-1,-1,-1],"loss_changes":[1.08361455E4,2.6801465E2,6.494785E2,1.9087195E2,1.0242969E2,0E0,0E0,3.6089292E0,0E0,6.597534E0,3.623395E2,0E0,0E0,1.4320042E2,0E0,0E0,0E0,3.7977905E0,1.9801657E2,0E0,1.3698444E1,2.7038269E1,0E0,0E0,0E0,0E0,0E0],"parents":[2147483647,0,0,1,1,2,2,3,3,4,4,7,7,9,9,10,10,13,13,17,17,18,18,20,20,21,21],"right_children":[2,4,6,8,10,-1,-1,12,-1,14,16,-1,-1,18,-1,-1,-1,20,22,-1,24,26,-1,-1,-1,-1,-1],"split_conditions":[1.8560745E0,-5.246232E-1,1.6521686E0,-1.2023489E-1,1.6613579E0,2.4E-1,-3.926827E-2,-4.7024658E-1,2.4E-1,-1.6859192E-1,9.694864E-2,-3.2355427E-3,-3.538885E-2,8.672594E-1,-4.1004118E-2,2.4E-1,-3.9804734E-2,7.2108215E-1,-3.4662192E-3,-4.0882286E-2,-2.2860451E-1,3.7804803E-1,-3.68476E-2,1.2121596E-1,-3.281116E-2,-1.3156452E-2,2.4E-1],"split_indices":[3,20,4,3,3,0,0,30,0,9,13,0,0,3,0,0,0,0,10,0,7,23,0,0,0,0,0],"split_type":[0,0,0,0,0,0,0,0,0,0,0,0,0,0,0,0,0,0,0,0,0,0,0,0,0,0,0],"sum_hessian":[6.9642446E3,6.4772124E3,4.870322E2,1.8001039E3,4.6771084E3,4.344217E2,5.261049E1,1.7921001E3,8.0037155E0,4.5915537E3,8.555488E1,1.7737926E3,1.8307585E1,8.2338794E2,3.7681655E3,1.5544764E1,7.001012E1,7.8511145E2,3.8276535E1,7.708382E2,1.4273214E1,1.4231269E1,2.4045265E1,2.0887506E0,1.2184464E1,2.3314078E0,1.189986E1],"tree_param":{"num_deleted":"0","num_feature":"32","num_nodes":"27","size_leaf_vector":"1"}},{"base_weights":[-3.123295E-3,-4.5035723E-1,1.5892483E0,-4.6775788E-1,1.9017889E-1,-4.690141E-1,2.014659E0,-5.3563917E-1,-3.734925E-1,-5.4662126E-1,1.4465222E0,3.2647702E-1,-5.3331953E-1,-2.7762958E-1,2.056819E0,1.2656133E-1,-5.373613E-1,-4.024171E-1,8.2402205E-1,-4.443922E-2,4.7611436E-3,-1.0152172E-1,1.8737539E0,8.705158E-1,-3.9741226E-2,-4.4959802E-2,7.901091E-2,-4.2918436E-2,9.385436E-1,1.64659E-1,3.983135E-3,-5.41158E-1,3.24639E-1,-3.6698967E-1,-5.340745E-1,9.4811344E-1,-3.659475E-2,-3.739408E-2,1.3461862E0,-1.4030591E-2,1.9172806E0,1.8167447E-1,1.4223727E0,-2.954047E-1,8.9748293E-1,-2.3542074E-2,1.2678623E-1,-4.412228E-2,-4.6850398E-1,-3.9607268E-2,1.4735578E0,-3.7325084E-1,4.857213E-1,-4.392389E-2,-2.243382E-1,1.0796696E0,-3.5575915E-2,1.3819626E-1,1.1717896E-2,1.6017964E-1,1.0369519E0,1.0275088E-1,-1.5677772E-1,-9.05948E-3,1.5148495E-1,-3.941451E-2,6.336951E-2,-2.1667259E-2,1.2244798E-1,-4.4692088E-2,2.0254161E-2,1.549451E-1,-2.1309976E-2,4.292702E-3,-2.9971914E-2,8.553604E-2,-1.2290351E-2,5.0675638E-2,-3.3935264E-2,-1.6096558E-2,9.770568E-2,-2.1516724E-2,1.14427365E-1,-2.8799083E-2,3.6040016E-2],"categories":[],"categories_nodes":[],"categories_segments":[],"categories_sizes":[],"default_left":[0,0,0,0,0,0,0,0,0,0,0,0,0,0,0,0,0,0,0,0,0,0,0,0,0,0,0,0,0,0,0,0,0,0,0,0,0,0,0,0,0,0,0,0,0,0,0,0,0,0,0,0,0,0,0,0,0,0,0,0,0,0,0,0,0,0,0,0,0,0,0,0,0,0,0,0,0,0,0,0,0,0,0,0,0],"id":26,"left_children":[1,3,5,7,9,11,13,15,17,19,21,23,25,27,29,-1,31,33,35,-1,-1,37,39,41,-1,-1,43,-1,45,-1,-1,47,49,51,53,55,-1,-1,57,-1,59,61,63,65,67,-1,-1,-1,69,-1,71,73,75,-1,77,79,-1,-1,-1,-1,81,-1,83,-1,-1,-1,-1,-1,-1,-1,-1,-1,-1,-1,-1,-1,-1,-1,-1,-1,-1,-1,-1,-1,-1],"loss_changes":[1.4689572E4,1.797732E2,3.9624482E3,9.967334E1,3.985648E2,4.0303696E1,3.6358496E2,3.5705322E1,2.2879541E2,1.5609436E0,1.0588168E2,2.821837E1,1.2802597E1,2.3662098E1,8.2421875E0,0E0,3.0304932E1,2.9398804E1,2.597293E1,0E0,0E0,2.1508114E1,1.1934601E1,1.2829519E1,0E0,0E0,1.2065737E1,0E0,1.2040157E1,0E0,0E0,6.01001E0,4.1651016E1,2.7672852E1,5.6183777E0,2.7503174E1,0E0,0E0,1.8361797E0,0E0,3.643982E0,9.189523E0,1.53252945E1,6.5858335E0,1.0287928E1,0E0,0E0,0E0,7.544513E1,0E0,1.6090694E1,3.072937E0,1.5168531E1,0E0,1.2700398E1,2.4604858E1,0E0,0E0,0E0,0E0,9.424618E0,0E0,2.816324E0,0E0,0E0,0E0,0E0,0E0,0E0,0E0,0E0,0E0,0E0,0E0,0E0,0E0,0E0,0E0,0E0,0E0,0E0,0E0,0E0,0E0,0E0],"parents":[2147483647,0,0,1,1,2,2,3,3,4,4,5,5,6,6,7,7,8,8,9,9,10,10,11,11,12,12,13,13,14,14,16,16,17,17,18,18,21,21,22,22,23,23,26,26,28,28,31,31,32,32,33,33,34,34,35,35,38,38,40,40,41,41,42,42,43,43,44,44,48,48,50,50,51,51,52,52,54,54,55,55,60,60,62,62],"right_children":[2,4,6,8,10,12,14,16,18,20,22,24,26,28,30,-1,32,34,36,-1,-1,38,40,42,-1,-1,44,-1,46,-1,-1,48,50,52,54,56,-1,-1,58,-1,60,62,64,66,68,-1,-1,-1,70,-1,72,74,76,-1,78,80,-1,-1,-1,-1,82,-1,84,-1,-1,-1,-1,-1,-1,-1,-1,-1,-1,-1,-1,-1,-1,-1,-1,-1,-1,-1,-1,-1,-1],"split_conditions":[4.129368E-1,2.7607647E-1,2.4364756E-1,5.141864E-1,4.833042E-2,7.4832493E-1,-1.5214929E-1,-6.3816845E-1,-2.586903E-1,4.086354E-1,-1.579403E-1,3.8720992E-1,1.2846904E-1,1.45656E0,1.5694653E0,1.2656133E-1,1.2446209E0,2.6581618E-1,2.8447413E-1,-4.443922E-2,4.7611436E-3,3.5035354E-1,-1.1986054E-1,1.24234594E-1,-3.9741226E-2,-4.4959802E-2,5.8973277E-1,-4.2918436E-2,-2.956568E-1,1.64659E-1,3.983135E-3,1.2598743E-1,1.8537383E-1,-5.6594986E-1,-1.5801603E-1,7.405365E-1,-3.659475E-2,-3.739408E-2,3.7804803E-1,-1.4030591E-2,7.2108215E-1,6.826579E-1,7.5194605E-2,6.496955E-1,-7.640239E-2,-2.3542074E-2,1.2678623E-1,-4.412228E-2,2.824492E-1,-3.9607268E-2,-3.5012495E-2,-9.0892625E-1,1.0505194E-1,-4.392389E-2,-6.372415E-1,-5.0767636E-1,-3.5575915E-2,1.3819626E-1,1.1717896E-2,1.6017964E-1,-5.034388E-1,1.0275088E-1,2.6398737E-2,-9.05948E-3,1.5148495E-1,-3.941451E-2,6.336951E-2,-2.1667259E-2,1.2244798E-1,-4.4692088E-2,2.0254161E-2,1.549451E-1,-2.1309976E-2,4.292702E-3,-2.9971914E-2,8.553604E-2,-1.2290351E-2,5.0675638E-2,-3.3935264E-2,-1.6096558E-2,9.770568E-2,-2.1516724E-2,1.14427365E-1,-2.8799083E-2,3.6040016E-2],"split_indices":[17,17,22,29,6,2,6,27,4,1,24,27,22,17,22,0,8,27,18,0,0,29,22,27,0,0,14,0,6,0,0,17,22,8,1,6,0,0,23,0,0,3,23,8,18,0,0,0,1,0,19,2,27,0,3,18,0,0,0,0,29,0,10,0,0,0,0,0,0,0,0,0,0,0,0,0,0,0,0,0,0,0,0,0,0],"split_type":[0,0,0,0,0,0,0,0,0,0,0,0,0,0,0,0,0,0,0,0,0,0,0,0,0,0,0,0,0,0,0,0,0,0,0,0,0,0,0,0,0,0,0,0,0,0,0,0,0,0,0,0,0,0,0,0,0,0,0,0,0,0,0,0,0,0,0,0,0,0,0,0,0,0,0,0,0,0,0,0,0,0,0,0,0],"sum_hessian":[2.0620643E4,1.6100423E4,4.5202207E3,1.5675895E4,4.2452768E2,7.739998E2,3.746221E3,9.104789E3,6.5711055E3,2.6805493E2,1.5647273E2,5.669717E1,7.173027E2,6.724081E1,3.67898E3,5.6710515E0,9.099118E3,6.4178354E3,1.5327007E2,2.6516702E2,2.8879173E0,3.392009E1,1.2255264E2,3.4434002E1,2.2263166E1,6.861484E2,3.1154278E1,5.6701347E1,1.0539461E1,3.6760815E3,2.8984957E0,9.060535E3,3.8582794E1,5.0660063E3,1.351829E3,1.4056839E2,1.2701672E1,2.843328E1,5.486809E0,2.184105E0,1.2036854E2,1.6901535E1,1.7532469E1,2.1833607E1,9.320671E0,3.7334313E0,6.80603E0,7.9112383E3,1.1492972E3,2.2927483E1,1.56553135E1,5.030778E3,3.52284E1,1.2864751E3,6.535387E1,1.291759E2,1.139249E1,3.1797442E0,2.3070645E0,1.0693123E2,1.3437306E1,3.0034711E0,1.3898064E1,4.2241273E0,1.3308341E1,1.9796265E1,2.0373418E0,3.4004045E0,5.9202666E0,1.0226944E3,1.2660289E2,1.241175E1,3.2435634E0,1.5010017E1,5.015768E3,1.8124846E1,1.7103556E1,1.1056686E1,5.429718E1,1.2427758E1,1.1674814E2,2.9629636E0,1.0474342E1,1.1640589E1,2.257475E0],"tree_param":{"num_deleted":"0","num_feature":"32","num_nodes":"85","size_leaf_vector":"1"}},{"base_weights":[-4.9957233E-3,-4.8983884E-1,1.0731709E0,-5.235828E-1,1.988042E-1,1.9981225E0,-5.2400094E-1,-5.5887854E-1,-4.7194195E-1,1.4478891E0,-4.614449E-1,2.0349426E0,-4.5737365E-1,-5.502362E-1,9.978076E-1,-5.591812E-1,6.326616E-3,-4.7553E-1,-2.1039541E-1,6.211917E-1,1.8310812E0,-5.1991403E-1,6.362381E-1,2.0364113E0,-1.5074248E-2,-4.2727E-2,5.387773E-2,6.26872E-1,-5.569834E-1,-3.0342003E-2,1.7159178E0,-9.703347E-2,-4.4770364E-2,-3.838896E-2,-2.4984019E-2,6.121376E-1,-4.6334657E-1,-4.5827523E-2,8.996983E-1,1.9235137E0,-0E0,3.2430956E-1,-5.428733E-1,1.195235E-1,-1.9623933E-2,1.0643756E0,1.6317344E-1,1.243385E-1,-2.8834175E-2,-5.590555E-1,5.595912E-2,1.5936534E-1,-4.0629846E-3,-3.1211121E-2,4.0837996E-2,1.4322307E0,2.0861715E-2,-4.1568857E-2,3.2394495E-2,8.502937E-2,-2.7401167E-1,1.3879129E0,1.8521574E-1,1.9739866E0,-4.6613007E-3,3.0495366E-2,-2.5836064E-2,-2.9730111E-2,1.15495756E-1,-4.4602647E-2,-1.3108101E-1,1.3322839E-1,-2.6066989E-2,-2.2335355E-1,-4.4934276E-2,1.5327737E-1,9.623955E-3,4.532685E-2,-2.1615898E-2,2.748167E-2,-3.3972662E-2,1.2746033E-1,-2.0097833E-2,5.0661772E-2,-3.4286823E-2,5.7082884E-2,1.6120538E-1,2.6511563E-2,-3.495049E-2,8.214685E-2,-3.8639195E-2],"categories":[],"categories_nodes":[],"categories_segments":[],"categories_sizes":[],"default_left":[0,0,0,0,0,0,0,0,0,0,0,0,0,0,0,0,0,0,0,0,0,0,0,0,0,0,0,0,0,0,0,0,0,0,0,0,0,0,0,0,0,0,0,0,0,0,0,0,0,0,0,0,0,0,0,0,0,0,0,0,0,0,0,0,0,0,0,0,0,0,0,0,0,0,0,0,0,0,0,0,0,0,0,0,0,0,0,0,0,0,0],"id":27,"left_children":[1,3,5,7,9,11,13,15,17,19,21,23,25,27,29,31,-1,33,35,37,39,41,43,45,-1,-1,-1,47,49,-1,51,53,-1,-1,-1,55,57,59,61,63,65,67,69,-1,-1,71,-1,-1,-1,73,-1,-1,-1,-1,-1,75,77,-1,-1,-1,79,81,83,85,-1,-1,-1,-1,-1,-1,87,-1,-1,89,-1,-1,-1,-1,-1,-1,-1,-1,-1,-1,-1,-1,-1,-1,-1,-1,-1],"loss_changes":[1.0857938E4,3.3327393E2,9.520709E3,2.40979E1,5.5597687E2,3.7104102E2,9.601648E1,1.6916504E0,4.656372E0,7.0407745E1,2.9278244E1,1.3994141E1,6.5246954E0,1.949115E1,4.2569645E1,1.0578613E0,0E0,3.2615967E0,1.8057608E1,1.483717E1,2.6658875E1,8.667358E0,1.930487E1,6.876953E0,0E0,0E0,0E0,1.5301289E1,7.1589966E0,0E0,1.3905792E1,3.113443E0,0E0,0E0,0E0,9.152471E0,3.8037548E0,7.5456524E0,1.8101913E1,1.534259E1,2.0737438E0,1.21031475E1,1.8534393E0,0E0,0E0,1.7282484E1,0E0,0E0,0E0,1.3383179E0,0E0,0E0,0E0,0E0,0E0,3.3213444E0,3.4284282E0,0E0,0E0,0E0,2.7292435E0,1.1984425E1,8.3164425E0,3.1195068E0,0E0,0E0,0E0,0E0,0E0,0E0,3.4384334E0,0E0,0E0,9.268849E0,0E0,0E0,0E0,0E0,0E0,0E0,0E0,0E0,0E0,0E0,0E0,0E0,0E0,0E0,0E0,0E0,0E0],"parents":[2147483647,0,0,1,1,2,2,3,3,4,4,5,5,6,6,7,7,8,8,9,9,10,10,11,11,12,12,13,13,14,14,15,15,17,17,18,18,19,19,20,20,21,21,22,22,23,23,27,27,28,28,30,30,31,31,35,35,36,36,37,37,38,38,39,39,40,40,41,41,42,42,45,45,49,49,55,55,56,56,60,60,61,61,62,62,63,63,70,70,73,73],"right_children":[2,4,6,8,10,12,14,16,18,20,22,24,26,28,30,32,-1,34,36,38,40,42,44,46,-1,-1,-1,48,50,-1,52,54,-1,-1,-1,56,58,60,62,64,66,68,70,-1,-1,72,-1,-1,-1,74,-1,-1,-1,-1,-1,76,78,-1,-1,-1,80,82,84,86,-1,-1,-1,-1,-1,-1,88,-1,-1,90,-1,-1,-1,-1,-1,-1,-1,-1,-1,-1,-1,-1,-1,-1,-1,-1,-1],"split_conditions":[7.980874E-1,4.086354E-1,2.5378263E-1,8.2147455E-1,6.9041654E-2,7.078072E-1,1.1961794E0,9.2249346E-1,9.359429E-1,-2.4980571E-2,3.2384425E-2,1.0398227E0,7.149712E-1,2.674313E-1,6.3064866E-2,-5.1601917E-1,6.326616E-3,1.5976802E0,7.7479506E-1,-7.107071E-2,7.453104E-1,-5.2774584E-1,-4.4892736E-2,-1.649277E-2,-1.5074248E-2,-4.2727E-2,5.387773E-2,-2.1942924E-1,3.0252263E-1,-3.0342003E-2,4.2349282E-1,-2.6108384E-1,-4.4770364E-2,-3.838896E-2,-2.4984019E-2,7.751772E-1,2.3115379E-1,-1.7961533E-1,2.1047965E-1,5.577685E-1,4.7378394E-1,-9.3817905E-2,8.202633E-2,1.195235E-1,-1.9623933E-2,2.0160939E-1,1.6317344E-1,1.243385E-1,-2.8834175E-2,3.0527958E-1,5.595912E-2,1.5936534E-1,-4.0629846E-3,-3.1211121E-2,4.0837996E-2,2.1236706E-1,-4.3949753E-1,-4.1568857E-2,3.2394495E-2,8.502937E-2,2.4683413E-1,2.1207968E-2,5.753009E-1,-9.280341E-2,-4.6613007E-3,3.0495366E-2,-2.5836064E-2,-2.9730111E-2,1.15495756E-1,-4.4602647E-2,3.2294905E-1,1.3322839E-1,-2.6066989E-2,-3.2488022E-2,-4.4934276E-2,1.5327737E-1,9.623955E-3,4.532685E-2,-2.1615898E-2,2.748167E-2,-3.3972662E-2,1.2746033E-1,-2.0097833E-2,5.0661772E-2,-3.4286823E-2,5.7082884E-2,1.6120538E-1,2.6511563E-2,-3.495049E-2,8.214685E-2,-3.8639195E-2],"split_indices":[1,1,16,28,16,5,8,30,17,20,20,0,31,10,27,15,0,28,15,9,5,18,18,9,0,0,0,18,20,0,21,9,0,0,0,5,1,8,11,11,6,0,13,0,0,10,0,0,0,16,0,0,0,0,0,8,16,0,0,0,6,16,15,25,0,0,0,0,0,0,9,0,0,31,0,0,0,0,0,0,0,0,0,0,0,0,0,0,0,0,0],"split_type":[0,0,0,0,0,0,0,0,0,0,0,0,0,0,0,0,0,0,0,0,0,0,0,0,0,0,0,0,0,0,0,0,0,0,0,0,0,0,0,0,0,0,0,0,0,0,0,0,0,0,0,0,0,0,0,0,0,0,0,0,0,0,0,0,0,0,0,0,0,0,0,0,0,0,0,0,0,0,0,0,0,0,0,0,0,0,0,0,0,0,0],"sum_hessian":[2.0764707E4,1.4324602E4,6.4401064E3,1.3656623E4,6.6797876E2,4.0781726E3,2.3619336E3,8.094699E3,5.5619233E3,2.3042438E2,4.3755438E2,4.018462E3,5.9710716E1,2.3234832E3,3.845034E1,8.091891E3,2.8084135E0,5.4831543E3,7.8768974E1,7.5052765E1,1.5537161E2,4.1685825E2,2.0696133E1,4.016202E3,2.2601109E0,5.7319836E1,2.390879E0,1.1772307E1,2.311711E3,1.3263339E1,2.5187E1,9.34555E0,8.0825454E3,5.3346333E3,1.4852113E2,1.7393406E1,6.137557E1,2.2070316E1,5.298245E1,1.4803806E2,7.333551E0,9.765037E0,4.070932E2,1.0072423E1,1.0623711E1,1.6112537E1,4.0000894E3,5.7393656E0,6.032942E0,2.3094104E3,2.3005683E0,2.1806395E1,3.380606E0,7.341923E0,2.0036259E0,5.740803E0,1.1652602E1,5.893554E1,2.440028E0,2.1443455E0,1.992597E1,2.9939524E1,2.3042927E1,1.446151E2,3.422962E0,2.5730865E0,4.7604647E0,6.569838E0,3.195198E0,3.9124295E2,1.585027E1,1.1224218E1,4.8883195E0,2.0717794E1,2.2886926E3,3.2430649E0,2.497738E0,3.9921408E0,7.660461E0,2.7546065E0,1.7171364E1,2.6927256E1,3.0122666E0,1.375404E1,9.288886E0,6.108275E0,1.3850682E2,5.5915155E0,1.0258755E1,2.2152858E0,1.8502508E1],"tree_param":{"num_deleted":"0","num_feature":"32","num_nodes":"91","size_leaf_vector":"1"}},{"base_weights":[1.6501606E-2,-4.5848206E-1,2.9086413E0,-4.654268E-1,2.1371613E0,-3.4631673E-2,2.3457007E-1,-4.7786012E-1,5.565123E-2,2.2607575E-1,-2.8551605E-2,-5.2594423E-1,-3.8673016E-1,2.2689976E-1,-4.1687716E-2,-4.270488E-2,-4.6585348E-1,-4.2892146E-1,1.35243E0,1.8207008E-1,-4.7869012E-1,-4.303485E-1,6.9958135E-2,2.008368E0,-4.1305658E-1,-9.081715E-3,-4.2387333E-2,-3.3108614E-2,-4.1954674E-2,5.7698987E-2,2.1817854E-1,-3.839691E-2,5.1159584E-3],"categories":[],"categories_nodes":[],"categories_segments":[],"categories_sizes":[],"default_left":[0,0,0,0,0,0,0,0,0,0,0,0,0,0,0,0,0,0,0,0,0,0,0,0,0,0,0,0,0,0,0,0,0],"id":28,"left_children":[1,3,5,7,9,-1,-1,11,13,-1,-1,15,17,-1,-1,-1,19,21,23,-1,25,27,-1,29,31,-1,-1,-1,-1,-1,-1,-1,-1],"loss_changes":[1.8845719E4,2.1542578E2,1.5463281E2,7.62312E1,5.751483E1,0E0,0E0,4.962915E1,4.47936E2,0E0,0E0,2.7612305E0,2.9362677E2,0E0,0E0,0E0,3.472258E1,8.414917E0,1.1212944E2,0E0,1.609784E1,5.4108276E0,0E0,5.894577E1,1.0558724E0,0E0,0E0,0E0,0E0,0E0,0E0,0E0,0E0],"parents":[2147483647,0,0,1,1,2,2,3,3,4,4,7,7,8,8,11,11,12,12,16,16,17,17,18,18,20,20,21,21,23,23,24,24],"right_children":[2,4,6,8,10,-1,-1,12,14,-1,-1,16,18,-1,-1,-1,20,22,24,-1,26,28,-1,30,32,-1,-1,-1,-1,-1,-1,-1,-1],"split_conditions":[1.110104E0,1.243571E0,2.7691063E-2,6.408926E-1,2.074654E0,-3.4631673E-2,2.3457007E-1,6.8592197E-1,3.9284623E-1,2.2607575E-1,