{"learner":{"attributes":{"best_iteration":"69","best_score":"0.2769609625444653","scikit_learn":"{\"_estimator_type\": \"classifier\"}"},"feature_names":[],"feature_types":[],"gradient_booster":{"model":{"cats":{"enc":[],"feature_segments":[],"sorted_idx":[]},"gbtree_model_param":{"num_parallel_tree":"1","num_trees":"880"},"iteration_indptr":[0,8,16,24,32,40,48,56,64,72,80,88,96,104,112,120,128,136,144,152,160,168,176,184,192,200,208,216,224,232,240,248,256,264,272,280,288,296,304,312,320,328,336,344,352,360,368,376,384,392,400,408,416,424,432,440,448,456,464,472,480,488,496,504,512,520,528,536,544,552,560,568,576,584,592,600,608,616,624,632,640,648,656,664,672,680,688,696,704,712,720,728,736,744,752,760,768,776,784,792,800,808,816,824,832,840,848,856,864,872,880],"tree_info":[0,1,2,3,4,5,6,7,0,1,2,3,4,5,6,7,0,1,2,3,4,5,6,7,0,1,2,3,4,5,6,7,0,1,2,3,4,5,6,7,0,1,2,3,4,5,6,7,0,1,2,3,4,5,6,7,0,1,2,3,4,5,6,7,0,1,2,3,4,5,6,7,0,1,2,3,4,5,6,7,0,1,2,3,4,5,6,7,0,1,2,3,4,5,6,7,0,1,2,3,4,5,6,7,0,1,2,3,4,5,6,7,0,1,2,3,4,5,6,7,0,1,2,3,4,5,6,7,0,1,2,3,4,5,6,7,0,1,2,3,4,5,6,7,0,1,2,3,4,5,6,7,0,1,2,3,4,5,6,7,0,1,2,3,4,5,6,7,0,1,2,3,4,5,6,7,0,1,2,3,4,5,6,7,0,1,2,3,4,5,6,7,0,1,2,3,4,5,6,7,0,1,2,3,4,5,6,7,0,1,2,3,4,5,6,7,0,1,2,3,4,5,6,7,0,1,2,3,4,5,6,7,0,1,2,3,4,5,6,7,0,1,2,3,4,5,6,7,0,1,2,3,4,5,6,7,0,1,2,3,4,5,6,7,0,1,2,3,4,5,6,7,0,1,2,3,4,5,6,7,0,1,2,3,4,5,6,7,0,1,2,3,4,5,6,7,0,1,2,3,4,5,6,7,0,1,2,3,4,5,6,7,0,1,2,3,4,5,6,7,0,1,2,3,4,5,6,7,0,1,2,3,4,5,6,7,0,1,2,3,4,5,6,7,0,1,2,3,4,5,6,7,0,1,2,3,4,5,6,7,0,1,2,3,4,5,6,7,0,1,2,3,4,5,6,7,0,1,2,3,4,5,6,7,0,1,2,3,4,5,6,7,0,1,2,3,4,5,6,7,0,1,2,3,4,5,6,7,0,1,2,3,4,5,6,7,0,1,2,3,4,5,6,7,0,1,2,3,4,5,6,7,0,1,2,3,4,5,6,7,0,1,2,3,4,5,6,7,0,1,2,3,4,5,6,7,0,1,2,3,4,5,6,7,0,1,2,3,4,5,6,7,0,1,2,3,4,5,6,7,0,1,2,3,4,5,6,7,0,1,2,3,4,5,6,7,0,1,2,3,4,5,6,7,0,1,2,3,4,5,6,7,0,1,2,3,4,5,6,7,0,1,2,3,4,5,6,7,0,1,2,3,4,5,6,7,0,1,2,3,4,5,6,7,0,1,2,3,4,5,6,7,0,1,2,3,4,5,6,7,0,1,2,3,4,5,6,7,0,1,2,3,4,5,6,7,0,1,2,3,4,5,6,7,0,1,2,3,4,5,6,7,0,1,2,3,4,5,6,7,0,1,2,3,4,5,6,7,0,1,2,3,4,5,6,7,0,1,2,3,4,5,6,7,0,1,2,3,4,5,6,7,0,1,2,3,4,5,6,7,0,1,2,3,4,5,6,7,0,1,2,3,4,5,6,7,0,1,2,3,4,5,6,7,0,1,2,3,4,5,6,7,0,1,2,3,4,5,6,7,0,1,2,3,4,5,6,7,0,1,2,3,4,5,6,7,0,1,2,3,4,5,6,7,0,1,2,3,4,5,6,7,0,1,2,3,4,5,6,7,0,1,2,3,4,5,6,7,0,1,2,3,4,5,6,7,0,1,2,3,4,5,6,7,0,1,2,3,4,5,6,7,0,1,2,3,4,5,6,7,0,1,2,3,4,5,6,7,0,1,2,3,4,5,6,7,0,1,2,3,4,5,6,7,0,1,2,3,4,5,6,7,0,1,2,3,4,5,6,7,0,1,2,3,4,5,6,7,0,1,2,3,4,5,6,7,0,1,2,3,4,5,6,7,0,1,2,3,4,5,6,7,0,1,2,3,4,5,6,7,0,1,2,3,4,5,6,7,0,1,2,3,4,5,6,7,0,1,2,3,4,5,6,7,0,1,2,3,4,5,6,7,0,1,2,3,4,5,6,7],"trees":[{"base_weights":[-7.3561125E-4,9.095118E-1,-7.209442E-1,1.0102775E0,-7.382158E-1,1.1724971E-1,-7.392735E-1,7.757244E-1,1.4578172E0,4.9910072E-2,-7.4206823E-1,-4.1996434E-1,-7.4680996E-1,-3.5847208E-1,7.8077227E-1,1.2460022E0,1.4771998E0,2.2414472E-2,-7.451528E-1,8.593744E-1,-7.3336095E-1,-7.515968E-1,-6.582058E-1,5.923564E-2,-3.7775535E-2,7.898438E-1,1.9112329E-1,1.3119241E0,5.486751E-1,2.2126906E-2,1.1820904E-1,-0E0,-7.466878E-1,-5.5534065E-2,1.1533882E-1,-1.941921E-1,-5.9333477E-2,-7.519795E-1,-2.7159342E-1,3.5244903E-1,-7.457469E-1,5.3979762E-2,-3.921089E-2,7.7609795E-1,1.0381055E0,1.0211805E-1,8.382702E-2,1.3183131E0,-0E0,1.1338079E-1,9.862085E-1,-5.9919648E-2,-2.0170796E-1,-4.1476984E-2,3.265483E-2,-6.0233783E-2,-6.6730815E-1,-5.1888846E-2,7.2927274E-2,-3.8667384E-1,1.2971458E0,-2.939844E-1,-5.995966E-2,-1.4136631E-4,6.2171992E-2,8.373704E-2,-1.3978102E-2,-4.5353055E-2,1.7281791E-2,-0E0,1.0598067E-1,3.748571E-2,-2.880595E-2,9.075499E-2,1.7167179E-2,-3.5770178E-2,1.3674821E-2,9.5017076E-2,-5.9519194E-2,7.4064694E-2,-4.7142077E-2,-2.302968E-2,1.1229634E-1,3.265483E-2,-4.3742135E-2],"categories":[],"categories_nodes":[],"categories_segments":[],"categories_sizes":[],"default_left":[0,0,0,0,0,0,0,0,0,0,0,0,0,0,0,0,0,0,0,0,0,0,0,0,0,0,0,0,0,0,0,0,0,0,0,0,0,0,0,0,0,0,0,0,0,0,0,0,0,0,0,0,0,0,0,0,0,0,0,0,0,0,0,0,0,0,0,0,0,0,0,0,0,0,0,0,0,0,0,0,0,0,0,0,0],"id":0,"left_children":[1,3,5,7,9,-1,11,13,15,-1,17,19,21,23,25,27,29,-1,31,33,35,37,39,41,-1,43,45,47,49,-1,-1,-1,51,-1,-1,53,-1,55,57,59,61,-1,-1,63,65,-1,67,69,-1,71,73,-1,75,-1,-1,-1,77,-1,-1,79,81,83,-1,-1,-1,-1,-1,-1,-1,-1,-1,-1,-1,-1,-1,-1,-1,-1,-1,-1,-1,-1,-1,-1,-1],"loss_changes":[3.0265457E4,3.387711E3,1.0358564E3,2.0146367E3,7.414673E0,0E0,6.0356445E1,7.2967285E1,2.2611328E1,0E0,4.264099E0,2.409084E2,9.18457E0,2.9554338E0,6.6197754E1,2.376471E1,8.3984375E-1,0E0,6.1920166E-1,1.0977691E2,1.2284241E0,3.3232422E0,1.15950134E2,6.2243505E0,0E0,4.0315918E1,2.27443E1,4.128784E0,9.637701E0,0E0,0E0,0E0,5.227051E-1,0E0,0E0,3.2432103E0,0E0,4.6484375E-1,1.2474335E1,7.566506E1,9.923096E-1,0E0,0E0,9.602051E0,7.157837E0,0E0,1.6115961E1,4.168274E0,0E0,6.012355E0,1.6483822E0,0E0,1.3909328E0,0E0,0E0,0E0,4.2851845E1,0E0,0E0,1.7796925E1,8.996109E0,3.559486E0,0E0,0E0,0E0,0E0,0E0,0E0,0E0,0E0,0E0,0E0,0E0,0E0,0E0,0E0,0E0,0E0,0E0,0E0,0E0,0E0,0E0,0E0,0E0],"parents":[2147483647,0,0,1,1,2,2,3,3,4,4,6,6,7,7,8,8,10,10,11,11,12,12,13,13,14,14,15,15,16,16,18,18,19,19,20,20,21,21,22,22,23,23,25,25,26,26,27,27,28,28,32,32,35,35,37,37,38,38,39,39,40,40,43,43,44,44,46,46,47,47,49,49,50,50,52,52,56,56,59,59,60,60,61,61],"right_children":[2,4,6,8,10,-1,12,14,16,-1,18,20,22,24,26,28,30,-1,32,34,36,38,40,42,-1,44,46,48,50,-1,-1,-1,52,-1,-1,54,-1,56,58,60,62,-1,-1,64,66,-1,68,70,-1,72,74,-1,76,-1,-1,-1,78,-1,-1,80,82,84,-1,-1,-1,-1,-1,-1,-1,-1,-1,-1,-1,-1,-1,-1,-1,-1,-1,-1,-1,-1,-1,-1,-1],"split_conditions":[-2.6338267E-1,-2.8304958E-1,5.423352E-1,4.4290316E-1,9.591226E-2,1.1724971E-1,5.554622E-1,-9.201434E-1,5.550214E-1,4.9910072E-2,-4.637381E-1,-2.4470244E-1,1.1199023E0,-8.447429E-1,-6.995592E-1,-5.080668E-1,-6.6968286E-1,2.2414472E-2,-5.098783E-1,2.2306614E-1,-1.9429459E-1,5.1993375E0,-3.2480493E-2,1.8658521E0,-3.7775535E-2,7.634923E-1,9.591226E-2,3.2902453E0,1.1045594E0,2.2126906E-2,1.1820904E-1,-0E0,5.1993375E0,-5.5534065E-2,1.1533882E-1,2.9385054E-1,-5.9333477E-2,9.491291E-1,5.3549564E-1,5.0593233E-1,4.1501988E-2,5.3979762E-2,-3.921089E-2,6.4655083E-1,3.2902453E0,1.0211805E-1,9.945913E-1,4.5221546E-1,-0E0,8.099772E-2,9.9378514E-1,-5.9919648E-2,3.18417E-1,-4.1476984E-2,3.265483E-2,-6.0233783E-2,-1.7459378E-1,-5.1888846E-2,7.2927274E-2,-1.0773812E-1,-1.9755122E-1,9.582723E-2,-5.995966E-2,-1.4136631E-4,6.2171992E-2,8.373704E-2,-1.3978102E-2,-4.5353055E-2,1.7281791E-2,-0E0,1.0598067E-1,3.748571E-2,-2.880595E-2,9.075499E-2,1.7167179E-2,-3.5770178E-2,1.3674821E-2,9.5017076E-2,-5.9519194E-2,7.4064694E-2,-4.7142077E-2,-2.302968E-2,1.1229634E-1,3.265483E-2,-4.3742135E-2],"split_indices":[145,159,34,152,34,0,9,163,152,0,153,141,61,148,159,154,145,0,146,148,141,79,137,6,0,59,34,20,13,0,0,0,92,0,0,148,0,152,152,152,137,0,0,164,20,0,61,164,0,138,42,0,152,0,0,0,156,0,0,63,133,151,0,0,0,0,0,0,0,0,0,0,0,0,0,0,0,0,0,0,0,0,0,0,0],"split_type":[0,0,0,0,0,0,0,0,0,0,0,0,0,0,0,0,0,0,0,0,0,0,0,0,0,0,0,0,0,0,0,0,0,0,0,0,0,0,0,0,0,0,0,0,0,0,0,0,0,0,0,0,0,0,0,0,0,0,0,0,0,0,0,0,0,0,0,0,0,0,0,0,0,0,0,0,0,0,0,0,0,0,0,0,0],"sum_hessian":[4.6160426E4,2.0389545E4,2.577088E4,1.921551E4,1.1740353E3,2.126938E2,2.5558188E4,1.2612139E4,6.603372E3,2.0372968E0,1.171998E3,5.9347046E2,2.4964717E4,5.4824097E1,1.2557314E4,5.667075E2,6.0366646E3,2.4976218E0,1.1695004E3,1.1577547E2,4.7769498E2,2.3665576E4,1.29914E3,1.0996155E1,4.382794E1,1.2365549E4,1.9176572E2,5.154954E2,5.121209E1,2.9551208E0,6.0337095E3,3.0357347E0,1.1664646E3,3.1227646E1,8.454782E1,8.901661E0,4.687933E2,2.3644553E4,2.1023802E1,1.02621346E2,1.1965186E3,5.399877E0,5.596277E0,1.1726537E4,6.390115E2,1.4872268E1,1.7689345E2,5.132411E2,2.254362E0,2.7506948E1,2.370514E1,1.1598868E3,6.577844E0,6.5073175E0,2.394344E0,2.336271E4,2.818431E2,1.6949207E1,4.0745935E0,5.794095E1,4.46804E1,1.2252325E1,1.1842662E3,1.5192928E1,1.1711345E4,6.351897E2,3.821761E0,2.8118608E1,1.4877484E2,2.254362E0,5.1098672E2,1.6331556E1,1.1175393E1,1.8552736E1,5.152403E0,4.5338798E0,2.0439646E0,9.779025E0,2.720641E2,6.463365E0,5.147758E1,2.3046248E0,4.2375774E1,2.394344E0,9.857982E0],"tree_param":{"num_deleted":"0","num_feature":"165","num_nodes":"85","size_leaf_vector":"1"}},{"base_weights":[-8.51274E-3,-3.6905605E-1,3E0,-4.1554857E-2,-7.760244E-2,-3.7154622E-2,2.4E-1,-1.4408474E-1,3E0,-2.6583089E-2,-4.0941924E-2,2.4E-1,-1.5566049E-2,-2.8074209E-2,4.707052E-2,-3.2577824E-2,-2.0103075E-3],"categories":[],"categories_nodes":[],"categories_segments":[],"categories_sizes":[],"default_left":[0,0,0,0,0,0,0,0,0,0,0,0,0,0,0,0,0],"id":1,"left_children":[1,3,5,-1,7,-1,-1,9,11,13,-1,-1,-1,15,-1,-1,-1],"loss_changes":[1.5275718E4,3.33021E2,3.1373438E2,0E0,8.687576E2,0E0,0E0,1.1120807E2,3.1944458E1,2.1206486E0,0E0,0E0,0E0,2.3327112E0,0E0,0E0,0E0],"parents":[2147483647,0,0,1,1,2,2,4,4,7,7,8,8,9,9,13,13],"right_children":[2,4,6,-1,8,-1,-1,10,12,14,-1,-1,-1,16,-1,-1,-1],"split_conditions":[1.5248922E0,6.517078E-1,5.226011E-1,-4.1554857E-2,7.6378983E-1,-3.7154622E-2,2.4E-1,1.2811552E-1,6.823892E-2,8.802064E-1,-4.0941924E-2,2.4E-1,-1.5566049E-2,1.8286413E0,4.707052E-2,-3.2577824E-2,-2.0103075E-3],"split_indices":[157,135,134,0,149,0,0,147,150,61,0,0,0,135,0,0,0],"split_type":[0,0,0,0,0,0,0,0,0,0,0,0,0,0,0,0,0],"sum_hessian":[7.846477E3,7.603903E3,2.4257411E2,5.0137217E3,2.5901814E3,2.5475557E1,2.1709856E2,2.5714182E3,1.8763214E1,1.951338E3,6.2008026E2,1.6035295E1,2.727919E0,1.9493331E3,2.0048466E0,1.16017E1,1.9377314E3],"tree_param":{"num_deleted":"0","num_feature":"165","num_nodes":"17","size_leaf_vector":"1"}},{"base_weights":[-9.3713193E-4,-3.671314E-1,2.6640327E0,-3.9998266E-1,3E0,2.4E-1,-5.510239E-1,-4.267369E-1,3E0,-1.6206551E-2,2.4E-1,-4.542813E-2,1.8687238E-1,-4.6289125E-1,8.568769E-1,-3.906494E-1,2.4E-1,-4.729942E-1,1.9692305E0,3E0,-2.8272027E-1,1.50267035E-2,-3.933959E-2,-3.2691282E-1,-5.5986935E-1,2.4E-1,-4.1830815E-2,3.4709552E-1,2.4E-1,6.2184703E-1,-4.9810418E-1,-3.1095097E-2,2.4E-1,-4.488295E-2,2.8217763E-2,1.07368305E-1,-3.429601E-2,-0E0,1.2257973E-1,-4.1131586E-2,4.584379E-2],"categories":[],"categories_nodes":[],"categories_segments":[],"categories_sizes":[],"default_left":[0,0,0,0,0,0,0,0,0,0,0,0,0,0,0,0,0,0,0,0,0,0,0,0,0,0,0,0,0,0,0,0,0,0,0,0,0,0,0,0,0],"id":2,"left_children":[1,3,5,7,9,-1,11,13,15,-1,-1,-1,-1,17,19,21,-1,23,25,27,29,-1,-1,31,33,-1,-1,35,-1,37,39,-1,-1,-1,-1,-1,-1,-1,-1,-1,-1],"loss_changes":[2.1729932E4,2.606392E3,1.0013926E4,1.9255691E3,6.451514E1,0E0,4.3655014E1,8.964458E2,2.4998596E2,0E0,0E0,0E0,0E0,4.638833E2,1.5736709E3,1.7839041E0,0E0,2.3651611E2,3.361232E2,1.07891846E2,7.3845276E1,0E0,0E0,1.6521836E3,1.3053467E1,0E0,0E0,1.7121002E1,0E0,4.0667168E1,6.097267E0,0E0,0E0,0E0,0E0,0E0,0E0,0E0,0E0,0E0,0E0],"parents":[2147483647,0,0,1,1,2,2,3,3,4,4,6,6,7,7,8,8,13,13,14,14,15,15,17,17,18,18,19,19,20,20,23,23,24,24,27,27,29,29,30,30],"right_children":[2,4,6,8,10,-1,12,14,16,-1,-1,-1,-1,18,20,22,-1,24,26,28,30,-1,-1,32,34,-1,-1,36,-1,38,40,-1,-1,-1,-1,-1,-1,-1,-1,-1,-1],"split_conditions":[1.152478E0,1.8084285E0,4.7612932E-1,1.1549629E0,-1.5063448E-1,2.4E-1,1.783989E0,9.332483E-1,8.3023417E-1,-1.6206551E-2,2.4E-1,-4.542813E-2,1.8687238E-1,2.1247506E0,1.598066E-1,-7.0509857E-1,2.4E-1,-3.4370925E-2,-1.6170605E-1,-1.8580228E-1,-2.6338267E-1,1.50267035E-2,-3.933959E-2,2.5080743E-1,1.0569686E0,2.4E-1,-4.1830815E-2,3.2270613E-1,2.4E-1,6.1201584E-1,7.6919687E-1,-3.1095097E-2,2.4E-1,-4.488295E-2,2.8217763E-2,1.07368305E-1,-3.429601E-2,-0E0,1.2257973E-1,-4.1131586E-2,4.584379E-2],"split_indices":[156,36,140,163,163,0,36,154,36,0,0,0,0,32,157,140,0,133,133,162,145,0,0,144,163,0,0,150,0,155,138,0,0,0,0,0,0,0,0,0,0],"split_type":[0,0,0,0,0,0,0,0,0,0,0,0,0,0,0,0,0,0,0,0,0,0,0,0,0,0,0,0,0,0,0,0,0,0,0,0,0,0,0,0,0],"sum_hessian":[2.2260697E4,1.9573068E4,2.687629E3,1.9423658E4,1.4940936E2,1.870188E3,8.174408E2,1.9287041E4,1.3661742E2,5.879156E0,1.4353021E2,8.144731E2,2.96773E0,1.8760307E4,5.2673566E2,2.114575E1,1.1547167E2,1.8684508E4,7.579823E1,1.5614378E2,3.7059186E2,2.1546636E0,1.8991087E1,6.973606E3,1.1710901E4,4.2891827E1,3.290641E1,1.6477776E1,1.3966602E2,7.0098236E1,3.0049362E2,6.867048E3,1.0655821E2,1.1697255E4,1.3646364E1,6.861725E0,9.61605E0,4.315701E1,2.6941225E1,2.9754465E2,2.948962E0],"tree_param":{"num_deleted":"0","num_feature":"165","num_nodes":"41","size_leaf_vector":"1"}},{"base_weights":[2.5270048E-3,-4.8224095E-1,1.9793147E0,-4.912536E-1,2.4E-1,3E0,-5.5265117E-1,-5.032158E-1,2.4450533E0,-3.7383214E-2,3E0,1.3760303E0,-5.672536E-1,-5.056093E-1,2.4E-1,2.4E-1,-2.2726344E-1,3E0,-0E0,-1.9444767E-2,2.2713098E-1,-0E0,-4.5584854E-2,-5.1025695E-1,1.4020967E0,-3.6165867E-2,8.5961804E-2,2.8460804E-2,3E0,1.4270014E-2,-1.4217096E-2,-2.8632214E-2,6.203352E-2,-5.12579E-1,2.241172E0,-4.067162E-1,2.4E-1,2.4E-1,1.8847057E0,-4.2805027E-2,-2.7688427E-2,2.4E-1,-2.3051612E-2,1.356683E-2,-3.992838E-2,9.8211635E-3,2.4E-1],"categories":[],"categories_nodes":[],"categories_segments":[],"categories_sizes":[],"default_left":[0,0,0,0,0,0,0,0,0,0,0,0,0,0,0,0,0,0,0,0,0,0,0,0,0,0,0,0,0,0,0,0,0,0,0,0,0,0,0,0,0,0,0,0,0,0,0],"id":3,"left_children":[1,3,5,7,-1,9,11,13,15,-1,17,19,21,23,-1,-1,25,27,29,-1,-1,31,-1,33,35,-1,-1,-1,37,-1,-1,-1,-1,39,41,43,-1,-1,45,-1,-1,-1,-1,-1,-1,-1,-1],"loss_changes":[2.1491408E4,6.767783E2,2.0030182E4,6.349448E2,0E0,1.7485547E2,5.7265137E1,1.6615869E2,2.3778915E2,0E0,3.7621094E1,3.9228794E1,2.7999268E0,1.6076904E2,0E0,0E0,9.593889E0,1.08046875E1,6.207353E-1,0E0,0E0,4.6265E0,0E0,1.1746045E2,1.665729E2,0E0,0E0,0E0,1.7265625E0,0E0,0E0,0E0,0E0,6.606055E1,3.896338E1,1.7322044E0,0E0,0E0,3.87295E1,0E0,0E0,0E0,0E0,0E0,0E0,0E0,0E0],"parents":[2147483647,0,0,1,1,2,2,3,3,5,5,6,6,7,7,8,8,10,10,11,11,12,12,13,13,16,16,17,17,18,18,21,21,23,23,24,24,28,28,33,33,34,34,35,35,38,38],"right_children":[2,4,6,8,-1,10,12,14,16,-1,18,20,22,24,-1,-1,26,28,30,-1,-1,32,-1,34,36,-1,-1,-1,38,-1,-1,-1,-1,40,42,44,-1,-1,46,-1,-1,-1,-1,-1,-1,-1,-1],"split_conditions":[1.1583549E0,5.1993375E0,2.2243342E-1,1.8502222E0,2.4E-1,7.137939E-2,5.445492E-1,5.1993375E0,9.396813E-3,-3.7383214E-2,6.250461E-1,-4.2998523E-1,2.332596E-1,5.1993375E0,2.4E-1,2.4E-1,1.3375468E0,-2.7042148E-1,5.1993375E0,-1.9444767E-2,2.2713098E-1,1.02456905E-1,-4.5584854E-2,1.5296501E0,1.1644009E0,-3.6165867E-2,8.5961804E-2,2.8460804E-2,7.740784E-1,1.4270014E-2,-1.4217096E-2,-2.8632214E-2,6.203352E-2,1.6863818E-1,-5.254435E-2,-4.345771E-2,2.4E-1,2.4E-1,3.162249E-1,-4.2805027E-2,-2.7688427E-2,2.4E-1,-2.3051612E-2,1.356683E-2,-3.992838E-2,9.8211635E-3,2.4E-1],"split_indices":[36,111,163,49,0,13,155,123,162,0,138,149,146,109,0,0,154,139,19,0,0,13,0,45,143,0,0,0,135,0,0,0,0,156,162,163,0,0,154,0,0,0,0,0,0,0,0],"split_type":[0,0,0,0,0,0,0,0,0,0,0,0,0,0,0,0,0,0,0,0,0,0,0,0,0,0,0,0,0,0,0,0,0,0,0,0,0,0,0,0,0,0,0,0,0,0,0],"sum_hessian":[2.2419648E4,1.8005432E4,4.414216E3,1.79696E4,3.583223E1,2.4635369E3,1.950679E3,1.7898512E4,7.1088776E1,1.3878094E1,2.4496587E3,1.2999538E1,1.9376794E3,1.7889082E4,9.429534E0,4.661425E1,2.447453E1,2.4453103E3,4.3485036E0,6.800283E0,6.199255E0,7.880648E0,1.9297988E3,1.7847328E4,4.175386E1,2.2311094E1,2.1634347E0,2.7130823E0,2.4425972E3,2.1715474E0,2.176956E0,5.7145095E0,2.1661391E0,1.7834086E4,1.3241911E1,2.31588E1,1.8595062E1,2.4266367E3,1.5960402E1,1.570548E4,2.1286057E3,9.432239E0,3.8096728E0,2.2210813E0,2.0937717E1,7.877944E0,8.082458E0],"tree_param":{"num_deleted":"0","num_feature":"165","num_nodes":"47","size_leaf_vector":"1"}},{"base_weights":[-4.30101E-4,-4.761008E-1,3E0,-4.8284885E-1,2.4E-1,-5.328155E-1,3E0,-4.8676068E-1,2.6146202E0,6.950306E-3,-4.307225E-2,-1.2194057E-2,2.4E-1,-4.8951277E-1,1.0263999E0,-3.0038787E-2,2.4E-1,-4.3224892E-1,-5.3512263E-1,-3.5991123E-1,2.4E-1,-4.4769397E-1,3E0,-4.3354668E-2,-4.709884E-1,-3.606724E-2,6.4164004E-3,-3.7198715E-2,-3.4224326E-4,-1.19829485E-2,2.4E-1,-4.073414E-2,1.00923024E-1],"categories":[],"categories_nodes":[],"categories_segments":[],"categories_sizes":[],"default_left":[0,0,0,0,0,0,0,0,0,0,0,0,0,0,0,0,0,0,0,0,0,0,0,0,0,0,0,0,0,0,0,0,0],"id":4,"left_children":[1,3,5,7,-1,9,11,13,15,-1,-1,-1,-1,17,19,-1,-1,21,23,25,-1,27,29,-1,31,-1,-1,-1,-1,-1,-1,-1,-1],"loss_changes":[2.9476293E4,4.5948047E2,4.298127E3,1.6949243E2,0E0,1.3422775E0,2.400586E1,5.83833E1,8.9735886E1,0E0,0E0,0E0,0E0,3.488916E1,1.0646639E2,0E0,0E0,4.3653784E2,2.5019531E0,1.019613E0,0E0,4.5887817E1,2.366513E1,0E0,5.156015E1,0E0,0E0,0E0,0E0,0E0,0E0,0E0,0E0],"parents":[2147483647,0,0,1,1,2,2,3,3,5,5,6,6,7,7,8,8,13,13,14,14,17,17,18,18,19,19,21,21,22,22,24,24],"right_children":[2,4,6,8,-1,10,12,14,16,-1,-1,-1,-1,18,20,-1,-1,22,24,26,-1,28,30,-1,32,-1,-1,-1,-1,-1,-1,-1,-1],"split_conditions":[9.374042E-1,2.1846104E0,1.651786E-1,1.5052395E0,2.4E-1,-5.386547E-1,-2.6055333E-1,5.1993375E0,2.467819E-1,6.950306E-3,-4.307225E-2,-1.2194057E-2,2.4E-1,-1.3565104E-1,4.8334157E-1,-3.0038787E-2,2.4E-1,3.356351E-1,3.0436806E-2,5.995258E-1,2.4E-1,5.226011E-1,-2.045819E-1,-4.3354668E-2,6.566961E-1,-3.606724E-2,6.4164004E-3,-3.7198715E-2,-3.4224326E-4,-1.19829485E-2,2.4E-1,-4.073414E-2,1.00923024E-1],"split_indices":[148,22,161,161,0,151,141,88,13,0,0,0,0,136,134,0,0,133,149,137,0,134,144,0,148,0,0,0,0,0,0,0,0],"split_type":[0,0,0,0,0,0,0,0,0,0,0,0,0,0,0,0,0,0,0,0,0,0,0,0,0,0,0,0,0,0,0,0,0],"sum_hessian":[1.5087729E4,1.3681401E4,1.4063278E3,1.3667811E4,1.3590282E1,3.4365887E2,1.0626688E3,1.3652416E4,1.539464E1,2.0113676E0,3.4164752E2,2.0605898E0,1.0606083E3,1.3629312E4,2.3105026E1,7.4669757E0,7.9276648E0,6.0568105E3,7.5725005E3,1.7260567E1,5.8444586E0,6.040904E3,1.5906754E1,6.8250186E3,7.4748193E2,1.52062435E1,2.0543232E0,5.813014E3,2.2788979E2,2.0333402E0,1.3873413E1,7.330254E2,1.4456525E1],"tree_param":{"num_deleted":"0","num_feature":"165","num_nodes":"33","size_leaf_vector":"1"}},{"base_weights":[-1.1512397E-3,-4.741905E-1,3E0,2.4E-1,-4.8010188E-1,-3.005536E-1,2.4E-1,-4.9219817E-1,4.3379703E-1,-3.715073E-2,4.1516E-2,-3.8115776E-1,-5.3408134E-1,-4.277892E-2,2.4E-1,-3.0601358E-2,8.037982E-2,-4.343854E-2,-4.6985498E-1,7.824888E-1,-5.041132E-1,-3.841952E-2,2.4E-1,1.2052056E-2,-4.245898E-2],"categories":[],"categories_nodes":[],"categories_segments":[],"categories_sizes":[],"default_left":[0,0,0,0,0,0,0,0,0,0,0,0,0,0,0,0,0,0,0,0,0,0,0,0,0],"id":5,"left_children":[1,3,5,-1,7,9,-1,11,13,-1,-1,15,17,-1,-1,-1,-1,-1,19,21,23,-1,-1,-1,-1],"loss_changes":[3.3872355E4,3.630974E2,2.2228906E2,0E0,1.5982275E2,3.9264743E0,0E0,6.540332E1,7.566345E2,0E0,0E0,8.624207E0,5.0891113E0,0E0,0E0,0E0,0E0,0E0,5.6001495E1,1.1725932E2,2.1964874E1,0E0,0E0,0E0,0E0],"parents":[2147483647,0,0,1,1,2,2,4,4,5,5,7,7,8,8,11,11,12,12,18,18,19,19,20,20],"right_children":[2,4,6,-1,8,10,-1,12,14,-1,-1,16,18,-1,-1,-1,-1,-1,20,22,24,-1,-1,-1,-1],"split_conditions":[1.5144589E0,-8.92043E-1,1.091231E0,2.4E-1,1.1922725E0,3.318629E-1,2.4E-1,-8.205184E-1,5.333503E-1,-3.715073E-2,4.1516E-2,8.5027397E-1,5.1993375E0,-4.277892E-2,2.4E-1,-3.0601358E-2,8.037982E-2,-4.343854E-2,5.1993375E0,6.873731E-1,-3.977661E-1,-3.841952E-2,2.4E-1,1.2052056E-2,-4.245898E-2],"split_indices":[160,134,155,0,160,140,0,140,154,0,0,13,83,0,0,0,0,0,112,149,142,0,0,0,0],"split_type":[0,0,0,0,0,0,0,0,0,0,0,0,0,0,0,0,0,0,0,0,0,0,0,0,0],"sum_hessian":[1.5552519E4,1.4412915E4,1.1396039E3,1.7443558E1,1.4395471E4,1.989242E1,1.1197114E3,1.4208874E4,1.8659738E2,1.780895E1,2.0834692E0,3.9003723E3,1.0308501E4,1.5893173E2,2.7665651E1,3.898358E3,2.0145106E0,9.033903E3,1.2745975E3,3.2386845E1,1.2422107E3,2.2689789E1,9.697054E0,4.7439472E1,1.1947712E3],"tree_param":{"num_deleted":"0","num_feature":"165","num_nodes":"25","size_leaf_vector":"1"}},{"base_weights":[-4.9615483E-5,-3.9084595E-1,1.9969468E0,-1.1853401E-1,-5.9458077E-1,2.9703596E0,-5.9561706E-1,-1.6762426E-1,2.8309429E0,-5.952435E-1,5.177261E-1,2.9838989E0,6.8387967E-3,-0E0,-4.7819294E-2,-6.681305E-2,-5.3467935E-1,2.3403612E-1,-1.7193312E-2,-4.6198457E-1,-5.9732264E-1,-2.6378741E-2,1.254221E-1,2.387989E-1,6.0623124E-2,2.6676846E-1,-2.948237E-2,1.926949E-2,-2.0373266E-2,-6.8890914E-2,1.4677806E0,-5.9570926E-1,-3.2038382E-1,-5.712133E-1,1.6076653E0,-4.7796562E-2,-2.0825223E-3,5.988189E-1,-7.496515E-3,-5.899193E-2,-3.0969724E-1,1.6984405E-1,-1.8062966E-2,-4.7742713E-2,-0E0,-3.699813E-1,6.6488844E-1,-4.635591E-2,-0E0,-1.8698847E-2,1.808967E-1,-0E0,8.0837384E-2,-5.183793E-3,4.530721E-2,6.020927E-4,-2.7860058E-2,-2.1135692E-2,-3.921503E-2,1.2435068E-1,-1.1943178E-2],"categories":[],"categories_nodes":[],"categories_segments":[],"categories_sizes":[],"default_left":[0,0,0,0,0,0,0,0,0,0,0,0,0,0,0,0,0,0,0,0,0,0,0,0,0,0,0,0,0,0,0,0,0,0,0,0,0,0,0,0,0,0,0,0,0,0,0,0,0,0,0,0,0,0,0,0,0,0,0,0,0],"id":6,"left_children":[1,3,5,7,9,11,13,15,17,19,21,23,25,27,-1,29,31,-1,-1,33,35,-1,-1,-1,-1,37,-1,-1,-1,39,41,43,45,47,49,-1,-1,51,-1,53,55,-1,-1,-1,-1,57,59,-1,-1,-1,-1,-1,-1,-1,-1,-1,-1,-1,-1,-1,-1],"loss_changes":[2.252785E4,1.338929E3,1.1926566E4,1.4988494E3,1.1055176E1,1.348164E2,1.1805115E0,3.7622205E2,5.01958E1,2.9082031E0,1.0642662E1,1.1503906E0,2.5069027E0,1.0529187E0,0E0,2.638602E1,2.7909729E1,0E0,0E0,5.356291E1,4.267578E-1,0E0,0E0,0E0,0E0,2.1486473E0,0E0,0E0,0E0,1.904713E1,1.3768087E1,8.814697E-1,2.4916061E1,6.922455E-1,1.6054783E1,0E0,0E0,1.9507627E0,0E0,2.8179226E1,3.886259E0,0E0,0E0,0E0,0E0,5.5358734E0,1.909955E1,0E0,0E0,0E0,0E0,0E0,0E0,0E0,0E0,0E0,0E0,0E0,0E0,0E0,0E0],"parents":[2147483647,0,0,1,1,2,2,3,3,4,4,5,5,6,6,7,7,8,8,9,9,10,10,11,11,12,12,13,13,15,15,16,16,19,19,20,20,25,25,29,29,30,30,31,31,32,32,33,33,34,34,37,37,39,39,40,40,45,45,46,46],"right_children":[2,4,6,8,10,12,14,16,18,20,22,24,26,28,-1,30,32,-1,-1,34,36,-1,-1,-1,-1,38,-1,-1,-1,40,42,44,46,48,50,-1,-1,52,-1,54,56,-1,-1,-1,-1,58,60,-1,-1,-1,-1,-1,-1,-1,-1,-1,-1,-1,-1,-1,-1],"split_conditions":[6.8339545E-1,-2.1731587E-1,-5.8229126E-2,-1.5966095E-1,2.7633913E0,3.6298132E-1,-3.1124783E-1,-3.4275645E-1,4.0464422E-1,-1.7194928E-1,4.1501988E-2,-1.7194928E-1,5.133732E-1,2.9138786E-1,-4.7819294E-2,3.9649603E-1,-3.8475055E-2,2.3403612E-1,-1.7193312E-2,-2.3906048E-2,2.877846E0,-2.6378741E-2,1.254221E-1,2.387989E-1,6.0623124E-2,5.7608116E-1,-2.948237E-2,1.926949E-2,-2.0373266E-2,1.4255593E0,4.3362522E-1,-2.0969456E-1,-3.7343574E-1,7.426764E-1,-8.229537E-2,-4.7796562E-2,-2.0825223E-3,9.892363E-1,-7.496515E-3,4.5317444E-1,6.4655083E-1,1.6984405E-1,-1.8062966E-2,-4.7742713E-2,-0E0,5.207746E-1,3.0970806E-1,-4.635591E-2,-0E0,-1.8698847E-2,1.808967E-1,-0E0,8.0837384E-2,-5.183793E-3,4.530721E-2,6.020927E-4,-2.7860058E-2,-2.1135692E-2,-3.921503E-2,1.2435068E-1,-1.1943178E-2],"split_indices":[136,158,158,142,31,152,147,134,150,158,137,158,164,146,0,133,136,0,0,142,56,0,0,0,0,152,0,0,0,59,152,142,142,159,135,0,0,18,0,136,164,0,0,0,0,152,154,0,0,0,0,0,0,0,0,0,0,0,0,0,0],"split_type":[0,0,0,0,0,0,0,0,0,0,0,0,0,0,0,0,0,0,0,0,0,0,0,0,0,0,0,0,0,0,0,0,0,0,0,0,0,0,0,0,0,0,0,0,0,0,0,0,0,0,0,0,0,0,0,0,0,0,0,0,0],"sum_hessian":[2.8860326E4,2.4138477E4,4.721849E3,1.0333004E4,1.3805474E4,3.4328435E3,1.2890056E3,1.0165861E4,1.6714188E2,1.3798631E4,6.8426037E0,3.4170498E3,1.5793683E1,5.027516E0,1.2839781E3,7.9783457E3,2.1875164E3,1.6234767E2,4.7942033E0,2.2253076E2,1.35761E4,4.2823E0,2.5603037E0,3.4144756E3,2.574289E0,1.046068E1,5.333003E0,2.1089118E0,2.9186041E0,7.9697905E3,8.555201E0,1.6980348E3,4.8948145E2,2.1298004E2,9.550728E0,1.357194E4,4.159479E0,5.47868E0,4.982E0,7.6594927E3,3.1029755E2,6.015675E0,2.5395253E0,1.695226E3,2.8089094E0,4.676947E2,2.1786764E1,2.0980037E2,3.1796758E0,2.6379073E0,6.9128203E0,3.0515862E0,2.427094E0,7.591606E3,6.788697E1,3.2394234E1,2.7790332E2,2.543845E2,2.1331018E2,9.836332E0,1.1950431E1],"tree_param":{"num_deleted":"0","num_feature":"165","num_nodes":"61","size_leaf_vector":"1"}},{"base_weights":[-5.0060377E-3,-4.2197528E-1,2.4E-1,-5.17891E-1,-1.6928422E-1,-5.2166027E-1,-3.3984467E-1,2.4E-1,-1.7908184E-1,-4.498655E-1,-4.2007267E-2,-4.116246E-2,2.4E-1,-4.1121352E-2,-1.2757761E-2,-5.099015E-1,1.2166737E0,-4.1608863E-2,-1.4413589E-1,2.4E-1,-2.8668826E-2,3.2551166E-2,-3.0120736E-2],"categories":[],"categories_nodes":[],"categories_segments":[],"categories_sizes":[],"default_left":[0,0,0,0,0,0,0,0,0,0,0,0,0,0,0,0,0,0,0,0,0,0,0],"id":7,"left_children":[1,3,-1,5,7,9,11,-1,13,15,-1,-1,-1,-1,-1,17,19,-1,21,-1,-1,-1,-1],"loss_changes":[2.1161355E4,2.211012E2,0E0,3.744751E0,1.14981125E2,8.2873535E-1,1.2715867E2,0E0,1.6437798E1,3.3568916E1,0E0,0E0,0E0,0E0,0E0,5.631256E-1,5.5356102E1,0E0,2.4497886E0,0E0,0E0,0E0,0E0],"parents":[2147483647,0,0,1,1,3,3,4,4,5,5,6,6,8,8,9,9,15,15,16,16,18,18],"right_children":[2,4,-1,6,8,10,12,-1,14,16,-1,-1,-1,-1,-1,18,20,-1,22,-1,-1,-1,-1],"split_conditions":[1.3822451E0,1.1995955E0,2.4E-1,1.051598E0,6.517078E-1,5.554622E-1,2.1769932E-1,2.4E-1,2.776234E0,7.121509E-1,-4.2007267E-2,-4.116246E-2,2.4E-1,-4.1121352E-2,-1.2757761E-2,1.1221561E0,1.8272515E-1,-4.1608863E-2,2.5893692E-2,2.4E-1,-2.8668826E-2,3.2551166E-2,-3.0120736E-2],"split_indices":[145,164,0,136,135,9,146,0,164,138,0,0,0,0,0,147,144,0,148,0,0,0,0],"split_type":[0,0,0,0,0,0,0,0,0,0,0,0,0,0,0,0,0,0,0,0,0,0,0],"sum_hessian":[9.507206E3,9.139625E3,3.6758066E2,6.6219917E3,2.517633E3,6.47818E3,1.438119E2,2.341278E0,2.5152917E3,3.1413184E2,6.1640483E3,1.4142879E2,2.3831155E0,1.3492116E2,2.3803706E3,3.0483832E2,9.293522E0,2.9440982E2,1.0428489E1,2.006984E0,7.286538E0,2.009539E0,8.41895E0],"tree_param":{"num_deleted":"0","num_feature":"165","num_nodes":"23","size_leaf_vector":"1"}},{"base_weights":[-2.9174532E-3,8.479642E-1,-7.1307117E-1,9.28639E-1,-7.237343E-1,1.04934186E-1,-7.232463E-1,7.178265E-1,1.3155965E0,-7.2894293E-1,5.3793985E-2,-3.8369223E-1,-7.298956E-1,7.2638154E-1,2.8129399E-2,7.208537E-1,1.3204402E0,1.7065696E-3,-7.3111707E-1,1.1173729E0,-7.021351E-1,-7.352081E-1,-6.1318886E-1,-3.4545302E-1,7.3103386E-1,2.4711454E-1,-5.2765507E-2,8.021368E-1,-2.9068021E-2,1.1962975E0,1.333767E0,-5.8591746E-2,-0E0,1.9619165E-1,1.0249531E-1,-5.8148205E-2,-9.523379E-2,-7.355483E-1,-3.6422604E-1,1.1236146E-1,-5.8669228E-2,-1.6155377E-1,-4.5045003E-2,7.1759087E-1,9.8176867E-1,-3.2229885E-2,8.3333063E-1,8.604121E-2,4.1732046E-1,1.202345E0,-2.2438606E-2,1.7141385E-2,1.06728055E-1,6.200812E-1,-3.3224847E-2,-3.7268214E-2,2.3718917E-1,-5.8880255E-2,-5.568434E-1,-5.2057166E-2,6.507043E-2,-6.0271543E-1,1.12803E0,8.40683E-3,-3.622134E-2,5.7787094E-2,4.1356158E-2,7.91993E-2,-1.0003156E-2,-3.6533114E-2,1.1664485E-2,-2.9764298E-2,7.758651E-2,5.574233E-2,-1.3796409E-2,9.654866E-2,-0E0,-0E0,7.6056704E-2,3.9593678E-2,-1.6943824E-2,6.283229E-2,-5.6595877E-2,-0E0,-5.5818852E-2,3.279498E-2,1.0073025E-1],"categories":[],"categories_nodes":[],"categories_segments":[],"categories_sizes":[],"default_left":[0,0,0,0,0,0,0,0,0,0,0,0,0,0,0,0,0,0,0,0,0,0,0,0,0,0,0,0,0,0,0,0,0,0,0,0,0,0,0,0,0,0,0,0,0,0,0,0,0,0,0,0,0,0,0,0,0,0,0,0,0,0,0,0,0,0,0,0,0,0,0,0,0,0,0,0,0,0,0,0,0,0,0,0,0,0,0],"id":8,"left_children":[1,3,5,7,9,-1,11,13,15,17,-1,19,21,23,25,27,29,-1,31,33,35,37,39,41,43,45,-1,47,-1,49,51,-1,-1,53,-1,-1,55,57,59,61,-1,63,-1,65,67,69,71,-1,73,75,-1,-1,-1,77,-1,-1,79,-1,81,-1,-1,83,85,-1,-1,-1,-1,-1,-1,-1,-1,-1,-1,-1,-1,-1,-1,-1,-1,-1,-1,-1,-1,-1,-1,-1,-1],"loss_changes":[2.791704E4,2.666628E3,5.213633E2,1.6285488E3,8.792114E0,0E0,5.548828E1,7.564795E1,1.7444336E1,1.7160645E0,0E0,2.3535687E2,1.3912109E1,6.4447266E1,2.5292908E1,6.3651047E0,7.6533203E0,0E0,4.5281982E-1,1.1495087E1,5.2679443E0,1.8759766E0,9.509256E1,1.9094787E0,4.1262207E1,2.1326519E1,0E0,4.8401375E0,0E0,7.0787354E0,5.517578E-1,0E0,0E0,5.4448133E0,0E0,0E0,3.2206016E0,6.308594E-1,1.094639E1,1.16092E2,0E0,3.2622876E0,0E0,1.0317871E1,6.152405E0,7.3129463E0,7.8274803E0,0E0,5.4405503E0,3.6625977E0,0E0,0E0,0E0,2.2429957E0,0E0,0E0,1.9244485E0,0E0,1.5998629E1,0E0,0E0,4.7936974E0,4.2495575E0,0E0,0E0,0E0,0E0,0E0,0E0,0E0,0E0,0E0,0E0,0E0,0E0,0E0,0E0,0E0,0E0,0E0,0E0,0E0,0E0,0E0,0E0,0E0,0E0],"parents":[2147483647,0,0,1,1,2,2,3,3,4,4,6,6,7,7,8,8,9,9,11,11,12,12,13,13,14,14,15,15,16,16,18,18,19,19,20,20,21,21,22,22,23,23,24,24,25,25,27,27,29,29,30,30,33,33,36,36,37,37,38,38,39,39,41,41,43,43,44,44,45,45,46,46,48,48,49,49,53,53,56,56,58,58,61,61,62,62],"right_children":[2,4,6,8,10,-1,12,14,16,18,-1,20,22,24,26,28,30,-1,32,34,36,38,40,42,44,46,-1,48,-1,50,52,-1,-1,54,-1,-1,56,58,60,62,-1,64,-1,66,68,70,72,-1,74,76,-1,-1,-1,78,-1,-1,80,-1,82,-1,-1,84,86,-1,-1,-1,-1,-1,-1,-1,-1,-1,-1,-1,-1,-1,-1,-1,-1,-1,-1,-1,-1,-1,-1,-1,-1],"split_conditions":[-4.5229757E-1,-1.4356996E-3,5.423352E-1,4.4290316E-1,6.5331364E-1,1.04934186E-1,-3.5822856E-1,-3.6132103E-1,-8.2283225E-3,1.18121356E-1,5.3793985E-2,-3.409198E-1,1.1438726E0,-9.168175E-1,3.0057085E-1,-3.5570642E-1,6.4363843E-1,1.7065696E-3,4.6917117E-1,-2.818193E-1,1.184185E0,5.1993375E0,4.1501988E-2,1.7812201E0,8.3334273E-1,2.1727495E-1,-5.2765507E-2,1.1006798E0,-2.9068021E-2,4.935534E-1,-4.9055248E-1,-5.8591746E-2,-0E0,-1.0282802E-1,1.0249531E-1,-5.8148205E-2,-5.153678E-3,5.1993375E0,5.8723736E-1,6.897289E-1,-5.8669228E-2,5.1993375E0,-4.5045003E-2,-7.9094297E-1,3.2902453E0,1.1438726E0,1.0860034E0,8.604121E-2,1.9034824E-1,3.2902453E0,-2.2438606E-2,1.7141385E-2,1.06728055E-1,4.5844492E-1,-3.3224847E-2,-3.7268214E-2,3.4548506E-1,-5.8880255E-2,-4.8630658E-1,-5.2057166E-2,6.507043E-2,3.6944356E-2,-3.114827E-1,8.40683E-3,-3.622134E-2,5.7787094E-2,4.1356158E-2,7.91993E-2,-1.0003156E-2,-3.6533114E-2,1.1664485E-2,-2.9764298E-2,7.758651E-2,5.574233E-2,-1.3796409E-2,9.654866E-2,-0E0,-0E0,7.6056704E-2,3.9593678E-2,-1.6943824E-2,6.283229E-2,-5.6595877E-2,-0E0,-5.5818852E-2,3.279498E-2,1.0073025E-1],"split_indices":[139,145,34,152,155,0,145,144,133,138,0,159,61,155,133,143,152,0,155,134,61,125,137,135,59,160,0,147,0,37,162,0,0,151,0,0,136,115,152,160,0,4,0,140,20,61,61,0,155,20,0,0,0,67,0,0,69,0,146,0,0,159,134,0,0,0,0,0,0,0,0,0,0,0,0,0,0,0,0,0,0,0,0,0,0,0,0],"split_type":[0,0,0,0,0,0,0,0,0,0,0,0,0,0,0,0,0,0,0,0,0,0,0,0,0,0,0,0,0,0,0,0,0,0,0,0,0,0,0,0,0,0,0,0,0,0,0,0,0,0,0,0,0,0,0,0,0,0,0,0,0,0,0,0,0,0,0,0,0,0,0,0,0,0,0,0,0,0,0,0,0,0,0,0,0,0,0],"sum_hessian":[4.6194152E4,2.101437E4,2.5179783E4,1.9989453E4,1.0249154E3,1.24380135E2,2.5055404E4,1.2944408E4,7.045045E3,1.02241504E3,2.5003815E0,4.8492416E2,2.457048E4,1.2784991E4,1.5941676E2,6.0166763E1,6.9848784E3,2.2387304E0,1.0201763E3,8.371646E1,4.012077E2,2.3486496E4,1.0839832E3,5.4156364E1,1.2730835E4,1.2243722E2,3.6979538E1,5.688367E1,3.283094E0,6.9837866E2,6.2864995E3,1.0181306E3,2.0456784E0,1.3764362E1,6.99521E1,3.8433557E2,1.6872128E1,2.3461668E4,2.4829266E1,1.5345963E2,9.305235E2,3.2485634E1,2.167073E1,1.2092233E4,6.386019E2,8.362516E1,3.8812054E1,3.0398859E1,2.6484812E1,6.962378E2,2.140867E0,2.703052E0,6.2837964E3,8.595569E0,5.1687937E0,8.309353E0,8.562774E0,2.3393082E4,6.858526E1,2.1032026E1,3.7972376E0,9.024436E1,6.3215267E1,1.6729334E1,1.5756301E1,1.18051875E4,2.8704626E2,6.345506E2,4.0513196E0,2.4617043E1,5.900812E1,3.2243972E0,3.5587658E1,1.8298965E1,8.185845E0,6.939494E2,2.2883754E0,3.629335E0,4.9662337E0,6.017536E0,2.5452375E0,5.733783E0,6.285148E1,1.3143097E1,7.7101265E1,1.1622216E1,5.1593052E1],"tree_param":{"num_deleted":"0","num_feature":"165","num_nodes":"87","size_leaf_vector":"1"}},{"base_weights":[1.027585E-2,-3.5654578E-1,3E0,-5.186787E-1,-5.1265035E-2,-3.692054E-2,2.4E-1,-4.155898E-2,1.9459406E-1,-1.17480874E-1,3E0,-1.2179699E-2,4.6640914E-2,5.219522E-3,-4.1366305E-2,-1.9114126E-2,2.4E-1,3.760902E-3,4.6611603E-2,-3.2472648E-2,5.4964155E-4],"categories":[],"categories_nodes":[],"categories_segments":[],"categories_sizes":[],"default_left":[0,0,0,0,0,0,0,0,0,0,0,0,0,0,0,0,0,0,0,0,0],"id":9,"left_children":[1,3,5,7,9,-1,-1,-1,11,13,15,-1,-1,17,-1,-1,-1,19,-1,-1,-1],"loss_changes":[1.4436301E4,3.6516864E2,2.9839258E2,3.0812988E0,8.0169446E2,0E0,0E0,0E0,1.6734062E0,1.25199455E2,4.09906E1,0E0,0E0,1.9192868E0,0E0,0E0,0E0,2.6885767E0,0E0,0E0,0E0],"parents":[2147483647,0,0,1,1,2,2,3,3,4,4,8,8,9,9,10,10,13,13,17,17],"right_children":[2,4,6,8,10,-1,-1,-1,12,14,16,-1,-1,18,-1,-1,-1,20,-1,-1,-1],"split_conditions":[1.5248922E0,6.517078E-1,5.226011E-1,5.1993375E0,7.6378983E-1,-3.692054E-2,2.4E-1,-4.155898E-2,-3.8460702E-1,1.2811552E-1,2.4765517E-1,-1.2179699E-2,4.6640914E-2,1.2728125E0,-4.1366305E-2,-1.9114126E-2,2.4E-1,1.7812201E0,4.6611603E-2,-3.2472648E-2,5.4964155E-4],"split_indices":[157,135,134,126,149,0,0,0,146,147,146,0,0,13,0,0,0,135,0,0,0],"split_type":[0,0,0,0,0,0,0,0,0,0,0,0,0,0,0,0,0,0,0,0,0],"sum_hessian":[7.6885347E3,7.3818516E3,3.06683E2,4.8193076E3,2.5625442E3,2.4241875E1,2.8244113E2,4.8150933E3,4.213941E0,2.5390962E3,2.3447823E1,2.1884985E0,2.0254426E0,1.9431545E3,5.959417E2,3.4574025E0,1.9990421E1,1.9411301E3,2.0245004E0,1.1460319E1,1.9296698E3],"tree_param":{"num_deleted":"0","num_feature":"165","num_nodes":"21","size_leaf_vector":"1"}},{"base_weights":[-2.4819115E-4,-3.6347345E-1,2.2178833E0,-3.9353603E-1,2.4E-1,3E0,-5.5081075E-1,-4.200757E-1,2.704183E0,2.760549E-1,2.4E-1,-4.5311682E-2,1.5604264E-1,-4.6030906E-1,6.284788E-1,-3.2009354E-1,2.4E-1,-1.718547E-2,6.409034E-2,-4.7061637E-1,1.7315149E0,2.7434664E0,-3.5017005E-1,4.1276902E-2,-3.8845778E-2,-3.2938138E-1,-5.576363E-1,2.4E-1,-3.842795E-2,2.4E-1,1.1735053E0,4.8127428E-1,-5.139777E-1,-3.212033E-2,1.5523295E-1,-4.4682644E-2,1.087937E-1,1.2331745E-1,-3.2856993E-2,1.3946727E-1,-9.162102E-3,-1.1685113E-2,-4.480036E-2],"categories":[],"categories_nodes":[],"categories_segments":[],"categories_sizes":[],"default_left":[0,0,0,0,0,0,0,0,0,0,0,0,0,0,0,0,0,0,0,0,0,0,0,0,0,0,0,0,0,0,0,0,0,0,0,0,0,0,0,0,0,0,0],"id":10,"left_children":[1,3,5,7,-1,9,11,13,15,17,-1,-1,-1,19,21,23,-1,-1,-1,25,27,29,31,-1,-1,33,35,-1,-1,-1,37,39,41,-1,-1,-1,-1,-1,-1,-1,-1,-1,-1],"loss_changes":[1.7894295E4,2.0104446E3,8.1619795E3,1.5593616E3,0E0,2.6759766E1,3.4400406E1,7.925491E2,2.0908862E2,2.940737E0,0E0,0E0,0E0,4.107959E2,1.4412404E3,4.0057E0,0E0,0E0,0E0,2.2046533E2,2.4894415E2,1.2309912E2,6.579833E1,0E0,0E0,1.1265271E3,2.1332031E1,0E0,0E0,0E0,2.972078E1,6.1647522E1,6.175926E0,0E0,0E0,0E0,0E0,0E0,0E0,0E0,0E0,0E0,0E0],"parents":[2147483647,0,0,1,1,2,2,3,3,5,5,6,6,7,7,8,8,9,9,13,13,14,14,15,15,19,19,20,20,21,21,22,22,25,25,26,26,30,30,31,31,32,32],"right_children":[2,4,6,8,-1,10,12,14,16,18,-1,-1,-1,20,22,24,-1,-1,-1,26,28,30,32,-1,-1,34,36,-1,-1,-1,38,40,42,-1,-1,-1,-1,-1,-1,-1,-1,-1,-1],"split_conditions":[1.152478E0,1.8400934E0,4.9961206E-1,1.1549629E0,2.4E-1,3.3168417E-1,1.783989E0,9.045844E-1,8.3023417E-1,6.27626E-2,2.4E-1,-4.5311682E-2,1.5604264E-1,2.1247506E0,1.598066E-1,-5.1838225E-1,2.4E-1,-1.718547E-2,6.409034E-2,-2.0578377E-2,-1.6170605E-1,5.1993375E0,-2.836038E-1,4.1276902E-2,-3.8845778E-2,2.3732482E-1,1.0735633E0,2.4E-1,-3.842795E-2,2.4E-1,4.6628922E-1,1.6844637E0,8.1760335E-1,-3.212033E-2,1.5523295E-1,-4.4682644E-2,1.087937E-1,1.2331745E-1,-3.2856993E-2,1.3946727E-1,-9.162102E-3,-1.1685113E-2,-4.480036E-2],"split_indices":[156,37,140,163,0,155,36,154,36,133,0,0,0,32,157,142,0,0,0,133,133,83,145,0,0,138,163,0,0,0,141,70,139,0,0,0,0,0,0,0,0,0,0],"split_type":[0,0,0,0,0,0,0,0,0,0,0,0,0,0,0,0,0,0,0,0,0,0,0,0,0,0,0,0,0,0,0,0,0,0,0,0,0,0,0,0,0,0,0],"sum_hessian":[2.2204082E4,1.9081354E4,3.1227275E3,1.8920895E4,1.6045966E2,2.3246033E3,7.981242E2,1.8762041E4,1.5885342E2,4.601571E0,2.3200017E3,7.949183E2,3.205942E0,1.8070277E4,6.9176294E2,1.9672888E1,1.3918053E2,2.4968603E0,2.104711E0,1.7987488E4,8.278953E1,2.1785475E2,4.739082E2,2.051333E0,1.7621555E1,6.863393E3,1.1124096E4,5.1808628E1,3.09809E1,1.7234113E2,4.5513626E1,7.685981E1,3.970484E2,6.6538335E3,2.0955927E2,1.1120573E4,3.5222256E0,3.7234768E1,8.278858E0,2.3682013E1,5.3177795E1,4.6284546E1,3.5076385E2],"tree_param":{"num_deleted":"0","num_feature":"165","num_nodes":"43","size_leaf_vector":"1"}},{"base_weights":[1.5062552E-3,-4.5797402E-1,1.6897123E0,-4.8475546E-1,1.5826019E0,3E0,-5.481345E-1,-4.9385253E-1,2.396987E-1,2.8613875E0,-3.8852552E-1,-3.5706256E-2,3E0,1.3532597E0,-5.6524616E-1,-5.009488E-1,2.5539849E0,-2.8957354E-2,3E0,-5.2166694E-1,1.3810743E-1,2.4E-1,1.1658028E0,-2.7119333E-2,2.1782107E0,-1.4988999E-1,-4.5377977E-2,-5.063236E-1,1.2958318E0,-2.3463303E-2,2.3084262E-1,3E0,-2.076106E-2,-4.393435E-2,1.6276233E-2,-2.0934838E-1,1.9942066E-1,1.2839147E-2,2.0444769E-1,-3.3376016E-2,4.0915184E-2,-5.0836086E-1,2.0491411E-1,-3.639519E-2,2.7692704E0,2.4E-1,5.0335236E-2,-3.17822E-2,1.5934981E-2,-4.121699E-2,8.882379E-4,2.3155682E-1,3.899011E-2],"categories":[],"categories_nodes":[],"categories_segments":[],"categories_sizes":[],"default_left":[0,0,0,0,0,0,0,0,0,0,0,0,0,0,0,0,0,0,0,0,0,0,0,0,0,0,0,0,0,0,0,0,0,0,0,0,0,0,0,0,0,0,0,0,0,0,0,0,0,0,0,0,0],"id":11,"left_children":[1,3,5,7,9,11,13,15,-1,17,19,-1,21,23,25,27,29,-1,31,33,-1,-1,35,-1,37,39,-1,41,43,-1,-1,45,-1,-1,-1,47,-1,-1,-1,-1,-1,49,-1,-1,51,-1,-1,-1,-1,-1,-1,-1,-1],"loss_changes":[1.7396256E4,9.655962E2,1.5305238E4,5.5544116E2,5.8044684E2,1.4324023E2,6.311029E1,3.7921777E2,0E0,7.135925E1,2.8639612E1,0E0,4.436914E1,2.66405E1,8.6602783E-1,1.6920312E2,4.0549408E1,0E0,3.9779175E1,2.119587E0,0E0,0E0,3.877515E1,0E0,6.338173E0,3.3313808E0,0E0,1.1180762E2,1.3892065E2,0E0,0E0,4.2736816E0,0E0,0E0,0E0,1.4035163E0,0E0,0E0,0E0,0E0,0E0,6.144922E1,0E0,0E0,2.8960876E0,0E0,0E0,0E0,0E0,0E0,0E0,0E0,0E0],"parents":[2147483647,0,0,1,1,2,2,3,3,4,4,5,5,6,6,7,7,9,9,10,10,12,12,13,13,14,14,15,15,16,16,18,18,19,19,22,22,24,24,25,25,27,27,28,28,31,31,35,35,41,41,44,44],"right_children":[2,4,6,8,10,12,14,16,-1,18,20,-1,22,24,26,28,30,-1,32,34,-1,-1,36,-1,38,40,-1,42,44,-1,-1,46,-1,-1,-1,48,-1,-1,-1,-1,-1,50,-1,-1,52,-1,-1,-1,-1,-1,-1,-1,-1],"split_conditions":[1.1725439E0,1.9785753E0,2.0189664E-1,5.1993375E0,2.4572603E-1,6.635686E-2,5.327898E-1,1.5296501E0,2.396987E-1,-1.3522172E-1,1.3375468E0,-3.5706256E-2,9.760826E-1,9.802028E-2,2.332596E-1,5.1993375E0,-4.210825E-1,-2.8957354E-2,1.448484E0,5.174384E-1,1.3810743E-1,2.4E-1,3.2746863E-1,-2.7119333E-2,5.1993375E0,-4.713468E-1,-4.5377977E-2,5.1993375E0,1.1644009E0,-2.3463303E-2,2.3084262E-1,4.673088E-1,-2.076106E-2,-4.393435E-2,1.6276233E-2,1.0153921E-1,1.9942066E-1,1.2839147E-2,2.0444769E-1,-3.3376016E-2,4.0915184E-2,2.4203477E0,2.0491411E-1,-3.639519E-2,2.8748384E-1,2.4E-1,5.0335236E-2,-3.17822E-2,1.5934981E-2,-4.121699E-2,8.882379E-4,2.3155682E-1,3.899011E-2],"split_indices":[37,38,163,111,163,13,155,45,0,63,154,0,147,13,146,109,140,0,161,157,0,0,154,0,93,149,0,123,143,0,0,146,0,0,0,136,0,0,0,0,0,69,0,0,144,0,0,0,0,0,0,0,0],"split_type":[0,0,0,0,0,0,0,0,0,0,0,0,0,0,0,0,0,0,0,0,0,0,0,0,0,0,0,0,0,0,0,0,0,0,0,0,0,0,0,0,0,0,0,0,0,0,0,0,0,0,0,0,0],"sum_hessian":[2.2419043E4,1.7623582E4,4.795462E3,1.7397025E4,2.2655658E2,2.9263618E3,1.8691001E3,1.7353535E4,4.349105E1,1.370164E2,8.954018E1,1.1411917E1,2.91495E3,1.5017458E1,1.8540826E3,1.7315055E4,3.847936E1,5.9590936E0,1.310573E2,8.587689E1,3.6632867E0,2.8974207E3,1.752928E1,5.1090794E0,9.908379E0,1.0716073E1,1.8433666E3,1.7265125E4,4.993072E1,3.8801334E0,3.4599228E1,1.2778459E2,3.2727108E0,8.386954E1,2.0073552E0,9.250482E0,8.278798E0,2.2191186E0,7.6892605E0,8.695638E0,2.0204349E0,1.7255496E4,9.627985E0,2.329465E1,2.6636072E1,1.25133156E2,2.651434E0,7.21194E0,2.0385418E0,1.703183E4,2.2366534E2,2.453407E1,2.1020026E0],"tree_param":{"num_deleted":"0","num_feature":"165","num_nodes":"53","size_leaf_vector":"1"}},{"base_weights":[7.488086E-3,-4.563848E-1,3E0,-4.7708428E-1,3E0,-4.850475E-1,2.4E-1,1.5073799E-1,-4.9961677E-1,-3.1159304E-2,2.4E-1,-4.287858E-2,2.0026295E-1,3E0,-2.5528798E-1,-4.2545655E-1,-5.297171E-1,-2.12204E-1,2.4E-1,1.041894E0,-4.3059766E-2,-4.4204223E-1,5.2627575E-1,-5.3096986E-1,7.762265E-2,-2.8687915E-2,6.2803254E-3,2.8374822E0,-4.041823E-2,-1.4974597E-1,-3.5582926E-2,1.2422382E0,3.5206246E-1,-5.3159934E-1,5.2944493E-2,1.5995283E-1,-3.5812125E-2,2.4E-1,-1.9392056E-2,-4.411371E-3,-3.0027812E-2,1.8641463E-2,1.2980756E-1,-1.1778223E-2,4.0637445E-2,-4.3182887E-2,-3.983155E-2,8.170603E-2,-2.8729115E-2],"categories":[],"categories_nodes":[],"categories_segments":[],"categories_sizes":[],"default_left":[0,0,0,0,0,0,0,0,0,0,0,0,0,0,0,0,0,0,0,0,0,0,0,0,0,0,0,0,0,0,0,0,0,0,0,0,0,0,0,0,0,0,0,0,0,0,0,0,0],"id":12,"left_children":[1,3,5,7,9,11,-1,13,15,-1,-1,-1,-1,17,19,21,23,25,-1,27,-1,29,31,33,35,-1,-1,37,-1,39,-1,41,43,45,47,-1,-1,-1,-1,-1,-1,-1,-1,-1,-1,-1,-1,-1,-1],"loss_changes":[2.5892826E4,1.168992E3,3.2114512E3,1.8848975E2,1.0356055E2,4.4458603E1,0E0,6.568994E2,2.795288E1,0E0,0E0,0E0,0E0,9.371326E1,1.5508282E2,5.9531616E1,7.0654297E0,7.6885265E-1,0E0,2.1420853E2,0E0,2.4380493E0,7.1378193E0,3.4311523E0,2.4788988E1,0E0,0E0,1.0589139E2,0E0,7.766391E-1,0E0,2.6102638E0,4.735997E0,1.6945801E0,6.6632924E0,0E0,0E0,0E0,0E0,0E0,0E0,0E0,0E0,0E0,0E0,0E0,0E0,0E0,0E0],"parents":[2147483647,0,0,1,1,2,2,3,3,4,4,5,5,7,7,8,8,13,13,14,14,15,15,16,16,17,17,19,19,21,21,22,22,23,23,24,24,27,27,29,29,31,31,32,32,33,33,34,34],"right_children":[2,4,6,8,10,12,-1,14,16,-1,-1,-1,-1,18,20,22,24,26,-1,28,-1,30,32,34,36,-1,-1,38,-1,40,-1,42,44,46,48,-1,-1,-1,-1,-1,-1,-1,-1,-1,-1,-1,-1,-1,-1],"split_conditions":[9.7618204E-1,1.2901558E0,2.1754348E-1,-3.831501E-1,8.4987354E-1,1.1671075E-1,2.4E-1,-7.873237E-2,-5.784419E-1,-3.1159304E-2,2.4E-1,-4.287858E-2,2.0026295E-1,7.2358525E-1,3.3025414E-1,-7.20848E-1,5.1993375E0,-3.7804168E-1,2.4E-1,6.1201584E-1,-4.3059766E-2,1.7219357E0,1.7730206E-1,3.2902453E0,5.9250638E-2,-2.8687915E-2,6.2803254E-3,1.8547347E0,-4.041823E-2,1.6230639E0,-3.5582926E-2,8.320063E-1,-7.8125244E-1,2.2599548E-1,4.444841E-1,1.5995283E-1,-3.5812125E-2,2.4E-1,-1.9392056E-2,-4.411371E-3,-3.0027812E-2,1.8641463E-2,1.2980756E-1,-1.1778223E-2,4.0637445E-2,-4.3182887E-2,-3.983155E-2,8.170603E-2,-2.8729115E-2],"split_indices":[148,133,139,147,24,144,0,138,160,0,0,0,0,148,151,151,88,136,0,155,0,164,59,34,140,0,0,70,0,59,0,61,144,149,136,0,0,0,0,0,0,0,0,0,0,0,0,0,0],"split_type":[0,0,0,0,0,0,0,0,0,0,0,0,0,0,0,0,0,0,0,0,0,0,0,0,0,0,0,0,0,0,0,0,0,0,0,0,0,0,0,0,0,0,0,0,0,0,0,0,0],"sum_hessian":[1.4936665E4,1.336432E4,1.5723441E3,1.3303848E4,6.047279E1,2.6373218E2,1.3086119E3,4.597684E2,1.2844079E4,8.41646E0,5.205633E1,2.610906E2,2.6415663E0,4.4887806E1,4.148806E2,3.7216567E3,9.122423E3,8.660823E0,3.6226982E1,7.301652E1,3.4186407E2,3.6594802E3,6.2176712E1,9.104717E3,1.7705875E1,6.593387E0,2.0674362E0,3.3172104E1,3.9844414E1,3.676758E1,3.6227126E3,9.207128E0,5.2969585E1,9.095946E3,8.770177E0,2.800161E0,1.4905715E1,2.3488256E1,9.6838455E0,2.921972E1,7.5478587E0,3.7628295E0,5.4442983E0,1.1867613E1,4.110197E1,7.282254E3,1.8136925E3,2.0973692E0,6.672808E0],"tree_param":{"num_deleted":"0","num_feature":"165","num_nodes":"49","size_leaf_vector":"1"}},{"base_weights":[2.5765083E-3,-4.6840125E-1,3E0,2.287452E-1,-4.7378466E-1,-1.5385866E-1,2.4E-1,-4.8539236E-1,4.107738E-1,-3.7330758E-2,9.156848E-2,-3.6230248E-1,-5.311355E-1,-4.2526178E-2,2.4E-1,-2.9096438E-2,7.790419E-2,-4.328945E-2,-4.6097845E-1,-4.839686E-1,1.5211313E0,3.8034644E-2,-4.2239152E-2,2.4E-1,-2.9706853E-2],"categories":[],"categories_nodes":[],"categories_segments":[],"categories_sizes":[],"default_left":[0,0,0,0,0,0,0,0,0,0,0,0,0,0,0,0,0,0,0,0,0,0,0,0,0],"id":13,"left_children":[1,3,5,-1,7,9,-1,11,13,-1,-1,15,17,-1,-1,-1,-1,-1,19,21,23,-1,-1,-1,-1],"loss_changes":[2.9715504E4,2.5440454E2,2.1528906E2,0E0,1.4384546E2,1.1567371E1,0E0,7.6864746E1,6.2335986E2,0E0,0E0,8.208221E0,6.231201E0,0E0,0E0,0E0,0E0,0E0,6.011087E1,5.3875366E1,5.826909E1,0E0,0E0,0E0,0E0],"parents":[2147483647,0,0,1,1,2,2,4,4,5,5,7,7,8,8,11,11,12,12,18,18,19,19,20,20],"right_children":[2,4,6,-1,8,10,-1,12,14,-1,-1,16,18,-1,-1,-1,-1,-1,20,22,24,-1,-1,-1,-1],"split_conditions":[1.5144589E0,-8.92043E-1,1.091231E0,2.287452E-1,1.1922725E0,2.6262602E-1,2.4E-1,-8.205184E-1,4.883887E-1,-3.7330758E-2,9.156848E-2,1.0357896E0,5.1993375E0,-4.2526178E-2,2.4E-1,-2.9096438E-2,7.790419E-2,-4.328945E-2,7.984423E-1,-3.903253E-1,-2.5708575E-2,3.8034644E-2,-4.2239152E-2,2.4E-1,-2.9706853E-2],"split_indices":[160,134,155,0,160,143,0,140,154,0,0,57,83,0,0,0,0,0,146,142,144,0,0,0,0],"split_type":[0,0,0,0,0,0,0,0,0,0,0,0,0,0,0,0,0,0,0,0,0,0,0,0,0],"sum_hessian":[1.5393901E4,1.3967654E4,1.4262471E3,2.069705E1,1.3946957E4,2.1287413E1,1.4049597E3,1.3767756E4,1.792012E2,1.849793E1,2.7894826E0,3.7379907E3,1.0029766E4,1.4635059E2,3.285062E1,3.7358977E3,2.0931752E0,8.762406E3,1.2673591E3,1.2545715E3,1.2787635E1,5.3680683E1,1.2008909E3,5.591641E0,7.1959944E0],"tree_param":{"num_deleted":"0","num_feature":"165","num_nodes":"25","size_leaf_vector":"1"}},{"base_weights":[-5.4641347E-3,-3.8818252E-1,1.628357E0,-1.2594613E-1,-5.9001464E-1,2.345792E0,-5.8906984E-1,-1.6162096E-1,2.2364602E0,-5.904249E-1,1.9641964E-1,1.88837E-1,-1.453912E-1,1.1139489E-1,-5.924518E-1,-7.323888E-2,-5.8451355E-1,2.3057256E0,-2.862844E-3,-5.255926E-1,-4.7529604E-2,7.447021E-2,-2.416497E-2,4.726332E-2,-2.9311934E-1,-2.1527113E-2,5.0520122E-2,-4.7615044E-2,1.1731274E-1,-4.9928747E-2,-3.239526E-1,-5.891846E-1,2.1302745E-1,7.8548825E-1,1.8701772E-1,-5.597887E-1,1.5458049E-1,2.3370251E-2,-3.424103E-2,3.8670108E-2,-1.4413912E-2,-5.4865394E-2,5.728375E-1,-3.563314E-1,5.811374E-1,-5.918282E-1,4.9187187E-2,7.11339E-2,-2.0514999E-2,8.9155756E-2,-0E0,9.456656E-2,-5.759065E-1,-4.018506E-3,-2.7317775E-2,1.3328692E-1,-1.2426293E-2,8.822358E-3,-2.98516E-2,1.0263651E-1,-2.4919255E-2,1.6912412E-2,-4.7473468E-2,-0E0,-4.6269875E-2],"categories":[],"categories_nodes":[],"categories_segments":[],"categories_sizes":[],"default_left":[0,0,0,0,0,0,0,0,0,0,0,0,0,0,0,0,0,0,0,0,0,0,0,0,0,0,0,0,0,0,0,0,0,0,0,0,0,0,0,0,0,0,0,0,0,0,0,0,0,0,0,0,0,0,0,0,0,0,0,0,0,0,0,0,0],"id":14,"left_children":[1,3,5,7,9,11,13,15,17,19,21,-1,23,25,27,29,31,33,-1,35,-1,-1,-1,-1,37,-1,-1,-1,39,41,43,45,47,49,-1,51,-1,-1,-1,-1,-1,53,55,57,59,61,-1,-1,-1,-1,-1,-1,63,-1,-1,-1,-1,-1,-1,-1,-1,-1,-1,-1,-1],"loss_changes":[1.810275E4,1.2410295E3,8.74415E3,8.619137E2,4.6064453E0,1.5250781E2,3.377594E0,3.7580887E2,2.4167603E1,2.2226562E0,4.6614895E0,0E0,3.6898136E0,2.7254841E0,2.8029175E0,4.866765E1,6.835022E0,1.6046143E0,0E0,6.528598E1,0E0,0E0,0E0,0E0,2.4575183E0,0E0,0E0,0E0,1.4788781E0,2.37722E1,2.1430016E1,6.5390015E0,5.0771427E0,1.1206598E0,0E0,2.2486465E1,0E0,0E0,0E0,0E0,0E0,1.0118866E1,4.942434E1,5.5207443E0,1.741597E1,2.5629883E0,0E0,0E0,0E0,0E0,0E0,0E0,9.757538E-1,0E0,0E0,0E0,0E0,0E0,0E0,0E0,0E0,0E0,0E0,0E0,0E0],"parents":[2147483647,0,0,1,1,2,2,3,3,4,4,5,5,6,6,7,7,8,8,9,9,10,10,12,12,13,13,14,14,15,15,16,16,17,17,19,19,24,24,28,28,29,29,30,30,31,31,32,32,33,33,35,35,41,41,42,42,43,43,44,44,45,45,52,52],"right_children":[2,4,6,8,10,12,14,16,18,20,22,-1,24,26,28,30,32,34,-1,36,-1,-1,-1,-1,38,-1,-1,-1,40,42,44,46,48,50,-1,52,-1,-1,-1,-1,-1,54,56,58,60,62,-1,-1,-1,-1,-1,-1,64,-1,-1,-1,-1,-1,-1,-1,-1,-1,-1,-1,-1],"split_conditions":[6.4842176E-1,-2.1731587E-1,-1.4188752E-1,-1.5966095E-1,2.877846E0,3.8303146E-1,-3.24126E-1,1.1789001E-2,4.0464422E-1,-5.8229126E-2,9.574536E-1,1.88837E-1,6.7104828E-3,2.5252607E-1,8.900614E-1,1.0510705E0,-2.0969456E-1,2.1608317E-1,-2.862844E-3,6.66876E-1,-4.7529604E-2,7.447021E-2,-2.416497E-2,4.726332E-2,-5.568551E-1,-2.1527113E-2,5.0520122E-2,-4.7615044E-2,2.644403E-1,1.8310353E-1,-3.0115205E-1,3.827231E-1,4.8365796E-1,1.2339495E0,1.8701772E-1,-1.5084307E-1,1.5458049E-1,2.3370251E-2,-3.424103E-2,3.8670108E-2,-1.4413912E-2,4.52016E-1,4.6000245E-1,-1.0938465E-1,9.074859E-1,-3.8530457E-1,4.9187187E-2,7.11339E-2,-2.0514999E-2,8.9155756E-2,-0E0,9.456656E-2,-2.0533149E-1,-4.018506E-3,-2.7317775E-2,1.3328692E-1,-1.2426293E-2,8.822358E-3,-2.98516E-2,1.0263651E-1,-2.4919255E-2,1.6912412E-2,-4.7473468E-2,-0E0,-4.6269875E-2],"split_indices":[136,158,158,142,56,152,147,146,150,158,18,0,155,133,160,59,142,157,0,133,0,0,0,0,142,0,0,0,134,133,153,136,36,38,0,155,0,0,0,0,0,152,152,150,69,145,0,0,0,0,0,0,160,0,0,0,0,0,0,0,0,0,0,0,0],"split_type":[0,0,0,0,0,0,0,0,0,0,0,0,0,0,0,0,0,0,0,0,0,0,0,0,0,0,0,0,0,0,0,0,0,0,0,0,0,0,0,0,0,0,0,0,0,0,0,0,0,0,0,0,0,0,0,0,0,0,0,0,0,0,0,0,0],"sum_hessian":[2.8944566E4,2.345267E4,5.4918965E3,1.0202497E4,1.3250172E4,4.14947E3,1.3424259E3,1.0052765E4,1.4973251E2,1.3244397E4,5.7746444E0,4.125481E3,2.398946E1,5.4329333E0,1.336993E3,8.3179E3,1.7348641E3,1.4548814E2,4.2443805E0,7.369184E2,1.25074795E4,2.038837E0,3.7358072E0,2.4411864E0,2.1548273E1,3.1398737E0,2.2930596E0,1.3328817E3,4.1112747E0,7.614348E3,7.035522E2,1.7259052E3,8.958961E0,4.3743505E0,1.4111378E2,7.285303E2,8.38814E0,2.9053392E0,1.8642933E1,2.0364244E0,2.0748506E0,7.5570703E3,5.7277954E1,6.809566E2,2.2595594E1,1.723553E3,2.3521447E0,3.3750544E0,5.583906E0,2.1202893E0,2.2540612E0,5.0685005E0,7.2346173E2,7.4408564E3,1.1621409E2,2.2143236E1,3.513472E1,2.226285E1,6.586937E2,1.2473795E1,1.0121799E1,2.2626917E0,1.7212903E3,2.405039E0,7.210567E2],"tree_param":{"num_deleted":"0","num_feature":"165","num_nodes":"65","size_leaf_vector":"1"}},{"base_weights":[1.644754E-2,-4.1049176E-1,2.4E-1,-5.12474E-1,-9.797089E-3,-5.173101E-1,3.0682036E-1,-5.202065E-1,-2.4747553E-1,-3.841802E-2,2.4E-1,-4.595308E-1,-4.193388E-2,2.4E-1,-4.0224776E-2,-5.125104E-1,1.1145105E0,-4.1618578E-2,-1.1079145E-2,2.4E-1,-3.088708E-2],"categories":[],"categories_nodes":[],"categories_segments":[],"categories_sizes":[],"default_left":[0,0,0,0,0,0,0,0,0,0,0,0,0,0,0,0,0,0,0,0,0],"id":15,"left_children":[1,3,-1,5,-1,7,9,11,13,-1,-1,15,-1,-1,-1,17,19,-1,-1,-1,-1],"loss_changes":[1.9859262E4,2.5937402E2,0E0,2.6350708E1,0E0,4.4249268E0,1.3156165E2,7.750244E-1,8.084633E1,0E0,0E0,3.6633392E1,0E0,0E0,0E0,5.8916473E-1,6.538068E1,0E0,0E0,0E0,0E0],"parents":[2147483647,0,0,1,1,3,3,5,5,6,6,7,7,8,8,11,11,15,15,16,16],"right_children":[2,4,-1,6,-1,8,10,12,14,-1,-1,16,-1,-1,-1,18,20,-1,-1,-1,-1],"split_conditions":[1.3822451E0,2.776234E0,2.4E-1,1.1996481E0,-9.797089E-3,1.0778561E0,3.7767637E-1,5.554622E-1,3.3025414E-1,-3.841802E-2,2.4E-1,7.121509E-1,-4.193388E-2,2.4E-1,-4.0224776E-2,1.1221561E0,3.5399687E-1,-4.1618578E-2,-1.1079145E-2,2.4E-1,-3.088708E-2],"split_indices":[145,164,0,136,0,136,146,9,151,0,0,138,0,0,0,147,163,0,0,0,0],"split_type":[0,0,0,0,0,0,0,0,0,0,0,0,0,0,0,0,0,0,0,0,0],"sum_hessian":[9.322651E3,8.842557E3,4.800946E2,6.5279194E3,2.3146372E3,6.4909526E3,3.696701E1,6.4183486E3,7.260377E1,3.3186504E1,3.7805057E0,4.1595676E2,6.002392E3,2.4345138E0,7.016925E1,4.040244E2,1.1932332E1,3.9377603E2,1.0248373E1,2.7513366E0,9.180996E0],"tree_param":{"num_deleted":"0","num_feature":"165","num_nodes":"21","size_leaf_vector":"1"}},{"base_weights":[-6.0223867E-3,7.792306E-1,-6.9493794E-1,8.5213125E-1,-7.0649904E-1,9.615983E-2,-7.0553267E-1,6.598918E-1,1.2018754E0,4.521861E-2,-7.108333E-1,-3.6773887E-1,-7.1217126E-1,-3.727272E-1,6.643824E-1,-0E0,1.204338E0,-5.7247E-2,2.2001449E-2,9.8086685E-1,-6.945618E-1,-7.175312E-1,-5.944506E-1,-2.134442E-2,-3.5825584E-2,6.6796935E-1,-5.5582595E-1,-4.3049674E-2,5.8305436E-1,1.0879496E0,9.7402506E-2,8.0005213E-4,9.4170645E-2,1.9120645E-2,-7.0359427E-1,-7.178897E-1,-3.053602E-1,1.3289678E-1,-5.7380497E-2,3.5445943E-2,-3.9216794E-2,6.570499E-1,8.604518E-1,7.705723E-3,-4.9301185E-2,2.615025E-3,6.225023E-2,1.7174123E-1,1.0958656E0,-4.049273E-1,5.482246E-1,-0E0,-7.0808417E-1,-7.1832687E-1,-5.333442E-1,6.342262E-2,-5.0183557E-2,9.578954E-1,-5.56294E-2,5.288031E-2,1.5919333E-2,7.047768E-2,-9.363027E-3,4.1588247E-2,-2.6713585E-2,8.798324E-2,-0E0,-0E0,-4.1678667E-2,-0E0,6.7967355E-2,-1.4221004E-2,-5.7176124E-2,-5.747229E-2,-0E0,-5.488101E-2,2.234602E-2,3.417483E-2,9.460583E-2],"categories":[],"categories_nodes":[],"categories_segments":[],"categories_sizes":[],"default_left":[0,0,0,0,0,0,0,0,0,0,0,0,0,0,0,0,0,0,0,0,0,0,0,0,0,0,0,0,0,0,0,0,0,0,0,0,0,0,0,0,0,0,0,0,0,0,0,0,0,0,0,0,0,0,0,0,0,0,0,0,0,0,0,0,0,0,0,0,0,0,0,0,0,0,0,0,0,0,0],"id":16,"left_children":[1,3,5,7,9,-1,11,13,15,-1,17,19,21,23,25,27,29,-1,-1,31,33,35,37,39,-1,41,43,-1,45,47,-1,49,-1,-1,51,53,55,57,-1,-1,-1,59,61,-1,-1,-1,-1,63,65,67,69,-1,71,73,75,-1,-1,77,-1,-1,-1,-1,-1,-1,-1,-1,-1,-1,-1,-1,-1,-1,-1,-1,-1,-1,-1,-1,-1],"loss_changes":[2.48789E4,2.329296E3,4.9462598E2,1.3754619E3,6.6374207E0,0E0,5.3589844E1,6.2015137E1,2.0644531E1,0E0,5.2429504E0,2.1175978E2,1.3808594E1,1.1884537E0,5.866455E1,7.0999994E0,7.8271484E0,0E0,0E0,1.70458E1,3.706787E0,2.3710938E0,9.4768616E1,4.2980227E0,0E0,2.622705E1,1.8058414E0,0E0,4.804554E-1,4.1419067E0,0E0,5.460748E0,0E0,0E0,8.28598E-1,6.230469E-1,1.05483055E1,1.0790514E2,0E0,0E0,0E0,2.1708984E1,1.4256592E1,0E0,0E0,0E0,0E0,2.6958954E0,3.1573486E0,4.5333552E-1,1.8061793E0,0E0,4.5936584E-1,6.064453E-1,8.739603E0,0E0,0E0,7.67231E0,0E0,0E0,0E0,0E0,0E0,0E0,0E0,0E0,0E0,0E0,0E0,0E0,0E0,0E0,0E0,0E0,0E0,0E0,0E0,0E0,0E0],"parents":[2147483647,0,0,1,1,2,2,3,3,4,4,6,6,7,7,8,8,10,10,11,11,12,12,13,13,14,14,15,15,16,16,19,19,20,20,21,21,22,22,23,23,25,25,26,26,28,28,29,29,31,31,34,34,35,35,36,36,37,37,41,41,42,42,47,47,48,48,49,49,50,50,52,52,53,53,54,54,57,57],"right_children":[2,4,6,8,10,-1,12,14,16,-1,18,20,22,24,26,28,30,-1,-1,32,34,36,38,40,-1,42,44,-1,46,48,-1,50,-1,-1,52,54,56,58,-1,-1,-1,60,62,-1,-1,-1,-1,64,66,68,70,-1,72,74,76,-1,-1,78,-1,-1,-1,-1,-1,-1,-1,-1,-1,-1,-1,-1,-1,-1,-1,-1,-1,-1,-1,-1,-1],"split_conditions":[-4.5229757E-1,-1.4356996E-3,5.423352E-1,4.52016E-1,9.591226E-2,9.615983E-2,-3.5822856E-1,-9.168175E-1,3.5865855E-1,4.521861E-2,6.5331364E-1,-2.8902122E-1,1.1438726E0,-8.447429E-1,-4.6000925E-1,5.1993375E0,6.659462E-1,-5.7247E-2,2.2001449E-2,-2.818193E-1,-4.7883657E-1,5.1993375E0,4.1501988E-2,1.8658521E0,-3.5825584E-2,1.5849291E0,3.0057085E-1,-4.3049674E-2,-5.8229126E-2,-6.1610657E-1,9.7402506E-2,2.669005E-1,9.4170645E-2,1.9120645E-2,-2.6032752E-1,5.1993375E0,1.3211302E-1,6.8566255E-2,-5.7380497E-2,3.5445943E-2,-3.9216794E-2,-6.995592E-1,-5.7490695E-1,7.705723E-3,-4.9301185E-2,2.615025E-3,6.225023E-2,-3.2257578E-1,3.2902453E0,-1.309041E-1,-4.7298157E-1,-0E0,-1.7564865E-2,5.1993375E0,6.7034847E-1,6.342262E-2,-5.0183557E-2,4.4290316E-1,-5.56294E-2,5.288031E-2,1.5919333E-2,7.047768E-2,-9.363027E-3,4.1588247E-2,-2.6713585E-2,8.798324E-2,-0E0,-0E0,-4.1678667E-2,-0E0,6.7967355E-2,-1.4221004E-2,-5.7176124E-2,-5.747229E-2,-0E0,-5.488101E-2,2.234602E-2,3.417483E-2,9.460583E-2],"split_indices":[139,145,34,152,34,0,145,155,148,0,155,159,61,148,142,97,152,0,0,134,153,79,137,6,0,61,133,0,158,149,0,164,0,0,159,115,61,156,0,0,0,159,159,0,0,0,0,163,20,151,141,0,64,18,147,0,0,152,0,0,0,0,0,0,0,0,0,0,0,0,0,0,0,0,0,0,0,0,0],"split_type":[0,0,0,0,0,0,0,0,0,0,0,0,0,0,0,0,0,0,0,0,0,0,0,0,0,0,0,0,0,0,0,0,0,0,0,0,0,0,0,0,0,0,0,0,0,0,0,0,0,0,0,0,0,0,0,0,0,0,0,0,0,0,0,0,0,0,0,0,0,0,0,0,0,0,0,0,0,0,0],"sum_hessian":[4.598254E4,2.1488322E4,2.4494219E4,2.0484398E4,1.00392365E3,1.3453362E2,2.4359686E4,1.3223311E4,7.261087E3,2.1389883E0,1.00178467E3,4.731312E2,2.3886555E4,5.6063515E1,1.3167247E4,1.5025703E1,7.246061E3,9.980272E2,3.75746E0,9.121368E1,3.819175E2,2.2832521E4,1.0540323E3,1.1496162E1,4.4567352E1,1.3129966E4,3.728198E1,7.706763E0,7.3189406E0,7.5861194E2,6.487449E3,1.5978719E1,7.523496E1,2.6413329E0,3.7927615E2,2.2809986E4,2.253653E1,1.5164438E2,9.02388E2,5.294996E0,6.2011666E0,1.2435905E4,6.9405975E2,2.3597355E0,3.492224E1,3.197111E0,4.12183E0,7.4280567E0,7.511839E2,8.951498E0,7.0272207E0,2.4745893E0,3.7680157E2,2.2747604E4,6.238114E1,4.0938506E0,1.8442678E1,7.611758E1,7.55268E1,1.2327515E4,1.0839107E2,6.804842E2,1.3575559E1,4.951779E0,2.4762778E0,7.4887775E2,2.3061647E0,2.3471718E0,6.6043262E0,2.8038666E0,4.223354E0,6.2618246E0,3.7053976E2,2.2744611E4,2.992874E0,5.3295914E1,9.085229E0,2.502773E1,5.1089844E1],"tree_param":{"num_deleted":"0","num_feature":"165","num_nodes":"79","size_leaf_vector":"1"}},{"base_weights":[1.2613268E-2,-3.532529E-1,3E0,-5.170027E-1,-5.0937712E-2,-3.674478E-2,2.4E-1,-4.1426938E-2,1.7668903E-2,-1.2887178E-1,3E0,-1.3937813E-2,-4.0745806E-2,2.4E-1,-1.8220156E-2,-1.5421577E-2,4.5537096E-2,-3.2839987E-2,-9.786419E-4],"categories":[],"categories_nodes":[],"categories_segments":[],"categories_sizes":[],"default_left":[0,0,0,0,0,0,0,0,0,0,0,0,0,0,0,0,0,0,0],"id":17,"left_children":[1,3,5,7,9,-1,-1,-1,-1,11,13,15,-1,-1,-1,17,-1,-1,-1],"loss_changes":[1.3248499E4,3.5578027E2,2.8883984E2,3.2111816E0,8.773939E2,0E0,0E0,0E0,0E0,1.09259796E2,3.8011414E1,1.9666295E0,0E0,0E0,0E0,2.5956304E0,0E0,0E0,0E0],"parents":[2147483647,0,0,1,1,2,2,3,3,4,4,9,9,10,10,11,11,15,15],"right_children":[2,4,6,8,10,-1,-1,-1,-1,12,14,16,-1,-1,-1,18,-1,-1,-1],"split_conditions":[1.5248922E0,6.517078E-1,5.226011E-1,5.1993375E0,7.6378983E-1,-3.674478E-2,2.4E-1,-4.1426938E-2,1.7668903E-2,1.2811552E-1,-8.254579E-2,1.8239402E0,-4.0745806E-2,2.4E-1,-1.8220156E-2,1.8286413E0,4.5537096E-2,-3.2839987E-2,-9.786419E-4],"split_indices":[157,135,134,126,149,0,0,0,0,147,144,70,0,0,0,135,0,0,0],"split_type":[0,0,0,0,0,0,0,0,0,0,0,0,0,0,0,0,0,0,0],"sum_hessian":[7.574829E3,7.1909233E3,3.839059E2,4.662431E3,2.528492E3,2.34772E1,3.604287E2,4.6584395E3,3.9918842E0,2.495459E3,3.3033043E1,1.9190905E3,5.763686E2,2.9822674E1,3.2103684E0,1.9170173E3,2.0731153E0,1.2046918E1,1.9049703E3],"tree_param":{"num_deleted":"0","num_feature":"165","num_nodes":"19","size_leaf_vector":"1"}},{"base_weights":[1.1547488E-3,-4.0381566E-1,1.5996093E0,-4.2990875E-1,2.3775434E0,-3.899361E-1,2.4716578E0,-4.4407076E-1,1.9600774E-1,-1.5503919E-2,1.9806516E-1,-4.6035537E-1,1.8867885E-1,-4.0064786E-2,2.4932573E0,-4.561356E-1,1.856746E0,4.6938893E-1,-5.368846E-1,-1.6282065E-2,2.4956632E0,-3.095059E-1,-5.523084E-1,-3.8723253E-2,1.9474475E-1,-4.5270407E-1,9.2024666E-1,3.5936418E-1,-5.516528E-1,1.172669E0,2.000336E-1,-3.742362E-1,2.3890982E0,-5.5301034E-1,8.042124E-2,-0E0,-4.1446246E-2,1.5037419E0,-4.0203977E-2,-2.7760246E-1,1.3636868E0,-4.4534743E-2,-1.5015946E-2,-2.7175523E-2,1.6198407E-1,-3.110657E-2,5.0528836E-2,-1.3390083E-2,2.0162538E-1,-4.4643793E-2,-3.309221E-2,-1.4906839E-2,1.6551442E-2,7.342067E-3,1.6225484E-1,1.5471331E-2,-3.4676574E-2,3.4264877E-2,1.4053194E-1,9.1435984E-2,-3.470452E-2],"categories":[],"categories_nodes":[],"categories_segments":[],"categories_sizes":[],"default_left":[0,0,0,0,0,0,0,0,0,0,0,0,0,0,0,0,0,0,0,0,0,0,0,0,0,0,0,0,0,0,0,0,0,0,0,0,0,0,0,0,0,0,0,0,0,0,0,0,0,0,0,0,0,0,0,0,0,0,0,0,0],"id":18,"left_children":[1,3,5,7,9,11,13,15,-1,-1,-1,17,-1,-1,19,21,23,25,27,-1,29,31,33,-1,-1,35,37,39,41,43,-1,45,47,49,-1,51,-1,53,-1,55,57,-1,59,-1,-1,-1,-1,-1,-1,-1,-1,-1,-1,-1,-1,-1,-1,-1,-1,-1,-1],"loss_changes":[1.4356596E4,1.2872361E3,7.780538E3,7.183779E2,4.2786194E1,2.681384E2,2.0290234E2,4.8690356E2,0E0,0E0,0E0,9.5860535E1,0E0,0E0,2.1203125E1,2.441565E2,1.26734985E2,4.4190178E1,1.6946533E1,0E0,1.1691406E1,1.2051084E3,1.3071045E1,0E0,0E0,8.832221E-1,6.042644E1,1.5634764E1,2.7262573E0,2.2441622E1,0E0,9.95163E1,5.5227356E1,6.5463867E0,0E0,7.1294296E-1,0E0,3.554149E1,0E0,1.526869E0,7.2911835E-1,0E0,9.115404E0,0E0,0E0,0E0,0E0,0E0,0E0,0E0,0E0,0E0,0E0,0E0,0E0,0E0,0E0,0E0,0E0,0E0,0E0],"parents":[2147483647,0,0,1,1,2,2,3,3,4,4,5,5,6,6,7,7,11,11,14,14,15,15,16,16,17,17,18,18,20,20,21,21,22,22,25,25,26,26,27,27,28,28,29,29,31,31,32,32,33,33,35,35,37,37,39,39,40,40,42,42],"right_children":[2,4,6,8,10,12,14,16,-1,-1,-1,18,-1,-1,20,22,24,26,28,-1,30,32,34,-1,-1,36,38,40,42,44,-1,46,48,50,-1,52,-1,54,-1,56,58,-1,60,-1,-1,-1,-1,-1,-1,-1,-1,-1,-1,-1,-1,-1,-1,-1,-1,-1,-1],"split_conditions":[8.354551E-1,1.8084285E0,2.2202952E-1,2.1789737E0,-2.1542048E-1,1.8084285E0,3.7823358E-1,1.3542062E0,1.9600774E-1,-1.5503919E-2,1.9806516E-1,-2.5391683E-1,1.8867885E-1,-4.0064786E-2,-2.774286E-1,-8.2283225E-3,6.18834E-1,5.189509E-1,1.8530014E-1,-1.6282065E-2,-2.8792394E-2,2.833041E-1,2.4088104E0,-3.8723253E-2,1.9474475E-1,2.3016897E-1,2.0414708E0,-2.158699E-1,6.814768E-1,1.2500023E0,2.000336E-1,1.0236955E0,1.3777041E-1,1.9219677E0,8.042124E-2,5.4853423E-3,-4.1446246E-2,-1.0916862E-1,-4.0203977E-2,4.156816E-1,-3.948218E-2,-4.4534743E-2,4.9961206E-1,-2.7175523E-2,1.6198407E-1,-3.110657E-2,5.0528836E-2,-1.3390083E-2,2.0162538E-1,-4.4643793E-2,-3.309221E-2,-1.4906839E-2,1.6551442E-2,7.342067E-3,1.6225484E-1,1.5471331E-2,-3.4676574E-2,3.4264877E-2,1.4053194E-1,9.1435984E-2,-3.470452E-2],"split_indices":[154,36,144,8,163,36,155,163,0,0,0,145,0,0,143,133,17,155,157,0,152,144,53,0,0,156,70,147,138,36,0,147,163,53,0,160,0,160,0,59,147,0,140,0,0,0,0,0,0,0,0,0,0,0,0,0,0,0,0,0,0],"split_type":[0,0,0,0,0,0,0,0,0,0,0,0,0,0,0,0,0,0,0,0,0,0,0,0,0,0,0,0,0,0,0,0,0,0,0,0,0,0,0,0,0,0,0,0,0,0,0,0,0,0,0,0,0,0,0,0,0,0,0,0,0],"sum_hessian":[2.2170268E4,1.7689732E4,4.4805337E3,1.7527174E4,1.6255904E2,1.3655702E3,3.1149636E3,1.7443266E4,8.390941E1,5.725101E0,1.5683394E2,1.3332568E3,3.2313396E1,2.1984629E1,3.092979E3,1.7354086E4,8.917918E1,1.0011929E2,1.2331375E3,2.4225442E0,3.0905564E3,6.8792637E3,1.0474822E4,1.7542E1,7.163718E1,3.2510902E1,6.760839E1,1.86846E1,1.2144529E3,1.32226715E1,3.0773337E3,6.719982E3,1.5928143E2,1.0471714E4,3.1086152E0,4.269656E0,2.8241245E1,4.811419E1,1.9494205E1,1.2014218E1,6.670383E0,1.2021748E3,1.2278121E1,4.987253E0,8.235418E0,6.6255615E3,9.442035E1,7.5635285E0,1.5171791E2,1.0097159E4,3.745548E2,2.238842E0,2.0308142E0,1.3925577E1,3.418861E1,2.0697155E0,9.944503E0,3.5862534E0,3.0841293E0,2.0254514E0,1.0252669E1],"tree_param":{"num_deleted":"0","num_feature":"165","num_nodes":"61","size_leaf_vector":"1"}},{"base_weights":[-2.1470124E-3,-4.7054037E-1,1.4456618E0,-4.8751867E-1,1.2209861E0,2.4603343E0,-5.395314E-1,-4.9370196E-1,1.8655041E-1,2.4274461E0,-4.9239555E-1,-3.5583843E-2,2.4700124E0,1.518312E0,-5.5997336E-1,-4.9793613E-1,1.4238688E0,3.270941E-2,1.971525E-1,1.8148148E-2,-4.3457057E-2,1.3666477E0,1.9842257E-1,-2.3511032E-2,1.6705494E-1,-3.6243424E-2,-4.511896E-2,-5.000867E-1,1.714059E-1,1.7790692E-1,-3.5129678E-2,2.1309304E0,6.265655E-2,-3.6177337E-2,9.214874E-2,-5.2506524E-1,-3.2407323E-1,1.82902E-1,2.9710965E-2,-2.8118629E-2,8.770061E-2,-3.7768077E-2,-4.467185E-2,1.9075403E-1,-3.8401973E-2],"categories":[],"categories_nodes":[],"categories_segments":[],"categories_sizes":[],"default_left":[0,0,0,0,0,0,0,0,0,0,0,0,0,0,0,0,0,0,0,0,0,0,0,0,0,0,0,0,0,0,0,0,0,0,0,0,0,0,0,0,0,0,0,0,0],"id":19,"left_children":[1,3,5,7,9,11,13,15,-1,17,19,-1,21,23,25,27,29,-1,-1,-1,-1,31,-1,-1,-1,33,-1,35,-1,-1,-1,37,39,-1,-1,41,43,-1,-1,-1,-1,-1,-1,-1,-1],"loss_changes":[1.5161644E4,4.8692847E2,1.1011246E4,2.9504834E2,3.5200177E2,1.0412109E2,8.030054E1,1.3765039E2,0E0,3.1791992E0,3.0298653E0,0E0,3.228711E1,2.1326279E1,3.2728271E0,9.779736E1,5.8560402E1,0E0,0E0,0E0,0E0,3.6798996E1,0E0,0E0,0E0,1.0656683E1,0E0,7.25083E1,0E0,0E0,0E0,2.9257126E0,9.516503E0,0E0,0E0,2.492212E1,8.8064856E2,0E0,0E0,0E0,0E0,0E0,0E0,0E0,0E0],"parents":[2147483647,0,0,1,1,2,2,3,3,4,4,5,5,6,6,7,7,9,9,10,10,12,12,13,13,14,14,15,15,16,16,21,21,25,25,27,27,31,31,32,32,35,35,36,36],"right_children":[2,4,6,8,10,12,14,16,-1,18,20,-1,22,24,26,28,30,-1,-1,-1,-1,32,-1,-1,-1,34,-1,36,-1,-1,-1,38,40,-1,-1,42,44,-1,-1,-1,-1,-1,-1,-1,-1],"split_conditions":[1.1583549E0,2.0163982E0,2.0189664E-1,5.1993375E0,5.9367962E-2,6.635686E-2,5.0420266E-1,1.5296501E0,1.8655041E-1,3.0679938E-1,2.232159E-1,-3.5583843E-2,1.598066E-1,8.024141E-2,2.992352E-1,5.1993375E0,2.8775698E-1,3.270941E-2,1.971525E-1,1.8148148E-2,-4.3457057E-2,1.5781186E0,1.9842257E-1,-2.3511032E-2,1.6705494E-1,1.8530014E-1,-4.511896E-2,1.6863818E-1,1.714059E-1,1.7790692E-1,-3.5129678E-2,3.791233E-1,1.252758E-2,-3.6177337E-2,9.214874E-2,-1.0804007E-1,-3.1124082E-1,1.82902E-1,2.9710965E-2,-2.8118629E-2,8.770061E-2,-3.7768077E-2,-4.467185E-2,1.9075403E-1,-3.8401973E-2],"split_indices":[36,51,163,111,162,13,155,45,0,150,162,0,157,13,163,123,152,0,0,0,0,14,0,0,0,157,0,156,0,0,0,138,164,0,0,133,162,0,0,0,0,0,0,0,0],"split_type":[0,0,0,0,0,0,0,0,0,0,0,0,0,0,0,0,0,0,0,0,0,0,0,0,0,0,0,0,0,0,0,0,0,0,0,0,0,0,0,0,0,0,0,0,0],"sum_hessian":[2.2351451E4,1.688918E4,5.4622715E3,1.6723045E4,1.6613455E2,3.6145664E3,1.8477052E3,1.6688271E4,3.477227E1,9.717095E1,6.896361E1,1.1531491E1,3.603035E3,1.6491947E1,1.8312133E3,1.6653242E4,3.5030563E1,2.424242E0,9.4746704E1,3.444519E0,6.551909E1,3.614823E1,3.5668867E3,3.9672632E0,1.2524683E1,1.5026892E1,1.8161864E3,1.6641498E4,1.1743295E1,2.442393E1,1.0606631E1,2.1749104E1,1.4399131E1,1.2359303E1,2.667588E0,1.4567396E4,2.0741016E3,1.9173458E1,2.5756443E0,1.0877083E1,3.5220475E0,5.6442686E3,8.923128E3,1.1119138E2,1.9629103E3],"tree_param":{"num_deleted":"0","num_feature":"165","num_nodes":"45","size_leaf_vector":"1"}},{"base_weights":[1.3798031E-2,-4.0895987E-1,3E0,-4.6313727E-1,3E0,-4.146971E-2,2.4E-1,4.98326E-2,-4.871773E-1,-3.000355E-2,2.4E-1,1.8891473E0,-4.305463E-2,-4.9381948E-1,-0E0,3E0,6.535119E-1,-4.1273266E-1,-5.280747E-1,2.4E-1,-5.038489E-1,-0E0,2.4E-1,9.492138E-2,2.4E-1,-4.2894602E-1,2.017959E-1,-5.2873576E-1,5.6036215E-2,-4.2362817E-2,4.5032706E-2,4.527665E-2,-2.7728982E-2,1.3718691E-1,-3.51375E-2,-3.4601364E-2,-1.0098429E-2,3.957608E-2,-3.88242E-2,-4.2386148E-2,-1.2000814E-2,8.324351E-2,-2.8690774E-2],"categories":[],"categories_nodes":[],"categories_segments":[],"categories_sizes":[],"default_left":[0,0,0,0,0,0,0,0,0,0,0,0,0,0,0,0,0,0,0,0,0,0,0,0,0,0,0,0,0,0,0,0,0,0,0,0,0,0,0,0,0,0,0],"id":20,"left_children":[1,3,5,7,9,-1,-1,11,13,-1,-1,15,-1,17,19,21,23,25,27,-1,29,31,-1,33,-1,35,37,39,41,-1,-1,-1,-1,-1,-1,-1,-1,-1,-1,-1,-1,-1,-1],"loss_changes":[2.1692414E4,2.7734976E3,8.5849805E2,1.6082764E2,9.3302E1,0E0,0E0,6.3702515E2,4.0176514E1,0E0,0E0,2.4199188E2,0E0,3.341284E1,2.946868E2,7.236401E1,1.1359828E2,3.6780457E1,3.418457E0,0E0,4.9966583E0,3.1426704E0,0E0,6.2608486E1,0E0,3.3847046E0,2.0218636E1,2.9482422E0,6.7717104E0,0E0,0E0,0E0,0E0,0E0,0E0,0E0,0E0,0E0,0E0,0E0,0E0,0E0,0E0],"parents":[2147483647,0,0,1,1,2,2,3,3,4,4,7,7,8,8,11,11,13,13,14,14,15,15,16,16,17,17,18,18,20,20,21,21,23,23,25,25,26,26,27,27,28,28],"right_children":[2,4,6,8,10,-1,-1,12,14,-1,-1,16,-1,18,20,22,24,26,28,-1,30,32,-1,34,-1,36,38,40,42,-1,-1,-1,-1,-1,-1,-1,-1,-1,-1,-1,-1,-1,-1],"split_conditions":[1.2089275E0,1.1594981E0,5.255879E-2,-3.831501E-1,-3.0660853E-3,-4.146971E-2,2.4E-1,3.3025414E-1,9.7618204E-1,-3.000355E-2,2.4E-1,5.189509E-1,-4.305463E-2,-4.75721E-1,3.18417E-1,-2.8537762E-1,8.643233E-1,-7.20848E-1,3.2902453E0,2.4E-1,1.2153412E0,-1.0282802E-1,2.4E-1,-8.625293E-2,2.4E-1,-8.229533E-1,-5.579332E-1,5.1993375E0,4.1464084E-1,-4.2362817E-2,4.5032706E-2,4.527665E-2,-2.7728982E-2,1.3718691E-1,-3.51375E-2,-3.4601364E-2,-1.0098429E-2,3.957608E-2,-3.88242E-2,-4.2386148E-2,-1.2000814E-2,8.324351E-2,-2.8690774E-2],"split_indices":[133,148,139,147,139,0,0,151,148,0,0,155,0,160,152,142,148,151,34,0,149,151,0,160,0,149,157,118,136,0,0,0,0,0,0,0,0,0,0,0,0,0,0],"split_type":[0,0,0,0,0,0,0,0,0,0,0,0,0,0,0,0,0,0,0,0,0,0,0,0,0,0,0,0,0,0,0,0,0,0,0,0,0,0,0,0,0,0,0],"sum_hessian":[1.4779288E4,1.3208104E4,1.5711842E3,1.3030785E4,1.773184E2,6.8642685E1,1.5025416E3,5.8231537E2,1.244847E4,7.606508E0,1.697119E2,1.4019856E2,4.4211685E2,1.2281515E4,1.6695511E2,6.2713676E1,7.748488E1,3.6595493E3,8.621966E3,2.0036823E1,1.4691829E2,7.8938065E0,5.481987E1,6.555485E1,1.1930036E1,3.566861E3,9.2688324E1,8.613263E3,8.702552E0,1.4490506E2,2.0132291E0,2.0025144E0,5.8912926E0,1.5391473E1,5.0163372E1,3.5227944E3,4.4066708E1,6.588833E1,2.6799995E1,8.586407E3,2.6855282E1,2.0418758E0,6.660676E0],"tree_param":{"num_deleted":"0","num_feature":"165","num_nodes":"43","size_leaf_vector":"1"}},{"base_weights":[3.4514277E-3,-4.6639362E-1,3E0,1.9731474E-1,-4.723473E-1,-1.515026E-1,3E0,-4.847556E-1,4.033572E-1,9.1793686E-2,-3.731205E-2,2.4E-1,4.390745E-3,-3.677029E-1,-5.2874184E-1,-4.233922E-2,2.4E-1,-2.9531956E-2,7.541118E-2,-4.3142725E-2,-4.560243E-1,-4.8101607E-1,1.6196122E0,2.4521045E-2,-4.2330015E-2,2.336383E-1,-2.6750723E-2],"categories":[],"categories_nodes":[],"categories_segments":[],"categories_sizes":[],"default_left":[0,0,0,0,0,0,0,0,0,0,0,0,0,0,0,0,0,0,0,0,0,0,0,0,0,0,0],"id":21,"left_children":[1,3,5,-1,7,9,11,13,15,-1,-1,-1,-1,17,19,-1,-1,-1,-1,-1,21,23,25,-1,-1,-1,-1],"loss_changes":[2.4985557E4,2.381189E2,2.1316602E2,0E0,1.4629468E2,1.1568515E1,1.2425781E1,6.740503E1,5.3558124E2,0E0,0E0,0E0,0E0,8.032837E0,6.5737305E0,0E0,0E0,0E0,0E0,0E0,6.645911E1,4.6843933E1,4.1972908E1,0E0,0E0,0E0,0E0],"parents":[2147483647,0,0,1,1,2,2,4,4,5,5,6,6,7,7,8,8,13,13,14,14,20,20,21,21,22,22],"right_children":[2,4,6,-1,8,10,12,14,16,-1,-1,-1,-1,18,20,-1,-1,-1,-1,-1,22,24,26,-1,-1,-1,-1],"split_conditions":[1.5144589E0,-8.92043E-1,1.111816E0,1.9731474E-1,1.1922725E0,3.1817338E-1,7.0120186E-1,-8.205184E-1,5.333503E-1,9.1793686E-2,-3.731205E-2,2.4E-1,4.390745E-3,-6.073261E-1,5.1993375E0,-4.233922E-2,2.4E-1,-2.9531956E-2,7.541118E-2,-4.3142725E-2,7.984423E-1,-3.608039E-1,-2.5708575E-2,2.4521045E-2,-4.2330015E-2,2.336383E-1,-2.6750723E-2],"split_indices":[160,134,155,0,160,133,152,140,154,0,0,0,0,154,83,0,0,0,0,0,146,142,144,0,0,0,0],"split_type":[0,0,0,0,0,0,0,0,0,0,0,0,0,0,0,0,0,0,0,0,0,0,0,0,0,0,0],"sum_hessian":[1.5189278E4,1.3430568E4,1.7587103E3,2.5364252E1,1.3405204E4,2.1108759E1,1.7376016E3,1.3219355E4,1.8584837E2,2.7772956E0,1.8331463E1,1.7355813E3,2.0202808E0,3.6189568E3,9.600398E3,1.4365689E2,4.219148E1,3.6167822E3,2.174583E0,8.367602E3,1.2327975E3,1.2198868E3,1.2910681E1,6.901425E1,1.1508726E3,7.310433E0,5.6002483E0],"tree_param":{"num_deleted":"0","num_feature":"165","num_nodes":"27","size_leaf_vector":"1"}},{"base_weights":[-6.899225E-3,-3.8379183E-1,1.3811544E0,-5.370668E-2,-5.5334747E-1,1.9519982E0,-5.840585E-1,-4.314001E-2,-3.277748E-1,-5.760633E-1,-4.1051682E-2,1.5739903E-1,3.191836E-2,-5.905818E-1,-0E0,-4.7916256E-2,7.193235E-1,-3.6738244E-1,2.3865836E-2,-5.1121026E-1,-5.87499E-1,-3.0540982E-1,1.1250274E0,8.163082E-2,-7.043007E-2,3.0880332E-2,-4.7459025E-2,-3.794839E-2,8.47974E-2,-4.571359E-2,-4.362595E-2,-0E0,9.354135E-1,-0E0,-3.7472117E-1,5.304413E-1,-1.7862283E-1,-5.40481E-1,1.4459294E0,-4.7023613E-2,6.7880206E-2,2.8579151E-2,-4.5957223E-2,1.5550601E-1,-4.4341378E-2,5.3238485E-2,-1.6593878E-1,3.726161E-2,-1.9696428E-2,-4.09567E-2,-2.2572903E-1,3.8326904E-2,-1.9528206E-2,1.2298752E0,3.7736684E-1,-3.3892334E-1,-4.0046565E-2,6.628054E-2,-0E0,1.4550245E-1,-3.7030075E-2,-4.70391E-2,-2.551829E-1,1.4273426E-1,-1.8108299E-2,3.8816232E-2,-1.7713951E-2,1.2020577E0,-3.5955498E-1,8.95317E-2,-4.1534677E-1,-3.6302386E-3,1.177977E-2,-0E0,-2.1840824E-2,6.1217573E-2,1.3675785E-1,-0E0,5.5160113E-2,-0E0,-2.8630821E-2,-3.8249546E-3,4.1872084E-2,9.498949E-3,-3.3915795E-2,-3.3407677E-2,1.1671231E-1,-3.2723743E-2,4.900396E-2,3.7983503E-2,-8.83479E-3,3.8817965E-5,-3.9841548E-2],"categories":[],"categories_nodes":[],"categories_segments":[],"categories_sizes":[],"default_left":[0,0,0,0,0,0,0,0,0,0,0,0,0,0,0,0,0,0,0,0,0,0,0,0,0,0,0,0,0,0,0,0,0,0,0,0,0,0,0,0,0,0,0,0,0,0,0,0,0,0,0,0,0,0,0,0,0,0,0,0,0,0,0,0,0,0,0,0,0,0,0,0,0,0,0,0,0,0,0,0,0,0,0,0,0,0,0,0,0,0,0,0,0],"id":22,"left_children":[1,3,5,7,9,11,13,15,17,19,21,-1,23,25,27,29,31,33,35,37,39,41,43,-1,45,47,-1,-1,-1,49,-1,51,53,-1,55,57,59,61,63,-1,65,67,-1,-1,-1,-1,69,-1,-1,71,73,-1,-1,75,77,79,-1,-1,-1,81,-1,-1,83,-1,-1,-1,-1,85,87,89,91,-1,-1,-1,-1,-1,-1,-1,-1,-1,-1,-1,-1,-1,-1,-1,-1,-1,-1,-1,-1,-1,-1],"loss_changes":[1.5102962E4,1.270302E3,6.9184814E3,2.2397635E1,1.7395898E2,1.4002539E2,4.7390747E0,2.7477295E1,4.0453568E0,9.734375E0,1.988892E2,0E0,5.761156E0,2.3219604E0,1.1378601E1,8.261465E0,7.422167E0,6.6806793E-1,4.0500836E0,1.2689789E2,2.4804688E0,4.7495518E1,1.6636206E2,0E0,3.37702E0,1.8412828E0,0E0,0E0,0E0,6.342272E0,0E0,2.2475977E0,4.3337326E0,0E0,6.572304E-1,1.6534979E0,2.6391313E0,2.8371948E1,1.9718033E1,0E0,1.7406505E0,1.0968123E2,0E0,0E0,0E0,0E0,2.7841115E0,0E0,0E0,6.058381E0,1.8859787E0,0E0,0E0,1.6516914E0,1.8742852E0,1.1894016E0,0E0,0E0,0E0,1.4348307E0,0E0,0E0,2.0045465E1,0E0,0E0,0E0,0E0,2.6399506E1,9.423794E0,2.15675E0,7.9640603E-1,0E0,0E0,0E0,0E0,0E0,0E0,0E0,0E0,0E0,0E0,0E0,0E0,0E0,0E0,0E0,0E0,0E0,0E0,0E0,0E0,0E0,0E0],"parents":[2147483647,0,0,1,1,2,2,3,3,4,4,5,5,6,6,7,7,8,8,9,9,10,10,12,12,13,13,14,14,15,15,16,16,17,17,18,18,19,19,20,20,21,21,22,22,24,24,25,25,29,29,31,31,32,32,34,34,35,35,36,36,37,37,38,38,40,40,41,41,46,46,49,49,50,50,53,53,54,54,55,55,59,59,62,62,67,67,68,68,69,69,70,70],"right_children":[2,4,6,8,10,12,14,16,18,20,22,-1,24,26,28,30,32,34,36,38,40,42,44,-1,46,48,-1,-1,-1,50,-1,52,54,-1,56,58,60,62,64,-1,66,68,-1,-1,-1,-1,70,-1,-1,72,74,-1,-1,76,78,80,-1,-1,-1,82,-1,-1,84,-1,-1,-1,-1,86,88,90,92,-1,-1,-1,-1,-1,-1,-1,-1,-1,-1,-1,-1,-1,-1,-1,-1,-1,-1,-1,-1,-1,-1],"split_conditions":[6.1305445E-1,-6.808394E-1,-1.574156E-1,1.4696131E0,4.5317444E-1,3.8303146E-1,2.6762378E-1,-6.872907E-1,-6.967062E-1,-1.7194928E-1,3.1114763E-1,1.5739903E-1,-5.9098393E-2,-3.508259E-1,1.2561117E-1,1.1328976E0,4.5317444E-1,-1.0938465E-1,-3.5690933E-1,-1.5966095E-1,2.877846E0,-1.9264627E-1,2.2093695E-1,8.163082E-2,-4.849345E-2,7.0051634E-1,-4.7459025E-2,-3.794839E-2,8.47974E-2,7.1750546E-1,-4.362595E-2,-5.959578E-1,4.253334E-1,-0E0,-5.9107006E-1,-6.1015636E-1,-6.917248E-1,8.372535E-3,3.6226514E-1,-4.7023613E-2,5.569266E-1,4.52016E-1,-4.5957223E-2,1.5550601E-1,-4.4341378E-2,5.3238485E-2,5.133732E-1,3.726161E-2,-1.9696428E-2,1.3211302E-1,-7.979028E-1,3.8326904E-2,-1.9528206E-2,-7.232402E-1,-2.0156649E-1,-4.41961E-2,-4.0046565E-2,6.628054E-2,-0E0,-4.5586973E-1,-3.7030075E-2,-4.70391E-2,2.0104563E-1,1.4273426E-1,-1.8108299E-2,3.8816232E-2,-1.7713951E-2,9.591226E-2,-1.8588988E-1,-6.802417E-1,4.976657E-1,-3.6302386E-3,1.177977E-2,-0E0,-2.1840824E-2,6.1217573E-2,1.3675785E-1,-0E0,5.5160113E-2,-0E0,-2.8630821E-2,-3.8249546E-3,4.1872084E-2,9.498949E-3,-3.3915795E-2,-3.3407677E-2,1.1671231E-1,-3.2723743E-2,4.900396E-2,3.7983503E-2,-8.83479E-3,3.8817965E-5,-3.9841548E-2],"split_indices":[136,146,158,59,136,152,160,143,156,158,141,0,155,155,137,4,136,150,134,142,56,158,152,0,150,13,0,0,0,59,0,149,152,0,161,154,156,136,161,0,57,152,0,0,0,0,164,0,0,61,140,0,0,141,138,150,0,0,0,140,0,0,152,0,0,0,0,34,151,156,148,0,0,0,0,0,0,0,0,0,0,0,0,0,0,0,0,0,0,0,0,0,0],"split_type":[0,0,0,0,0,0,0,0,0,0,0,0,0,0,0,0,0,0,0,0,0,0,0,0,0,0,0,0,0,0,0,0,0,0,0,0,0,0,0,0,0,0,0,0,0,0,0,0,0,0,0,0,0,0,0,0,0,0,0,0,0,0,0,0,0,0,0,0,0,0,0,0,0,0,0,0,0,0,0,0,0,0,0,0,0,0,0,0,0,0,0,0,0],"sum_hessian":[2.8863008E4,2.2700926E4,6.1620835E3,7.705568E3,1.4995357E4,4.7752607E3,1.3868224E3,7.423495E3,2.82073E2,1.4357503E4,6.3785394E2,4.7367393E3,3.8521786E1,1.3707173E3,1.6105057E1,7.3797964E3,4.369867E1,2.547151E2,2.7357914E1,2.1724587E3,1.2185045E4,5.215255E2,1.1632845E2,2.389562E0,3.613222E1,4.941769E0,1.3657755E3,1.218377E1,3.9212875E0,7.3504355E3,2.9360838E1,1.0028395E1,3.3670273E1,3.9430883E0,2.5077202E2,7.5927715E0,1.9765142E1,2.1421245E3,3.0334188E1,1.2180509E4,4.535748E0,2.3265323E2,2.8887228E2,7.8187935E1,3.814052E1,2.1781976E0,3.3954025E1,2.0954719E0,2.8462973E0,7.1662993E3,1.841361E2,2.051555E0,7.9768395E0,1.9877724E1,1.3792549E1,2.04084E2,4.668802E1,4.293131E0,3.2996407E0,8.869159E0,1.0895983E1,1.8330166E3,3.091078E2,2.536819E1,4.9659977E0,2.010135E0,2.5256133E0,5.7103027E1,1.755502E2,1.6416143E1,1.753788E1,7.0058916E3,1.6040791E2,3.270586E1,1.5143022E2,1.3262277E1,6.6154475E0,7.3792524E0,6.4132967E0,1.0798152E1,1.9328584E2,6.147998E0,2.721161E0,9.538971E1,2.137181E2,7.3782043E0,4.9724823E1,1.686373E2,6.9128904E0,5.5243797E0,1.0891765E1,2.2352378E0,1.5302642E1],"tree_param":{"num_deleted":"0","num_feature":"165","num_nodes":"93","size_leaf_vector":"1"}},{"base_weights":[1.4076744E-2,-4.1351816E-1,2.4E-1,-5.164043E-1,-1.5443388E-1,-4.163821E-2,-3.6033535E-1,-1.6673587E-1,2.4E-1,-4.1076396E-2,2.4E-1,-4.107171E-2,-1.1417438E-2],"categories":[],"categories_nodes":[],"categories_segments":[],"categories_sizes":[],"default_left":[0,0,0,0,0,0,0,0,0,0,0,0,0],"id":23,"left_children":[1,3,-1,5,7,-1,9,11,-1,-1,-1,-1,-1],"loss_changes":[1.8022855E4,2.281847E2,0E0,3.1921387E0,1.2338431E2,0E0,1.0807749E2,2.0224594E1,0E0,0E0,0E0,0E0,0E0],"parents":[2147483647,0,0,1,1,3,3,4,4,6,6,7,7],"right_children":[2,4,-1,6,8,-1,10,12,-1,-1,-1,-1,-1],"split_conditions":[1.3822451E0,1.1161698E0,2.4E-1,1.0316961E0,3.633796E-1,-4.163821E-2,2.1769932E-1,2.776234E0,2.4E-1,-4.1076396E-2,2.4E-1,-4.107171E-2,-1.1417438E-2],"split_indices":[145,164,0,136,143,0,146,164,0,0,0,0,0],"split_type":[0,0,0,0,0,0,0,0,0,0,0,0,0],"sum_hessian":[9.184598E3,8.574969E3,6.096283E2,6.1348247E3,2.4401445E3,5.971108E3,1.6371675E2,2.4353123E3,4.8322973E0,1.5980287E2,3.9138787E0,1.5380528E2,2.2815068E3],"tree_param":{"num_deleted":"0","num_feature":"165","num_nodes":"13","size_leaf_vector":"1"}},{"base_weights":[-6.8487907E-3,7.2163546E-1,-6.7829096E-1,7.868474E-1,-6.8974674E-1,-1.370069E-1,-6.926029E-1,6.0925037E-1,1.1089848E0,-6.967162E-1,4.0820614E-1,1.0006247E0,-6.8053263E-1,-6.9614035E-1,-3.1143215E-1,-3.6490005E-1,6.1339885E-1,1.1101007E0,-3.5554647E-2,-1.1308097E-1,-5.595538E-2,5.1627E-2,-0E0,-2.5114796E-1,1.0657032E0,-5.5609416E-2,-1.7837135E-1,-7.001424E-1,-6.048739E-1,8.8815905E-2,-6.990191E-1,-2.4801858E-1,-3.977764E-2,6.1902314E-1,-3.161548E-2,1.1110036E0,-8.379578E-2,-2.896481E-2,1.371835E-2,-3.0186467E-2,1.8191987E-3,1.0851908E0,-2.0111995E-2,-4.1226238E-2,3.877389E-1,-7.002391E-1,-0E0,1.0534586E-1,-5.577979E-2,-5.6714896E-2,-0E0,-4.4628747E-2,-3.465185E-2,6.0800654E-1,8.030818E-1,1.5679121E-1,-5.798677E-1,1.0085286E0,8.9810915E-2,-2.3652302E-2,4.9611903E-3,2.5899875E-1,1.1008586E0,-0E0,4.9202498E-2,-6.922469E-1,-5.708245E-2,8.3271676E-1,-5.306733E-2,7.2630285E-3,-3.590396E-2,4.8796065E-2,1.5677646E-2,6.643757E-2,3.0383682E-2,-7.455254E-3,4.579112E-2,-5.0066866E-2,-0E0,-1.759906E-2,8.1356525E-2,-2.193212E-3,4.5896966E-2,1.0790732E-2,8.894227E-2,-1.8304178E-2,-5.5590674E-2,1.9099815E-2,8.3835855E-2],"categories":[],"categories_nodes":[],"categories_segments":[],"categories_sizes":[],"default_left":[0,0,0,0,0,0,0,0,0,0,0,0,0,0,0,0,0,0,0,0,0,0,0,0,0,0,0,0,0,0,0,0,0,0,0,0,0,0,0,0,0,0,0,0,0,0,0,0,0,0,0,0,0,0,0,0,0,0,0,0,0,0,0,0,0,0,0,0,0,0,0,0,0,0,0,0,0,0,0,0,0,0,0,0,0,0,0,0,0],"id":24,"left_children":[1,3,5,7,9,11,13,15,17,19,21,23,25,27,29,31,33,35,-1,37,-1,-1,-1,39,41,-1,43,45,47,-1,49,51,-1,53,55,57,59,-1,-1,-1,-1,61,-1,-1,63,65,-1,67,-1,-1,-1,69,-1,71,73,75,77,79,-1,-1,-1,81,83,-1,-1,85,-1,87,-1,-1,-1,-1,-1,-1,-1,-1,-1,-1,-1,-1,-1,-1,-1,-1,-1,-1,-1,-1,-1],"loss_changes":[2.2335648E4,2.0171631E3,1.8327832E2,1.1959678E3,8.189941E0,3.832388E2,3.024414E1,5.5192383E1,1.41015625E1,7.3513794E-1,8.871647E-1,1.7009995E1,2.2291718E0,7.1376953E0,1.22678024E2,4.7547245E-1,4.8833984E1,8.241211E0,0E0,1.1300169E0,0E0,0E0,0E0,6.013464E-1,5.587509E0,0E0,4.047052E0,1.3271484E0,6.484604E1,0E0,1.0342407E0,1.2133789E0,0E0,2.5827148E1,1.3203825E1,5.9882812E0,6.034756E-1,0E0,0E0,0E0,0E0,9.202881E-1,0E0,0E0,7.1655107E-1,9.9609375E-1,0E0,6.642537E1,0E0,0E0,0E0,1.8850172E0,0E0,9.335449E0,7.3937683E0,9.943016E0,4.97303E-1,8.658203E0,0E0,0E0,0E0,1.1225114E0,6.09375E-1,0E0,0E0,1.5964355E1,0E0,6.556717E0,0E0,0E0,0E0,0E0,0E0,0E0,0E0,0E0,0E0,0E0,0E0,0E0,0E0,0E0,0E0,0E0,0E0,0E0,0E0,0E0,0E0],"parents":[2147483647,0,0,1,1,2,2,3,3,4,4,5,5,6,6,7,7,8,8,9,9,10,10,11,11,12,12,13,13,14,14,15,15,16,16,17,17,19,19,23,23,24,24,26,26,27,27,28,28,30,30,31,31,33,33,34,34,35,35,36,36,41,41,44,44,45,45,47,47,51,51,53,53,54,54,55,55,56,56,57,57,61,61,62,62,65,65,67,67],"right_children":[2,4,6,8,10,12,14,16,18,20,22,24,26,28,30,32,34,36,-1,38,-1,-1,-1,40,42,-1,44,46,48,-1,50,52,-1,54,56,58,60,-1,-1,-1,-1,62,-1,-1,64,66,-1,68,-1,-1,-1,70,-1,72,74,76,78,80,-1,-1,-1,82,84,-1,-1,86,-1,88,-1,-1,-1,-1,-1,-1,-1,-1,-1,-1,-1,-1,-1,-1,-1,-1,-1,-1,-1,-1,-1],"split_conditions":[-4.5229757E-1,-1.4356996E-3,-3.4764943E-1,4.52016E-1,4.6917117E-1,-2.6641113E-1,9.590076E-1,-9.168175E-1,1.0257044E0,6.663412E-2,7.598166E-1,-5.2483094E-1,1.2030681E0,1.1438726E0,4.0965614E-1,1.7812201E0,-2.4111119E-1,-3.47551E-2,-3.5554647E-2,-3.9828894E-1,-5.595538E-2,5.1627E-2,-0E0,-2.1542048E-1,5.9380215E-1,-5.5609416E-2,6.1008006E-2,5.1993375E0,-1.4238675E-1,8.8815905E-2,6.834119E-2,5.1993375E0,-3.977764E-2,7.9598737E-1,4.0888128E-1,-3.541652E-1,5.293011E-1,-2.896481E-2,1.371835E-2,-3.0186467E-2,1.8191987E-3,-3.7093514E-1,-2.0111995E-2,-4.1226238E-2,-2.2165374E-1,6.873731E-1,-0E0,4.5439467E-2,-5.577979E-2,-5.6714896E-2,-0E0,-8.2162833E-1,-3.465185E-2,-4.7465822E-1,-6.5576327E-1,-4.7240803E-1,3.8303146E-1,2.0222683E-1,8.9810915E-2,-2.3652302E-2,4.9611903E-3,-4.9973264E-1,-4.7977465E-1,-0E0,4.9202498E-2,-7.467616E-2,-5.708245E-2,-2.6479363E-1,-5.306733E-2,7.2630285E-3,-3.590396E-2,4.8796065E-2,1.5677646E-2,6.643757E-2,3.0383682E-2,-7.455254E-3,4.579112E-2,-5.0066866E-2,-0E0,-1.759906E-2,8.1356525E-2,-2.193212E-3,4.5896966E-2,1.0790732E-2,8.894227E-2,-1.8304178E-2,-5.5590674E-2,1.9099815E-2,8.3835855E-2],"split_indices":[139,145,145,152,155,159,152,155,36,145,162,149,61,61,146,135,151,154,0,134,0,0,0,163,138,0,136,21,141,0,160,4,0,59,133,158,13,0,0,0,0,134,0,0,133,149,0,156,0,0,0,139,0,151,146,140,152,18,0,0,0,142,163,0,0,143,0,134,0,0,0,0,0,0,0,0,0,0,0,0,0,0,0,0,0,0,0,0,0],"split_type":[0,0,0,0,0,0,0,0,0,0,0,0,0,0,0,0,0,0,0,0,0,0,0,0,0,0,0,0,0,0,0,0,0,0,0,0,0,0,0,0,0,0,0,0,0,0,0,0,0,0,0,0,0,0,0,0,0,0,0,0,0,0,0,0,0,0,0,0,0,0,0,0,0,0,0,0,0,0,0,0,0,0,0,0,0,0,0,0,0],"sum_hessian":[4.565676E4,2.1897775E4,2.3758984E4,2.0931873E4,9.659036E2,6.1346423E2,2.3145521E4,1.3497772E4,7.4341E3,9.6098987E2,4.913789E0,1.9749455E2,4.159697E2,2.2929756E4,2.1576447E2,5.5988743E1,1.3441784E4,7.429655E3,4.44491E0,5.7154546E0,9.552744E2,2.8172548E0,2.096534E0,9.097845E0,1.8839671E2,4.0251465E2,1.3455051E1,2.1948486E4,9.812701E2,4.5147827E1,1.7061664E2,3.4787586E1,2.1201155E1,1.33264375E4,1.15346306E2,7.4245977E3,5.057398E0,3.6949322E0,2.0205226E0,6.9610286E0,2.1368167E0,1.8637097E2,2.0257375E0,9.100774E0,4.354278E0,2.1945842E4,2.6454623E0,1.12282776E2,8.689873E2,1.685545E2,2.0621321E0,1.9045967E1,1.5741621E1,1.2584525E4,7.4191187E2,8.622958E1,2.9116722E1,7.791652E2,6.645432E3,2.6218014E0,2.4355965E0,4.714982E0,1.8165599E2,2.0227995E0,2.3314784E0,1.37947705E4,8.1510703E3,5.7940456E1,5.4342316E1,1.450106E1,4.5449066E0,1.2523257E4,6.1269188E1,6.9390875E2,4.800311E1,5.4060604E1,3.216898E1,2.660609E1,2.5106316E0,4.562555E0,7.7460266E2,2.5925698E0,2.1224124E0,2.8409054E0,1.7881508E2,8.010139E1,1.3714669E4,1.7150959E1,4.0789497E1],"tree_param":{"num_deleted":"0","num_feature":"165","num_nodes":"89","size_leaf_vector":"1"}},{"base_weights":[2.3065776E-2,-3.600823E-1,3E0,-4.78537E-1,-4.567947E-2,-3.668389E-2,2.4E-1,4.7242582E-1,-5.145788E-1,-3.5679005E-3,-2.2076108E-2,3E0,-4.0676784E-2,-4.1294146E-2,6.748655E-1,-2.1745035E-2,3E0,1.2475135E-1,-1.6777508E-2,1.3544291E0,2.4E-1,-2.1874694E-2,2.4E-1],"categories":[],"categories_nodes":[],"categories_segments":[],"categories_sizes":[],"default_left":[0,0,0,0,0,0,0,0,0,0,0,0,0,0,0,0,0,0,0,0,0,0,0],"id":25,"left_children":[1,3,5,7,9,-1,-1,11,13,-1,-1,15,-1,-1,17,-1,19,-1,-1,21,-1,-1,-1],"loss_changes":[1.24129375E4,2.5811267E2,2.8793848E2,1.7348181E2,5.4055214E-1,0E0,0E0,6.2294745E2,1.026709E1,0E0,0E0,4.9732544E1,0E0,0E0,7.5335503E0,0E0,1.9938965E0,0E0,0E0,2.7794735E1,0E0,0E0,0E0],"parents":[2147483647,0,0,1,1,2,2,3,3,4,4,7,7,8,8,11,11,14,14,16,16,19,19],"right_children":[2,4,6,8,10,-1,-1,12,14,-1,-1,16,-1,-1,18,-1,20,-1,-1,22,-1,-1,-1],"split_conditions":[1.5248922E0,2.776234E0,5.226011E-1,-6.618231E-1,1.1328976E0,-3.668389E-2,2.4E-1,-8.254579E-2,5.1993375E0,-3.5679005E-3,-2.2076108E-2,3.2669005E-1,-4.0676784E-2,-4.1294146E-2,9.822064E-1,-2.1745035E-2,2.1561854E0,1.2475135E-1,-1.6777508E-2,1.1352842E0,2.4E-1,-2.1874694E-2,2.4E-1],"split_indices":[157,164,134,147,4,0,0,144,126,0,0,163,0,0,143,0,70,0,0,14,0,0,0],"split_type":[0,0,0,0,0,0,0,0,0,0,0,0,0,0,0,0,0,0,0,0,0,0,0],"sum_hessian":[7.4364326E3,6.937235E3,4.9919757E2,5.036895E3,1.90034E3,2.341309E1,4.757845E2,1.8253833E2,4.8543564E3,1.8960004E3,4.3395753E0,3.7162254E1,1.4537608E2,4.849394E3,4.9626374E0,4.1618185E0,3.3000435E1,2.0011501E0,2.9614875E0,6.5451684E0,2.6455269E1,4.0373507E0,2.5078177E0],"tree_param":{"num_deleted":"0","num_feature":"165","num_nodes":"23","size_leaf_vector":"1"}},{"base_weights":[-5.592402E-3,-3.9864343E-1,1.3777317E0,-4.2383838E-1,1.9641823E0,-3.9066148E-1,2.037695E0,-4.3850183E-1,1.6228826E-1,-2.7856514E-2,1.635023E-1,-4.6181762E-1,1.5824315E-1,-4.003789E-2,2.0546188E0,-4.5004216E-1,1.5491538E0,3.0396467E-1,-5.382522E-1,-2.293829E-2,2.057426E0,-3.0330274E-1,-5.4818535E-1,-3.8693022E-2,1.6138895E-1,-1.6383033E-1,9.862059E-1,1.2625819E-2,-5.49411E-1,-5.7206904E-3,1.647825E-1,-3.7230983E-1,1.9480987E0,-5.490301E-1,8.218899E-2,-3.1545582E-1,9.904539E-1,1.6443858E0,-3.8384527E-2,-3.1159183E-1,9.767403E-2,-4.437591E-2,-2.4439227E-2,-3.139527E-2,2.7070582E-2,5.863829E-3,1.6664425E-1,-4.4294886E-2,-3.101785E-2,-3.519686E-2,6.1857786E-2,1.4421587E-1,-1.8983567E-2,-1.722576E-2,1.6331096E-1,1.723401E-2,-3.806681E-2,8.875529E-2,-3.4782514E-2],"categories":[],"categories_nodes":[],"categories_segments":[],"categories_sizes":[],"default_left":[0,0,0,0,0,0,0,0,0,0,0,0,0,0,0,0,0,0,0,0,0,0,0,0,0,0,0,0,0,0,0,0,0,0,0,0,0,0,0,0,0,0,0,0,0,0,0,0,0,0,0,0,0,0,0,0,0,0,0],"id":26,"left_children":[1,3,5,7,9,11,13,15,-1,-1,-1,17,-1,-1,19,21,23,25,27,-1,29,31,33,-1,-1,35,37,39,41,-1,-1,43,45,47,-1,49,51,53,-1,55,-1,-1,57,-1,-1,-1,-1,-1,-1,-1,-1,-1,-1,-1,-1,-1,-1,-1,-1],"loss_changes":[1.1985317E4,1.0244973E3,5.694166E3,6.1362036E2,3.5075256E1,2.265536E2,1.5490234E2,3.8952026E2,0E0,0E0,0E0,7.609711E1,0E0,0E0,2.452246E1,2.412229E2,9.586E1,3.9008842E1,7.254822E0,0E0,1.8009766E1,1.049E3,1.5027832E1,0E0,0E0,1.3797497E1,4.9715794E1,1.2279299E1,2.6357422E0,0E0,0E0,9.3993225E1,4.8559143E1,6.7678223E0,0E0,1.0033767E1,1.0528928E1,2.6862083E1,0E0,2.3324978E0,0E0,0E0,8.891418E0,0E0,0E0,0E0,0E0,0E0,0E0,0E0,0E0,0E0,0E0,0E0,0E0,0E0,0E0,0E0,0E0],"parents":[2147483647,0,0,1,1,2,2,3,3,4,4,5,5,6,6,7,7,11,11,14,14,15,15,16,16,17,17,18,18,20,20,21,21,22,22,25,25,26,26,27,27,28,28,31,31,32,32,33,33,35,35,36,36,37,37,39,39,42,42],"right_children":[2,4,6,8,10,12,14,16,-1,-1,-1,18,-1,-1,20,22,24,26,28,-1,30,32,34,-1,-1,36,38,40,42,-1,-1,44,46,48,-1,50,52,54,-1,56,-1,-1,58,-1,-1,-1,-1,-1,-1,-1,-1,-1,-1,-1,-1,-1,-1,-1,-1],"split_conditions":[8.354551E-1,1.8084285E0,2.2202952E-1,2.1789737E0,4.69435E-2,1.8084285E0,3.7823358E-1,1.3542062E0,1.6228826E-1,-2.7856514E-2,1.635023E-1,-2.3511896E-1,1.5824315E-1,-4.003789E-2,-1.8580228E-1,-8.2283225E-3,6.18834E-1,6.1201584E-1,2.1608317E-1,-2.293829E-2,-7.467616E-2,2.5080743E-1,2.4088104E0,-3.8693022E-2,1.6138895E-1,7.315153E-1,2.0414708E0,-8.720112E-2,5.9380215E-1,-5.7206904E-3,1.647825E-1,1.5374985E-1,1.3777041E-1,1.9599565E0,8.218899E-2,3.0784866E-1,8.2662064E-1,-1.8588988E-1,-3.8384527E-2,3.8066375E-1,9.767403E-2,-4.437591E-2,3.6872214E-1,-3.139527E-2,2.7070582E-2,5.863829E-3,1.6664425E-1,-4.4294886E-2,-3.101785E-2,-3.519686E-2,6.1857786E-2,1.4421587E-1,-1.8983567E-2,-1.722576E-2,1.6331096E-1,1.723401E-2,-3.806681E-2,8.875529E-2,-3.4782514E-2],"split_indices":[154,36,144,8,138,36,155,163,0,0,0,145,0,0,162,133,17,155,157,0,143,144,53,0,0,69,70,147,138,0,0,138,163,52,0,146,69,151,0,59,0,0,153,0,0,0,0,0,0,0,0,0,0,0,0,0,0,0,0],"split_type":[0,0,0,0,0,0,0,0,0,0,0,0,0,0,0,0,0,0,0,0,0,0,0,0,0,0,0,0,0,0,0,0,0,0,0,0,0,0,0,0,0,0,0,0,0,0,0,0,0,0,0,0,0,0,0,0,0,0,0],"sum_hessian":[2.203693E4,1.71623E4,4.8746284E3,1.6983062E4,1.7923845E2,1.3248114E3,3.549817E3,1.6883957E4,9.910505E1,5.5307884E0,1.7370766E2,1.2879425E3,3.686884E1,2.2938158E1,3.5268787E3,1.6788283E4,9.5674164E1,1.1575195E2,1.1721906E3,3.7681742E0,3.5231106E3,6.7336694E3,1.0054614E4,1.7698547E1,7.7975624E1,6.913485E1,4.661711E1,2.2378157E1,1.1498125E3,3.5939438E0,3.5195166E3,6.5352505E3,1.9841887E2,1.0050846E4,3.7685935E0,6.2775333E1,6.359512E0,3.224026E1,1.4376849E1,1.8487839E1,3.8903174E0,1.1372911E3,1.2521301E1,6.3567876E3,1.7846298E2,1.3779792E1,1.8463907E2,9.761135E3,2.8971133E2,5.7814495E1,4.960837E0,3.5088267E0,2.8506854E0,5.6111703E0,2.662909E1,3.5213075E0,1.4966532E1,2.098027E0,1.0423274E1],"tree_param":{"num_deleted":"0","num_feature":"165","num_nodes":"59","size_leaf_vector":"1"}},{"base_weights":[-5.3523E-3,-4.6528363E-1,1.2621615E0,-4.8163453E-1,1.1041023E0,2.0307238E0,-5.413653E-1,-4.883567E-1,1.5690944E-1,1.8638872E0,-4.7006E-1,-3.6092706E-2,2.0386486E0,1.0094659E0,-5.584272E-1,-5.2105534E-1,-2.6757953E-1,1.9647311E0,-1.2924019E-2,4.0836237E-2,-4.2766098E-2,1.0360837E0,1.6377564E-1,-2.0124922E-2,1.4084332E-1,-7.408543E-2,-4.4841737E-2,-4.6697807E-1,-5.551906E-1,2.0484848E0,-4.4368526E-1,2.0124607E0,1.7512402E-2,1.7819167E0,-1.3450095E-2,-3.0427124E-2,4.106311E-2,-4.727201E-1,3.175925E-1,-5.578836E-1,-1.36666E-1,2.680626E0,-4.180406E-2,-5.026654E-1,7.1011853E-1,3.1757817E-2,1.6294725E-1,1.5375495E-1,1.1665779E-2,9.473647E-2,-3.1298593E-2,-3.848356E-2,-2.3633406E-2,1.33042E-1,-7.4649826E-3,-4.4653475E-2,8.9056995E-3,2.2269979E-1,-4.292267E-2,2.1803385E-1,1.0637161E-2,-4.1266255E-2,1.6179599E-1,2.013827E-1,-4.3114472E-2],"categories":[],"categories_nodes":[],"categories_segments":[],"categories_sizes":[],"default_left":[0,0,0,0,0,0,0,0,0,0,0,0,0,0,0,0,0,0,0,0,0,0,0,0,0,0,0,0,0,0,0,0,0,0,0,0,0,0,0,0,0,0,0,0,0,0,0,0,0,0,0,0,0,0,0,0,0,0,0,0,0,0,0,0,0],"id":27,"left_children":[1,3,5,7,9,11,13,15,-1,17,19,-1,21,23,25,27,29,31,-1,-1,-1,33,-1,-1,-1,35,-1,37,39,41,43,45,-1,47,49,-1,-1,51,53,55,57,59,-1,61,63,-1,-1,-1,-1,-1,-1,-1,-1,-1,-1,-1,-1,-1,-1,-1,-1,-1,-1,-1,-1],"loss_changes":[1.2923249E4,4.1899805E2,8.183578E3,2.6727808E2,2.0405653E2,8.3478516E1,4.835309E1,1.1529321E2,0E0,2.4136475E1,4.4448357E0,0E0,2.9595703E1,2.069946E1,1.1689453E0,2.501831E1,8.5038934E2,6.36261E0,0E0,0E0,0E0,3.203067E1,0E0,0E0,0E0,3.059212E0,0E0,2.4922485E1,9.003418E0,2.4283728E2,1.3265878E2,7.3583984E-1,0E0,3.1468353E0,1.0266871E1,0E0,0E0,7.350708E0,2.4490667E1,1.800293E0,7.332535E1,1.0199646E1,0E0,6.427411E1,2.187592E2,0E0,0E0,0E0,0E0,0E0,0E0,0E0,0E0,0E0,0E0,0E0,0E0,0E0,0E0,0E0,0E0,0E0,0E0,0E0,0E0],"parents":[2147483647,0,0,1,1,2,2,3,3,4,4,5,5,6,6,7,7,9,9,10,10,12,12,13,13,14,14,15,15,16,16,17,17,21,21,25,25,27,27,28,28,29,29,30,30,31,31,33,33,34,34,37,37,38,38,39,39,40,40,41,41,43,43,44,44],"right_children":[2,4,6,8,10,12,14,16,-1,18,20,-1,22,24,26,28,30,32,-1,-1,-1,34,-1,-1,-1,36,-1,38,40,42,44,46,-1,48,50,-1,-1,52,54,56,58,60,-1,62,64,-1,-1,-1,-1,-1,-1,-1,-1,-1,-1,-1,-1,-1,-1,-1,-1,-1,-1,-1,-1],"split_conditions":[1.1583549E0,2.0176897E0,2.2243342E-1,5.1993375E0,-6.645283E-3,-2.756145E-1,5.445492E-1,1.6863818E-1,1.5690944E-1,6.03654E-1,1.634506E-1,-3.6092706E-2,1.598066E-1,-3.2300332E-1,2.332596E-1,-1.0804007E-1,-1.8238607E-1,4.9295735E-1,-1.2924019E-2,4.0836237E-2,-4.2766098E-2,1.5781186E0,1.6377564E-1,-2.0124922E-2,1.4084332E-1,1.8883482E-1,-4.4841737E-2,-1.9686961E-1,2.4203477E0,3.365034E-1,1.0512506E0,-4.041909E-1,1.7512402E-2,3.791233E-1,-2.3431887E-1,-3.0427124E-2,4.106311E-2,2.5312677E-1,-2.7438754E-1,1.0772045E0,2.696511E0,5.6447536E-1,-4.180406E-2,5.1993375E0,4.673088E-1,3.1757817E-2,1.6294725E-1,1.5375495E-1,1.1665779E-2,9.473647E-2,-3.1298593E-2,-3.848356E-2,-2.3633406E-2,1.33042E-1,-7.4649826E-3,-4.4653475E-2,8.9056995E-3,2.2269979E-1,-4.292267E-2,2.1803385E-1,1.0637161E-2,-4.1266255E-2,1.6179599E-1,2.013827E-1,-4.3114472E-2],"split_indices":[36,51,163,111,134,59,155,156,0,144,144,0,157,148,146,133,146,160,0,0,0,14,0,0,0,70,0,156,69,141,143,149,0,138,59,0,0,150,163,37,69,160,0,84,146,0,0,0,0,0,0,0,0,0,0,0,0,0,0,0,0,0,0,0,0],"split_type":[0,0,0,0,0,0,0,0,0,0,0,0,0,0,0,0,0,0,0,0,0,0,0,0,0,0,0,0,0,0,0,0,0,0,0,0,0,0,0,0,0,0,0,0,0,0,0,0,0,0,0,0,0,0,0,0,0,0,0,0,0,0,0,0,0],"sum_hessian":[2.2161693E4,1.6262373E4,5.899321E3,1.6096375E4,1.6599782E2,4.1365713E3,1.7627499E3,1.6054006E4,4.2369278E1,1.1192543E2,5.407239E1,1.2609492E1,4.1239614E3,1.7597471E1,1.7451523E3,1.3978681E4,2.0753254E3,1.06909355E2,5.0160694E0,2.0063295E0,5.2066063E1,3.7420246E1,4.0865413E3,6.816777E0,1.0780694E1,8.855454E0,1.736297E3,5.426309E3,8.552372E3,1.4494675E2,1.9303788E3,1.0348821E2,3.4211452E0,2.1337727E1,1.6082521E1,6.843494E0,2.011961E0,5.3883057E3,3.8003113E1,8.495845E3,5.6526993E1,1.1642943E2,2.8517313E1,1.8379866E3,9.239219E1,2.357346E0,1.0113087E2,1.9052177E1,2.285549E0,2.5153923E0,1.3567129E1,5.140701E3,2.4760457E2,7.7498903E0,3.0253223E1,8.493309E3,2.536149E0,5.2211065E0,5.1305885E1,1.1408755E2,2.3418777E0,1.8302355E3,7.7511034E0,3.7093582E1,5.529861E1],"tree_param":{"num_deleted":"0","num_feature":"165","num_nodes":"65","size_leaf_vector":"1"}},{"base_weights":[1.2700962E-2,-4.0731007E-1,2.8134604E0,-4.5990545E-1,2.7872593E0,-4.1324757E-2,2.3485266E-1,5.4620743E-2,-4.8532695E-1,-2.8485626E-2,2.3189089E-1,1.6835498E0,-4.2949956E-2,-4.069454E-1,-5.233293E-1,2.3637292E-1,7.397042E-1,-4.245029E-1,2.2794178E-1,-5.254422E-1,2.6823642E-2,1.936518E0,-3.9362806E-1,-4.414892E-1,-1.738307E-2,-5.263892E-1,1.6405219E-1,-4.0964067E-1,1.5720193E-1,2.0319429E-1,-1.9599551E-2,3.9196357E-2,-4.0575165E-2,-4.284314E-2,-3.4360748E-2,-2.3368184E-2,2.8373022E-2,-4.2860255E-2,-3.8453065E-2,1.2065665E-1,-3.0281527E-2,-3.8068756E-2,6.304579E-3],"categories":[],"categories_nodes":[],"categories_segments":[],"categories_sizes":[],"default_left":[0,0,0,0,0,0,0,0,0,0,0,0,0,0,0,0,0,0,0,0,0,0,0,0,0,0,0,0,0,0,0,0,0,0,0,0,0,0,0,0,0,0,0],"id":28,"left_children":[1,3,5,7,9,-1,-1,11,13,-1,-1,15,-1,17,19,-1,21,23,-1,25,27,29,31,33,35,37,39,41,-1,-1,-1,-1,-1,-1,-1,-1,-1,-1,-1,-1,-1,-1,-1],"loss_changes":[1.7189533E4,2.138499E3,7.787637E2,1.6361597E2,7.44917E1,0E0,0E0,5.723878E2,3.4794434E1,0E0,0E0,1.8416336E2,0E0,2.270083E2,9.357178E0,0E0,1.3020457E2,2.6436707E1,0E0,5.4680176E0,3.1494408E1,6.279869E1,5.87121E0,3.5596924E0,1.7029387E1,2.6169434E0,1.1915193E1,1.0959325E0,0E0,0E0,0E0,0E0,0E0,0E0,0E0,0E0,0E0,0E0,0E0,0E0,0E0,0E0,0E0],"parents":[2147483647,0,0,1,1,2,2,3,3,4,4,7,7,8,8,11,11,13,13,14,14,16,16,17,17,19,19,20,20,21,21,22,22,23,23,24,24,25,25,26,26,27,27],"right_children":[2,4,6,8,10,-1,-1,12,14,-1,-1,16,-1,18,20,-1,22,24,-1,26,28,30,32,34,36,38,40,42,-1,-1,-1,-1,-1,-1,-1,-1,-1,-1,-1,-1,-1,-1,-1],"split_conditions":[1.2089275E0,1.1594981E0,3.6226514E-1,-3.831501E-1,1.651786E-1,-4.1324757E-2,2.3485266E-1,3.3025414E-1,-5.26675E-1,-2.8485626E-2,2.3189089E-1,7.9061997E-1,-4.2949956E-2,-1.9191031E-1,5.1993375E0,2.3637292E-1,6.034345E-1,5.1993375E0,2.2794178E-1,3.2902453E0,6.873731E-1,1.8547347E0,-1.1304919E-1,1.8963706E0,-7.20848E-1,2.2599548E-1,2.0545563E-2,3.7934583E-1,1.5720193E-1,2.0319429E-1,-1.9599551E-2,3.9196357E-2,-4.0575165E-2,-4.284314E-2,-3.4360748E-2,-2.3368184E-2,2.8373022E-2,-4.2860255E-2,-3.8453065E-2,1.2065665E-1,-3.0281527E-2,-3.8068756E-2,6.304579E-3],"split_indices":[133,148,161,147,161,0,0,151,138,0,0,154,0,144,118,0,155,84,0,20,149,70,160,135,151,149,136,134,0,0,0,0,0,0,0,0,0,0,0,0,0,0,0],"split_type":[0,0,0,0,0,0,0,0,0,0,0,0,0,0,0,0,0,0,0,0,0,0,0,0,0,0,0,0,0,0,0,0,0,0,0,0,0,0,0,0,0,0,0],"sum_hessian":[1.460491E4,1.2701658E4,1.9032517E3,1.2497764E4,2.0389447E2,6.699589E1,1.8362557E3,5.873784E2,1.1910386E4,6.6733317E0,1.9722115E2,1.5571233E2,4.316661E2,3.9009941E3,8.0093916E3,6.431129E1,9.140104E1,3.8819556E3,1.9038656E1,7.979744E3,2.9647512E1,4.3980667E1,4.7420372E1,3.7251348E3,1.568208E2,7.9699956E3,9.748146E0,2.5275122E1,4.3723903E0,3.4373493E1,9.607174E0,4.1441803E0,4.327619E1,4.0629483E2,3.3188398E3,9.123006E1,6.5590744E1,6.5884165E3,1.3815795E3,2.0446997E0,7.7034464E0,2.3204489E1,2.0706336E0],"tree_param":{"num_deleted":"0","num_feature":"165","num_nodes":"43","size_leaf_vector":"1"}},{"base_weights":[1.1668911E-2,-4.6065316E-1,2.8178456E0,1.5126689E-1,-4.660429E-1,-1.5736458E-1,2.8478372E0,-4.7931358E-1,4.1765234E-1,-3.740794E-2,9.3848854E-2,6.258234E-2,2.2805575E-1,-3.560671E-1,-5.2610636E-1,-4.2115975E-2,2.1971439E-1,-2.8604653E-2,7.912428E-2,-4.2976428E-2,-4.5054197E-1,-4.7896418E-1,1.3546062E0,1.5754411E-2,-4.1884985E-2,1.9460034E-1,-2.8978063E-2],"categories":[],"categories_nodes":[],"categories_segments":[],"categories_sizes":[],"default_left":[0,0,0,0,0,0,0,0,0,0,0,0,0,0,0,0,0,0,0,0,0,0,0,0,0,0,0],"id":29,"left_children":[1,3,5,-1,7,9,11,13,15,-1,-1,-1,-1,17,19,-1,-1,-1,-1,-1,21,23,25,-1,-1,-1,-1],"loss_changes":[2.0009396E4,1.66448E2,1.9506445E2,0E0,1.5180493E2,1.1820425E1,5.8007812E0,7.259912E1,4.2709753E2,0E0,0E0,0E0,0E0,8.232941E0,6.9362793E0,0E0,0E0,0E0,0E0,0E0,6.3396576E1,3.592694E1,3.8339825E1,0E0,0E0,0E0,0E0],"parents":[2147483647,0,0,1,1,2,2,4,4,5,5,6,6,7,7,8,8,13,13,14,14,20,20,21,21,22,22],"right_children":[2,4,6,-1,8,10,12,14,16,-1,-1,-1,-1,18,20,-1,-1,-1,-1,-1,22,24,26,-1,-1,-1,-1],"split_conditions":[1.5144589E0,-8.92043E-1,1.091231E0,1.5126689E-1,1.1922725E0,3.374375E-1,5.5778928E-2,-8.205184E-1,5.333503E-1,-3.740794E-2,9.3848854E-2,6.258234E-2,2.2805575E-1,1.0363395E0,5.1993375E0,-4.2115975E-2,2.1971439E-1,-2.8604653E-2,7.912428E-2,-4.2976428E-2,7.984423E-1,-3.608039E-1,-2.5708575E-2,1.5754411E-2,-4.1884985E-2,1.9460034E-1,-2.8978063E-2],"split_indices":[160,134,155,0,160,140,145,140,154,0,0,0,0,18,83,0,0,0,0,0,146,142,144,0,0,0,0],"split_type":[0,0,0,0,0,0,0,0,0,0,0,0,0,0,0,0,0,0,0,0,0,0,0,0,0,0,0],"sum_hessian":[1.5089347E4,1.2916755E4,2.172592E3,2.7726242E1,1.2889028E4,2.1431135E1,2.151161E3,1.2699794E4,1.8923473E2,1.8735395E1,2.695741E0,3.9748156E0,2.147186E3,3.5025098E3,9.197284E3,1.3559627E2,5.3638462E1,3.5004695E3,2.0401893E0,8.002959E3,1.1943248E3,1.1775309E3,1.6794006E1,7.17718E1,1.105759E3,9.983483E0,6.810524E0],"tree_param":{"num_deleted":"0","num_feature":"165","num_nodes":"27","size_leaf_vector":"1"}},{"base_weights":[-9.710169E-3,-3.7615484E-1,1.2184398E0,-5.1890954E-2,-5.484047E-1,1.6809163E0,-5.852914E-1,-4.0341415E-2,-3.4840265E-1,-5.702311E-1,-3.377219E-2,1.0969208E-1,1.692125E0,-5.872978E-1,7.7534416E-3,-4.5383506E-2,7.7385443E-1,-3.7165308E-1,1.3940081E-1,-5.7851845E-1,-4.766894E-1,5.4172885E-1,-5.457104E-1,1.0403902E-1,-1.03890255E-1,-2.1096779E-2,1.693496E0,-0E0,-4.7145046E-2,-4.3377887E-2,-4.068418E-2,-1.6114132E-2,9.058732E-1,-3.0278709E-2,-0E0,4.4836903E-1,-1.3725424E-1,-5.7975584E-1,-2.0565857E-1,-4.9940923E-1,1.1999258E0,-2.6639774E-1,1.5765629E0,4.401674E-2,-5.626418E-1,4.919489E-2,-2.4650142E-1,1.3551058E-1,1.8490281E-2,-3.8827527E-2,-2.1272862E-1,4.6609077E-1,1.2683141E0,2.1193247E-2,-1.4695327E-2,5.7996053E-2,-0E0,-2.3467114E-2,1.9595036E-3,-5.798971E-1,1.0444679E-3,-3.7346122E-1,2.7972582E-1,-2.1258435E-1,-5.744463E-1,-1.3848344E-2,1.1758866E-1,9.0283066E-1,-3.767327E-1,1.6424575E0,-2.4903314E-2,-2.535946E-1,-4.6127375E-2,8.843584E-2,-4.2876273E-1,-3.24669E-3,3.032033E-2,-1.8528707E-2,1.9428972E-2,-4.315156E-3,5.645226E-2,-0E0,1.1562302E-1,-4.6702117E-2,-4.3888196E-2,-3.449119E-2,-0E0,-2.7456526E-2,6.700801E-2,-2.4517238E-2,1.112453E-1,-4.619616E-2,1.8910123E-2,-0E0,9.6146666E-2,1.2431536E-2,-3.6363732E-2,-1.7059766E-2,1.3512072E-1,-3.815612E-2,3.08977E-2,2.7005242E-2,-2.1243546E-2,-0E0,-4.0201955E-2],"categories":[],"categories_nodes":[],"categories_segments":[],"categories_sizes":[],"default_left":[0,0,0,0,0,0,0,0,0,0,0,0,0,0,0,0,0,0,0,0,0,0,0,0,0,0,0,0,0,0,0,0,0,0,0,0,0,0,0,0,0,0,0,0,0,0,0,0,0,0,0,0,0,0,0,0,0,0,0,0,0,0,0,0,0,0,0,0,0,0,0,0,0,0,0,0,0,0,0,0,0,0,0,0,0,0,0,0,0,0,0,0,0,0,0,0,0,0,0,0,0,0,0,0,0],"id":30,"left_children":[1,3,5,7,9,11,13,15,17,19,21,23,25,27,-1,29,31,33,35,37,39,41,43,-1,45,-1,47,-1,-1,49,-1,-1,51,-1,53,55,57,59,61,63,65,67,69,-1,71,-1,73,-1,-1,75,77,79,81,-1,-1,-1,-1,-1,-1,83,-1,85,87,89,91,-1,-1,93,95,97,-1,99,-1,101,103,-1,-1,-1,-1,-1,-1,-1,-1,-1,-1,-1,-1,-1,-1,-1,-1,-1,-1,-1,-1,-1,-1,-1,-1,-1,-1,-1,-1,-1,-1],"loss_changes":[1.2931378E4,1.2356545E3,5.510337E3,2.63892E1,1.6175781E2,9.056641E1,2.0112915E0,3.082703E1,3.4524384E0,9.866699E0,1.7574864E2,1.2200402E1,1.5017578E1,1.5034485E0,0E0,6.994213E0,6.4602146E0,6.3365936E-1,1.8082385E0,5.154785E0,4.5425507E1,2.3565234E2,6.7502365E0,0E0,4.427024E0,0E0,5.859375E-1,0E0,0E0,5.68851E0,0E0,0E0,4.7764435E0,0E0,8.6992013E-1,1.3360114E0,4.575279E-1,1.0834961E0,4.3883886E0,2.3737946E1,6.7798557E0,2.1676287E1,1.6553009E1,0E0,6.1899567E-1,0E0,2.3061512E0,0E0,0E0,5.460557E0,1.8822327E0,3.211708E0,3.8070107E0,0E0,0E0,0E0,0E0,0E0,0E0,5.942383E-1,0E0,8.190088E-1,5.866665E0,3.7666004E1,2.573883E0,0E0,0E0,3.0512514E0,6.3872967E0,1.1196686E1,0E0,3.5468318E0,0E0,1.72042E0,6.913018E-1,0E0,0E0,0E0,0E0,0E0,0E0,0E0,0E0,0E0,0E0,0E0,0E0,0E0,0E0,0E0,0E0,0E0,0E0,0E0,0E0,0E0,0E0,0E0,0E0,0E0,0E0,0E0,0E0,0E0,0E0],"parents":[2147483647,0,0,1,1,2,2,3,3,4,4,5,5,6,6,7,7,8,8,9,9,10,10,11,11,12,12,13,13,15,15,16,16,17,17,18,18,19,19,20,20,21,21,22,22,24,24,26,26,29,29,32,32,34,34,35,35,36,36,37,37,38,38,39,39,40,40,41,41,42,42,44,44,46,46,49,49,50,50,51,51,52,52,59,59,61,61,62,62,63,63,64,64,67,67,68,68,69,69,71,71,73,73,74,74],"right_children":[2,4,6,8,10,12,14,16,18,20,22,24,26,28,-1,30,32,34,36,38,40,42,44,-1,46,-1,48,-1,-1,50,-1,-1,52,-1,54,56,58,60,62,64,66,68,70,-1,72,-1,74,-1,-1,76,78,80,82,-1,-1,-1,-1,-1,-1,84,-1,86,88,90,92,-1,-1,94,96,98,-1,100,-1,102,104,-1,-1,-1,-1,-1,-1,-1,-1,-1,-1,-1,-1,-1,-1,-1,-1,-1,-1,-1,-1,-1,-1,-1,-1,-1,-1,-1,-1,-1,-1],"split_conditions":[6.1305445E-1,-6.808394E-1,-1.4188752E-1,7.056796E-1,4.605786E-1,-8.58876E-2,8.791637E-1,-6.872907E-1,1.0883939E-1,2.9085308E-1,-1.9264627E-1,-4.5192163E-2,-4.210825E-1,-3.5683143E-1,7.7534416E-3,1.1328976E0,-6.563832E-1,-4.1444406E-1,-7.58306E-2,1.0859332E0,6.259445E-1,-2.4093853E-1,-3.923652E-1,1.0403902E-1,4.652666E-1,-2.1096779E-2,6.369366E-1,-0E0,-4.7145046E-2,1.5231755E0,-4.068418E-2,-1.6114132E-2,-5.637981E-1,-3.0278709E-2,-6.8312414E-2,1.3652574E0,1.3043985E0,2.877846E0,-3.4614524E-1,-1.4188752E-1,3.0057085E-1,4.652666E-1,1.4300945E0,4.401674E-2,