{"learner":{"attributes":{"best_iteration":"77","best_score":"0.04183232762313528","scikit_learn":"{\"_estimator_type\": \"classifier\"}"},"feature_names":[],"feature_types":[],"gradient_booster":{"model":{"cats":{"enc":[],"feature_segments":[],"sorted_idx":[]},"gbtree_model_param":{"num_parallel_tree":"1","num_trees":"1298"},"iteration_indptr":[0,11,22,33,44,55,66,77,88,99,110,121,132,143,154,165,176,187,198,209,220,231,242,253,264,275,286,297,308,319,330,341,352,363,374,385,396,407,418,429,440,451,462,473,484,495,506,517,528,539,550,561,572,583,594,605,616,627,638,649,660,671,682,693,704,715,726,737,748,759,770,781,792,803,814,825,836,847,858,869,880,891,902,913,924,935,946,957,968,979,990,1001,1012,1023,1034,1045,1056,1067,1078,1089,1100,1111,1122,1133,1144,1155,1166,1177,1188,1199,1210,1221,1232,1243,1254,1265,1276,1287,1298],"tree_info":[0,1,2,3,4,5,6,7,8,9,10,0,1,2,3,4,5,6,7,8,9,10,0,1,2,3,4,5,6,7,8,9,10,0,1,2,3,4,5,6,7,8,9,10,0,1,2,3,4,5,6,7,8,9,10,0,1,2,3,4,5,6,7,8,9,10,0,1,2,3,4,5,6,7,8,9,10,0,1,2,3,4,5,6,7,8,9,10,0,1,2,3,4,5,6,7,8,9,10,0,1,2,3,4,5,6,7,8,9,10,0,1,2,3,4,5,6,7,8,9,10,0,1,2,3,4,5,6,7,8,9,10,0,1,2,3,4,5,6,7,8,9,10,0,1,2,3,4,5,6,7,8,9,10,0,1,2,3,4,5,6,7,8,9,10,0,1,2,3,4,5,6,7,8,9,10,0,1,2,3,4,5,6,7,8,9,10,0,1,2,3,4,5,6,7,8,9,10,0,1,2,3,4,5,6,7,8,9,10,0,1,2,3,4,5,6,7,8,9,10,0,1,2,3,4,5,6,7,8,9,10,0,1,2,3,4,5,6,7,8,9,10,0,1,2,3,4,5,6,7,8,9,10,0,1,2,3,4,5,6,7,8,9,10,0,1,2,3,4,5,6,7,8,9,10,0,1,2,3,4,5,6,7,8,9,10,0,1,2,3,4,5,6,7,8,9,10,0,1,2,3,4,5,6,7,8,9,10,0,1,2,3,4,5,6,7,8,9,10,0,1,2,3,4,5,6,7,8,9,10,0,1,2,3,4,5,6,7,8,9,10,0,1,2,3,4,5,6,7,8,9,10,0,1,2,3,4,5,6,7,8,9,10,0,1,2,3,4,5,6,7,8,9,10,0,1,2,3,4,5,6,7,8,9,10,0,1,2,3,4,5,6,7,8,9,10,0,1,2,3,4,5,6,7,8,9,10,0,1,2,3,4,5,6,7,8,9,10,0,1,2,3,4,5,6,7,8,9,10,0,1,2,3,4,5,6,7,8,9,10,0,1,2,3,4,5,6,7,8,9,10,0,1,2,3,4,5,6,7,8,9,10,0,1,2,3,4,5,6,7,8,9,10,0,1,2,3,4,5,6,7,8,9,10,0,1,2,3,4,5,6,7,8,9,10,0,1,2,3,4,5,6,7,8,9,10,0,1,2,3,4,5,6,7,8,9,10,0,1,2,3,4,5,6,7,8,9,10,0,1,2,3,4,5,6,7,8,9,10,0,1,2,3,4,5,6,7,8,9,10,0,1,2,3,4,5,6,7,8,9,10,0,1,2,3,4,5,6,7,8,9,10,0,1,2,3,4,5,6,7,8,9,10,0,1,2,3,4,5,6,7,8,9,10,0,1,2,3,4,5,6,7,8,9,10,0,1,2,3,4,5,6,7,8,9,10,0,1,2,3,4,5,6,7,8,9,10,0,1,2,3,4,5,6,7,8,9,10,0,1,2,3,4,5,6,7,8,9,10,0,1,2,3,4,5,6,7,8,9,10,0,1,2,3,4,5,6,7,8,9,10,0,1,2,3,4,5,6,7,8,9,10,0,1,2,3,4,5,6,7,8,9,10,0,1,2,3,4,5,6,7,8,9,10,0,1,2,3,4,5,6,7,8,9,10,0,1,2,3,4,5,6,7,8,9,10,0,1,2,3,4,5,6,7,8,9,10,0,1,2,3,4,5,6,7,8,9,10,0,1,2,3,4,5,6,7,8,9,10,0,1,2,3,4,5,6,7,8,9,10,0,1,2,3,4,5,6,7,8,9,10,0,1,2,3,4,5,6,7,8,9,10,0,1,2,3,4,5,6,7,8,9,10,0,1,2,3,4,5,6,7,8,9,10,0,1,2,3,4,5,6,7,8,9,10,0,1,2,3,4,5,6,7,8,9,10,0,1,2,3,4,5,6,7,8,9,10,0,1,2,3,4,5,6,7,8,9,10,0,1,2,3,4,5,6,7,8,9,10,0,1,2,3,4,5,6,7,8,9,10,0,1,2,3,4,5,6,7,8,9,10,0,1,2,3,4,5,6,7,8,9,10,0,1,2,3,4,5,6,7,8,9,10,0,1,2,3,4,5,6,7,8,9,10,0,1,2,3,4,5,6,7,8,9,10,0,1,2,3,4,5,6,7,8,9,10,0,1,2,3,4,5,6,7,8,9,10,0,1,2,3,4,5,6,7,8,9,10,0,1,2,3,4,5,6,7,8,9,10,0,1,2,3,4,5,6,7,8,9,10,0,1,2,3,4,5,6,7,8,9,10,0,1,2,3,4,5,6,7,8,9,10,0,1,2,3,4,5,6,7,8,9,10,0,1,2,3,4,5,6,7,8,9,10,0,1,2,3,4,5,6,7,8,9,10,0,1,2,3,4,5,6,7,8,9,10,0,1,2,3,4,5,6,7,8,9,10,0,1,2,3,4,5,6,7,8,9,10,0,1,2,3,4,5,6,7,8,9,10,0,1,2,3,4,5,6,7,8,9,10,0,1,2,3,4,5,6,7,8,9,10,0,1,2,3,4,5,6,7,8,9,10,0,1,2,3,4,5,6,7,8,9,10,0,1,2,3,4,5,6,7,8,9,10,0,1,2,3,4,5,6,7,8,9,10,0,1,2,3,4,5,6,7,8,9,10,0,1,2,3,4,5,6,7,8,9,10,0,1,2,3,4,5,6,7,8,9,10,0,1,2,3,4,5,6,7,8,9,10,0,1,2,3,4,5,6,7,8,9,10,0,1,2,3,4,5,6,7,8,9,10,0,1,2,3,4,5,6,7,8,9,10,0,1,2,3,4,5,6,7,8,9,10,0,1,2,3,4,5,6,7,8,9,10,0,1,2,3,4,5,6,7,8,9,10,0,1,2,3,4,5,6,7,8,9,10,0,1,2,3,4,5,6,7,8,9,10,0,1,2,3,4,5,6,7,8,9,10],"trees":[{"base_weights":[-6.314436E-4,-5.317534E-1,3E0,-4.256324E-2,-4.6152982E-1,-4.5260784E-1,3E0,2.4E-1,-5.27205E-1,-4.8395416E-1,2.4E-1,2.4E-1,-2.4708385E-2,5.7014585E-3,-4.2388193E-2,-4.9219766E-1,1.21099785E-1,-0E0,-5.1487774E-1,-3.9921045E-2,2.4E-1,-3.3437744E-1,-4.2438477E-2,5.0700657E-2,-3.920256E-2],"categories":[],"categories_nodes":[],"categories_segments":[],"categories_sizes":[],"default_left":[0,0,0,0,0,0,0,0,0,0,0,0,0,0,0,0,0,0,0,0,0,0,0,0,0],"id":0,"left_children":[1,3,5,-1,7,9,11,-1,13,15,-1,-1,-1,-1,-1,17,-1,19,21,-1,-1,23,-1,-1,-1],"loss_changes":[4.7781256E5,2.6132812E0,1.33746875E4,0E0,2.2441792E2,1.6399092E2,6.05E1,0E0,1.2292938E0,2.0674316E1,0E0,0E0,0E0,0E0,0E0,1.24591675E1,0E0,1.1494161E2,2.3108215E0,0E0,0E0,1.5166084E1,0E0,0E0,0E0],"parents":[2147483647,0,0,1,1,2,2,4,4,5,5,6,6,8,8,9,9,15,15,17,17,18,18,21,21],"right_children":[2,4,6,-1,8,10,12,-1,14,16,-1,-1,-1,-1,-1,18,-1,20,22,-1,-1,24,-1,-1,-1],"split_conditions":[4.8344216E-1,1.3991997E-1,5.0868934E-1,-4.256324E-2,-1.3463607E-1,1.2924649E0,1.4223814E0,2.4E-1,-9.1130817E-1,2.5100589E0,2.4E-1,2.4E-1,-2.4708385E-2,5.7014585E-3,-4.2388193E-2,1.08272195E-1,1.21099785E-1,3.2581607E-1,5.612881E-1,-3.9921045E-2,2.4E-1,-4.2635325E-1,-4.2438477E-2,5.0700657E-2,-3.920256E-2],"split_indices":[347,347,345,0,370,171,0,0,333,21,0,0,0,0,0,316,0,360,316,0,0,326,0,0,0],"split_type":[0,0,0,0,0,0,0,0,0,0,0,0,0,0,0,0,0,0,0,0,0,0,0,0,0],"sum_hessian":[1.808799E5,1.6887517E5,1.2004743E4,1.6816727E5,7.0791046E2,1.1213385E3,1.0883405E4,6.6919875E0,7.012185E2,1.116225E3,5.1135683E0,1.0878397E4,5.007024E0,2.0281863E0,6.991903E2,1.1133881E3,2.836859E0,4.825938E1,1.0651287E3,4.529854E1,2.9608395E0,9.0867195E1,9.742615E2,1.1290084E1,7.957712E1],"tree_param":{"num_deleted":"0","num_feature":"378","num_nodes":"25","size_leaf_vector":"1"}},{"base_weights":[-1.1147106E-4,2.0912628E0,-6.4076734E-1,1.6788839E-1,-6.439692E-1,-6.54377E-1,2.9430905E-1,-5.2110408E-2,5.9435535E-3,-2.8097877E-1,-6.554513E-1,1.6772021E-1,-5.2475855E-2,-6.513908E-1,1.657016E-1,-6.557989E-1,-1.3339226E-1,3.0381953E-2,-5.2377276E-2,-6.560652E-1,-5.375909E-1,-5.1902667E-2,1.6130756E-1,-5.248772E-2,-2.8055868E-1,1.5939727E-1,-5.2358415E-2,-4.849117E-2,1.1372289E-1],"categories":[],"categories_nodes":[],"categories_segments":[],"categories_sizes":[],"default_left":[0,0,0,0,0,0,0,0,0,0,0,0,0,0,0,0,0,0,0,0,0,0,0,0,0,0,0,0,0],"id":1,"left_children":[1,3,5,-1,7,9,11,-1,-1,13,15,-1,-1,17,-1,19,21,-1,-1,23,25,-1,-1,-1,27,-1,-1,-1,-1],"loss_changes":[7.76515E5,2.732375E3,5.646422E3,0E0,2.0888824E0,1.7453125E2,1.0906713E4,0E0,0E0,1.1015471E3,7.8375E1,0E0,0E0,4.4285583E0,0E0,1.2625E1,3.2970416E2,0E0,0E0,4.25E0,2.9801468E2,0E0,0E0,0E0,2.5652803E1,0E0,0E0,0E0,0E0],"parents":[2147483647,0,0,1,1,2,2,4,4,5,5,6,6,9,9,10,10,13,13,15,15,16,16,19,19,20,20,24,24],"right_children":[2,4,6,-1,8,10,12,-1,-1,14,16,-1,-1,18,-1,20,22,-1,-1,24,26,-1,-1,-1,28,-1,-1,-1,-1],"split_conditions":[-1.3149282E-1,3.623304E-1,-2.059412E-1,1.6788839E-1,-1.5242393E-1,-5.9886193E-1,1.293297E-1,-5.2110408E-2,5.9435535E-3,-7.39145E-1,5.1993375E0,1.6772021E-1,-5.2475855E-2,-6.4094555E-1,1.657016E-1,2.418077E0,-2.2227743E-1,3.0381953E-2,-5.2377276E-2,5.1993375E0,2.057406E0,-5.1902667E-2,1.6130756E-1,-5.248772E-2,5.1993375E0,1.5939727E-1,-5.2358415E-2,-4.849117E-2,1.1372289E-1],"split_indices":[329,343,191,0,348,354,326,0,0,323,155,0,0,332,0,177,325,0,0,61,5,0,0,0,287,0,0,0,0],"split_type":[0,0,0,0,0,0,0,0,0,0,0,0,0,0,0,0,0,0,0,0,0,0,0,0,0,0,0,0,0],"sum_hessian":[5.795476E5,1.3590158E5,4.4364606E5,1.3553839E5,3.6317807E2,4.3728275E5,6.36333E3,3.6034247E2,2.8355794E0,1.257332E3,4.360254E5,2.1962273E3,4.1671025E3,1.0877078E3,1.6962419E2,4.3573378E5,2.9160986E2,2.285137E0,1.0854227E3,4.3474088E5,9.929229E2,2.3653139E2,5.507849E1,4.3470184E5,3.9016983E1,4.224147E1,9.5068146E2,3.4079666E1,4.937315E0],"tree_param":{"num_deleted":"0","num_feature":"378","num_nodes":"29","size_leaf_vector":"1"}},{"base_weights":[-2.6422468E-4,-4.0875144E-2,3E0,2.4E-1,-3.996332E-2],"categories":[],"categories_nodes":[],"categories_segments":[],"categories_sizes":[],"default_left":[0,0,0,0,0],"id":2,"left_children":[1,-1,3,-1,-1],"loss_changes":[2.0346161E5,0E0,1.6159531E3,0E0,0E0],"parents":[2147483647,0,0,2,2],"right_children":[2,-1,4,-1,-1],"split_conditions":[9.9964625E-1,-4.0875144E-2,-7.574844E-1,2.4E-1,-3.996332E-2],"split_indices":[369,0,314,0,0],"split_type":[0,0,0,0,0],"sum_hessian":[6.7005836E4,6.5437754E4,1.5680824E3,1.4368267E3,1.3125569E2],"tree_param":{"num_deleted":"0","num_feature":"378","num_nodes":"5","size_leaf_vector":"1"}},{"base_weights":[-1.5351964E-4,3E0,-5.398244E-1,2.4E-1,-4.3114293E-2,-5.429672E-1,2.4072294E-1,-5.4343957E-1,-2.9713959E-1,3E0,-5.2983034E-1,-5.4369175E-1,-3.9698008E-1,2.4E-1,-4.323907E-2,2.4E-1,-2.2102894E-2,9.157397E-2,-5.387291E-1,-5.437804E-1,-2.652242E-1,2.4E-1,-5.3649557E-1,-4.3383982E-2,1.420754E-2,-4.948934E-1,-5.439629E-1,-4.1785114E-2,2.4E-1,-4.321049E-2,-0E0,-4.3397095E-2,2.4E-1,-4.351754E-2,-0E0],"categories":[],"categories_nodes":[],"categories_segments":[],"categories_sizes":[],"default_left":[0,0,0,0,0,0,0,0,0,0,0,0,0,0,0,0,0,0,0,0,0,0,0,0,0,0,0,0,0,0,0,0,0,0,0],"id":3,"left_children":[1,3,5,-1,-1,7,9,11,13,15,17,19,21,-1,-1,-1,-1,-1,23,25,27,-1,29,-1,-1,31,33,-1,-1,-1,-1,-1,-1,-1,-1],"loss_changes":[5.974369E5,3.6439375E3,5.3829297E2,0E0,0E0,2.4648438E1,2.9345266E3,7.28125E0,4.9541757E2,4.7389893E1,1.3356308E1,4.671875E0,2.5252345E2,0E0,0E0,0E0,0E0,0E0,2.260971E0,1.1054688E0,7.6991516E1,0E0,5.9765625E-1,0E0,0E0,1.8827722E2,6.1328125E-1,0E0,0E0,0E0,0E0,0E0,0E0,0E0,0E0],"parents":[2147483647,0,0,1,1,2,2,5,5,6,6,7,7,8,8,9,9,10,10,11,11,12,12,18,18,19,19,20,20,22,22,25,25,26,26],"right_children":[2,4,6,-1,-1,8,10,12,14,16,18,20,22,-1,-1,-1,-1,-1,24,26,28,-1,30,-1,-1,32,34,-1,-1,-1,-1,-1,-1,-1,-1],"split_conditions":[-7.1874535E-1,-1.7651224E-1,4.8355883E-1,2.4E-1,-4.3114293E-2,1.4462441E0,-4.859373E-2,1.9876921E0,1.6893545E-1,1.8253671E0,-2.6995263E-1,3.1872993E0,-2.3839822E-1,2.4E-1,-4.323907E-2,2.4E-1,-2.2102894E-2,9.157397E-2,1.513802E0,-6.947435E-1,1.3519543E0,2.4E-1,-4.124514E-2,-4.3383982E-2,1.420754E-2,1.7214517E-1,3.764971E0,-4.1785114E-2,2.4E-1,-4.321049E-2,-0E0,-4.3397095E-2,2.4E-1,-4.351754E-2,-0E0],"split_indices":[340,321,322,0,0,362,355,192,315,1,346,152,361,0,0,0,0,0,211,340,0,0,331,0,0,375,107,0,0,0,0,0,0,0,0],"split_type":[0,0,0,0,0,0,0,0,0,0,0,0,0,0,0,0,0,0,0,0,0,0,0,0,0,0,0,0,0,0,0,0,0,0,0],"sum_hessian":[2.3888238E5,1.9606203E4,2.1927617E5,1.9315975E4,2.902295E2,2.1839806E5,8.7810266E2,2.1797477E5,4.2329626E2,1.0583729E2,7.722654E2,2.1759127E5,3.8350873E2,1.5503693E1,4.0779257E2,1.01910934E2,3.9263499E0,2.4359078E0,7.6982947E2,2.1751831E5,7.2940865E1,8.181997E0,3.7532672E2,7.67189E2,2.640438E0,8.3949194E2,2.1667883E5,7.0046844E1,2.8940225E0,3.7321988E2,2.1068482E0,8.334972E2,5.994761E0,2.1667677E5,2.0621674E0],"tree_param":{"num_deleted":"0","num_feature":"378","num_nodes":"35","size_leaf_vector":"1"}},{"base_weights":[-6.884474E-4,-5.06659E-1,3E0,-5.166493E-1,4.7282103E-1,-4.0935803E-2,3E0,-5.1734424E-1,-3.094586E-1,3E0,-4.6600026E-1,3E0,-4.0541243E-2,-4.144413E-2,-4.7177032E-1,3E0,-4.7386426E-1,2.4E-1,-3.462988E-2,-5.07251E-1,3E0,3E0,-2.3677418E-1,2.4E-1,-5.037999E-1,2.4E-1,-2.0024346E-2,1.1978168E-1,-4.9705887E-1,1.452995E-1,-4.1339338E-2,-0E0,2.4E-1,2.4E-1,-3.0552566E-2,5.800788E-2,-3.5198055E-2,-5.116323E-1,9.48896E-1,-4.0834237E-2,5.5023335E-2,4.6405476E-2,-4.1159768E-2,2.200314E-1,-2.3735126E-2],"categories":[],"categories_nodes":[],"categories_segments":[],"categories_sizes":[],"default_left":[0,0,0,0,0,0,0,0,0,0,0,0,0,0,0,0,0,0,0,0,0,0,0,0,0,0,0,0,0,0,0,0,0,0,0,0,0,0,0,0,0,0,0,0,0],"id":4,"left_children":[1,3,5,7,9,-1,11,13,15,17,19,21,-1,-1,23,25,27,-1,-1,29,31,33,35,-1,37,-1,-1,-1,39,-1,-1,-1,-1,-1,-1,-1,-1,41,43,-1,-1,-1,-1,-1,-1],"loss_changes":[3.0140572E5,1.02188477E3,9.217469E3,1.4189453E1,4.909672E3,0E0,1.6169375E3,2.5507812E0,2.643148E2,1.9582422E2,1.9588766E2,2.1134375E2,0E0,0E0,2.8545947E2,4.4317993E1,1.7977585E1,0E0,0E0,2.4076172E1,2.342688E1,1.1271875E2,5.5516624E0,0E0,1.968753E1,0E0,0E0,0E0,6.4720764E0,0E0,0E0,0E0,0E0,0E0,0E0,0E0,0E0,5.880432E0,2.4566944E1,0E0,0E0,0E0,0E0,0E0,0E0],"parents":[2147483647,0,0,1,1,2,2,3,3,4,4,6,6,7,7,8,8,9,9,10,10,11,11,14,14,15,15,16,16,19,19,20,20,21,21,22,22,24,24,28,28,37,37,38,38],"right_children":[2,4,6,8,10,-1,12,14,16,18,20,22,-1,-1,24,26,28,-1,-1,30,32,34,36,-1,38,-1,-1,-1,40,-1,-1,-1,-1,-1,-1,-1,-1,42,44,-1,-1,-1,-1,-1,-1],"split_conditions":[8.270553E-1,5.030412E-1,-2.4407092E-1,7.177885E-1,-3.886553E-2,-4.0935803E-2,3.8330865E-1,3.9088386E-1,-4.9014854E-1,-3.6888152E-1,4.004965E-2,1.6172023E0,-4.0541243E-2,-4.144413E-2,-6.171872E-1,-8.641306E-1,-8.482356E-1,2.4E-1,-3.462988E-2,-8.452836E-1,5.9669876E-1,1.3695675E0,-8.584557E-1,2.4E-1,1.0801935E0,2.4E-1,-2.0024346E-2,1.1978168E-1,-1.590526E-2,1.452995E-1,-4.1339338E-2,-0E0,2.4E-1,2.4E-1,-3.0552566E-2,5.800788E-2,-3.5198055E-2,-9.479999E-1,7.9687536E-1,-4.0834237E-2,5.5023335E-2,4.6405476E-2,-4.1159768E-2,2.200314E-1,-2.3735126E-2],"split_indices":[332,352,343,332,345,0,358,332,351,358,356,334,0,0,351,325,350,0,0,318,350,0,323,0,349,0,0,0,341,0,0,0,0,0,0,0,0,358,354,0,0,0,0,0,0],"split_type":[0,0,0,0,0,0,0,0,0,0,0,0,0,0,0,0,0,0,0,0,0,0,0,0,0,0,0,0,0,0,0,0,0,0,0,0,0,0,0,0,0,0,0,0,0],"sum_hessian":[1.0903659E5,1.0435327E5,4.6833193E3,1.033011E5,1.0521714E3,7.4673615E2,3.936583E3,1.02950375E5,3.5072446E2,8.402501E1,9.6814636E2,3.8057947E3,1.307884E2,1.0134564E5,1.6047374E3,9.202976E0,3.4152148E2,6.80447E1,1.5980304E1,9.628634E2,5.283002E0,3.7860696E3,1.9725111E1,4.506266E0,1.6002312E3,5.4698296E0,3.7331464E0,2.24301E0,3.3927847E2,2.153777E0,9.607096E2,2.6257074E0,2.6572948E0,3.7768062E3,9.263405E0,2.115211E0,1.76099E1,1.5932806E3,6.950568E0,3.3703595E2,2.2424989E0,2.6585705E0,1.5906221E3,2.0176387E0,4.9329295E0],"tree_param":{"num_deleted":"0","num_feature":"378","num_nodes":"45","size_leaf_vector":"1"}},{"base_weights":[3.230262E-3,-4.0863637E-2,3E0,-4.0060885E-2,3E0,-1.7705869E-2,2.4E-1],"categories":[],"categories_nodes":[],"categories_segments":[],"categories_sizes":[],"default_left":[0,0,0,0,0,0,0],"id":5,"left_children":[1,-1,3,-1,5,-1,-1],"loss_changes":[2.0222281E5,0E0,1.8380938E3,0E0,3.8265625E1,0E0,0E0],"parents":[2147483647,0,0,2,2,4,4],"right_children":[2,-1,4,-1,6,-1,-1],"split_conditions":[4.815293E-1,-4.0863637E-2,8.92738E-1,-4.0060885E-2,-6.549677E-2,-1.7705869E-2,2.4E-1],"split_indices":[363,0,326,0,327,0,0],"split_type":[0,0,0,0,0,0,0],"sum_hessian":[6.622231E4,6.4657312E4,1.5650032E3,1.4928789E2,1.4157153E3,3.2561693E0,1.4124591E3],"tree_param":{"num_deleted":"0","num_feature":"378","num_nodes":"7","size_leaf_vector":"1"}},{"base_weights":[-1.5694987E-3,-5.254899E-1,3E0,-5.326803E-1,1.1231523E0,3E0,-4.2976607E-2,-5.355109E-1,-3.883933E-1,3E0,-5.2942646E-1,3E0,-3.6420494E-2,-5.3562826E-1,-9.535796E-2,3E0,-5.2691597E-1,2.4E-1,-2.4389362E-2,4.07743E-2,-4.280715E-2,3E0,-1.802097E-2,-5.1398253E-1,-5.374041E-1,2.4E-1,-4.0428117E-2,-3.4427103E-2,2.4E-1,-1.2554355E-1,-5.350266E-1,2.4E-1,2.6283912E-2,3E0,-5.358945E-1,-4.299573E-2,-7.3565684E-2,-4.1196212E-2,2.4E-1,-4.2885307E-2,1.3979281E-2,-3.842098E-2,2.4E-1,-2.292254E-2,-4.297506E-2,1.1107998E-1,-3.5571665E-2],"categories":[],"categories_nodes":[],"categories_segments":[],"categories_sizes":[],"default_left":[0,0,0,0,0,0,0,0,0,0,0,0,0,0,0,0,0,0,0,0,0,0,0,0,0,0,0,0,0,0,0,0,0,0,0,0,0,0,0,0,0,0,0,0,0,0,0],"id":6,"left_children":[1,3,5,7,9,11,-1,13,15,17,19,21,-1,23,25,27,29,-1,-1,-1,-1,31,-1,33,35,-1,-1,-1,-1,37,39,-1,-1,41,43,-1,45,-1,-1,-1,-1,-1,-1,-1,-1,-1,-1],"loss_changes":[4.782166E5,2.241332E3,5.555628E4,7.608203E1,5.0554487E3,2.124375E2,0E0,8.933594E0,2.4832239E3,5.7737793E1,4.568802E0,3.61875E1,0E0,6.2617188E0,7.804156E1,1.5679224E2,1.0967041E1,0E0,0E0,0E0,0E0,1.24375E1,0E0,1.2812554E3,2.78125E0,0E0,0E0,0E0,0E0,1.1839486E2,2.843933E0,0E0,0E0,3.169345E2,3.8105469E0,0E0,1.2801164E1,0E0,0E0,0E0,0E0,0E0,0E0,0E0,0E0,0E0,0E0],"parents":[2147483647,0,0,1,1,2,2,3,3,4,4,5,5,7,7,8,8,9,9,10,10,11,11,13,13,14,14,15,15,16,16,21,21,23,23,24,24,29,29,30,30,33,33,34,34,36,36],"right_children":[2,4,6,8,10,12,-1,14,16,18,20,22,-1,24,26,28,30,-1,-1,-1,-1,32,-1,34,36,-1,-1,-1,-1,38,40,-1,-1,42,44,-1,46,-1,-1,-1,-1,-1,-1,-1,-1,-1,-1],"split_conditions":[9.751016E-1,4.1412374E-1,5.676303E-1,2.1196682E0,-8.060634E-1,2.8398342E-2,-4.2976607E-2,3.129893E0,1.7214517E-1,1.0285984E0,-8.765181E-1,1.07648775E-1,-3.6420494E-2,-7.082967E-1,-1.5583155E-1,-4.2450958E-1,4.2780504E-1,2.4E-1,-2.4389362E-2,4.07743E-2,-4.280715E-2,2.696634E0,-1.802097E-2,1.7214517E-1,3.6634223E0,2.4E-1,-4.0428117E-2,-3.4427103E-2,2.4E-1,1.7736951E0,2.8848975E0,2.4E-1,2.6283912E-2,5.283763E-1,4.0104333E-1,-4.299573E-2,-6.880301E-2,-4.1196212E-2,2.4E-1,-4.2885307E-2,1.3979281E-2,-3.842098E-2,2.4E-1,-2.292254E-2,-4.297506E-2,1.1107998E-1,-3.5571665E-2],"split_indices":[373,373,323,138,323,340,0,119,375,321,359,327,0,338,328,376,375,0,0,0,0,231,0,375,302,0,0,0,0,316,15,0,0,362,375,0,328,0,0,0,0,0,0,0,0,0,0],"split_type":[0,0,0,0,0,0,0,0,0,0,0,0,0,0,0,0,0,0,0,0,0,0,0,0,0,0,0,0,0,0,0,0,0,0,0,0,0,0,0,0,0,0,0,0,0,0,0],"sum_hessian":[2.0754922E5,1.8892189E5,1.8627322E4,1.8810316E5,8.1873254E2,1.4187747E4,4.439574E3,1.8447522E5,3.6279336E3,1.8175229E2,6.369803E2,1.4170609E4,1.7137417E1,1.844245E5,5.0726734E1,7.845654E1,3.549477E3,1.7698325E2,4.7690463E0,2.0092025E0,6.3497107E2,1.4167566E4,3.043625E0,1.4048744E4,1.7037575E5,3.8260376E0,4.6900696E1,1.2690117E1,6.5766426E1,7.2178535E1,3.4772986E3,1.4164719E4,2.8476474E0,6.966748E1,1.3979076E4,1.7035873E5,1.7013243E1,6.766633E1,4.512203E0,3.4734043E3,3.8944016E0,2.5489103E1,4.417838E1,7.64467E1,1.390263E4,2.0611765E0,1.4952065E1],"tree_param":{"num_deleted":"0","num_feature":"378","num_nodes":"47","size_leaf_vector":"1"}},{"base_weights":[-1.0838466E-4,3E0,-4.6521936E-2,2.4E-1,-4.5610756E-2],"categories":[],"categories_nodes":[],"categories_segments":[],"categories_sizes":[],"default_left":[0,0,0,0,0],"id":7,"left_children":[1,3,-1,-1,-1],"loss_changes":[7.7978325E5,1.8330625E3,0E0,0E0,0E0],"parents":[2147483647,0,0,1,1],"right_children":[2,4,-1,-1,-1],"split_conditions":[-2.1835494E-1,1.6893545E-1,-4.6521936E-2,2.4E-1,-4.5610756E-2],"split_indices":[360,315,0,0,0],"split_type":[0,0,0,0,0],"sum_hessian":[3.8551394E5,5.421554E4,3.312984E5,5.407247E4,1.4306818E2],"tree_param":{"num_deleted":"0","num_feature":"378","num_nodes":"5","size_leaf_vector":"1"}},{"base_weights":[-1.4492484E-3,-5.2255255E-1,3E0,-5.257303E-1,2.4E-1,2.4E-1,-1.9988474E-2,-4.234476E-2,4.102655E-1,-5.15296E-1,2.2382798E0,-4.2032655E-2,4.2053357E-2,-4.114039E-2,3E0,3E0,5.956685E-1,-1.9737301E-2,2.4E-1,2.4E-1,-3.880652E-2],"categories":[],"categories_nodes":[],"categories_segments":[],"categories_sizes":[],"default_left":[0,0,0,0,0,0,0,0,0,0,0,0,0,0,0,0,0,0,0,0,0],"id":8,"left_children":[1,3,5,7,-1,-1,-1,-1,9,11,13,-1,-1,-1,15,17,19,-1,-1,-1,-1],"loss_changes":[4.5447038E5,2.825039E3,4.26875E1,5.292656E2,0E0,0E0,0E0,0E0,1.02331616E3,5.050255E0,1.1452667E3,0E0,0E0,0E0,2.1063013E2,4.188452E1,1.8299054E2,0E0,0E0,0E0,0E0],"parents":[2147483647,0,0,1,1,2,2,3,3,8,8,9,9,10,10,14,14,15,15,16,16],"right_children":[2,4,6,8,-1,-1,-1,-1,10,12,14,-1,-1,-1,16,18,20,-1,-1,-1,-1],"split_conditions":[1.4006679E0,1.0961797E0,1.2924649E0,4.4374887E-2,2.4E-1,2.4E-1,-1.9988474E-2,-4.234476E-2,5.6286937E-1,1.8399893E0,-2.618065E-1,-4.2032655E-2,4.2053357E-2,-4.114039E-2,-2.2710646E-2,2.5295606E-1,1.0474441E0,-1.9737301E-2,2.4E-1,2.4E-1,-3.880652E-2],"split_indices":[359,371,171,359,0,0,0,0,334,0,340,0,0,0,350,316,368,0,0,0,0],"split_type":[0,0,0,0,0,0,0,0,0,0,0,0,0,0,0,0,0,0,0,0,0],"sum_hessian":[1.6696053E5,1.5784322E5,9.117317E3,1.5778755E5,5.5674946E1,9.11374E3,3.5772536E0,1.5718786E5,5.99682E2,3.9888232E2,2.0079968E2,3.9650146E2,2.380864E0,1.0146388E2,9.933579E1,6.1110577E1,3.8225216E1,3.5152917E0,5.7595287E1,4.992168E0,3.3233047E1],"tree_param":{"num_deleted":"0","num_feature":"378","num_nodes":"21","size_leaf_vector":"1"}},{"base_weights":[-8.6634397E-4,-6.393122E-1,2.2816982E0,-5.1149826E-2,-5.7063174E-1,-6.004503E-1,2.29283E0,1.4576364E-1,-5.0791472E-2,1.2918602E-1,-5.0840855E-2,1.8343762E-1,-3.2598987E-2],"categories":[],"categories_nodes":[],"categories_segments":[],"categories_sizes":[],"default_left":[0,0,0,0,0,0,0,0,0,0,0,0,0],"id":9,"left_children":[1,3,5,-1,7,9,11,-1,-1,-1,-1,-1,-1],"loss_changes":[7.935911E5,6.875E-1,3.821875E3,0E0,6.4963425E1,3.8590042E1,4.7E1,0E0,0E0,0E0,0E0,0E0,0E0],"parents":[2147483647,0,0,1,1,2,2,4,4,5,5,6,6],"right_children":[2,4,6,-1,8,10,12,-1,-1,-1,-1,-1,-1],"split_conditions":[3.7702745E-1,8.3194E-1,3.9871365E-1,-5.1149826E-2,-5.1959604E-1,-2.025159E-1,-5.2785844E-1,1.4576364E-1,-5.0791472E-2,1.2918602E-1,-5.0840855E-2,1.8343762E-1,-3.2598987E-2],"split_indices":[317,325,377,0,347,322,181,0,0,0,0,0,0],"split_type":[0,0,0,0,0,0,0,0,0,0,0,0,0],"sum_hessian":[5.445595E5,4.255363E5,1.19023195E5,4.251374E5,3.9890665E2,4.57357E2,1.1856584E5,8.7991E0,3.9010754E2,5.4994373E0,4.5185754E2,1.1856017E5,5.669393E0],"tree_param":{"num_deleted":"0","num_feature":"378","num_nodes":"13","size_leaf_vector":"1"}},{"base_weights":[4.5531525E-4,-5.212497E-1,3E0,-5.276891E-1,3E0,3E0,-4.2340435E-2,3E0,-5.281236E-1,2.4E-1,-4.1305576E-2,2.4E-1,-2.3302274E-2,-3.186862E-2,2.4E-1,-5.296722E-1,1.3356337E-1,-5.298018E-1,2.4E-1,2.4E-1,-4.212642E-2,1.1799766E-1,-5.2999E-1,2.4E-1,-3.9703384E-2,-4.242553E-2,-2.3932064E-2],"categories":[],"categories_nodes":[],"categories_segments":[],"categories_sizes":[],"default_left":[0,0,0,0,0,0,0,0,0,0,0,0,0,0,0,0,0,0,0,0,0,0,0,0,0,0,0],"id":10,"left_children":[1,3,5,7,9,11,-1,13,15,-1,-1,-1,-1,-1,-1,17,19,21,-1,-1,-1,23,25,-1,-1,-1,-1],"loss_changes":[4.6047812E5,4.693426E3,1.1357656E4,2.6577734E2,1.3026125E3,5.440625E1,0E0,1.19926865E2,1.6840625E2,0E0,0E0,0E0,0E0,0E0,0E0,1.0250781E2,1.2615054E3,2.0152344E1,0E0,0E0,0E0,1.3665257E2,1.1734375E1,0E0,0E0,0E0,0E0],"parents":[2147483647,0,0,1,1,2,2,3,3,4,4,5,5,7,7,8,8,15,15,16,16,17,17,21,21,22,22],"right_children":[2,4,6,8,10,12,-1,14,16,-1,-1,-1,-1,-1,-1,18,20,22,-1,-1,-1,24,26,-1,-1,-1,-1],"split_conditions":[2.2442863E0,1.2917651E0,5.446412E-3,-9.21957E-1,2.7267072E-1,3.7611097E-1,-4.2340435E-2,1.785811E0,1.1957256E0,2.4E-1,-4.1305576E-2,2.4E-1,-2.3302274E-2,-3.186862E-2,2.4E-1,4.1192988E-1,9.847024E-2,-9.476294E-1,2.4E-1,2.4E-1,-4.212642E-2,-5.430922E-1,1.1596863E0,2.4E-1,-3.9703384E-2,-4.242553E-2,-2.3932064E-2],"split_indices":[324,321,368,320,315,316,0,314,321,0,0,0,0,0,0,341,358,376,0,0,0,315,321,0,0,0,0],"split_type":[0,0,0,0,0,0,0,0,0,0,0,0,0,0,0,0,0,0,0,0,0,0,0,0,0,0,0],"sum_hessian":[1.753661E5,1.6438953E5,1.0976559E4,1.6416853E5,2.2099522E2,1.0065427E4,9.1113135E2,1.7620089E1,1.6415092E5,1.1635153E2,1.0464369E2,1.006091E4,4.516534E0,9.778547E0,7.8415422E0,1.637688E5,3.8211887E2,1.6376647E5,2.3312693E0,2.7975231E1,3.5414365E2,4.6437557E1,1.6372003E5,3.390937E0,4.304662E1,1.6348223E5,2.3779631E2],"tree_param":{"num_deleted":"0","num_feature":"378","num_nodes":"27","size_leaf_vector":"1"}},{"base_weights":[8.261924E-3,-5.3060544E-1,3E0,-4.246731E-2,-4.7321495E-1,-4.5445958E-1,3E0,3E0,-5.2668935E-1,-4.8789677E-1,2.4E-1,-2.5442395E-2,2.4E-1,-1.3403358E-2,2.4E-1,-0E0,-4.235091E-2,-4.962473E-1,9.707046E-2,1.8065747E-2,-5.1267827E-1,-3.8659357E-2,2.4E-1,-3.5138023E-1,-4.240122E-2,-3.8244374E-2,3.7120316E-2],"categories":[],"categories_nodes":[],"categories_segments":[],"categories_sizes":[],"default_left":[0,0,0,0,0,0,0,0,0,0,0,0,0,0,0,0,0,0,0,0,0,0,0,0,0,0,0],"id":11,"left_children":[1,3,5,-1,7,9,11,13,15,17,-1,-1,-1,-1,-1,-1,-1,19,-1,21,23,-1,-1,25,-1,-1,-1],"loss_changes":[4.3901466E5,1.4179688E0,1.3179656E4,0E0,1.4749321E2,1.6060895E2,6.425E1,2.6349754E1,8.6405945E-1,1.7441986E1,0E0,0E0,0E0,0E0,0E0,0E0,0E0,9.31189E0,0E0,6.878187E1,2.2713013E0,0E0,0E0,1.2421792E1,0E0,0E0,0E0],"parents":[2147483647,0,0,1,1,2,2,4,4,5,5,6,6,7,7,8,8,9,9,17,17,19,19,20,20,23,23],"right_children":[2,4,6,-1,8,10,12,14,16,18,-1,-1,-1,-1,-1,-1,-1,20,-1,22,24,-1,-1,26,-1,-1,-1],"split_conditions":[4.8344216E-1,1.3991997E-1,5.0868934E-1,-4.246731E-2,-1.124366E-1,1.2924649E0,-1.0385964E-1,4.435792E-1,-9.086539E-1,2.5100589E0,2.4E-1,-2.5442395E-2,2.4E-1,-1.3403358E-2,2.4E-1,-0E0,-4.235091E-2,-5.577524E-1,9.707046E-2,3.233273E-1,5.612881E-1,-3.8659357E-2,2.4E-1,3.4618798E-1,-4.240122E-2,-3.8244374E-2,3.7120316E-2],"split_indices":[347,347,345,0,370,171,365,315,333,21,0,0,0,0,0,0,0,371,0,360,316,0,0,360,0,0,0],"split_type":[0,0,0,0,0,0,0,0,0,0,0,0,0,0,0,0,0,0,0,0,0,0,0,0,0,0,0],"sum_hessian":[1.7839692E5,1.6331581E5,1.5081104E4,1.6262188E5,6.939398E2,1.1037905E3,1.39773125E4,7.6240788E0,6.8631573E2,1.0973882E3,6.4023733E0,5.303683E0,1.3972009E4,2.254045E0,5.3700337E0,2.9824545E0,6.833333E2,1.0937302E3,3.6579325E0,3.29119E1,1.0608182E3,3.0206444E1,2.7054555E0,1.0988229E2,9.50936E2,9.635381E1,1.35284815E1],"tree_param":{"num_deleted":"0","num_feature":"378","num_nodes":"27","size_leaf_vector":"1"}},{"base_weights":[-7.9130735E-3,1.7859246E0,-6.326905E-1,1.43292E-1,-5.092563E-2,-6.465127E-1,2.7009985E-1,-2.8543782E-1,-6.4758235E-1,1.4318244E-1,-5.227242E-2,-6.489086E-1,1.4181218E-1,-6.479261E-1,-1.3913311E-1,2.054556E-2,-5.213557E-2,-6.481752E-1,-5.438846E-1,-5.146114E-2,1.3868621E-1,-6.482053E-1,-2.66518E-1,1.3726358E-1,-5.2167833E-2,-5.2102268E-2,-5.160319E-2,-4.7694802E-2,1.014639E-1],"categories":[],"categories_nodes":[],"categories_segments":[],"categories_sizes":[],"default_left":[0,0,0,0,0,0,0,0,0,0,0,0,0,0,0,0,0,0,0,0,0,0,0,0,0,0,0,0,0],"id":12,"left_children":[1,3,5,-1,-1,7,9,11,13,-1,-1,15,-1,17,19,-1,-1,21,23,-1,-1,25,27,-1,-1,-1,-1,-1,-1],"loss_changes":[6.533824E5,1.9089375E3,5.396125E3,0E0,0E0,1.6360938E2,9.156936E3,9.484004E2,7.34375E1,0E0,0E0,3.17984E0,0E0,9.890625E0,2.779878E2,0E0,0E0,4E0,2.5530609E2,0E0,0E0,2.96875E0,2.1907175E1,0E0,0E0,0E0,0E0,0E0,0E0],"parents":[2147483647,0,0,1,1,2,2,5,5,6,6,7,7,8,8,11,11,13,13,14,14,17,17,18,18,21,21,22,22],"right_children":[2,4,6,-1,-1,8,10,12,14,-1,-1,16,-1,18,20,-1,-1,22,24,-1,-1,26,28,-1,-1,-1,-1,-1,-1],"split_conditions":[-1.3149282E-1,4.1576004E-1,-2.059412E-1,1.43292E-1,-5.092563E-2,-5.9886193E-1,1.293297E-1,-7.39145E-1,5.1993375E0,1.4318244E-1,-5.227242E-2,-6.4094555E-1,1.4181218E-1,2.418077E0,-2.9368377E-1,2.054556E-2,-5.213557E-2,5.1993375E0,2.057406E0,-5.146114E-2,1.3868621E-1,-2.7173883E-1,2.1329286E-2,1.3726358E-1,-5.2167833E-2,-5.2102268E-2,-5.160319E-2,-4.7694802E-2,1.014639E-1],"split_indices":[329,343,191,0,0,354,326,323,165,0,0,332,0,177,325,0,0,61,5,0,0,333,290,0,0,0,0,0,0],"split_type":[0,0,0,0,0,0,0,0,0,0,0,0,0,0,0,0,0,0,0,0,0,0,0,0,0,0,0,0,0],"sum_hessian":[5.8298144E5,1.5059478E5,4.3238666E5,1.5027138E5,3.2341275E2,4.258675E5,6.519145E3,1.2608314E3,4.246067E5,2.4636812E3,4.0554639E3,1.0729539E3,1.8787761E2,4.243183E5,2.8836844E2,2.1807318E0,1.0707731E3,4.2328956E5,1.028756E3,2.2845003E2,5.9918423E1,4.2325347E5,3.60772E1,4.544546E1,9.833105E2,2.1446762E5,2.0878586E5,3.0973269E1,5.1039333E0],"tree_param":{"num_deleted":"0","num_feature":"378","num_nodes":"29","size_leaf_vector":"1"}},{"base_weights":[1.2250974E-2,-4.084547E-2,3E0,2.4E-1,-3.989973E-2],"categories":[],"categories_nodes":[],"categories_segments":[],"categories_sizes":[],"default_left":[0,0,0,0,0],"id":13,"left_children":[1,-1,3,-1,-1],"loss_changes":[1.971594E5,0E0,1.5624531E3,0E0,0E0],"parents":[2147483647,0,0,2,2],"right_children":[2,-1,4,-1,-1],"split_conditions":[9.9964625E-1,-4.084547E-2,-7.6560193E-1,2.4E-1,-3.989973E-2],"split_indices":[369,0,314,0,0],"split_type":[0,0,0,0,0],"sum_hessian":[6.5332594E4,6.332029E4,2.012306E3,1.8853604E3,1.269457E2],"tree_param":{"num_deleted":"0","num_feature":"378","num_nodes":"5","size_leaf_vector":"1"}},{"base_weights":[4.274289E-3,3E0,-5.3977627E-1,-4.2973544E-2,2.4E-1,-5.4187286E-1,-7.543777E-2,-4.3393236E-2,-4.3063632E-1,2.4E-1,-4.334333E-2,2.4E-1,-5.298442E-1,-5.406756E-1,1.7157063E-1,-0E0,-4.3362044E-2],"categories":[],"categories_nodes":[],"categories_segments":[],"categories_sizes":[],"default_left":[0,0,0,0,0,0,0,0,0,0,0,0,0,0,0,0,0],"id":14,"left_children":[1,3,5,-1,-1,7,9,-1,11,-1,-1,-1,13,15,-1,-1,-1],"loss_changes":[5.321982E5,2.9170938E3,2.0577734E2,0E0,0E0,1.1941406E1,1.878559E3,0E0,4.598568E2,0E0,0E0,0E0,3.293222E1,5.232544E-1,0E0,0E0,0E0],"parents":[2147483647,0,0,1,1,2,2,5,5,6,6,8,8,12,12,13,13],"right_children":[2,4,6,-1,-1,8,10,-1,12,-1,-1,-1,14,16,-1,-1,-1],"split_conditions":[-5.147902E-1,7.897693E-3,5.856207E-1,-4.2973544E-2,2.4E-1,4.4186416E-1,1.5549241E-1,-4.3393236E-2,-1.45191E-1,2.4E-1,-4.334333E-2,2.4E-1,1.3189459E0,2.8078423E-3,1.7157063E-1,-0E0,-4.3362044E-2],"split_indices":[339,330,330,0,0,330,355,0,339,0,0,0,173,339,0,0,0],"split_type":[0,0,0,0,0,0,0,0,0,0,0,0,0,0,0,0,0],"sum_hessian":[2.3664983E5,2.4679926E4,2.1196989E5,2.324276E2,2.4447498E4,2.1101569E5,9.542114E2,2.099793E5,1.0363925E3,8.407892E1,8.701325E2,1.9187557E1,1.01720496E3,1.01487744E3,2.327521E0,2.3624833E0,1.01251495E3],"tree_param":{"num_deleted":"0","num_feature":"378","num_nodes":"17","size_leaf_vector":"1"}},{"base_weights":[1.1532506E-2,-5.05619E-1,3E0,-5.1587903E-1,4.3799835E-1,3E0,-3.8832295E-1,-5.1658493E-1,-3.0907267E-1,3E0,-4.952721E-1,-2.1393667E-1,3E0,3E0,-4.680629E-1,-4.1388344E-2,-4.6851918E-1,3E0,-4.6597055E-1,-3.7534956E-2,2.4E-1,2.4E-1,-5.118832E-1,2.4E-1,-4.295943E-1,3E0,-3.5087366E-2,2.4E-1,-2.6150348E-2,-4.9378905E-1,6.004349E-1,3E0,-5.07866E-1,2.4E-1,-1.8825617E-2,1.22386575E-1,-4.895912E-1,-5.8329176E-2,-4.132976E-2,5.8219213E-2,-3.876838E-2,3E0,-3.0140476E-2,-4.1043337E-2,2.380987E-1,-3.3766866E-2,2.4E-1,2.4E-1,-2.0359324E-2,4.805909E-1,-5.128907E-1,-5.031865E-1,5.6929816E-2,-3.0585408E-2,6.0669616E-2,3E0,-2.1384638E-2,2.4E-1,-3.4738686E-2,1.2751937E-1,-2.2582406E-2,-4.132079E-2,7.771926E-2,-4.107739E-2,7.260464E-3,2.4E-1,-1.193772E-2],"categories":[],"categories_nodes":[],"categories_segments":[],"categories_sizes":[],"default_left":[0,0,0,0,0,0,0,0,0,0,0,0,0,0,0,0,0,0,0,0,0,0,0,0,0,0,0,0,0,0,0,0,0,0,0,0,0,0,0,0,0,0,0,0,0,0,0,0,0,0,0,0,0,0,0,0,0,0,0,0,0,0,0,0,0,0,0],"id":15,"left_children":[1,3,5,7,9,11,13,15,17,19,21,23,25,27,29,-1,31,33,35,-1,-1,-1,37,-1,39,41,-1,-1,-1,43,45,47,49,-1,-1,-1,51,53,-1,-1,-1,55,-1,-1,57,-1,-1,-1,-1,59,61,63,-1,-1,-1,65,-1,-1,-1,-1,-1,-1,-1,-1,-1,-1,-1],"loss_changes":[2.866082E5,9.766836E2,9.127516E3,1.3878906E1,4.6411714E3,8.5184375E2,2.7712006E2,2.90625E0,2.2769366E2,3.6065967E2,6.875603E1,7.769783E1,2.115625E2,7.273796E1,2.2503876E1,0E0,3.0509543E2,4.0527603E1,1.8157753E1,0E0,0E0,0E0,1.5264435E0,0E0,6.367978E0,1.076875E2,0E0,0E0,0E0,1.1212265E1,6.605479E1,4.5162994E1,8.626678E0,0E0,0E0,0E0,6.5508575E0,4.9616165E0,0E0,0E0,0E0,4.915625E1,0E0,0E0,4.829056E1,0E0,0E0,0E0,0E0,9.981475E0,9.989532E0,2.1817932E0,0E0,0E0,0E0,2.4625E1,0E0,0E0,0E0,0E0,0E0,0E0,0E0,0E0,0E0,0E0,0E0],"parents":[2147483647,0,0,1,1,2,2,3,3,4,4,5,5,6,6,7,7,8,8,9,9,10,10,11,11,12,12,13,13,14,14,16,16,17,17,18,18,22,22,24,24,25,25,29,29,30,30,31,31,32,32,36,36,37,37,41,41,44,44,49,49,50,50,51,51,55,55],"right_children":[2,4,6,8,10,12,14,16,18,20,22,24,26,28,30,-1,32,34,36,-1,-1,-1,38,-1,40,42,-1,-1,-1,44,46,48,50,-1,-1,-1,52,54,-1,-1,-1,56,-1,-1,58,-1,-1,-1,-1,60,62,64,-1,-1,-1,66,-1,-1,-1,-1,-1,-1,-1,-1,-1,-1,-1],"split_conditions":[8.270553E-1,5.030412E-1,6.33784E-1,7.177885E-1,-7.397532E-1,-7.081278E-2,-8.888221E-1,3.9088386E-1,-4.9014854E-1,-1.4378424E-1,-7.1773183E-1,-8.8710624E-1,1.6172023E0,1.8446298E0,1.6210975E-1,-4.1388344E-2,-5.8092487E-1,-8.641306E-1,-8.49744E-1,-3.7534956E-2,2.4E-1,2.4E-1,-2.3046982E-1,2.4E-1,3.000268E-1,1.3695675E0,-3.5087366E-2,2.4E-1,-2.6150348E-2,-1.2048681E-1,-2.9706058E-1,-8.7084603E-1,7.6413125E-2,2.4E-1,-1.8825617E-2,1.22386575E-1,-9.6724145E-3,-3.0711357E-2,-4.132976E-2,5.8219213E-2,-3.876838E-2,3.8330865E-1,-3.0140476E-2,-4.1043337E-2,-8.5984397E-1,-3.3766866E-2,2.4E-1,2.4E-1,-2.0359324E-2,-2.962115E-1,4.6494114E-1,2.5654626E-1,5.6929816E-2,-3.0585408E-2,6.0669616E-2,1.4006679E0,-2.1384638E-2,2.4E-1,-3.4738686E-2,1.2751937E-1,-2.2582406E-2,-4.132079E-2,7.771926E-2,-4.107739E-2,7.260464E-3,2.4E-1,-1.193772E-2],"split_indices":[332,352,355,332,318,352,333,332,351,370,319,363,334,334,372,0,351,325,350,0,0,0,345,0,355,0,0,0,0,350,366,358,355,0,0,0,341,322,0,0,0,358,0,0,318,0,0,0,0,334,350,350,0,0,0,359,0,0,0,0,0,0,0,0,0,0,0],"split_type":[0,0,0,0,0,0,0,0,0,0,0,0,0,0,0,0,0,0,0,0,0,0,0,0,0,0,0,0,0,0,0,0,0,0,0,0,0,0,0,0,0,0,0,0,0,0,0,0,0,0,0,0,0,0,0,0,0,0,0,0,0,0,0,0,0,0,0],"sum_hessian":[1.0662423E5,1.00808086E5,5.8161396E3,9.97252E4,1.0828857E3,5.0217104E3,7.9442957E2,9.938056E4,3.4463748E2,1.2111125E2,9.617745E2,8.204252E1,4.939668E3,1.1656304E1,7.8277325E2,9.7785445E4,1.5951196E3,1.0220706E1,3.3441678E2,2.9298933E1,9.181232E1,2.0426598E0,9.597319E2,2.110244E0,7.9932274E1,4.922416E3,1.7251791E1,5.623228E0,6.0330763E0,7.6587695E2,1.689627E1,9.355184E0,1.5857644E3,6.795018E0,3.4256878E0,2.1722658E0,3.322445E2,1.1290087E1,9.484418E2,2.1047256E0,7.782755E1,4.913555E3,8.860713E0,7.4749493E2,1.8382055E1,1.3997069E1,2.8992016E0,5.557399E0,3.7977846E0,6.5595555E0,1.579205E3,3.3008707E2,2.157463E0,9.28332E0,2.0067663E0,4.9094316E3,4.123847E0,2.0938978E0,1.6288158E1,2.0475986E0,4.511957E0,1.5770007E3,2.2041562E0,3.255645E2,4.52255E0,4.907301E3,2.1304688E0],"tree_param":{"num_deleted":"0","num_feature":"378","num_nodes":"67","size_leaf_vector":"1"}},{"base_weights":[1.7896608E-2,-4.0834334E-2,3E0,-4.0014856E-2,3E0,2.4E-1,-1.6176134E-2],"categories":[],"categories_nodes":[],"categories_segments":[],"categories_sizes":[],"default_left":[0,0,0,0,0,0,0],"id":16,"left_children":[1,-1,3,-1,5,-1,-1],"loss_changes":[1.9664758E5,0E0,1.7646719E3,0E0,3.4203125E1,0E0,0E0],"parents":[2147483647,0,0,2,2,4,4],"right_children":[2,-1,4,-1,6,-1,-1],"split_conditions":[4.815293E-1,-4.0834334E-2,8.92738E-1,-4.0014856E-2,2.431733E-1,2.4E-1,-1.6176134E-2],"split_indices":[363,0,326,0,367,0,0],"split_type":[0,0,0,0,0,0,0],"sum_hessian":[6.4536477E4,6.253057E4,2.005907E3,1.4334602E2,1.8625609E3,1.8596349E3,2.9260168E0],"tree_param":{"num_deleted":"0","num_feature":"378","num_nodes":"7","size_leaf_vector":"1"}},{"base_weights":[6.867761E-3,3E0,-4.0795627E-1,2.4E-1,-4.276716E-2,-4.962536E-1,2.4863834E0,-5.065321E-1,3E0,3E0,-4.9907854E-1,-5.218643E-1,2.019763E-1,3E0,-4.171451E-2,-3.208127E-2,3E0,-5.170595E-1,1.8058043E0,-5.2841276E-1,-4.1484267E-2,3E0,-5.204143E-1,-3.2181535E-2,3E0,-1.5808119E-2,2.4E-1,-5.2224046E-1,1.2814598E0,2.4E-1,-3.3696834E-2,-5.3306925E-1,-3.8751227E-1,3E0,-5.097275E-1,-1.7431915E-2,2.4E-1,-7.275703E-2,-5.3087866E-1,2.4E-1,-1.4193588E-2,-8.47243E-2,-4.2819865E-2,-2.1513585E-2,2.305835E-1,-4.2650606E-2,1.8016301E-1,2.4E-1,-4.2689227E-2,-3.8618002E-2,2.4E-1,8.403509E-2,-4.2220496E-2,2.4E-1,-4.1278042E-2,-4.2556666E-2,1.3756707E-2,-4.133896E-2,2.4E-1],"categories":[],"categories_nodes":[],"categories_segments":[],"categories_sizes":[],"default_left":[0,0,0,0,0,0,0,0,0,0,0,0,0,0,0,0,0,0,0,0,0,0,0,0,0,0,0,0,0,0,0,0,0,0,0,0,0,0,0,0,0,0,0,0,0,0,0,0,0,0,0,0,0,0,0,0,0,0,0],"id":17,"left_children":[1,3,5,-1,-1,7,9,11,13,15,17,19,21,23,-1,-1,25,27,29,31,33,35,37,-1,39,-1,-1,41,43,-1,-1,45,47,49,51,-1,-1,53,55,-1,-1,57,-1,-1,-1,-1,-1,-1,-1,-1,-1,-1,-1,-1,-1,-1,-1,-1,-1],"loss_changes":[3.5821138E5,1.9806125E4,4.8307727E4,0E0,0E0,7.9494297E3,3.2710805E4,1.9881641E3,1.2357524E3,1.16921875E2,1.1857037E2,5.6290625E2,1.1873768E4,1.1915869E2,0E0,0E0,3.0195312E1,2.7831848E1,1.1355545E2,1.1519141E2,4.698831E3,3.478125E1,1.5408752E1,0E0,2.7836426E1,0E0,0E0,1.5185303E1,2.4608429E1,0E0,0E0,3.3710938E1,3.868766E3,3.4446973E2,6.338037E1,0E0,0E0,1.3756047E2,2.796753E0,0E0,0E0,1.323395E2,0E0,0E0,0E0,0E0,0E0,0E0,0E0,0E0,0E0,0E0,0E0,0E0,0E0,0E0,0E0,0E0,0E0],"parents":[2147483647,0,0,1,1,2,2,5,5,6,6,7,7,8,8,9,9,10,10,11,11,12,12,13,13,16,16,17,17,18,18,19,19,20,20,21,21,22,22,24,24,27,27,28,28,31,31,32,32,33,33,34,34,37,37,38,38,41,41],"right_children":[2,4,6,-1,-1,8,10,12,14,16,18,20,22,24,-1,-1,26,28,30,32,34,36,38,-1,40,-1,-1,42,44,-1,-1,46,48,50,52,-1,-1,54,56,-1,-1,58,-1,-1,-1,-1,-1,-1,-1,-1,-1,-1,-1,-1,-1,-1,-1,-1,-1],"split_conditions":[-8.381467E-1,-3.1797415E-1,3.1972077E-1,2.4E-1,-4.276716E-2,1.0741595E0,1.7214517E-1,2.1196682E0,1.7214517E-1,-5.430922E-1,3.0000358E0,2.4674268E0,8.15459E-3,-3.725345E-1,-4.171451E-2,-3.208127E-2,-3.018821E-1,5.1993375E0,7.0228463E-1,2.2634275E-1,-2.5072235E-1,2.9204965E-1,4.2780504E-1,-3.2181535E-2,5.855528E-1,-1.5808119E-2,2.4E-1,4.740285E-1,5.199779E-1,2.4E-1,-3.3696834E-2,1.2607657E0,1.7214517E-1,5.073482E-1,-2.006509E-1,-1.7431915E-2,2.4E-1,-7.753224E-1,2.8848975E0,2.4E-1,-1.4193588E-2,2.9617863E0,-4.2819865E-2,-2.1513585E-2,2.305835E-1,-4.2650606E-2,1.8016301E-1,2.4E-1,-4.2689227E-2,-3.8618002E-2,2.4E-1,8.403509E-2,-4.2220496E-2,2.4E-1,-4.1278042E-2,-4.2556666E-2,1.3756707E-2,-4.133896E-2,2.4E-1],"split_indices":[375,369,348,0,0,335,375,138,375,315,10,25,375,316,0,0,346,307,37,348,375,316,375,0,371,0,0,375,326,0,0,372,375,316,340,0,0,338,15,0,0,298,0,0,0,0,0,0,0,0,0,0,0,0,0,0,0,0,0],"split_type":[0,0,0,0,0,0,0,0,0,0,0,0,0,0,0,0,0,0,0,0,0,0,0,0,0,0,0,0,0,0,0,0,0,0,0,0,0,0,0,0,0,0,0,0,0,0,0,0,0,0,0,0,0,0,0,0,0,0,0],"sum_hessian":[2.0504366E5,1.6035584E4,1.8900808E5,1.4450968E4,1.5846165E3,1.834145E5,5.5935776E3,1.829888E5,4.2569775E2,2.8020945E3,2.7914832E3,1.7911398E5,3.87482E3,3.2675558E2,9.8942154E1,9.499961E0,2.7925947E3,2.7716294E3,1.9853888E1,1.7670395E5,2.410031E3,4.6877927E2,3.406041E3,9.684788E0,3.170708E2,2.54779E0,2.7900469E3,2.7653604E3,6.268864E0,8.268823E0,1.1585065E1,1.7104223E5,5.661719E3,2.1778105E2,2.19225E3,2.9313097E0,4.6584793E2,7.925491E1,3.326786E3,3.146969E2,2.3739185E0,8.138741E1,2.6839731E3,3.871283E0,2.3975813E0,1.7104014E5,2.0948944E0,1.4738618E2,5.5143335E3,2.7720173E1,1.9006088E2,2.34183E1,2.1688318E3,6.643775E0,7.2611145E1,3.322879E3,3.9070704E0,7.428295E1,7.1044617E0],"tree_param":{"num_deleted":"0","num_feature":"378","num_nodes":"59","size_leaf_vector":"1"}},{"base_weights":[-4.298814E-3,2.7904088E0,-4.6243176E-2,2.2385985E-1,-4.5611434E-2],"categories":[],"categories_nodes":[],"categories_segments":[],"categories_sizes":[],"default_left":[0,0,0,0,0],"id":18,"left_children":[1,3,-1,-1,-1],"loss_changes":[6.194432E5,1.7369375E3,0E0,0E0,0E0],"parents":[2147483647,0,0,1,1],"right_children":[2,4,-1,-1,-1],"split_conditions":[-2.1835494E-1,1.6893545E-1,-4.6243176E-2,2.2385985E-1,-4.5611434E-2],"split_indices":[360,315,0,0,0],"split_type":[0,0,0,0,0],"sum_hessian":[3.863164E5,6.5799016E4,3.205174E5,6.564637E4,1.5265228E2],"tree_param":{"num_deleted":"0","num_feature":"378","num_nodes":"5","size_leaf_vector":"1"}},{"base_weights":[8.52224E-3,-5.2158415E-1,3E0,-5.246105E-1,3E0,2.4E-1,-2.0496845E-2,-4.225789E-2,3.819286E-1,4.8972964E-3,2.4E-1,-7.434878E-2,3E0,3E0,-2.9611096E-1,3E0,-3.6986947E-2,-2.9886981E-2,2.4E-1,-3.6134636E-1,3E0,-2.2020044E-2,2.4E-1,-3.1656764E-2,1.3966277E-1,2.4E-1,4.9642395E-2],"categories":[],"categories_nodes":[],"categories_segments":[],"categories_sizes":[],"default_left":[0,0,0,0,0,0,0,0,0,0,0,0,0,0,0,0,0,0,0,0,0,0,0,0,0,0,0],"id":19,"left_children":[1,3,5,7,9,-1,-1,-1,11,-1,-1,13,15,17,19,21,-1,-1,-1,23,25,-1,-1,-1,-1,-1,-1],"loss_changes":[4.220515E5,2.4209023E3,4.425E1,5.0065234E2,1.512207E1,0E0,0E0,0E0,9.281306E2,0E0,0E0,4.5754248E2,2.6169147E2,9.7881836E1,1.3620084E2,4.9635986E1,0E0,0E0,0E0,3.9018173E1,8.3877563E-1,0E0,0E0,0E0,0E0,0E0,0E0],"parents":[2147483647,0,0,1,1,2,2,3,3,4,4,8,8,11,11,12,12,13,13,14,14,15,15,19,19,20,20],"right_children":[2,4,6,8,10,-1,-1,-1,12,-1,-1,14,16,18,20,22,-1,-1,-1,24,26,-1,-1,-1,-1,-1,-1],"split_conditions":[1.4006679E0,1.0961797E0,1.2924649E0,4.4374887E-2,-6.897787E-1,2.4E-1,-2.0496845E-2,-4.225789E-2,1.2749989E0,4.8972964E-3,2.4E-1,-7.7177185E-1,9.425329E-2,3.248909E-1,1.857885E0,3.248909E-1,-3.6986947E-2,-2.9886981E-2,2.4E-1,5.6128186E-1,6.2728846E-3,-2.2020044E-2,2.4E-1,-3.1656764E-2,1.3966277E-1,2.4E-1,4.9642395E-2],"split_indices":[359,371,173,359,321,0,0,0,80,0,0,377,326,371,0,371,0,0,0,328,3,0,0,0,0,0,0],"split_type":[0,0,0,0,0,0,0,0,0,0,0,0,0,0,0,0,0,0,0,0,0,0,0,0,0,0,0],"sum_hessian":[1.6449869E5,1.5273447E5,1.1764224E4,1.5266862E5,6.583887E1,1.17605205E4,3.7039473E0,1.5206395E5,6.0467957E2,2.349103E0,6.348976E1,5.374833E2,6.719624E1,2.639687E1,5.1108643E2,4.602855E1,2.1167692E1,8.017341E0,1.8379528E1,5.0501926E2,6.0671635E0,4.1395736E0,4.1888977E1,4.9874738E2,6.2718925E0,4.0546694E0,2.012494E0],"tree_param":{"num_deleted":"0","num_feature":"378","num_nodes":"27","size_leaf_vector":"1"}},{"base_weights":[-7.5270943E-3,-6.3036036E-1,1.9106921E0,-6.323992E-1,1.8460952E0,1.5400116E-1,-5.0289635E-2,-6.324222E-1,9.317284E-2,1.5296406E-1,-3.7454084E-2,-6.3260037E-1,-5.663246E-1,-6.3034964E-1,-5.0842617E-2,1.4483657E-1,-5.0210018E-2,9.900365E-2,-6.303906E-1,-5.043342E-2,7.633432E-2],"categories":[],"categories_nodes":[],"categories_segments":[],"categories_sizes":[],"default_left":[0,0,0,0,0,0,0,0,0,0,0,0,0,0,0,0,0,0,0,0,0],"id":20,"left_children":[1,3,5,7,9,-1,-1,11,-1,-1,-1,13,15,17,-1,-1,-1,-1,19,-1,-1],"loss_changes":[6.549887E5,2.0927969E3,4.8898125E3,1.9140625E1,5.4134277E1,0E0,0E0,3.8125E0,0E0,0E0,0E0,1.625E0,1.6913031E2,2.00625E1,0E0,0E0,0E0,0E0,1.17265625E1,0E0,0E0],"parents":[2147483647,0,0,1,1,2,2,3,3,4,4,7,7,11,11,12,12,13,13,18,18],"right_children":[2,4,6,8,10,-1,-1,12,-1,-1,-1,14,16,18,-1,-1,-1,-1,20,-1,-1],"split_conditions":[5.039683E-1,6.963597E-1,-4.6062046E-1,3.1602685E0,-4.372481E-4,1.5400116E-1,-5.0289635E-2,5.17118E-1,9.317284E-2,1.5296406E-1,-3.7454084E-2,-1.0727265E-1,-1.1246443E-1,-7.821405E-1,-5.0842617E-2,1.4483657E-1,-5.0210018E-2,9.900365E-2,5.676303E-1,-5.043342E-2,7.633432E-2],"split_indices":[377,319,314,126,336,0,0,319,0,0,0,375,322,314,0,0,0,0,323,0,0],"split_type":[0,0,0,0,0,0,0,0,0,0,0,0,0,0,0,0,0,0,0,0,0],"sum_hessian":[5.482256E5,4.1385212E5,1.3437348E5,4.1351338E5,3.3874414E2,1.3362052E5,7.52971E2,4.1350966E5,3.7208729E0,3.2990564E2,8.838482E0,4.1237325E5,1.1363842E3,2.3364283E5,1.7873042E5,2.6932127E1,1.109452E3,3.5322063E0,2.336393E5,2.3363683E5,2.4805684E0],"tree_param":{"num_deleted":"0","num_feature":"378","num_nodes":"21","size_leaf_vector":"1"}},{"base_weights":[8.888188E-3,-5.1944506E-1,3E0,-5.26264E-1,3E0,3E0,-4.2326096E-2,2.8223982E0,-5.2672505E-1,2.4E-1,-4.125638E-2,2.4E-1,-2.2686549E-2,-3.1705912E-2,2.4E-1,-5.2840817E-1,1.7245583E-1,-5.285664E-1,2.4E-1,2.4E-1,-4.2077806E-2,7.513586E-2,-5.287485E-1,2.4E-1,-3.9642785E-2,-1.8989576E-2,-4.2323153E-2],"categories":[],"categories_nodes":[],"categories_segments":[],"categories_sizes":[],"default_left":[0,0,0,0,0,0,0,0,0,0,0,0,0,0,0,0,0,0,0,0,0,0,0,0,0,0,0],"id":21,"left_children":[1,3,5,7,9,11,-1,13,15,-1,-1,-1,-1,-1,-1,17,19,21,-1,-1,-1,23,25,-1,-1,-1,-1],"loss_changes":[4.2296566E5,4.422699E3,1.1382844E4,2.4930469E2,1.2912993E3,5.18125E1,0E0,1.181042E2,1.8695703E2,0E0,0E0,0E0,0E0,0E0,0E0,1.1442969E2,1.2124219E3,1.7511719E1,0E0,0E0,0E0,1.1675601E2,1.275E1,0E0,0E0,0E0,0E0],"parents":[2147483647,0,0,1,1,2,2,3,3,4,4,5,5,7,7,8,8,15,15,16,16,17,17,21,21,22,22],"right_children":[2,4,6,8,10,12,-1,14,16,-1,-1,-1,-1,-1,-1,18,20,22,-1,-1,-1,24,26,-1,-1,-1,-1],"split_conditions":[2.2442863E0,1.2917651E0,5.446412E-3,-9.21957E-1,2.7267072E-1,4.3853214E-1,-4.2326096E-2,-9.363146E-1,1.1957256E0,2.4E-1,-4.125638E-2,2.4E-1,-2.2686549E-2,-3.1705912E-2,2.4E-1,4.1192988E-1,9.847024E-2,-9.476294E-1,2.4E-1,2.4E-1,-4.2077806E-2,-5.430922E-1,-1.8040259E-1,2.4E-1,-3.9642785E-2,-1.8989576E-2,-4.2323153E-2],"split_indices":[324,321,368,320,315,316,0,315,321,0,0,0,0,0,0,341,358,376,0,0,0,315,331,0,0,0,0],"split_type":[0,0,0,0,0,0,0,0,0,0,0,0,0,0,0,0,0,0,0,0,0,0,0,0,0,0,0],"sum_hessian":[1.7272358E5,1.5890573E5,1.3817839E4,1.586489E5,2.5683804E2,1.2904596E4,9.1324396E2,2.0003746E1,1.5862889E5,1.5307233E2,1.0376573E2,1.2900285E4,4.3104367E0,9.671896E0,1.033185E1,1.5824914E5,3.797489E2,1.5824561E5,3.5345802E0,3.7791912E1,3.41957E2,4.6637814E1,1.5819897E5,4.078362E0,4.2559452E1,1.6114674E2,1.5803783E5],"tree_param":{"num_deleted":"0","num_feature":"378","num_nodes":"27","size_leaf_vector":"1"}},{"base_weights":[1.5363941E-2,-5.2928376E-1,3E0,-4.236484E-2,-4.6473205E-1,-4.5402735E-1,3E0,2.4E-1,-5.2342856E-1,-4.9233928E-1,3E0,2.4E-1,-2.415075E-2,1.01819456E-1,-4.230542E-2,-4.99021E-1,7.451177E-2,4.0871957E-3,2.4E-1,-1.6101763E-2,4.2312387E-2,3.4943085E-2,-5.12192E-1,1.8308455E-1,-3.7269156E-2,-3.7027147E-1,-4.235113E-2,-3.8624763E-2,2.3192119E-2],"categories":[],"categories_nodes":[],"categories_segments":[],"categories_sizes":[],"default_left":[0,0,0,0,0,0,0,0,0,0,0,0,0,0,0,0,0,0,0,0,0,0,0,0,0,0,0,0,0],"id":22,"left_children":[1,3,5,-1,7,9,11,-1,13,15,17,-1,-1,19,-1,21,-1,-1,-1,-1,-1,23,25,-1,-1,27,-1,-1,-1],"loss_changes":[3.9019353E5,2.0234375E0,1.31591875E4,0E0,1.6565442E2,1.588558E2,5.79375E1,0E0,2.4811096E0,1.1819794E1,1.3055824E1,0E0,0E0,1.8284272E0,0E0,7.747986E0,0E0,0E0,0E0,0E0,0E0,3.6477196E1,1.8913879E0,0E0,0E0,9.881689E0,0E0,0E0,0E0],"parents":[2147483647,0,0,1,1,2,2,4,4,5,5,6,6,8,8,9,9,10,10,13,13,15,15,21,21,22,22,25,25],"right_children":[2,4,6,-1,8,10,12,-1,14,16,18,-1,-1,20,-1,22,-1,-1,-1,-1,-1,24,26,-1,-1,28,-1,-1,-1],"split_conditions":[4.8344216E-1,1.3991997E-1,5.0868934E-1,-4.236484E-2,-1.7598614E-1,1.2924649E0,1.4223814E0,2.4E-1,-9.086539E-1,2.651732E0,-6.861854E-2,2.4E-1,-2.415075E-2,5.6870736E-2,-4.230542E-2,-8.11892E-1,7.451177E-2,4.0871957E-3,2.4E-1,-1.6101763E-2,4.2312387E-2,-3.7753083E-2,5.612881E-1,1.8308455E-1,-3.7269156E-2,1.8567592E0,-4.235113E-2,-3.8624763E-2,2.3192119E-2],"split_indices":[347,347,345,0,370,171,0,0,333,69,357,0,0,344,0,369,0,0,0,0,0,370,316,0,0,224,0,0,0],"split_type":[0,0,0,0,0,0,0,0,0,0,0,0,0,0,0,0,0,0,0,0,0,0,0,0,0,0,0,0,0],"sum_hessian":[1.7597483E5,1.571785E5,1.8796326E4,1.564855E5,6.9300507E2,1.1023492E3,1.7693977E4,8.155723E0,6.8484937E2,1.0927682E3,9.581042E0,1.7689176E4,4.800808E0,4.753826E0,6.800955E2,1.0893062E3,3.4620128E0,2.0828469E0,7.4981956E0,2.7142963E0,2.0395298E0,2.5229132E1,1.064077E3,3.4705803E0,2.175855E1,1.2301577E2,9.410613E2,1.06205826E2,1.6809946E1],"tree_param":{"num_deleted":"0","num_feature":"378","num_nodes":"29","size_leaf_vector":"1"}},{"base_weights":[-1.2942677E-2,1.5647136E0,-6.2467533E-1,1.5691425E0,-6.251314E-1,-6.383796E-1,2.1734184E-1,1.255326E-1,1.812087E-2,-0E0,-5.0443172E-2,-2.8871566E-1,-6.39449E-1,1.254537E-1,-5.2036636E-2,-6.454099E-1,1.2443854E-1,-6.398075E-1,-1.19382076E-1,1.2778504E-2,-5.1855925E-2,-5.1622532E-2,-6.340017E-1,-5.0980303E-2,1.2229843E-1,1.4642996E0,-6.3438046E-1,1.4798467E-1,-3.3143092E-2,-5.080031E-2,-1.6318142E-2],"categories":[],"categories_nodes":[],"categories_segments":[],"categories_sizes":[],"default_left":[0,0,0,0,0,0,0,0,0,0,0,0,0,0,0,0,0,0,0,0,0,0,0,0,0,0,0,0,0,0,0],"id":23,"left_children":[1,3,5,7,9,11,13,-1,-1,-1,-1,15,17,-1,-1,19,-1,21,23,-1,-1,-1,25,-1,-1,27,29,-1,-1,-1,-1],"loss_changes":[5.6148275E5,1.5788438E3,4.837953E3,1.125E0,1.1191254E0,1.5340625E2,7.8757896E3,0E0,0E0,0E0,0E0,8.340494E2,7.5953125E1,0E0,0E0,2.6712036E0,0E0,1.19375E1,2.4821361E2,0E0,0E0,0E0,1.6122656E2,0E0,0E0,2.8672104E1,5.2757812E1,0E0,0E0,0E0,0E0],"parents":[2147483647,0,0,1,1,2,2,3,3,4,4,5,5,6,6,11,11,12,12,15,15,17,17,18,18,22,22,25,25,26,26],"right_children":[2,4,6,8,10,12,14,-1,-1,-1,-1,16,18,-1,-1,20,-1,22,24,-1,-1,-1,26,-1,-1,28,30,-1,-1,-1,-1],"split_conditions":[-1.3149282E-1,4.009113E-1,-2.059412E-1,-7.7901445E-2,-2.8988516E-1,-5.9886193E-1,1.293297E-1,1.255326E-1,1.812087E-2,-0E0,-5.0443172E-2,-7.39145E-1,5.1993375E0,1.254537E-1,-5.2036636E-2,-6.4658654E-1,1.2443854E-1,-2.3295128E-1,-1.1473155E0,1.2778504E-2,-5.1855925E-2,-5.1622532E-2,-8.4989935E-1,-5.0980303E-2,1.2229843E-1,1.1376773E0,2.483413E0,1.4798467E-1,-3.3143092E-2,-5.080031E-2,-1.6318142E-2],"split_indices":[329,343,191,346,320,354,326,0,0,0,0,323,155,0,0,332,0,333,91,0,0,0,368,0,0,16,239,0,0,0,0],"split_type":[0,0,0,0,0,0,0,0,0,0,0,0,0,0,0,0,0,0,0,0,0,0,0,0,0,0,0,0,0,0,0],"sum_hessian":[5.81779E5,1.6255258E5,4.1922644E5,1.6222528E5,3.2730185E2,4.1251366E5,6.712781E3,1.6222277E5,2.5126593E0,2.0372782E0,3.2526456E2,1.2608616E3,4.1125278E5,2.6252468E3,4.0875337E3,1.0578328E3,2.0302884E2,4.1096806E5,2.847263E2,2.6445415E0,1.0551882E3,2.1136839E5,1.9959969E5,2.1781445E2,6.6911835E1,3.4389862E1,1.995653E5,2.8780548E1,5.609314E0,1.9927453E5,2.9075485E2],"tree_param":{"num_deleted":"0","num_feature":"378","num_nodes":"31","size_leaf_vector":"1"}},{"base_weights":[3.101801E-2,-4.081375E-2,3E0,2.4E-1,-3.981238E-2],"categories":[],"categories_nodes":[],"categories_segments":[],"categories_sizes":[],"default_left":[0,0,0,0,0],"id":24,"left_children":[1,-1,3,-1,-1],"loss_changes":[1.9097994E5,0E0,1.484375E3,0E0,0E0],"parents":[2147483647,0,0,2,2],"right_children":[2,-1,4,-1,-1],"split_conditions":[9.9964625E-1,-4.081375E-2,-7.574844E-1,2.4E-1,-3.981238E-2],"split_indices":[369,0,314,0,0],"split_type":[0,0,0,0,0],"sum_hessian":[6.3628945E4,6.1021477E4,2.6074695E3,2.4868252E3,1.2064438E2],"tree_param":{"num_deleted":"0","num_feature":"378","num_nodes":"5","size_leaf_vector":"1"}},{"base_weights":[8.106798E-3,3E0,-5.378258E-1,-4.2930655E-2,2.4E-1,-5.400974E-1,-5.6626974E-3,1.5532756E-1,-5.4016465E-1,2.4E-1,-4.314729E-2,-4.541837E-1,-4.32429E-2,-4.3329578E-2,2.4E-1],"categories":[],"categories_nodes":[],"categories_segments":[],"categories_sizes":[],"default_left":[0,0,0,0,0,0,0,0,0,0,0,0,0,0,0],"id":25,"left_children":[1,3,5,-1,-1,7,9,-1,11,-1,-1,13,-1,-1,-1],"loss_changes":[4.534719E5,2.9271875E3,2.4652734E2,0E0,0E0,3.7027344E1,1.652727E3,0E0,5.6992188E0,0E0,0E0,3.1635394E2,0E0,0E0,0E0],"parents":[2147483647,0,0,1,1,2,2,5,5,6,6,8,8,11,11],"right_children":[2,4,6,-1,-1,8,10,-1,12,-1,-1,14,-1,-1,-1],"split_conditions":[-5.147902E-1,-8.865051E-3,4.8355883E-1,-4.2930655E-2,2.4E-1,-8.2923734E-1,-8.711587E-2,1.5532756E-1,-3.8817352E-1,2.4E-1,-4.314729E-2,-1.0698154E-1,-4.32429E-2,-4.3329578E-2,2.4E-1],"split_indices":[339,330,322,0,0,328,339,0,339,0,0,322,0,0,0],"split_type":[0,0,0,0,0,0,0,0,0,0,0,0,0,0,0],"sum_hessian":[2.3510525E5,3.0730045E4,2.043752E5,2.3330746E2,3.0496738E4,2.0350555E5,8.6965405E2,3.7476087E0,2.035018E5,1.0971781E2,7.599363E2,8.9215283E2,2.0260966E5,8.7521545E2,1.6937363E1],"tree_param":{"num_deleted":"0","num_feature":"378","num_nodes":"15","size_leaf_vector":"1"}},{"base_weights":[2.1961858E-2,-5.048339E-1,3E0,-5.151898E-1,3.9720428E-1,-4.864824E-1,3E0,-5.159082E-1,-3.125603E-1,3E0,-4.7775546E-1,-5.0635356E-1,9.1450965E-1,3E0,-4.7881085E-1,-4.133498E-2,-4.679375E-1,-4.8901203E-1,2.7529418E0,2.4E-1,-3.5192814E-2,-5.0940037E-1,3E0,-4.100297E-2,3.364459E-2,2.4E-1,-2.6783835E-2,3E0,-3.5014343E-2,-4.047554E-2,3.679068E-2,2.4E-1,-5.030105E-1,-5.027861E-1,5.9781056E-2,2.4E-1,-2.1386106E-2,1.05011225E-1,-4.1319393E-2,-1.7033268E-2,2.4E-1,6.0805462E-2,-2.4531845E-2,3E0,-1.7948609E-2,-5.07411E-1,9.410768E-2,2.1291196E-2,-4.1056767E-2,-2.1737568E-2,3E0,6.6581406E-2,-4.0945787E-2,2.4E-1,-1.1177649E-2],"categories":[],"categories_nodes":[],"categories_segments":[],"categories_sizes":[],"default_left":[0,0,0,0,0,0,0,0,0,0,0,0,0,0,0,0,0,0,0,0,0,0,0,0,0,0,0,0,0,0,0,0,0,0,0,0,0,0,0,0,0,0,0,0,0,0,0,0,0,0,0,0,0,0,0],"id":26,"left_children":[1,3,5,7,9,11,13,15,17,19,21,23,25,27,29,-1,31,33,35,-1,-1,37,39,-1,41,-1,-1,43,-1,-1,-1,-1,45,47,-1,-1,-1,-1,-1,-1,-1,-1,-1,49,-1,51,-1,-1,-1,-1,53,-1,-1,-1,-1],"loss_changes":[2.6763866E5,9.082871E2,9.015719E3,1.3300781E1,4.2843184E3,2.2098206E1,1.5023281E3,2.8105469E0,1.919721E2,2.1751904E2,1.141483E2,2.5123596E0,3.346679E1,2.0935938E2,3.9314919E0,0E0,2.741391E2,6.762825E0,9.598828E1,0E0,0E0,1.4512817E1,3.5360718E1,0E0,4.0016685E0,0E0,0E0,7.8578125E1,0E0,0E0,0E0,0E0,1.3272003E1,3.0493546E0,0E0,0E0,0E0,0E0,0E0,0E0,0E0,0E0,0E0,4.95E1,0E0,1.0444061E1,0E0,0E0,0E0,0E0,2.3296875E1,0E0,0E0,0E0,0E0],"parents":[2147483647,0,0,1,1,2,2,3,3,4,4,5,5,6,6,7,7,8,8,9,9,10,10,11,11,12,12,13,13,14,14,16,16,17,17,18,18,21,21,22,22,24,24,27,27,32,32,33,33,43,43,45,45,50,50],"right_children":[2,4,6,8,10,12,14,16,18,20,22,24,26,28,30,-1,32,34,36,-1,-1,38,40,-1,42,-1,-1,44,-1,-1,-1,-1,46,48,-1,-1,-1,-1,-1,-1,-1,-1,-1,50,-1,52,-1,-1,-1,-1,54,-1,-1,-1,-1],"split_conditions":[8.270553E-1,5.030412E-1,-1.5830514E-1,7.177885E-1,-1.2261024E-2,-2.4407092E-1,4.907877E-2,3.9088386E-1,1.0801935E0,4.907877E-2,3.7941374E-2,-3.030528E-1,-8.444805E-1,1.3695675E0,1.5064234E0,-4.133498E-2,-6.171872E-1,7.154728E-1,1.3519543E0,2.4E-1,-3.5192814E-2,-8.458977E-1,5.9669876E-1,-4.100297E-2,-9.29412E-1,2.4E-1,-2.6783835E-2,1.6172023E0,-3.5014343E-2,-4.047554E-2,3.679068E-2,2.4E-1,1.3115554E0,7.1471566E-1,5.9781056E-2,2.4E-1,-2.1386106E-2,1.05011225E-1,-4.1319393E-2,-1.7033268E-2,2.4E-1,6.0805462E-2,-2.4531845E-2,8.15459E-3,-1.7948609E-2,-9.30622E-1,9.410768E-2,2.1291196E-2,-4.1056767E-2,-2.1737568E-2,1.5071805E-1,6.6581406E-2,-4.0945787E-2,2.4E-1,-1.1177649E-2],"split_indices":[332,352,343,332,345,343,357,332,349,357,356,343,363,0,320,0,351,354,0,0,0,318,350,0,325,0,0,334,0,0,0,0,349,316,0,0,0,0,0,0,0,0,0,375,0,373,0,0,0,0,353,0,0,0,0],"split_type":[0,0,0,0,0,0,0,0,0,0,0,0,0,0,0,0,0,0,0,0,0,0,0,0,0,0,0,0,0,0,0,0,0,0,0,0,0,0,0,0,0,0,0,0,0,0,0,0,0,0,0,0,0,0,0],"sum_hessian":[1.0439999E5,9.7163E4,7.2369937E3,9.606156E4,1.1014354E3,7.4101337E2,6.49598E3,9.571667E4,3.448921E2,1.301472E2,9.712882E2,7.322613E2,8.75209E0,6.3725186E3,1.2346139E2,9.415746E4,1.559211E3,3.2786417E2,1.7027948E1,1.1240754E2,1.7739662E1,9.6456146E2,6.726781E0,7.2498706E2,7.2742414E0,2.3653872E0,6.3867035E0,6.3554434E3,1.7075586E1,1.21406746E2,2.0546432E0,7.28264E0,1.5519285E3,3.25825E2,2.0391557E0,8.441783E0,8.586165E0,2.0390074E0,9.625224E2,3.0032601E0,3.7235205E0,2.0022376E0,5.2720037E0,6.3483203E3,7.1227937E0,1.5495615E3,2.3669212E0,3.0599778E0,3.22765E2,4.141114E0,6.344179E3,3.4818802E0,1.5460797E3,6.3421567E3,2.022374E0],"tree_param":{"num_deleted":"0","num_feature":"378","num_nodes":"55","size_leaf_vector":"1"}},{"base_weights":[2.457658E-2,-4.0802997E-2,3E0,-3.999391E-2,3E0,2.4E-1,-1.7302223E-2],"categories":[],"categories_nodes":[],"categories_segments":[],"categories_sizes":[],"default_left":[0,0,0,0,0,0,0],"id":27,"left_children":[1,-1,3,-1,5,-1,-1],"loss_changes":[1.8637722E5,0E0,1.75675E3,0E0,3.7109375E1,0E0,0E0],"parents":[2147483647,0,0,2,2,4,4],"right_children":[2,-1,4,-1,6,-1,-1],"split_conditions":[4.815293E-1,-4.0802997E-2,8.92738E-1,-3.999391E-2,2.431733E-1,2.4E-1,-1.7302223E-2],"split_indices":[363,0,326,0,367,0,0],"split_type":[0,0,0,0,0,0,0],"sum_hessian":[6.278604E4,6.024463E4,2.5414104E3,1.4272055E2,2.39869E3,2.395527E3,3.1627645E0],"tree_param":{"num_deleted":"0","num_feature":"378","num_nodes":"7","size_leaf_vector":"1"}},{"base_weights":[1.3230463E-2,-5.036812E-1,3E0,-5.2908945E-1,1.1296237E0,3E0,-4.2941358E-2,-5.323321E-1,-3.7252954E-1,3E0,-5.2507716E-1,2.4E-1,2.4943285E-2,-5.3247815E-1,-4.5218006E-2,3E0,-5.206599E-1,3E0,-3.0783782E-2,-4.2827588E-2,3.863259E-1,-5.112911E-1,-5.340972E-1,2.2546299E-1,-4.0341306E-2,-3.419619E-2,2.4E-1,-8.2524985E-2,-5.299539E-1,-2.2702808E-2,3E0,-3.8524482E-2,1.9679028E-1,-3.4713462E-2,2.1460543E0,3E0,-5.339744E-1,-4.273138E-2,-1.0527437E-1,2.2624345E-1,-4.1029487E-2,-4.2481337E-2,7.3561355E-2,2.4E-1,3.9839227E-2,3.525868E-2,2.1454106E-1,-2.408504E-2,2.4E-1,-1.2825461E-2,-4.2908173E-2,-3.608314E-2,1.1028526E-1,-1.6603474E-2,3.8775437E-2],"categories":[],"categories_nodes":[],"categories_segments":[],"categories_sizes":[],"default_left":[0,0,0,0,0,0,0,0,0,0,0,0,0,0,0,0,0,0,0,0,0,0,0,0,0,0,0,0,0,0,0,0,0,0,0,0,0,0,0,0,0,0,0,0,0,0,0,0,0,0,0,0,0,0,0],"id":28,"left_children":[1,3,5,7,9,11,-1,13,15,17,19,-1,-1,21,23,25,27,29,31,-1,33,35,37,-1,-1,-1,-1,39,41,-1,43,-1,-1,-1,45,47,49,-1,51,-1,-1,-1,53,-1,-1,-1,-1,-1,-1,-1,-1,-1,-1,-1,-1],"loss_changes":[3.7012238E5,7.3752656E3,4.025997E4,8.808203E1,1.2262684E4,1.321875E1,0E0,1.1636719E1,2.0845059E3,2.7369922E2,1.7038147E1,0E0,0E0,5.0546875E0,7.668925E1,1.5313037E2,1.3430664E1,4.984375E1,3.9741318E1,0E0,3.3820484E1,1.1956802E3,2.4882812E0,0E0,0E0,0E0,0E0,9.873295E1,2.2739258E0,0E0,3.2558594E0,0E0,0E0,0E0,2.3184776E0,5.4742737E1,1.0191162E1,0E0,1.2906217E1,0E0,0E0,0E0,1.7124707E0,0E0,0E0,0E0,0E0,0E0,0E0,0E0,0E0,0E0,0E0,0E0,0E0],"parents":[2147483647,0,0,1,1,2,2,3,3,4,4,5,5,7,7,8,8,9,9,10,10,13,13,14,14,15,15,16,16,17,17,18,18,20,20,21,21,22,22,27,27,28,28,30,30,34,34,35,35,36,36,38,38,42,42],"right_children":[2,4,6,8,10,12,-1,14,16,18,20,-1,-1,22,24,26,28,30,32,-1,34,36,38,-1,-1,-1,-1,40,42,-1,44,-1,-1,-1,46,48,50,-1,52,-1,-1,-1,54,-1,-1,-1,-1,-1,-1,-1,-1,-1,-1,-1,-1],"split_conditions":[1.562464E0,4.1412374E-1,5.676303E-1,2.1196682E0,-6.1924034E-1,2.6699393E0,-4.2941358E-2,3.129893E0,1.7214517E-1,4.740285E-1,1.4437481E0,2.4E-1,2.4943285E-2,-7.753224E-1,-1.5583155E-1,-4.7222865E-1,4.2780504E-1,-2.1584167E-1,1.4148214E0,-4.2827588E-2,3.0137423E-1,1.7214517E-1,3.6634223E0,2.2546299E-1,-4.0341306E-2,-3.419619E-2,2.4E-1,-9.682794E-1,2.8848975E0,-2.2702808E-2,1.5668231E-1,-3.8524482E-2,1.9679028E-1,-3.4713462E-2,1.0284678E0,3.8872695E-1,4.740285E-1,-4.273138E-2,1.4767148E-1,2.2624345E-1,-4.1029487E-2,-4.2481337E-2,-4.9846172E-1,2.4E-1,3.9839227E-2,3.525868E-2,2.1454106E-1,-2.408504E-2,2.4E-1,-1.2825461E-2,-4.2908173E-2,-3.608314E-2,1.1028526E-1,-1.6603474E-2,3.8775437E-2],"split_indices":[373,373,323,138,369,215,0,119,375,375,172,0,0,338,328,376,375,339,0,0,339,375,302,0,0,0,0,345,15,0,353,0,0,0,4,368,375,0,353,0,0,0,321,0,0,0,0,0,0,0,0,0,0,0,0],"split_type":[0,0,0,0,0,0,0,0,0,0,0,0,0,0,0,0,0,0,0,0,0,0,0,0,0,0,0,0,0,0,0,0,0,0,0,0,0,0,0,0,0,0,0,0,0,0,0,0,0,0,0,0,0,0,0],"sum_hessian":[2.0300498E5,1.7767442E5,2.5330559E4,1.7495444E5,2.7199927E3,2.211273E4,3.2178274E3,1.7139645E5,3.557971E3,9.677738E2,1.7522189E3,2.2109828E4,2.901857E0,1.7134388E5,5.2583416E1,1.2363886E2,3.434332E3,9.3818445E2,2.958939E1,1.7340573E3,1.816168E1,1.2230721E4,1.5911316E5,5.6943707E0,4.6889046E1,1.2403401E1,1.1123546E2,7.286567E1,3.3614663E3,4.126248E0,9.3405817E2,2.6590899E1,2.9984908E0,1.3221553E1,4.940128E0,5.933227E1,1.2171389E4,1.5909478E5,1.837718E1,7.8008265E0,6.506484E1,3.3566238E3,4.8426466E0,9.320234E2,2.0348163E0,2.275453E0,2.6646748E0,4.5101852E0,5.4822086E1,7.915723E1,1.2092231E4,1.6306469E1,2.0707102E0,2.7420423E0,2.1006045E0],"tree_param":{"num_deleted":"0","num_feature":"378","num_nodes":"55","size_leaf_vector":"1"}},{"base_weights":[-9.577649E-3,2.2479174E0,-5.745414E-1,1.8024269E-1,-4.546E-2,-4.5734458E-2,-4.618757E-2],"categories":[],"categories_nodes":[],"categories_segments":[],"categories_sizes":[],"default_left":[0,0,0,0,0,0,0],"id":29,"left_children":[1,3,5,-1,-1,-1,-1],"loss_changes":[4.9368616E5,1.1192188E3,1.546875E0,0E0,0E0,0E0,0E0],"parents":[2147483647,0,0,1,1,2,2],"right_children":[2,4,6,-1,-1,-1,-1],"split_conditions":[-2.1835494E-1,1.6893545E-1,4.0063524E-1,1.8024269E-1,-4.546E-2,-4.5734458E-2,-4.618757E-2],"split_indices":[360,315,263,0,0,0,0],"split_type":[0,0,0,0,0,0,0],"sum_hessian":[3.870769E5,7.747874E4,3.0959816E5,7.733881E4,1.3992867E2,1.5351988E5,1.5607828E5],"tree_param":{"num_deleted":"0","num_feature":"378","num_nodes":"7","size_leaf_vector":"1"}},{"base_weights":[1.4959394E-2,-5.2004313E-1,3E0,-5.232987E-1,3E0,2.4E-1,-1.9624425E-2,-4.2166393E-2,3.87053E-1,-1.3124467E-2,3E0,-4.1883953E-2,1.8855706E0,2.4E-1,2.3285167E-3,-4.0985532E-2,3E0,-1.75221E-1,3E0,1.4299399E-1,-3.8264345E-2,2.4E-1,-2.4995524E-2],"categories":[],"categories_nodes":[],"categories_segments":[],"categories_sizes":[],"default_left":[0,0,0,0,0,0,0,0,0,0,0,0,0,0,0,0,0,0,0,0,0,0,0],"id":30,"left_children":[1,3,5,7,9,-1,-1,-1,11,-1,13,-1,15,-1,-1,-1,17,19,21,-1,-1,-1,-1],"loss_changes":[3.7923662E5,2.2781562E3,4.153125E1,5.0679688E2,2.5734741E1,0E0,0E0,0E0,8.353291E2,0E0,1.7594116E1,0E0,8.963246E2,0E0,0E0,0E0,3.1577893E2,2.2652504E1,6.2237427E1,0E0,0E0,0E0,0E0],"parents":[2147483647,0,0,1,1,2,2,3,3,4,4,8,8,10,10,12,12,16,16,17,17,18,18],"right_children":[2,4,6,8,10,-1,-1,-1,12,-1,14,-1,16,-1,-1,-1,18,20,22,-1,-1,-1,-1],"split_conditions":[1.4006679E0,1.0961797E0,1.2924649E0,4.4374887E-2,-8.6640435E-1,2.4E-1,-1.9624425E-2,-4.2166393E-2,5.6286937E-1,-1.3124467E-2,-1.2737423E-1,-4.1883953E-2,-2.618065E-1,2.4E-1,2.3285167E-3,-4.0985532E-2,-9.136473E-1,1.0115756E0,1.2924649E0,1.4299399E-1,-3.8264345E-2,2.4E-1,-2.4995524E-2],"split_indices":[359,371,173,359,318,0,0,0,334,0,365,0,340,0,0,0,373,368,173,0,0,0,0],"split_type":[0,0,0,0,0,0,0,0,0,0,0,0,0,0,0,0,0,0,0,0,0,0,0],"sum_hessian":[1.6204455E5,1.4713723E5,1.4907317E4,1.4705044E5,8.6798355E1,1.490383E4,3.4873326E0,1.4644356E5,6.0687683E2,2.20234E0,8.4596016E1,3.7809058E2,2.2878627E2,8.205669E1,2.5393338E0,9.5051605E1,1.3373466E2,3.094017E1,1.02794495E2,2.6078873E0,2.8332283E1,9.764694E1,5.1475573E0],"tree_param":{"num_deleted":"0","num_feature":"378","num_nodes":"23","size_leaf_vector":"1"}},{"base_weights":[-1.3195535E-2,-6.2570417E-1,1.6602086E0,-6.303067E-1,-6.211304E-1,-6.0606647E-1,1.6668115E0,-5.0425828E-2,-0E0,-6.212544E-1,-5.1848483E-1,7.4683785E-2,-4.9663868E-2,1.3335283E-1,-3.30505E-2,-2.3191718E-2,2.2519872E-2,-6.2037176E-1,-5.0803166E-2,-5.0230894E-2,1.2511744E-1,-4.9631104E-2,-1.9904035E-1,2.8622257E-2,-3.5254303E-2],"categories":[],"categories_nodes":[],"categories_segments":[],"categories_sizes":[],"default_left":[0,0,0,0,0,0,0,0,0,0,0,0,0,0,0,0,0,0,0,0,0,0,0,0,0],"id":31,"left_children":[1,3,5,7,9,11,13,-1,15,17,19,-1,-1,-1,-1,-1,-1,21,-1,-1,-1,-1,23,-1,-1],"loss_changes":[5.60661E5,7.34375E0,2.1955312E3,1.5390625E0,1.546875E0,1.1333694E1,3.16875E1,0E0,1.3514214E0,1.359375E0,6.2020256E1,0E0,0E0,0E0,0E0,0E0,0E0,5.78125E-1,0E0,0E0,0E0,0E0,2.438547E0,0E0,0E0],"parents":[2147483647,0,0,1,1,2,2,3,3,4,4,5,5,6,6,8,8,9,9,10,10,17,17,22,22],"right_children":[2,4,6,8,10,12,14,-1,16,18,20,-1,-1,-1,-1,-1,-1,22,-1,-1,-1,-1,24,-1,-1],"split_conditions":[3.7702745E-1,-3.1797415E-1,3.8439384E-1,5.1993375E0,1.2888482E0,-2.5047514E-1,-5.2785844E-1,-5.0425828E-2,-8.8124853E-1,-1.7344472E-1,-6.554927E-1,7.4683785E-2,-4.9663868E-2,1.3335283E-1,-3.30505E-2,-2.3191718E-2,2.2519872E-2,1.2123371E0,-5.0803166E-2,-5.0230894E-2,1.2511744E-1,-4.9631104E-2,9.084448E-1,2.8622257E-2,-3.5254303E-2],"split_indices":[317,369,377,41,324,322,181,0,350,375,317,0,0,0,0,0,0,324,0,0,0,0,314,0,0],"split_type":[0,0,0,0,0,0,0,0,0,0,0,0,0,0,0,0,0,0,0,0,0,0,0,0,0],"sum_hessian":[5.4699425E5,4.004287E5,1.4656558E5,1.993945E5,2.0103419E5,4.25034E2,1.4614053E5,1.9938897E5,5.530659E0,2.0077672E5,2.5745642E2,2.524485E0,4.2250952E2,1.4613422E5,6.3207684E0,3.1689868E0,2.3616724E0,1.888157E5,1.1961017E4,2.4616145E2,1.1294983E1,1.8880595E5,9.756847E0,2.0356135E0,7.721234E0],"tree_param":{"num_deleted":"0","num_feature":"378","num_nodes":"25","size_leaf_vector":"1"}},{"base_weights":[1.5084781E-2,-5.1799107E-1,3E0,-5.249963E-1,3E0,3E0,-4.2298265E-2,2.4985738E0,-5.2551115E-1,2.4E-1,-4.1200474E-2,2.4E-1,-2.2706982E-2,-3.1969868E-2,2.4E-1,-5.2713895E-1,1.1680265E-1,-5.2730274E-1,2.4E-1,2.4E-1,-4.202596E-2,3.4210127E-2,-5.274785E-1,2.4E-1,-3.955134E-2,-4.2230472E-2,-2.2206292E-2],"categories":[],"categories_nodes":[],"categories_segments":[],"categories_sizes":[],"default_left":[0,0,0,0,0,0,0,0,0,0,0,0,0,0,0,0,0,0,0,0,0,0,0,0,0,0,0],"id":32,"left_children":[1,3,5,7,9,11,-1,13,15,-1,-1,-1,-1,-1,-1,17,19,21,-1,-1,-1,23,25,-1,-1,-1,-1],"loss_changes":[3.7723197E5,3.8513594E3,1.1052906E4,2.4171484E2,1.2904705E3,5.19375E1,0E0,1.174706E2,1.5990234E2,0E0,0E0,0E0,0E0,0E0,0E0,1.0205859E2,1.0242709E3,1.5078125E1,0E0,0E0,0E0,9.568071E1,1.4636719E1,0E0,0E0,0E0,0E0],"parents":[2147483647,0,0,1,1,2,2,3,3,4,4,5,5,7,7,8,8,15,15,16,16,17,17,21,21,22,22],"right_children":[2,4,6,8,10,12,-1,14,16,-1,-1,-1,-1,-1,-1,18,20,22,-1,-1,-1,24,26,-1,-1,-1,-1],"split_conditions":[2.2442863E0,1.2917651E0,5.446412E-3,-9.21957E-1,2.7267072E-1,4.3853214E-1,-4.2298265E-2,1.785811E0,1.1957256E0,2.4E-1,-4.1200474E-2,2.4E-1,-2.2706982E-2,-3.1969868E-2,2.4E-1,4.1192988E-1,5.4797042E-2,-9.476294E-1,2.4E-1,2.4E-1,-4.202596E-2,-5.430922E-1,1.4134285E0,2.4E-1,-3.955134E-2,-4.2230472E-2,-2.2206292E-2],"split_indices":[324,321,368,320,315,316,0,314,321,0,0,0,0,0,0,341,358,376,0,0,0,315,335,0,0,0,0],"split_type":[0,0,0,0,0,0,0,0,0,0,0,0,0,0,0,0,0,0,0,0,0,0,0,0,0,0,0],"sum_hessian":[1.7029023E5,1.5307327E5,1.7216975E4,1.5277688E5,2.9638397E2,1.6330047E4,8.869287E2,2.4193554E1,1.5275269E5,1.9264317E2,1.0374078E2,1.6325728E4,4.3192563E0,1.0061898E1,1.4131656E1,1.5236767E5,3.8500748E2,1.523632E5,4.4807687E0,4.479017E1,3.402173E2,4.6657875E1,1.5231655E5,4.8254433E0,4.183243E1,1.5206744E5,2.490939E2],"tree_param":{"num_deleted":"0","num_feature":"378","num_nodes":"27","size_leaf_vector":"1"}},{"base_weights":[1.9489191E-2,-5.280295E-1,3E0,-4.2262204E-2,-4.7103724E-1,3E0,-4.9604154E-1,2.5743046E0,-5.252393E-1,-1.9114494E-1,3E0,-5.0865203E-1,1.4360428E-1,4.149652E-3,2.4E-1,2.2207967E-3,-4.2239428E-2,-4.025483E-2,2.3033805E-1,2.4E-1,3.637028E-3,7.738974E-2,-5.1411504E-1,-2.6704836E-1,-4.2140912E-2,1.409182E0,-4.0028393E-2,-1.3789587E-2,1.8975806E-1],"categories":[],"categories_nodes":[],"categories_segments":[],"categories_sizes":[],"default_left":[0,0,0,0,0,0,0,0,0,0,0,0,0,0,0,0,0,0,0,0,0,0,0,0,0,0,0,0,0],"id":33,"left_children":[1,3,5,-1,7,9,11,13,15,17,19,21,-1,-1,-1,-1,-1,-1,-1,-1,-1,-1,23,25,-1,27,-1,-1,-1],"loss_changes":[3.3191825E5,1.34375E0,1.2410219E4,0E0,1.1638512E2,5.8575E2,3.2116486E1,1.1622551E1,1.0680695E0,6.1449978E1,1.40625E1,9.654083E0,0E0,0E0,0E0,0E0,0E0,0E0,0E0,0E0,0E0,0E0,2.5026245E0,2.4052711E1,0E0,1.3017286E1,0E0,0E0,0E0],"parents":[2147483647,0,0,1,1,2,2,4,4,5,5,6,6,7,7,8,8,9,9,10,10,11,11,22,22,23,23,25,25],"right_children":[2,4,6,-1,8,10,12,14,16,18,20,22,-1,-1,-1,-1,-1,-1,-1,-1,-1,-1,24,26,-1,28,-1,-1,-1],"split_conditions":[4.8344216E-1,1.3991997E-1,2.5295606E-1,-4.2262204E-2,-1.3463607E-1,4.907877E-2,1.2924649E0,4.0676758E-1,-1.0391032E-1,3.276155E-1,-4.9049106E-1,-1.7735778E-1,1.4360428E-1,4.149652E-3,2.4E-1,2.2207967E-3,-4.2239428E-2,-4.025483E-2,2.3033805E-1,2.4E-1,3.637028E-3,7.738974E-2,4.8719022E-1,-4.2635325E-1,-4.2140912E-2,-9.738124E-1,-4.0028393E-2,-1.3789587E-2,1.8975806E-1],"split_indices":[347,347,316,0,370,357,173,329,370,360,317,364,0,0,0,0,0,0,0,0,0,0,316,326,0,115,0,0,0],"split_type":[0,0,0,0,0,0,0,0,0,0,0,0,0,0,0,0,0,0,0,0,0,0,0,0,0,0,0,0,0],"sum_hessian":[1.7384431E5,1.5073994E5,2.3104367E4,1.5006153E5,6.7841876E2,2.2089682E4,1.0146868E3,1.007615E1,6.6834265E2,5.7123196E1,2.2032559E4,1.0108969E3,3.789896E0,2.0983346E0,7.977815E0,2.3217802E0,6.660209E2,5.3519146E1,3.6040492E0,2.2030375E4,2.182144E0,2.0916328E0,1.0088053E3,5.320155E1,9.5560376E2,5.006722E0,4.8194828E1,2.319374E0,2.687348E0],"tree_param":{"num_deleted":"0","num_feature":"378","num_nodes":"29","size_leaf_vector":"1"}},{"base_weights":[-1.6739529E-2,1.3977143E0,-6.1645645E-1,1.4015105E0,-6.1653864E-1,-6.301924E-1,1.9389606E-1,1.1212182E-1,1.9754626E-2,-4.9682308E-2,-0E0,-2.8989244E-1,-6.3125706E-1,1.1206059E-1,-5.1759657E-2,-6.40796E-1,1.11242756E-1,-6.316114E-1,-1.4451027E-1,2.5500532E-2,-5.1537912E-2,-6.3834655E-1,-6.243421E-1,-5.0469488E-2,1.094853E-1,-6.3707227E-1,-5.1561397E-2,1.2622933E0,-6.24764E-1,-5.0968193E-2,-1.0791103E-2,1.2996353E-1,-3.4849618E-2,-5.003111E-2,-1.5832946E-2],"categories":[],"categories_nodes":[],"categories_segments":[],"categories_sizes":[],"default_left":[0,0,0,0,0,0,0,0,0,0,0,0,0,0,0,0,0,0,0,0,0,0,0,0,0,0,0,0,0,0,0,0,0,0,0],"id":34,"left_children":[1,3,5,7,9,11,13,-1,-1,-1,-1,15,17,-1,-1,19,-1,21,23,-1,-1,25,27,-1,-1,29,-1,31,33,-1,-1,-1,-1,-1,-1],"loss_changes":[4.8905256E5,1.314625E3,4.5069062E3,4.375E-1,6.1356354E-1,1.43375E2,6.8533647E3,0E0,0E0,0E0,0E0,7.3821564E2,6.76875E1,0E0,0E0,3.9732666E0,0E0,1.8296875E1,2.1823534E2,0E0,0E0,4.84375E-1,1.5414844E2,0E0,0E0,1.8359375E0,0E0,2.8668915E1,5.0125E1,0E0,0E0,0E0,0E0,0E0,0E0],"parents":[2147483647,0,0,1,1,2,2,3,3,4,4,5,5,6,6,11,11,12,12,15,15,17,17,18,18,21,21,22,22,25,25,27,27,28,28],"right_children":[2,4,6,8,10,12,14,-1,-1,-1,-1,16,18,-1,-1,20,-1,22,24,-1,-1,26,28,-1,-1,30,-1,32,34,-1,-1,-1,-1,-1,-1],"split_conditions":[-1.3149282E-1,4.1576004E-1,-2.059412E-1,-7.7901445E-2,-1.5242393E-1,-5.9886193E-1,1.18421376E-1,1.1212182E-1,1.9754626E-2,-4.9682308E-2,-0E0,-7.39145E-1,5.1993375E0,1.1206059E-1,-5.1759657E-2,-6.4094555E-1,1.11242756E-1,-2.3295128E-1,-1.1473155E0,2.5500532E-2,-5.1537912E-2,6.6517204E-1,-2.1234426E-1,-5.0469488E-2,1.094853E-1,2.660029E0,-5.1561397E-2,1.596784E0,2.483413E0,-5.0968193E-2,-1.0791103E-2,1.2996353E-1,-3.4849618E-2,-5.003111E-2,-1.5832946E-2],"split_indices":[329,343,191,346,348,354,326,0,0,0,0,323,155,0,0,332,0,333,91,0,0,349,346,0,0,187,0,18,293,0,0,0,0,0,0],"split_type":[0,0,0,0,0,0,0,0,0,0,0,0,0,0,0,0,0,0,0,0,0,0,0,0,0,0,0,0,0,0,0,0,0,0,0],"sum_hessian":[5.765221E5,1.7165773E5,4.0486438E5,1.7133569E5,3.2205545E2,3.9811712E5,6.7472603E3,1.7133298E5,2.6939437E0,3.197649E2,2.2905354E0,1.2448239E3,3.968723E5,2.7704004E3,3.97686E3,1.0310557E3,2.137682E2,3.96582E5,2.9028906E2,2.4961395E0,1.0285596E3,2.0572742E5,1.908546E5,2.2080937E2,6.9479675E1,1.7075522E5,3.497221E4,4.1072083E1,1.9081352E5,1.7074342E5,1.1791E1,3.4164062E1,6.908019E0,1.9053247E5,2.8103845E2],"tree_param":{"num_deleted":"0","num_feature":"378","num_nodes":"35","size_leaf_vector":"1"}},{"base_weights":[4.2136222E-2,-4.078033E-2,3E0,2.4E-1,-3.9734848E-2],"categories":[],"categories_nodes":[],"categories_segments":[],"categories_sizes":[],"default_left":[0,0,0,0,0],"id":35,"left_children":[1,-1,3,-1,-1],"loss_changes":[1.7991731E5,0E0,1.4259531E3,0E0,0E0],"parents":[2147483647,0,0,2,2],"right_children":[2,-1,4,-1,-1],"split_conditions":[9.9964625E-1,-4.078033E-2,-7.574844E-1,2.4E-1,-3.9734848E-2],"split_indices":[369,0,314,0,0],"split_type":[0,0,0,0,0],"sum_hessian":[6.1877355E4,5.855352E4,3.3238376E3,3.2079038E3,1.15933876E2],"tree_param":{"num_deleted":"0","num_feature":"378","num_nodes":"5","size_leaf_vector":"1"}},{"base_weights":[6.5565095E-3,2.8573976E0,-5.359373E-1,-4.2894535E-2,2.3035268E-1,-5.3824735E-1,-2.2224098E-2,1.486361E-1,-5.3830993E-1,2.2878398E-1,-4.3070745E-2,-4.513585E-1,-4.3095622E-2,-4.3277994E-2,2.3023687E-1],"categories":[],"categories_nodes":[],"categories_segments":[],"categories_sizes":[],"default_left":[0,0,0,0,0,0,0,0,0,0,0,0,0,0,0],"id":36,"left_children":[1,3,5,-1,-1,7,9,-1,11,-1,-1,13,-1,-1,-1],"loss_changes":[3.6143884E5,2.7941875E3,2.3244531E2,0E0,0E0,3.225E1,1.3173099E3,0E0,5.75E0,0E0,0E0,2.6737402E2,0E0,0E0,0E0],"parents":[2147483647,0,0,1,1,2,2,5,5,6,6,8,8,11,11],"right_children":[2,4,6,-1,-1,8,10,-1,12,-1,-1,14,-1,-1,-1],"split_conditions":[-5.147902E-1,-3.413877E-1,4.8355883E-1,-4.2894535E-2,2.3035268E-1,-8.2923734E-1,-7.6481104E-2,1.486361E-1,-3.8817352E-1,2.2878398E-1,-4.3070745E-2,-1.0698154E-1,-4.3095622E-2,-4.3277994E-2,2.3023687E-1],"split_indices":[339,322,322,0,0,328,339,0,339,0,0,322,0,0,0],"split_type":[0,0,0,0,0,0,0,0,0,0,0,0,0,0,0],"sum_hessian":[2.3369755E5,3.7360105E4,1.9633744E5,2.4031314E2,3.7119793E4,1.9545745E5,8.799836E2,3.3465874E0,1.9545411E5,1.3213681E2,7.4784674E2,8.7843097E2,1.9457569E5,8.571831E2,2.1247883E1],"tree_param":{"num_deleted":"0","num_feature":"378","num_nodes":"15","size_leaf_vector":"1"}},{"base_weights":[3.48541E-2,-4.9006754E-1,3E0,-5.15603E-1,3.6876693E-1,-4.752895E-1,3E0,-4.1278977E-2,-4.2701113E-1,3E0,-4.7678307E-1,2.4E-1,-4.121456E-2,-3.7381715E-1,3E0,3E0,-4.993134E-1,3E0,-3.991626E-2,-5.120242E-1,2.4E-1,-3.756406E-2,2.930418E-2,3E0,-2.9727902E-2,2.4E-1,-0E0,-4.061987E-2,2.2105208E-2,3E0,-3.7026756E-2,-4.1291438E-2,1.342784E-1,-1.7035265E-2,2.4E-1,-3.5164278E-2,3E0,2.4E-1,-1.8155418E-2],"categories":[],"categories_nodes":[],"categories_segments":[],"categories_sizes":[],"default_left":[0,0,0,0,0,0,0,0,0,0,0,0,0,0,0,0,0,0,0,0,0,0,0,0,0,0,0,0,0,0,0,0,0,0,0,0,0,0,0],"id":37,"left_children":[1,3,5,7,9,11,13,-1,15,17,19,-1,-1,21,23,25,27,29,-1,31,-1,-1,-1,33,-1,-1,-1,-1,-1,35,-1,-1,-1,-1,-1,-1,37,-1,-1],"loss_changes":[2.3765395E5,2.0480234E3,1.1376906E4,2.3417969E0,8.295418E3,1.762415E2,3.7720312E2,0E0,1.0966198E2,9.828496E2,3.7145953E2,0E0,0E0,3.1190438E0,1.0278125E2,1.6971786E1,3.064209E0,3.1404395E2,0E0,2.2594116E1,0E0,0E0,0E0,3.453125E1,0E0,0E0,0E0,0E0,0E0,2.1300879E2,0E0,0E0,0E0,0E0,0E0,0E0,3.8723633E1,0E0,0E0],"parents":[2147483647,0,0,1,1,2,2,3,3,4,4,5,5,6,6,8,8,9,9,10,10,13,13,14,14,15,15,16,16,17,17,19,19,23,23,29,29,36,36],"right_children":[2,4,6,8,10,12,14,-1,16,18,20,-1,-1,22,24,26,28,30,-1,32,-1,-1,-1,34,-1,-1,-1,-1,-1,36,-1,-1,-1,-1,-1,-1,38,-1,-1],"split_conditions":[1.5642843E0,6.6517204E-1,-5.515562E-2,4.0490523E-1,7.4140066E-1,-8.2804984E-1,-2.5992453E-1,-4.1278977E-2,3.3312672E-1,1.3695675E0,1.5963387E-2,2.4E-1,-4.121456E-2,-3.1078073E-1,1.3695675E0,-6.916516E-1,4.071683E-2,1.0961797E0,-3.991626E-2,2.2552583E0,2.4E-1,-3.756406E-2,2.930418E-2,8.15459E-3,-2.9727902E-2,2.4E-1,-0E0,-4.061987E-2,2.2105208E-2,1.7214517E-1,-3.7026756E-2,-4.1291438E-2,1.342784E-1,-1.7035265E-2,2.4E-1,-3.5164278E-2,1.5932775E0,2.4E-1,-1.8155418E-2],"split_indices":[349,349,372,349,361,377,366,0,316,0,350,0,0,366,0,319,317,371,0,126,0,0,0,375,0,0,0,0,0,375,0,0,0,0,0,0,354,0,0],"split_type":[0,0,0,0,0,0,0,0,0,0,0,0,0,0,0,0,0,0,0,0,0,0,0,0,0,0,0,0,0,0,0,0,0,0,0,0,0,0,0],"sum_hessian":[1.0230513E5,9.335643E4,8.948702E3,9.066218E4,2.6942515E3,9.413097E2,8.0073926E3,9.0255484E4,4.0669937E2,4.6472916E2,2.2295225E3,5.553304E0,9.357564E2,3.2553947E1,7.974839E3,6.277479E0,4.004219E2,3.851416E2,7.958755E1,2.2165547E3,1.2967704E1,3.0071009E1,2.482938E0,7.966377E3,8.461689E0,4.187445E0,2.090034E0,3.9743518E2,2.9867294E0,3.596146E2,2.5527012E1,2.2141484E3,2.406172E0,2.9218833E0,7.963455E3,1.7362549E1,3.4225204E2,3.3897055E2,3.2814934E0],"tree_param":{"num_deleted":"0","num_feature":"378","num_nodes":"39","size_leaf_vector":"1"}},{"base_weights":[4.40149E-2,-4.077004E-2,3E0,3E0,-4.6141922E-1,2.4E-1,-2.179771E-2,-3.993673E-2,7.5624816E-2],"categories":[],"categories_nodes":[],"categories_segments":[],"categories_sizes":[],"default_left":[0,0,0,0,0,0,0,0,0],"id":38,"left_children":[1,-1,3,5,7,-1,-1,-1,-1],"loss_changes":[1.7816394E5,0E0,1.6595625E3,5.19375E1,8.907623E0,0E0,0E0,0E0,0E0],"parents":[2147483647,0,0,2,2,3,3,4,4],"right_children":[2,-1,4,6,8,-1,-1,-1,-1],"split_conditions":[4.815293E-1,-4.077004E-2,3.6641115E-1,2.8492728E-1,8.8824624E-1,2.4E-1,-2.179771E-2,-3.993673E-2,7.5624816E-2],"split_indices":[363,0,361,319,315,0,0,0,0],"split_type":[0,0,0,0,0,0,0,0,0],"sum_hessian":[6.1057242E4,5.777787E4,3.2793733E3,3.1415227E3,1.3785046E2,3.1371577E3,4.364915E0,1.3584682E2,2.0036492E0],"tree_param":{"num_deleted":"0","num_feature":"378","num_nodes":"9","size_leaf_vector":"1"}},{"base_weights":[1.3894229E-2,-4.720211E-1,3E0,-5.273214E-1,1.0830994E0,2.4E-1,-4.286978E-2,-5.3058565E-1,-3.7157354E-1,3E0,-5.274268E-1,-5.065565E-1,-5.3247195E-1,3E0,-5.0820905E-1,3E0,1.15433745E-1,8.873933E-1,-4.28617E-2,3E0,-5.3306013E-1,-4.2601455E-2,-1.8241E-1,2.4E-1,-1.7372139E-2,-5.188631E-1,1.0359707E0,-2.6529154E-2,3E0,-3.8534164E-2,2.0069198E-1,-3.359895E-2,2.2241746E-1,-2.2588108E-2,3E0,-0E0,-5.3517485E-1,1.0406777E-1,-3.733649E-2,-1.8019666E-1,-4.2448778E-2,2.1563882E-1,-3.371334E-2,3E0,2.4842672E-2,2.4E-1,3.600386E-2,-4.0091164E-2,2.061775E-1,-4.283831E-2,-1.0921073E-2,2.0314533E-1,-4.165121E-2,9.0851665E-2,2.4E-1],"categories":[],"categories_nodes":[],"categories_segments":[],"categories_sizes":[],"default_left":[0,0,0,0,0,0,0,0,0,0,0,0,0,0,0,0,0,0,0,0,0,0,0,0,0,0,0,0,0,0,0,0,0,0,0,0,0,0,0,0,0,0,0,0,0,0,0,0,0,0,0,0,0,0,0],"id":39,"left_children":[1,3,5,7,9,-1,-1,11,13,15,17,19,21,23,25,27,29,31,-1,33,35,-1,37,-1,-1,39,41,-1,43,-1,-1,-1,-1,-1,45,47,49,-1,-1,51,-1,-1,-1,53,-1,-1,-1,-1,-1,-1,-1,-1,-1,-1,-1],"loss_changes":[3.013748E5,1.494234E4,1.8682531E4,8.455469E1,2.0873236E4,0E0,0E0,6.6328125E0,1.6752059E3,2.5926562E2,4.2024902E1,1.1870271E3,1.828125E0,3.4546265E1,5.6353516E1,6.905859E1,5.4617653E1,5.6298084E1,0E0,4.916571E1,1.295166E1,0E0,1.2659859E1,0E0,0E0,1.2539429E1,6.0954384E1,0E0,1.32578125E1,0E0,0E0,0E0,0E0,0E0,5.0707397E0,6.931575E1,8.28125E-1,0E0,0E0,1.1116843E2,0E0,0E0,0E0,2.0742188E0,0E0,0E0,0E0,0E0,0E0,0E0,0E0,0E0,0E0,0E0,0E0],"parents":[2147483647,0,0,1,1,2,2,3,3,4,4,7,7,8,8,9,9,10,10,11,11,12,12,13,13,14,14,15,15,16,16,17,17,19,19,20,20,22,22,25,25,26,26,28,28,34,34,35,35,36,36,39,39,43,43],"right_children":[2,4,6,8,10,-1,-1,12,14,16,18,20,22,24,26,28,30,32,-1,34,36,-1,38,-1,-1,40,42,-1,44,-1,-1,-1,-1,-1,46,48,50,-1,-1,52,-1,-1,-1,54,-1,-1,-1,-1,-1,-1,-1,-1,-1,-1,-1],"split_conditions":[1.9454905E0,4.1412374E-1,5.399045E-3,2.1196682E0,-5.9689844E-1,2.4E-1,-4.286978E-2,-7.753224E-1,8.15459E-3,7.547E-2,-2.006509E-1,1.7214517E-1,3.1380064E0,-4.2831644E-1,-2.5198206E-1,-4.073073E-1,1.4148214E0,4.7555026E-1,-4.28617E-2,3.8872695E-1,4.0104333E-1,-4.2601455E-2,-2.2538082E-1,2.4E-1,-1.7372139E-2,5.149156E-1,2.3519269E-1,-2.6529154E-2,4.009113E-1,-3.8534164E-2,2.0069198E-1,-3.359895E-2,2.2241746E-1,-2.2588108E-2,3.623304E-1,-2.662814E-1,3.0899646E0,1.0406777E-1,-3.733649E-2,-8.568311E-1,-4.2448778E-2,2.1563882E-1,-3.371334E-2,-5.6816928E-2,2.4842672E-2,2.4E-1,3.600386E-2,-4.0091164E-2,2.061775E-1,-4.283831E-2,-1.0921073E-2,2.0314533E-1,-4.165121E-2,9.0851665E-2,2.4E-1],"split_indices":[373,373,328,138,369,0,0,338,375,328,340,375,119,338,373,368,0,370,0,368,375,0,328,0,0,375,326,0,343,0,0,0,0,0,343,350,290,0,0,363,0,0,0,339,0,0,0,0,0,0,0,0,0,0,0],"split_type":[0,0,0,0,0,0,0,0,0,0,0,0,0,0,0,0,0,0,0,0,0,0,0,0,0,0,0,0,0,0,0,0,0,0,0,0,0,0,0,0,0,0,0,0,0,0,0,0,0,0,0,0,0,0,0],"sum_hessian":[2.0106966E5,1.7372838E5,2.7341275E4,1.677643E5,5.964078E3,2.5847682E4,1.4935936E3,1.6431252E5,3.4517888E3,2.5256191E3,3.4384587E3,1.2018144E4,1.5229436E5,1.262141E2,3.3255747E3,2.4937705E3,3.1848679E1,1.8574102E1,3.4198845E3,8.310898E1,1.1935034E4,1.5227178E5,2.2588926E1,1.2330311E2,2.9109979E0,3.3044275E3,2.1147104E1,5.6782985E0,2.4880923E3,2.6600386E1,5.2482934E0,1.1750247E1,6.8238544E0,4.068718E0,7.904026E1,4.80065E1,1.1887027E4,2.2001271E0,2.03888E1,1.1329411E2,3.1911335E3,9.253844E0,1.1893259E1,2.485192E3,2.9003136E0,7.68693E1,2.1709588E0,4.1685875E1,6.320628E0,1.1876029E4,1.09980545E1,1.1004239E1,1.0228987E2,4.7432632E0,2.4804487E3],"tree_param":{"num_deleted":"0","num_feature":"378","num_nodes":"55","size_leaf_vector":"1"}},{"base_weights":[-1.3308434E-2,1.8931273E0,-5.7087237E-1,1.517944E-1,-4.542714E-2,-5.6701195E-1,-4.598673E-2,1.8427624E-1,-5.671231E-1,1.3073188E-3,-4.5371123E-2],"categories":[],"categories_nodes":[],"categories_segments":[],"categories_sizes":[],"default_left":[0,0,0,0,0,0,0,0,0,0,0],"id":40,"left_children":[1,3,5,-1,-1,7,-1,-1,9,-1,-1],"loss_changes":[4.0910766E5,9.2465625E2,3.6171875E0,0E0,0E0,5.1960938E1,0E0,0E0,1.4257812E0,0E0,0E0],"parents":[2147483647,0,0,1,1,2,2,5,5,8,8],"right_children":[2,4,6,-1,-1,8,-1,-1,10,-1,-1],"split_conditions":[-2.1835494E-1,1.6893545E-1,1.0475937E-1,1.517944E-1,-4.542714E-2,-5.0431633E-1,-4.598673E-2,1.8427624E-1,-2.9247788E-1,1.3073188E-3,-4.5371123E-2],"split_indices":[360,315,329,0,0,342,0,0,356,0,0],"split_type":[0,0,0,0,0,0,0,0,0,0,0],"sum_hessian":[3.8487025E5,8.708873E4,2.977815E5,8.693738E4,1.5134271E2,1.5103097E5,1.4675055E5,4.0703845E0,1.5102689E5,3.2018232E0,1.5102369E5],"tree_param":{"num_deleted":"0","num_feature":"378","num_nodes":"11","size_leaf_vector":"1"}},{"base_weights":[2.1499444E-2,-5.17667E-1,3E0,-5.215232E-1,3E0,3E0,-1.8084334E-2,-5.258633E-1,4.329464E-1,-2.527527E-2,2.4E-1,2.4E-1,6.770359E-2,-4.2071342E-2,-2.3629536E-1,-4.330674E-1,2.991348E0,4.8896044E-2,-3.504362E-2,2.3502169E0,-4.9974087E-1,3E0,-3.9647806E-1,-1.611856E-2,2.4E-1,-5.211141E-1,1.1982633E-1,-3.0612972E-1,2.4E-1,-3.7282728E-2,8.2878275E-3,-4.203337E-2,7.946324E-3,-3.3410843E-2,7.759674E-3],"categories":[],"categories_nodes":[],"categories_segments":[],"categories_sizes":[],"default_left":[0,0,0,0,0,0,0,0,0,0,0,0,0,0,0,0,0,0,0,0,0,0,0,0,0,0,0,0,0,0,0,0,0,0,0],"id":41,"left_children":[1,3,5,7,9,11,-1,13,15,-1,-1,-1,-1,-1,17,19,21,-1,-1,23,25,27,29,-1,-1,31,-1,33,-1,-1,-1,-1,-1,-1,-1],"loss_changes":[3.2910906E5,2.2928086E3,3.65625E1,5.855156E2,6.356653E1,4.375E-1,0E0,5.078125E-1,1.4238181E3,0E0,0E0,0E0,0E0,0E0,4.4256225E0,9.260052E1,2.9680005E2,0E0,0E0,2.8219841E1,2.2411903E1,1.5778271E2,1.1961517E0,0E0,0E0,1.406868E0,0E0,1.0122409E0,0E0,0E0,0E0,0E0,0E0,0E0,0E0],"parents":[2147483647,0,0,1,1,2,2,3,3,4,4,5,5,7,7,8,8,14,14,15,15,16,16,19,19,20,20,21,21,22,22,25,25,27,27],"right_children":[2,4,6,8,10,12,-1,14,16,-1,-1,-1,-1,-1,18,20,22,-1,-1,24,26,28,30,-1,-1,32,-1,34,-1,-1,-1,-1,-1,-1,-1],"split_conditions":[1.0961797E0,1.6172023E0,1.2924649E0,5.6286937E-1,1.6893545E-1,2.4222646E0,-1.8084334E-2,4.418004E-1,5.855528E-1,-2.527527E-2,2.4E-1,2.4E-1,6.770359E-2,-4.2071342E-2,2.3969212E-1,-1.15207225E-1,5.4582024E-1,4.8896044E-2,-3.504362E-2,3.4847713E-1,1.2607657E0,-9.36344E-1,-7.171818E-4,-1.611856E-2,2.4E-1,2.7873821E0,1.1982633E-1,1.1252689E0,2.4E-1,-3.7282728E-2,8.2878275E-3,-4.203337E-2,7.946324E-3,-3.3410843E-2,7.759674E-3],"split_indices":[371,334,171,334,315,146,0,364,371,0,0,0,0,0,367,354,367,0,0,316,372,358,336,0,0,232,0,0,0,0,0,0,0,0,0],"split_type":[0,0,0,0,0,0,0,0,0,0,0,0,0,0,0,0,0,0,0,0,0,0,0,0,0,0,0,0,0,0,0,0,0,0,0],"sum_hessian":[1.599875E5,1.4129948E5,1.868802E4,1.4117656E5,1.2292843E2,1.8684945E4,3.074563E0,1.4053892E5,6.376308E2,5.253038E0,1.1767539E2,1.8682182E4,2.761884E0,1.4052173E5,1.7194569E1,4.774731E2,1.6015767E2,2.0491874E0,1.5145382E1,9.392316E0,4.6808078E2,1.3503378E2,2.5123884E1,2.717672E0,6.6746435E0,4.648358E2,3.245003E0,1.3916629E1,1.2111716E2,2.3053364E1,2.0705209E0,4.6273865E2,2.0971305E0,1.1816475E1,2.1001542E0],"tree_param":{"num_deleted":"0","num_feature":"378","num_nodes":"35","size_leaf_vector":"1"}},{"base_weights":[-1.5671555E-2,-6.18632E-1,1.4703013E0,-6.1330986E-1,-5.002902E-2,-5.840257E-1,1.4757583E0,1.0570057E-1,-6.1343753E-1,9.511537E-2,-4.911381E-2,1.18066706E-1,-3.1119727E-2,-4.9815528E-2,-6.1162263E-1,-4.894087E-2,-1.4128277E-1,-4.6884388E-2,1.3778628E-1],"categories":[],"categories_nodes":[],"categories_segments":[],"categories_sizes":[],"default_left":[0,0,0,0,0,0,0,0,0,0,0,0,0,0,0,0,0,0,0],"id":42,"left_children":[1,3,5,7,-1,9,11,-1,13,-1,-1,-1,-1,-1,15,-1,17,-1,-1],"loss_changes":[4.8554206E5,1.275E1,1.7555312E3,5.5484375E1,0E0,2.4128448E1,2.33125E1,0E0,2.546875E0,0E0,0E0,0E0,0E0,0E0,1.10078125E1,0E0,5.0498245E1,0E0,0E0],"parents":[2147483647,0,0,1,1,2,2,3,3,5,5,6,6,8,8,14,14,16,16],"right_children":[2,4,6,8,-1,10,12,-1,14,-1,-1,-1,-1,-1,16,-1,18,-1,-1],"split_conditions":[3.7702745E-1,-1.2611836E-1,3.8439384E-1,-7.821405E-1,-5.002902E-2,-2.2167556E-1,-5.2785844E-1,1.0570057E-1,-4.865844E-1,9.511537E-2,-4.911381E-2,1.18066706E-1,-3.1119727E-2,-4.9815528E-2,3.9404777E-1,-4.894087E-2,-3.8620126E-2,-4.6884388E-2,1.3778628E-1],"split_indices":[317,375,377,314,0,322,181,0,369,0,0,0,0,0,354,0,319,0,0],"split_type":[0,0,0,0,0,0,0,0,0,0,0,0,0,0,0,0,0,0,0],"sum_hessian":[5.419041E5,3.8548722E5,1.5641694E5,2.1541308E5,1.7007412E5,4.1359683E2,1.5600334E5,1.2590616E1,2.154005E5,5.2955747E0,4.0830124E2,1.559977E5,5.6328764E0,3.51522E4,1.802483E5,1.8019366E5,5.4643948E1,4.543881E1,9.205139E0],"tree_param":{"num_deleted":"0","num_feature":"378","num_nodes":"19","size_leaf_vector":"1"}},{"base_weights":[2.0462565E-2,-5.1628387E-1,3E0,-5.236215E-1,2.6112025E0,3E0,-4.2262543E-2,2.1906154E0,-5.2415437E-1,2.4E-1,-4.107106E-2,2.4E-1,-2.468709E-2,-3.1254612E-2,2.4E-1,-5.2578616E-1,8.3033495E-2,-5.259427E-1,2.1986935E-1,2.4E-1,-4.1956328E-2,-3.5089847E-1,-5.266654E-1,-4.192586E-2,2.4E-1,-4.216682E-2,-2.2118885E-2],"categories":[],"categories_nodes":[],"categories_segments":[],"categories_sizes":[],"default_left":[0,0,0,0,0,0,0,0,0,0,0,0,0,0,0,0,0,0,0,0,0,0,0,0,0,0,0],"id":43,"left_children":[1,3,5,7,9,11,-1,13,15,-1,-1,-1,-1,-1,-1,17,19,21,-1,-1,-1,23,25,-1,-1,-1,-1],"loss_changes":[3.2365256E5,3.3801367E3,1.102E4,2.1567578E2,1.1786055E3,6.071875E1,0E0,9.674007E1,1.4552344E2,0E0,0E0,0E0,0E0,0E0,0E0,7.927344E1,8.584759E2,1.7792969E1,0E0,0E0,0E0,5.220977E2,1.4628906E1,0E0,0E0,0E0,0E0],"parents":[2147483647,0,0,1,1,2,2,3,3,4,4,5,5,7,7,8,8,15,15,16,16,17,17,21,21,22,22],"right_children":[2,4,6,8,10,12,-1,14,16,-1,-1,-1,-1,-1,-1,18,20,22,-1,-1,-1,24,26,-1,-1,-1,-1],"split_conditions":[2.2442863E0,1.2917651E0,5.446412E-3,-9.21957E-1,2.7267072E-1,4.0427995E-1,-4.2262543E-2,1.785811E0,1.1957256E0,2.4E-1,-4.107106E-2,2.4E-1,-2.468709E-2,-3.1254612E-2,2.4E-1,4.1192988E-1,9.847024E-2,-8.427913E-1,2.1986935E-1,2.4E-1,-4.1956328E-2,2.0959053E0,1.4134285E0,-4.192586E-2,2.4E-1,-4.216682E-2,-2.2118885E-2],"split_indices":[324,321,368,320,315,316,0,314,321,0,0,0,0,0,0,341,358,320,0,0,0,314,335,0,0,0,0],"split_type":[0,0,0,0,0,0,0,0,0,0,0,0,0,0,0,0,0,0,0,0,0,0,0,0,0,0,0],"sum_hessian":[1.6843478E5,1.4711452E5,2.132026E4,1.4677198E5,3.4252878E2,2.0435744E4,8.845147E2,2.701133E1,1.4674497E5,2.4358101E2,9.894778E1,2.0430719E4,5.0261188E0,9.363296E0,1.7648035E1,1.4635277E5,3.9221457E2,1.463476E5,5.1652784E0,5.4140274E1,3.3807428E2,6.086097E2,1.4573898E5,5.935623E2,1.5047365E1,1.4549058E5,2.4841335E2],"tree_param":{"num_deleted":"0","num_feature":"378","num_nodes":"27","size_leaf_vector":"1"}},{"base_weights":[1.7382612E-2,-5.266364E-1,2.8386948E0,-4.215242E-2,-4.6586052E-1,-4.5499492E-1,2.9692156E0,1.7756213E-1,-5.0443065E-1,-4.8382002E-1,1.8519892E0,2.3758733E-1,-2.3955915E-2,8.0510867E-1,-5.18378E-1,1.1010674E-1,-5.04049E-1,-1.8167602E-2,2.0011795E-1,1.2971966E-1,-1.6266992E-2,4.2870632E-1,-4.2153653E-2,-3.7806522E-2,1.6576172E0,-3.073146E-1,-4.219807E-2,7.918926E-2,-1.3848535E-2,1.7768903E-1,-1.2115631E-2,5.967998E-1,-4.5929068E-1,-2.2895763E-2,2.2647317E-1,4.2504955E-2,-3.963568E-2],"categories":[],"categories_nodes":[],"categories_segments":[],"categories_sizes":[],"default_left":[0,0,0,0,0,0,0,0,0,0,0,0,0,0,0,0,0,0,0,0,0,0,0,0,0,0,0,0,0,0,0,0,0,0,0,0,0],"id":44,"left_children":[1,3,5,-1,7,9,11,-1,13,15,17,-1,-1,19,21,23,25,-1,-1,-1,-1,27,-1,-1,29,31,-1,-1,-1,-1,-1,33,35,-1,-1,-1,-1],"loss_changes":[2.6364166E5,1.5664062E0,1.1940047E4,0E0,7.173399E1,7.32495E1,5.65625E1,0E0,1.3169556E1,1.2796127E1,2.0157726E1,0E0,0E0,7.977697E0,5.912567E0,3.60175E1,4.0166626E0,0E0,0E0,0E0,0E0,3.419593E0,0E0,0E0,1.2147846E1,1.6890106E1,0E0,0E0,0E0,0E0,0E0,3.857219E1,4.4330196E0,0E0,0E0,0E0,0E0],"parents":[2147483647,0,0,1,1,2,2,4,4,5,5,6,6,8,8,9,9,10,10,13,13,14,14,15,15,16,16,21,21,24,24,25,25,31,31,32,32],"right_children":[2,4,6,-1,8,10,12,-1,14,16,18,-1,-1,20,22,24,26,-1,-1,-1,-1,28,-1,-1,30,32,-1,-1,-1,-1,-1,34,36,-1,-1,-1,-1],"split_conditions":[4.8344216E-1,1.3991997E-1,5.0868934E-1,-4.215242E-2,-3.725345E-1,1.2924649E0,1.4223814E0,1.7756213E-1,-5.294569E-1,-5.577524E-1,2.2527802E-1,2.3758733E-1,-2.3955915E-2,-7.105188E-1,-9.086539E-1,1.0605564E-1,5.612881E-1,-1.8167602E-2,2.0011795E-1,1.2971966E-1,-1.6266992E-2,9.995966E-1,-4.2153653E-2,-3.7806522E-2,2.2103423E-1,-4.191249E-1,-4.219807E-2,7.918926E-2,-1.3848535E-2,1.7768903E-1,-1.2115631E-2,2.5654626E-1,3.3947733E-1,-2.2895763E-2,2.2647317E-1,4.2504955E-2,-3.963568E-2],"split_indices":[347,347,345,0,316,171,0,0,376,371,315,0,0,318,333,367,316,0,0,0,0,368,0,0,346,326,0,0,0,0,0,350,328,0,0,0,0],"split_type":[0,0,0,0,0,0,0,0,0,0,0,0,0,0,0,0,0,0,0,0,0,0,0,0,0,0,0,0,0,0,0,0,0,0,0,0,0],"sum_hessian":[1.7176373E5,1.4399867E5,2.7765066E4,1.4334098E5,6.5768353E2,1.0579873E3,2.670708E4,7.5276575E0,6.501559E2,1.0467063E3,1.1281011E1,2.6702303E4,4.7775507E0,5.2782154E0,6.448777E2,3.3369476E1,1.01333685E3,2.8115935E0,8.469417E0,2.518968E0,2.7592473E0,4.3621936E0,6.4051544E2,2.5016195E1,8.353279E0,1.1310263E2,9.002342E2,2.0199268E0,2.3422668E0,6.232725E0,2.1205537E0,1.4960127E1,9.81425E1,1.1811729E1,3.1483982E0,2.0044253E0,9.613808E1],"tree_param":{"num_deleted":"0","num_feature":"378","num_nodes":"37","size_leaf_vector":"1"}},{"base_weights":[-1.8614145E-2,1.2676158E0,-6.080366E-1,1.0165406E-1,-4.8622243E-2,-6.218312E-1,1.7474443E-1,-3.044005E-1,-6.228903E-1,1.0160467E-1,-5.143399E-2,-6.370461E-1,1.0092279E-1,-6.232462E-1,-1.2777318E-1,7.3836045E-3,-5.118279E-2,-6.164948E-1,-6.315901E-1,9.943598E-2,-4.9805027E-2,-6.1732036E-1,1.2659623E-1,-5.1197495E-2,-6.293593E-1,1.02956384E-1,-4.9393557E-2,-5.0540943E-2,-4.9940433E-2],"categories":[],"categories_nodes":[],"categories_segments":[],"categories_sizes":[],"default_left":[0,0,0,0,0,0,0,0,0,0,0,0,0,0,0,0,0,0,0,0,0,0,0,0,0,0,0,0,0],"id":45,"left_children":[1,3,5,-1,-1,7,9,11,13,-1,-1,15,-1,17,19,-1,-1,21,23,-1,-1,25,-1,-1,27,-1,-1,-1,-1],"loss_changes":[4.305632E5,1.0260312E3,4.2057188E3,0E0,0E0,1.278125E2,6.04469E3,6.685263E2,6.6515625E1,0E0,0E0,2.2774353E0,0E0,2.0390625E1,1.9113393E2,0E0,0E0,3.854375E2,2.0625E0,0E0,0E0,4.2015625E1,0E0,0E0,5.46875E-1,0E0,0E0,0E0,0E0],"parents":[2147483647,0,0,1,1,2,2,5,5,6,6,7,7,8,8,11,11,13,13,14,14,17,17,18,18,21,21,24,24],"right_children":[2,4,6,-1,-1,8,10,12,14,-1,-1,16,-1,18,20,-1,-1,22,24,-1,-1,26,-1,-1,28,-1,-1,-1,-1],"split_conditions":[-1.3149282E-1,4.1576004E-1,-2.059412E-1,1.0165406E-1,-4.8622243E-2,-5.9886193E-1,1.293297E-1,-7.39145E-1,5.1993375E0,1.0160467E-1,-5.143399E-2,-6.4094555E-1,1.0092279E-1,1.7214517E-1,-3.3755336E-2,7.3836045E-3,-5.118279E-2,2.6775143E-1,-5.603422E-1,9.943598E-2,-4.9805027E-2,-2.0653965E0,1.2659623E-1,-5.1197495E-2,1.2755774E0,1.02956384E-1,-4.9393557E-2,-5.0540943E-2,-4.9940433E-2],"split_indices":[329,343,191,0,0,354,326,323,155,0,0,332,0,375,329,0,0,328,367,0,0,79,0,0,354,0,0,0,0],"split_type":[0,0,0,0,0,0,0,0,0,0,0,0,0,0,0,0,0,0,0,0,0,0,0,0,0,0,0,0,0],"sum_hessian":[5.679198E5,1.784674E5,3.894524E5,1.781776E5,2.8981094E2,3.8270912E5,6.743267E3,1.2761481E3,3.8143297E5,2.882073E3,3.8611938E3,1.0537993E3,2.2234883E2,3.8115747E5,2.7552466E2,3.0148468E0,1.0507844E3,2.1080044E5,1.7035702E5,7.200724E1,2.0351741E2,2.1072298E5,7.744869E1,3.5653555E4,1.3470347E5,9.354663E0,2.1071364E5,9.135606E4,4.3347406E4],"tree_param":{"num_deleted":"0","num_feature":"378","num_nodes":"29","size_leaf_vector":"1"}},{"base_weights":[5.568463E-2,-4.0744882E-2,3E0,2.4E-1,-3.9640658E-2],"categories":[],"categories_nodes":[],"categories_segments":[],"categories_sizes":[],"default_left":[0,0,0,0,0],"id":46,"left_children":[1,-1,3,-1,-1],"loss_changes":[1.6724208E5,0E0,1.3494062E3,0E0,0E0],"parents":[2147483647,0,0,2,2],"right_children":[2,-1,4,-1,-1],"split_conditions":[9.9964625E-1,-4.0744882E-2,-7.574844E-1,2.4E-1,-3.9640658E-2],"split_indices":[369,0,314,0,0],"split_type":[0,0,0,0,0],"sum_hessian":[6.0164098E4,5.5931285E4,4.2328145E3,4.123066E3,1.0974859E2],"tree_param":{"num_deleted":"0","num_feature":"378","num_nodes":"5","size_leaf_vector":"1"}},{"base_weights":[5.1919655E-3,2.288977E0,-5.339623E-1,-4.279765E-2,1.8428375E-1,-5.3636813E-1,-2.9037975E-2,1.3271707E-1,-5.364331E-1,1.8381506E-1,-4.2971615E-2,-4.561744E-1,-4.2943805E-2,-4.3215428E-2,1.8775736E-1],"categories":[],"categories_nodes":[],"categories_segments":[],"categories_sizes":[],"default_left":[0,0,0,0,0,0,0,0,0,0,0,0,0,0,0],"id":47,"left_children":[1,3,5,-1,-1,7,9,-1,11,-1,-1,13,-1,-1,-1],"loss_changes":[2.8556144E5,1.8252188E3,2.273711E2,0E0,0E0,2.9238281E1,1.0599034E3,0E0,4.6679688E0,0E0,0E0,2.0726527E2,0E0,0E0,0E0],"parents":[2147483647,0,0,1,1,2,2,5,5,6,6,8,8,11,11],"right_children":[2,4,6,-1,-1,8,10,-1,12,-1,-1,14,-1,-1,-1],"split_conditions":[-5.147902E-1,-8.865051E-3,4.8355883E-1,-4.279765E-2,1.8428375E-1,-8.2923734E-1,-7.6481104E-2,1.3271707E-1,-3.8817352E-1,1.8381506E-1,-4.2971615E-2,-1.1246443E-1,-4.2943805E-2,-4.3215428E-2,1.8775736E-1],"split_indices":[339,330,322,0,0,328,339,0,339,0,0,322,0,0,0],"split_type":[0,0,0,0,0,0,0,0,0,0,0,0,0,0,0],"sum_hessian":[2.3190931E5,4.4291387E4,1.8761792E5,2.2680191E2,4.4064586E4,1.867271E5,8.9082733E2,3.7851593E0,1.8672331E5,1.5823032E2,7.32597E2,8.6176556E2,1.8586155E5,8.3842834E2,2.3337217E1],"tree_param":{"num_deleted":"0","num_feature":"378","num_nodes":"15","size_leaf_vector":"1"}},{"base_weights":[4.2802833E-2,-5.0215495E-1,3E0,-5.137164E-1,3.8122344E-1,3E0,-3.9215025E-1,-5.144039E-1,-3.2903588E-1,3E0,-4.8686317E-1,8.685624E-2,3E0,-4.7024143E-1,2.26741E0,-4.121375E-2,-4.6986723E-1,-4.7974882E-1,2.0631716E0,2.4E-1,-3.6487985E-2,-5.134582E-1,2.165682E0,3E0,-3.981849E-1,3E0,-3.350628E-2,-4.8704386E-1,1.9024464E-1,2.4E-1,-3.0011715E-2,3E0,-5.056428E-1,-4.9762303E-1,7.7523634E-2,3E0,-2.7597984E-2,-4.1272603E-2,1.48174595E-2,-1.8033018E-2,2.4E-1,2.4E-1,-1.152162E-2,1.0489281E-1,-4.736852E-1,3E0,-2.5506284E-2,-4.9933025E-1,1.2525919E-1,2.4E-1,-1.7116873E-2,-5.139441E-1,3.034079E-1,5.171974E-2,-4.0666938E-2,-0E0,2.4E-1,1.3061958E-2,-3.9949585E-2,3E0,-1.4185443E-2,-0E0,-5.084864E-1,-4.1237872E-2,1.2312048E-2,1.9424568E-1,-3.232417E-2,3.6582753E-2,-1.6302874E-2,-1.25357555E-2,2.4E-1,1.04055345E-1,-3.254291E-2,-0E0,-4.0928457E-2],"categories":[],"categories_nodes":[],"categories_segments":[],"categories_sizes":[],"default_left":[0,0,0,0,0,0,0,0,0,0,0,0,0,0,0,0,0,0,0,0,0,0,0,0,0,0,0,0,0,0,0,0,0,0,0,0,0,0,0,0,0,0,0,0,0,0,0,0,0,0,0,0,0,0,0,0,0,0,0,0,0,0,0,0,0,0,0,0,0,0,0,0,0,0,0],"id":48,"left_children":[1,3,5,7,9,11,13,15,17,19,21,23,25,27,29,-1,31,33,35,-1,-1,37,39,41,43,45,-1,47,-1,-1,-1,49,51,53,-1,55,-1,-1,-1,-1,-1,-1,-1,-1,57,59,-1,61,-1,-1,-1,63,65,67,-1,-1,-1,-1,-1,69,-1,71,73,-1,-1,-1,-1,-1,-1,-1,-1,-1,-1,-1,-1],"loss_changes":[2.1661436E5,9.1140625E2,8.721547E3,1.0486328E1,3.5118586E3,8.3103125E2,1.6109239E2,2.2363281E0,1.2391901E2,2.8615918E2,6.966005E1,1.6256102E2,1.6304688E2,3.8923523E1,9.5016975E1,0E0,2.0073468E2,9.677284E0,6.596953E1,0E0,0E0,1.8831635E0,3.284364E1,2.4098862E1,1.3496867E1,6.8875E1,0E0,2.0953812E1,0E0,0E0,0E0,3.5361557E1,1.0599884E1,1.9455719E0,0E0,1.8677963E1,0E0,0E0,0E0,0E0,0E0,0E0,0E0,0E0,1.7062931E0,2.8671875E1,0E0,2.919098E0,0E0,0E0,0E0,1.7632141E0,2.933382E1,1.6156691E0,0E0,0E0,0E0,0E0,0E0,2.5375E1,0E0,1.0877934E1,6.9677734E-1,0E0,0E0,0E0,0E0,0E0,0E0,0E0,0E0,0E0,0E0,0E0,0E0],"parents":[2147483647,0,0,1,1,2,2,3,3,4,4,5,5,6,6,7,7,8,8,9,9,10,10,11,11,12,12,13,13,14,14,16,16,17,17,18,18,21,21,22,22,23,23,24,24,25,25,27,27,31,31,32,32,33,33,35,35,44,44,45,45,47,47,51,51,52,52,53,53,59,59,61,61,62,62],"right_children":[2,4,6,8,10,12,14,16,18,20,22,24,26,28,30,-1,32,34,36,-1,-1,38,40,42,44,46,-1,48,-1,-1,-1,50,52,54,-1,56,-1,-1,-1,-1,-1,-1,-1,-1,58,60,-1,62,-1,-1,-1,64,66,68,-1,-1,-1,-1,-1,70,-1,72,74,-1,-1,-1,-1,-1,-1,-1,-1,-1,-1,-1,-1],"split_conditions":[8.270553E-1,5.030412E-1,6.33784E-1,7.177885E-1,1.1723714E-1,1.9004294E-1,-2.2710646E-2,3.9088386E-1,1.0801935E0,-3.6888152E-1,2.706221E-2,-8.568311E-1,6.5012455E-1,1.2607657E0,-8.5984397E-1,-4.121375E-2,-5.8092487E-1,-1.3029581E-2,1.3627329E0,2.4E-1,-3.6487985E-2,-3.7706822E-2,5.9669876E-1,1.3046813E0,1.18349485E-1,1.3695675E0,-3.350628E-2,2.3986967E0,1.9024464E-1,2.4E-1,-3.0011715E-2,-8.7084603E-1,9.0996045E-1,-4.9014854E-1,7.7523634E-2,4.0104333E-1,-2.7597984E-2,-4.1272603E-2,1.48174595E-2,-1.8033018E-2,2.4E-1,2.4E-1,-1.152162E-2,1.0489281E-1,-8.464681E-1,1.5071805E-1,-2.5506284E-2,-8.842131E-1,1.2525919E-1,2.4E-1,-1.7116873E-2,4.6494114E-1,1.0364369E0,-6.5228474E-1,-4.0666938E-2,-0E0,2.4E-1,1.3061958E-2,-3.9949585E-2,8.15459E-3,-1.4185443E-2,4.0692785E-1,-8.278717E-1,-4.1237872E-2,1.2312048E-2,1.9424568E-1,-3.232417E-2,3.6582753E-2,-1.6302874E-2,-1.25357555E-2,2.4E-1,1.04055345E-1,-3.254291E-2,-0E0,-4.0928457E-2],"split_indices":[332,352,355,332,345,343,350,332,349,358,356,363,326,372,318,0,351,341,0,0,0,331,350,0,339,0,0,349,0,0,0,358,349,351,0,375,0,0,0,0,0,0,0,0,318,353,0,333,0,0,0,350,324,319,0,0,0,0,0,375,0,374,369,0,0,0,0,0,0,0,0,0,0,0,0],"split_type":[0,0,0,0,0,0,0,0,0,0,0,0,0,0,0,0,0,0,0,0,0,0,0,0,0,0,0,0,0,0,0,0,0,0,0,0,0,0,0,0,0,0,0,0,0,0,0,0,0,0,0,0,0,0,0,0,0,0,0,0,0,0,0,0,0,0,0,0,0,0,0,0,0,0,0],"sum_hessian":[1.0030354E5,8.91779E4,1.11256455E4,8.802722E4,1.1506737E3,1.036829E4,7.57355E2,8.769449E4,3.327281E2,2.1265334E2,9.380203E2,9.8565384E1,1.0269725E4,7.3753357E2,1.9821411E1,8.6176055E4,1.5184406E3,3.1470883E2,1.8019247E1,1.8935297E2,2.3300356E1,9.304924E2,7.5279837E0,1.1566244E1,8.6999146E1,1.02564E4,1.3325019E1,7.3503107E2,2.5024722E0,1.1133352E1,8.688059E0,1.3059616E1,1.5053809E3,3.1251144E2,2.1973805E0,1.1234689E1,6.784558E0,9.284762E2,2.01613E0,3.2386374E0,4.289346E0,9.4736395E0,2.0926046E0,2.0153804E0,8.4983765E1,1.0250677E4,5.723232E0,7.3240454E2,2.6265323E0,1.00596285E1,2.9999876E0,1.4914255E3,1.3955316E1,4.939052E0,3.075724E2,2.2106278E0,9.024061E0,2.1242108E0,8.285955E1,1.024822E4,2.457063E0,1.3989983E1,7.1841455E2,1.4892203E3,2.2053082E0,2.4474945E0,1.1507821E1,2.0548468E0,2.8842053E0,2.185379E0,1.0246034E4,2.0578287E0,1.1932154E1,5.1365385E0,7.13278E2],"tree_param":{"num_deleted":"0","num_feature":"378","num_nodes":"75","size_leaf_vector":"1"}},{"base_weights":[5.7334624E-2,-5.060054E-1,3E0,-5.0899047E-1,2.4E-1,-4.0486082E-2,2.4E-1,-3.8589406E-1,-4.0734556E-2,-3.9520036E-2,1.815191E-1],"categories":[],"categories_nodes":[],"categories_segments":[],"categories_sizes":[],"default_left":[0,0,0,0,0,0,0,0,0,0,0],"id":49,"left_children":[1,3,5,7,-1,-1,-1,9,-1,-1,-1],"loss_changes":[1.6173612E5,8.9139355E2,4.742375E3,5.878906E-1,0E0,0E0,0E0,3.1589268E1,0E0,0E0,0E0],"parents":[2147483647,0,0,1,1,2,2,3,3,7,7],"right_children":[2,4,6,8,-1,-1,-1,10,-1,-1,-1],"split_conditions":[4.5292246E-1,2.1202698E0,1.3172595E-1,-3.165966E0,2.4E-1,-4.0486082E-2,2.4E-1,2.2229164E0,-4.0734556E-2,-3.9520036E-2,1.815191E-1],"split_indices":[327,326,333,249,0,0,0,117,0,0,0],"split_type":[0,0,0,0,0,0,0,0,0,0,0],"sum_hessian":[5.941115E4,5.5010914E4,4.400238E3,5.499123E4,1.9681541E1,3.8509305E2,4.0151448E3,9.5734795E1,5.4895496E4,9.373414E1,2.0006518E0],"tree_param":{"num_deleted":"0","num_feature":"378","num_nodes":"11","size_leaf_vector":"1"}},{"base_weights":[1.0582978E-2,-5.17229E-1,2.248771E0,-5.2532613E-1,8.492462E-1,2.6097164E0,-4.28818E-2,-5.289385E-1,-3.5755304E-1,2.597899E0,-5.085992E-1,2.6113398E0,-9.4257074E-4,-5.290725E-1,-2.0106338E-1,2.41297E0,-5.16906E-1,2.1022913E-1,-2.1695236E-2,1.0179071E0,-4.2279683E-2,2.0892835E-1,-1.6904E-2,1.2373027E-1,-3.636595E-2,-5.094106E-1,-5.308498E-1,1.5288174E0,-4.067396E-2,-3.1903666E-2,2.0591417E-1,-2.0672642E-1,-4.2221323E-2,1.4855555E-1,-1.5342238E-2,2.0699635E0,-5.3326213E-1,-4.247196E-2,-1.8066073E-2,2.025037E-1,-2.0514425E-2,-4.1476052E-2,2.2085416E0,-2.7050588E-2,2.154849E-1,-1.6197115E-2,-4.270527E-2,1.103471E-1,-3.4386456E-2,2.034208E-1,2.8262159E-2],"categories":[],"categories_nodes":[],"categories_segments":[],"categories_sizes":[],"default_left":[0,0,0,0,0,0,0,0,0,0,0,0,0,0,0,0,0,0,0,0,0,0,0,0,0,0,0,0,0,0,0,0,0,0,0,0,0,0,0,0,0,0,0,0,0,0,0,0,0,0,0],"id":50,"left_children":[1,3,5,7,9,11,-1,13,15,17,19,21,23,25,27,29,31,-1,-1,33,-1,-1,-1,-1,-1,35,37,39,-1,-1,-1,41,-1,-1,-1,43,45,-1,47,-1,-1,-1,49,-1,-1,-1,-1,-1,-1,-1,-1],"loss_changes":[2.3566155E5,1.7873398E3,3.8265766E4,9.652344E1,2.2641824E3,1.4284375E2,0E0,6.2617188E0,1.5011672E3,3.739453E1,1.7924057E1,2.640625E1,1.8831553E1,4.6757812E0,3.944136E1,8.605298E1,1.0182678E1,0E0,0E0,9.4446945E0,0E0,0E0,0E0,0E0,0E0,8.085454E2,3.1210938E0,2.200176E1,0E0,0E0,0E0,8.923398E1,0E0,0E0,0E0,1.8334375E2,1.7290039E0,0E0,1.2263558E1,0E0,0E0,0E0,4.497856E0,0E0,0E0,0E0,0E0,0E0,0E0,0E0,0E0],"parents":[2147483647,0,0,1,1,2,2,3,3,4,4,5,5,7,7,8,8,9,9,10,10,11,11,12,12,13,13,14,14,15,15,16,16,19,19,25,25,26,26,27,27,31,31,35,35,36,36,38,38,42,42],"right_children":[2,4,6,8,10,12,-1,14,16,18,20,22,24,26,28,30,32,-1,-1,34,-1,-1,-1,-1,-1,36,38,40,-1,-1,-1,42,-1,-1,-1,44,46,-1,48,-1,-1,-1,50,-1,-1,-1,-1,-1,-1,-1,-1],"split_conditions":[9.751016E-1,4.1412374E-1,5.676303E-1,2.1196682E0,-8.0322266E-1,1.4285344E-2,-4.28818E-2,3.1126018E0,1.7214517E-1,1.0285984E0,-4.1824448E-1,1.07648775E-1,-1.5583155E-1,-7.082967E-1,-1.5583155E-1,-4.7222865E-1,5.149156E-1,2.1022913E-1,-2.1695236E-2,1.4223814E0,-4.2279683E-2,2.0892835E-1,-1.6904E-2,1.2373027E-1,-3.636595E-2,1.7214517E-1,4.1504493E0,-5.1163244E-1,-4.067396E-2,-3.1903666E-2,2.0591417E-1,1.7736951E0,-4.2221323E-2,1.4855555E-1,-1.5342238E-2,6.7829967E-1,2.9994082E-1,-4.247196E-2,-2.50914E-3,2.025037E-1,-2.0514425E-2,-4.1476052E-2,-4.3465883E-2,-2.7050588E-2,2.154849E-1,-1.6197115E-2,-4.270527E-2,1.103471E-1,-3.4386456E-2,2.034208E-1,2.8262159E-2],"split_indices":[373,373,323,138,323,340,0,119,375,321,340,327,328,338,328,376,375,0,0,0,0,0,0,0,0,375,302,367,0,0,0,316,0,0,0,320,375,0,311,0,0,0,356,0,0,0,0,0,0,0,0],"split_type":[0,0,0,0,0,0,0,0,0,0,0,0,0,0,0,0,0,0,0,0,0,0,0,0,0,0,0,0,0,0,0,0,0,0,0,0,0,0,0,0,0,0,0,0,0,0,0,0,0,0,0],"sum_hessian":[1.9947919E5,1.6141534E5,3.8063832E4,1.604661E5,9.49256E2,3.369662E4,4.3672124E3,1.570768E5,3.3892957E3,4.1428085E2,5.349751E2,3.3675867E4,2.0750786E1,1.5700984E5,6.695141E1,1.8263136E2,3.2066643E3,4.1033768E2,3.9431949E0,5.2691813E0,5.2970593E2,3.3673035E4,2.8319492E0,3.3615897E0,1.7389194E1,1.3087105E4,1.4392273E5,8.656483E0,5.829493E1,9.560307E0,1.7307104E2,1.1139135E2,3.095273E3,2.7234201E0,2.5457613E0,1.18143715E2,1.2968962E4,1.4390777E5,1.4980268E1,5.187692E0,3.4687898E0,1.0023263E2,1.1158723E1,2.4324717E1,9.3819E1,2.4410788E1,1.2944551E4,2.0634863E0,1.2916781E1,8.599011E0,2.559711E0],"tree_param":{"num_deleted":"0","num_feature":"378","num_nodes":"51","size_leaf_vector":"1"}},