{"learner":{"attributes":{"best_iteration":"78","best_score":"0.04007574417827049","scikit_learn":"{\"_estimator_type\": \"classifier\"}"},"feature_names":[],"feature_types":[],"gradient_booster":{"model":{"cats":{"enc":[],"feature_segments":[],"sorted_idx":[]},"gbtree_model_param":{"num_parallel_tree":"1","num_trees":"1309"},"iteration_indptr":[0,11,22,33,44,55,66,77,88,99,110,121,132,143,154,165,176,187,198,209,220,231,242,253,264,275,286,297,308,319,330,341,352,363,374,385,396,407,418,429,440,451,462,473,484,495,506,517,528,539,550,561,572,583,594,605,616,627,638,649,660,671,682,693,704,715,726,737,748,759,770,781,792,803,814,825,836,847,858,869,880,891,902,913,924,935,946,957,968,979,990,1001,1012,1023,1034,1045,1056,1067,1078,1089,1100,1111,1122,1133,1144,1155,1166,1177,1188,1199,1210,1221,1232,1243,1254,1265,1276,1287,1298,1309],"tree_info":[0,1,2,3,4,5,6,7,8,9,10,0,1,2,3,4,5,6,7,8,9,10,0,1,2,3,4,5,6,7,8,9,10,0,1,2,3,4,5,6,7,8,9,10,0,1,2,3,4,5,6,7,8,9,10,0,1,2,3,4,5,6,7,8,9,10,0,1,2,3,4,5,6,7,8,9,10,0,1,2,3,4,5,6,7,8,9,10,0,1,2,3,4,5,6,7,8,9,10,0,1,2,3,4,5,6,7,8,9,10,0,1,2,3,4,5,6,7,8,9,10,0,1,2,3,4,5,6,7,8,9,10,0,1,2,3,4,5,6,7,8,9,10,0,1,2,3,4,5,6,7,8,9,10,0,1,2,3,4,5,6,7,8,9,10,0,1,2,3,4,5,6,7,8,9,10,0,1,2,3,4,5,6,7,8,9,10,0,1,2,3,4,5,6,7,8,9,10,0,1,2,3,4,5,6,7,8,9,10,0,1,2,3,4,5,6,7,8,9,10,0,1,2,3,4,5,6,7,8,9,10,0,1,2,3,4,5,6,7,8,9,10,0,1,2,3,4,5,6,7,8,9,10,0,1,2,3,4,5,6,7,8,9,10,0,1,2,3,4,5,6,7,8,9,10,0,1,2,3,4,5,6,7,8,9,10,0,1,2,3,4,5,6,7,8,9,10,0,1,2,3,4,5,6,7,8,9,10,0,1,2,3,4,5,6,7,8,9,10,0,1,2,3,4,5,6,7,8,9,10,0,1,2,3,4,5,6,7,8,9,10,0,1,2,3,4,5,6,7,8,9,10,0,1,2,3,4,5,6,7,8,9,10,0,1,2,3,4,5,6,7,8,9,10,0,1,2,3,4,5,6,7,8,9,10,0,1,2,3,4,5,6,7,8,9,10,0,1,2,3,4,5,6,7,8,9,10,0,1,2,3,4,5,6,7,8,9,10,0,1,2,3,4,5,6,7,8,9,10,0,1,2,3,4,5,6,7,8,9,10,0,1,2,3,4,5,6,7,8,9,10,0,1,2,3,4,5,6,7,8,9,10,0,1,2,3,4,5,6,7,8,9,10,0,1,2,3,4,5,6,7,8,9,10,0,1,2,3,4,5,6,7,8,9,10,0,1,2,3,4,5,6,7,8,9,10,0,1,2,3,4,5,6,7,8,9,10,0,1,2,3,4,5,6,7,8,9,10,0,1,2,3,4,5,6,7,8,9,10,0,1,2,3,4,5,6,7,8,9,10,0,1,2,3,4,5,6,7,8,9,10,0,1,2,3,4,5,6,7,8,9,10,0,1,2,3,4,5,6,7,8,9,10,0,1,2,3,4,5,6,7,8,9,10,0,1,2,3,4,5,6,7,8,9,10,0,1,2,3,4,5,6,7,8,9,10,0,1,2,3,4,5,6,7,8,9,10,0,1,2,3,4,5,6,7,8,9,10,0,1,2,3,4,5,6,7,8,9,10,0,1,2,3,4,5,6,7,8,9,10,0,1,2,3,4,5,6,7,8,9,10,0,1,2,3,4,5,6,7,8,9,10,0,1,2,3,4,5,6,7,8,9,10,0,1,2,3,4,5,6,7,8,9,10,0,1,2,3,4,5,6,7,8,9,10,0,1,2,3,4,5,6,7,8,9,10,0,1,2,3,4,5,6,7,8,9,10,0,1,2,3,4,5,6,7,8,9,10,0,1,2,3,4,5,6,7,8,9,10,0,1,2,3,4,5,6,7,8,9,10,0,1,2,3,4,5,6,7,8,9,10,0,1,2,3,4,5,6,7,8,9,10,0,1,2,3,4,5,6,7,8,9,10,0,1,2,3,4,5,6,7,8,9,10,0,1,2,3,4,5,6,7,8,9,10,0,1,2,3,4,5,6,7,8,9,10,0,1,2,3,4,5,6,7,8,9,10,0,1,2,3,4,5,6,7,8,9,10,0,1,2,3,4,5,6,7,8,9,10,0,1,2,3,4,5,6,7,8,9,10,0,1,2,3,4,5,6,7,8,9,10,0,1,2,3,4,5,6,7,8,9,10,0,1,2,3,4,5,6,7,8,9,10,0,1,2,3,4,5,6,7,8,9,10,0,1,2,3,4,5,6,7,8,9,10,0,1,2,3,4,5,6,7,8,9,10,0,1,2,3,4,5,6,7,8,9,10,0,1,2,3,4,5,6,7,8,9,10,0,1,2,3,4,5,6,7,8,9,10,0,1,2,3,4,5,6,7,8,9,10,0,1,2,3,4,5,6,7,8,9,10,0,1,2,3,4,5,6,7,8,9,10,0,1,2,3,4,5,6,7,8,9,10,0,1,2,3,4,5,6,7,8,9,10,0,1,2,3,4,5,6,7,8,9,10,0,1,2,3,4,5,6,7,8,9,10,0,1,2,3,4,5,6,7,8,9,10,0,1,2,3,4,5,6,7,8,9,10,0,1,2,3,4,5,6,7,8,9,10,0,1,2,3,4,5,6,7,8,9,10,0,1,2,3,4,5,6,7,8,9,10,0,1,2,3,4,5,6,7,8,9,10,0,1,2,3,4,5,6,7,8,9,10,0,1,2,3,4,5,6,7,8,9,10,0,1,2,3,4,5,6,7,8,9,10,0,1,2,3,4,5,6,7,8,9,10,0,1,2,3,4,5,6,7,8,9,10,0,1,2,3,4,5,6,7,8,9,10,0,1,2,3,4,5,6,7,8,9,10,0,1,2,3,4,5,6,7,8,9,10,0,1,2,3,4,5,6,7,8,9,10,0,1,2,3,4,5,6,7,8,9,10,0,1,2,3,4,5,6,7,8,9,10,0,1,2,3,4,5,6,7,8,9,10,0,1,2,3,4,5,6,7,8,9,10,0,1,2,3,4,5,6,7,8,9,10,0,1,2,3,4,5,6,7,8,9,10,0,1,2,3,4,5,6,7,8,9,10,0,1,2,3,4,5,6,7,8,9,10],"trees":[{"base_weights":[-4.0269244E-4,-5.1463044E-1,3E0,-5.257775E-1,2.0127668E0,-4.2386502E-2,2.4E-1,-5.2881867E-1,2.68533E-1,2.4E-1,-4.653603E-1,-5.3176945E-1,-4.1458035E-1,2.4E-1,-5.258446E-1,3.8970485E-1,-4.1665006E-2,5.9032068E-3,-4.2542525E-2,2.4E-1,-4.02967E-2,4.500707E-3,-4.23382E-2,-3.7631895E-2,2.4E-1],"categories":[],"categories_nodes":[],"categories_segments":[],"categories_sizes":[],"default_left":[0,0,0,0,0,0,0,0,0,0,0,0,0,0,0,0,0,0,0,0,0,0,0,0,0],"id":0,"left_children":[1,3,5,7,9,-1,-1,11,13,-1,15,17,19,-1,21,23,-1,-1,-1,-1,-1,-1,-1,-1,-1],"loss_changes":[4.372426E5,4.482383E3,8.638719E3,3.8280078E2,5.296368E3,0E0,0E0,5.239453E1,2.3142598E3,0E0,2.4341087E1,1.2421875E0,1.8459388E3,0E0,1.1755676E0,8.2190735E1,0E0,0E0,0E0,0E0,0E0,0E0,0E0,0E0,0E0],"parents":[2147483647,0,0,1,1,2,2,3,3,4,4,7,7,8,8,10,10,11,11,12,12,14,14,15,15],"right_children":[2,4,6,8,10,-1,-1,12,14,-1,16,18,20,-1,22,24,-1,-1,-1,-1,-1,-1,-1,-1,-1],"split_conditions":[1.5402187E0,1.0227191E0,7.124145E-2,8.9067614E-1,-3.4545856E-3,-4.2386502E-2,2.4E-1,5.764807E-1,-9.6733496E-2,2.4E-1,3.963202E-1,-9.2370456E-1,-8.335942E-1,2.4E-1,3.0032346E-1,-9.297843E-1,-4.1665006E-2,5.9032068E-3,-4.2542525E-2,2.4E-1,-4.02967E-2,4.500707E-3,-4.23382E-2,-3.7631895E-2,2.4E-1],"split_indices":[31,52,51,52,56,0,0,24,56,0,62,19,19,0,2,11,0,0,0,0,0,0,0,0,0],"split_type":[0,0,0,0,0,0,0,0,0,0,0,0,0,0,0,0,0,0,0,0,0,0,0,0,0],"sum_hessian":[1.6958384E5,1.5898786E5,1.0595986E4,1.582915E5,6.9636334E2,6.926134E2,9.903373E3,1.5768906E5,6.0243665E2,1.9942871E2,4.969346E2,1.5370711E5,3.9819504E3,5.456404E1,5.478726E2,2.8980928E1,4.6795367E2,2.0114195E0,1.537051E5,4.826602E1,3.9336843E3,2.1309507E0,5.4574164E2,2.3357542E1,5.623386E0],"tree_param":{"num_deleted":"0","num_feature":"64","num_nodes":"25","size_leaf_vector":"1"}},{"base_weights":[1.809902E-4,2.0914154E0,-6.406537E-1,1.678882E-1,-5.1501006E-2,-1.6383617E-1,-6.556196E-1,2.0887465E0,-6.5559757E-1,-5.8557034E-1,-5.247862E-2,-3.5326947E-2,1.6772501E-1,-5.249667E-2,2.2100505E-1,1.9586722E0,-5.2439895E-2,8.058277E-2,-2.7750906E-2,1.9384664E-2,1.609752E-1],"categories":[],"categories_nodes":[],"categories_segments":[],"categories_sizes":[],"default_left":[0,0,0,0,0,0,0,0,0,0,0,0,0,0,0,0,0,0,0,0,0],"id":1,"left_children":[1,3,5,-1,-1,7,9,11,13,15,-1,-1,-1,-1,17,19,-1,-1,-1,-1,-1],"loss_changes":[7.279011E5,2.5075625E3,2.9660156E3,0E0,0E0,1.4023676E4,9.140625E0,4.694043E1,5.9648438E0,3.78063E2,0E0,0E0,0E0,0E0,5.6958494E0,2.4134674E0,0E0,0E0,0E0,0E0,0E0],"parents":[2147483647,0,0,1,1,2,2,5,5,6,6,7,7,8,8,9,9,14,14,15,15],"right_children":[2,4,6,-1,-1,8,10,12,14,16,-1,-1,-1,-1,18,20,-1,-1,-1,-1,-1],"split_conditions":[-1.3185275E-1,3.6193597E-1,-7.502439E-2,1.678882E-1,-5.1501006E-2,1.8930297E-1,-6.708484E-2,-7.337833E-2,3.8601792E-1,1.3501783E-1,-5.247862E-2,-3.5326947E-2,1.6772501E-1,-5.249667E-2,-4.6110877E-1,-3.794746E-2,-5.2439895E-2,8.058277E-2,-2.7750906E-2,1.9384664E-2,1.609752E-1],"split_indices":[15,29,15,0,0,29,15,37,4,53,0,0,0,0,0,31,0,0,0,0,0],"split_type":[0,0,0,0,0,0,0,0,0,0,0,0,0,0,0,0,0,0,0,0,0],"sum_hessian":[5.4314825E5,1.2740009E5,4.1574812E5,1.2706684E5,3.3324814E2,1.2653714E4,4.030944E5,2.266084E3,1.038763E4,2.102442E3,4.0099197E5,6.439472E0,2.2596443E3,1.0381469E4,6.1612225E0,5.4603436E1,2.0478384E3,2.3040802E0,3.8571422E0,2.2679E0,5.2335537E1],"tree_param":{"num_deleted":"0","num_feature":"64","num_nodes":"21","size_leaf_vector":"1"}},{"base_weights":[1.8056543E-4,-5.097352E-1,3E0,-4.085412E-2,-4.3074E-1,2.4E-1,-4.0554747E-2,-4.0711522E-2,2.4E-1],"categories":[],"categories_nodes":[],"categories_segments":[],"categories_sizes":[],"default_left":[0,0,0,0,0,0,0,0,0],"id":2,"left_children":[1,3,5,-1,7,-1,-1,-1,-1],"loss_changes":[1.8722248E5,3.8076172E0,4.6305938E3,0E0,3.5239264E2,0E0,0E0,0E0,0E0],"parents":[2147483647,0,0,1,1,2,2,4,4],"right_children":[2,4,6,-1,8,-1,-1,-1,-1],"split_conditions":[1.0887734E0,9.544834E-1,-4.7296727E-1,-4.085412E-2,4.6338138E-1,2.4E-1,-4.0554747E-2,-4.0711522E-2,2.4E-1],"split_indices":[9,9,12,0,4,0,0,0,0],"split_type":[0,0,0,0,0,0,0,0,0],"sum_hessian":[6.278963E4,6.106927E4,1.7203627E3,6.033309E4,7.3617676E2,1.3445474E3,3.7581537E2,7.3375415E2,2.422608E0],"tree_param":{"num_deleted":"0","num_feature":"64","num_nodes":"9","size_leaf_vector":"1"}},{"base_weights":[1.5932196E-4,-5.390938E-1,3E0,3E0,-5.419305E-1,3E0,-5.2712E-1,-4.1533798E-2,2.4E-1,-5.4375863E-1,-5.602258E-2,2.4E-1,-2.1449463E-1,-5.360223E-1,2.4E-1,-4.354035E-2,-4.859904E-1,2.4E-1,-5.2470005E-1,-3.3929165E-2,1.2850928E-1,-5.400952E-1,-1.3441312E-1,2.4E-1,-4.322214E-2,1.631663E-2,-4.336695E-2,-4.3484285E-2,-2.3237769E-2,1.334879E-1,-3.779141E-2],"categories":[],"categories_nodes":[],"categories_segments":[],"categories_sizes":[],"default_left":[0,0,0,0,0,0,0,0,0,0,0,0,0,0,0,0,0,0,0,0,0,0,0,0,0,0,0,0,0,0,0],"id":3,"left_children":[1,3,5,7,9,11,13,-1,-1,15,17,-1,19,21,-1,-1,23,-1,25,-1,-1,27,29,-1,-1,-1,-1,-1,-1,-1,-1],"loss_changes":[5.374362E5,2.223129E3,2.5035344E4,7.6502454E2,1.8034375E2,3.795E2,7.3630005E1,0E0,0E0,4.9882812E0,1.6766888E3,0E0,1.7099548E1,2.677246E0,0E0,0E0,4.6975577E2,0E0,9.378433E0,0E0,0E0,1.0081177E0,1.7593884E1,0E0,0E0,0E0,0E0,0E0,0E0,0E0,0E0],"parents":[2147483647,0,0,1,1,2,2,3,3,4,4,5,5,6,6,9,9,10,10,12,12,13,13,16,16,18,18,21,21,22,22],"right_children":[2,4,6,8,10,12,14,-1,-1,16,18,-1,20,22,-1,-1,24,-1,26,-1,-1,28,30,-1,-1,-1,-1,-1,-1,-1,-1],"split_conditions":[4.146118E-1,-8.58429E-1,-7.353808E-2,3.4733632E-1,3.6777773E-1,1.5974751E-1,8.2393706E-1,-4.1533798E-2,2.4E-1,2.9128537E-1,-4.2063892E-1,2.4E-1,1.3794872E0,1.3001177E-1,2.4E-1,-4.354035E-2,-5.573896E-1,2.4E-1,-2.130174E-1,-3.3929165E-2,1.2850928E-1,4.3982774E-1,1.4090449E-1,2.4E-1,-4.322214E-2,1.631663E-2,-4.336695E-2,-4.3484285E-2,-2.3237769E-2,1.334879E-1,-3.779141E-2],"split_indices":[16,32,7,6,16,47,11,0,0,16,47,0,10,11,0,0,32,0,32,0,0,50,23,0,0,0,0,0,0,0,0],"split_type":[0,0,0,0,0,0,0,0,0,0,0,0,0,0,0,0,0,0,0,0,0,0,0,0,0,0,0,0,0,0,0],"sum_hessian":[2.2395522E5,2.0381523E5,2.0139984E4,1.4767671E2,2.0366756E5,1.8128307E4,2.0116779E3,6.106276E1,8.661396E1,2.029029E5,7.646507E2,1.8092004E4,3.630181E1,2.0089E3,2.7778165E0,2.0115102E5,1.7518828E3,5.395285E1,7.106978E2,3.417616E1,2.12565E0,1.9868163E3,2.2083698E1,1.4444416E1,1.7374385E3,1.5392729E1,6.953051E2,1.9553674E3,3.1448816E1,2.0096288E0,2.0074068E1],"tree_param":{"num_deleted":"0","num_feature":"64","num_nodes":"31","size_leaf_vector":"1"}},{"base_weights":[1.3182996E-4,-5.0616235E-1,3E0,-5.1652503E-1,5.096234E-1,-5.0955856E-1,3E0,-5.173136E-1,-2.878971E-1,3E0,-4.858048E-1,1.3877264E-2,-4.102632E-2,3E0,-4.047923E-2,-4.1445497E-2,-4.6816766E-1,3E0,-4.7208816E-1,-3.730169E-2,2.4E-1,1.1428059E0,-5.100907E-1,3E0,-2.1961476E-1,2.4E-1,-4.0582266E-2,2.4E-1,-2.0024346E-2,1.2522928E-1,-3.9697006E-2,-3.0586528E-2,2.4E-1,-4.132584E-2,7.344512E-4,4.905276E-3,2.4E-1,-3.477199E-2,5.800788E-2],"categories":[],"categories_nodes":[],"categories_segments":[],"categories_sizes":[],"default_left":[0,0,0,0,0,0,0,0,0,0,0,0,0,0,0,0,0,0,0,0,0,0,0,0,0,0,0,0,0,0,0,0,0,0,0,0,0,0,0],"id":4,"left_children":[1,3,5,7,9,11,13,15,17,19,21,-1,-1,23,-1,-1,25,27,29,-1,-1,31,33,35,37,-1,-1,-1,-1,-1,-1,-1,-1,-1,-1,-1,-1,-1,-1],"loss_changes":[2.827859E5,1.0306992E3,8.5658125E3,1.6791016E1,4.6947607E3,1.825943E0,1.51375E3,2.8105469E0,2.9315024E2,3.3857275E2,3.705327E1,0E0,0E0,1.96E2,0E0,0E0,3.096259E2,4.431801E1,1.860888E1,0E0,0E0,6.963631E1,2.987793E0,1.96875E1,5.475295E0,0E0,0E0,0E0,0E0,0E0,0E0,0E0,0E0,0E0,0E0,0E0,0E0,0E0,0E0],"parents":[2147483647,0,0,1,1,2,2,3,3,4,4,5,5,6,6,7,7,8,8,9,9,10,10,13,13,16,16,17,17,18,18,21,21,22,22,23,23,24,24],"right_children":[2,4,6,8,10,12,14,16,18,20,22,-1,-1,24,-1,-1,26,28,30,-1,-1,32,34,36,38,-1,-1,-1,-1,-1,-1,-1,-1,-1,-1,-1,-1,-1,-1],"split_conditions":[8.298934E-1,5.0321907E-1,-2.4419783E-1,7.174254E-1,-7.4026173E-1,5.6114244E-1,3.8235468E-1,3.9105502E-1,-4.909608E-1,2.9199826E-2,-7.889643E-1,1.3877264E-2,-4.102632E-2,1.6172132E0,-4.047923E-2,-4.1445497E-2,-5.8224523E-1,-8.5730916E-1,-8.4859574E-1,-3.730169E-2,2.4E-1,-5.564656E-1,-1.8935946E-1,-2.4707066E-1,1.3072679E0,2.4E-1,-4.0582266E-2,2.4E-1,-2.0024346E-2,1.2522928E-1,-3.9697006E-2,-3.0586528E-2,2.4E-1,-4.132584E-2,7.344512E-4,4.905276E-3,2.4E-1,-3.477199E-2,5.800788E-2],"split_indices":[18,38,29,18,4,54,44,18,37,18,49,0,0,20,0,0,37,11,36,0,0,10,3,38,2,0,0,0,0,0,0,0,0,0,0,0,0,0,0],"split_type":[0,0,0,0,0,0,0,0,0,0,0,0,0,0,0,0,0,0,0,0,0,0,0,0,0,0,0,0,0,0,0,0,0,0,0,0,0,0,0],"sum_hessian":[1.0222758E5,9.783951E4,4.3880693E3,9.685292E4,9.865823E2,6.947461E2,3.693323E3,9.651533E4,3.375977E2,9.661042E1,8.8997186E2,2.0861876E0,6.926599E2,3.570871E3,1.2245195E2,9.502597E4,1.4893597E3,9.268284E0,3.283294E2,2.7513557E1,6.909686E1,1.142041E1,8.7855145E2,3.552394E3,1.8477165E1,6.4257917E0,1.482934E3,5.5351377E0,3.7331464E0,2.1043496E0,3.2622504E2,9.298564E0,2.1218467E0,8.686806E2,9.870834E0,2.876772E0,3.549517E3,1.6361954E1,2.115211E0],"tree_param":{"num_deleted":"0","num_feature":"64","num_nodes":"39","size_leaf_vector":"1"}},{"base_weights":[6.0723242E-3,-4.0863506E-2,3E0,-3.9998375E-2,3E0,-1.5517725E-2,2.4E-1],"categories":[],"categories_nodes":[],"categories_segments":[],"categories_sizes":[],"default_left":[0,0,0,0,0,0,0],"id":5,"left_children":[1,-1,3,-1,5,-1,-1],"loss_changes":[1.9057858E5,0E0,1.7036562E3,0E0,3.26875E1,0E0,0E0],"parents":[2147483647,0,0,2,2,4,4],"right_children":[2,-1,4,-1,6,-1,-1],"split_conditions":[4.8215652E-1,-4.0863506E-2,8.9266986E-1,-3.9998375E-2,-6.660836E-2,-1.5517725E-2,2.4E-1],"split_indices":[49,0,12,0,13,0,0],"split_type":[0,0,0,0,0,0,0],"sum_hessian":[6.2085703E4,6.061291E4,1.4727932E3,1.3838141E2,1.3344117E3,2.802431E0,1.3316094E3],"tree_param":{"num_deleted":"0","num_feature":"64","num_nodes":"7","size_leaf_vector":"1"}},{"base_weights":[-3.0487413E-3,-5.2392864E-1,3E0,-5.281219E-1,4.2490453E-1,3E0,-4.2974792E-2,-4.27304E-1,-4.2975526E-2,-5.298983E-1,3E0,-3.9273243E-2,3E0,3E0,-5.3316504E-1,3.9194055E-2,-4.2818636E-2,2.4E-1,-2.2409214E-2,2.4E-1,-3.6138207E-2,-2.1992829E-2,2.4E-1,1.0720067E-2,-4.2894833E-2],"categories":[],"categories_nodes":[],"categories_segments":[],"categories_sizes":[],"default_left":[0,0,0,0,0,0,0,0,0,0,0,0,0,0,0,0,0,0,0,0,0,0,0,0,0],"id":6,"left_children":[1,3,5,7,9,11,-1,13,-1,15,17,-1,19,21,23,-1,-1,-1,-1,-1,-1,-1,-1,-1,-1],"loss_changes":[4.4501628E5,7.053828E2,5.2213E4,1.6052344E2,3.2682253E3,3.9553125E2,0E0,8.1525977E3,0E0,4.4677734E0,4.960742E1,0E0,2.0259375E2,4.8092773E1,2.9166016E1,0E0,0E0,0E0,0E0,0E0,0E0,0E0,0E0,0E0,0E0],"parents":[2147483647,0,0,1,1,2,2,3,3,4,4,5,5,7,7,9,9,10,10,12,12,13,13,14,14],"right_children":[2,4,6,8,10,12,-1,14,-1,16,18,-1,20,22,24,-1,-1,-1,-1,-1,-1,-1,-1,-1,-1],"split_conditions":[9.873236E-1,7.3620796E-1,-1.7502536E-1,-8.4042275E-1,3.7082902E-1,-5.0126962E-2,-4.2974792E-2,1.7010334E-1,-4.2975526E-2,-7.3514277E-1,-8.0209844E-2,-3.9273243E-2,3.7742603E-1,3.8910654E-1,3.9951918E-1,3.9194055E-2,-4.2818636E-2,2.4E-1,-2.2409214E-2,2.4E-1,-3.6138207E-2,-2.1992829E-2,2.4E-1,1.0720067E-2,-4.2894833E-2],"split_indices":[44,44,19,31,21,41,0,61,0,19,26,0,3,54,61,0,0,0,0,0,0,0,0,0,0],"split_type":[0,0,0,0,0,0,0,0,0,0,0,0,0,0,0,0,0,0,0,0,0,0,0,0,0],"sum_hessian":[1.9454522E5,1.7712044E5,1.742479E4,1.7634253E5,7.779073E2,1.3252373E4,4.172416E3,1.4570843E4,1.6177169E5,6.763199E2,1.015874E2,3.1767172E1,1.3220605E4,2.0565048E2,1.4365192E4,2.086278E0,6.742336E2,9.7469154E1,4.1182475E0,1.3204255E4,1.635069E1,3.9970052E0,2.0165349E2,6.3603443E1,1.4301589E4],"tree_param":{"num_deleted":"0","num_feature":"64","num_nodes":"25","size_leaf_vector":"1"}},{"base_weights":[-2.8481198E-4,3E0,-4.652195E-2,2.4E-1,-4.5608837E-2],"categories":[],"categories_nodes":[],"categories_segments":[],"categories_sizes":[],"default_left":[0,0,0,0,0],"id":7,"left_children":[1,3,-1,-1,-1],"loss_changes":[7.308376E5,1.8293125E3,0E0,0E0,0E0],"parents":[2147483647,0,0,1,1],"right_children":[2,4,-1,-1,-1],"split_conditions":[-2.1772774E-1,1.6897914E-1,-4.652195E-2,2.4E-1,-4.5608837E-2],"split_indices":[46,1,0,0,0],"split_type":[0,0,0,0,0],"sum_hessian":[3.614625E5,5.0826406E4,3.106361E5,5.068364E4,1.4276544E2],"tree_param":{"num_deleted":"0","num_feature":"64","num_nodes":"5","size_leaf_vector":"1"}},{"base_weights":[-1.5270249E-3,-4.2342506E-2,3E0,-4.5079726E-1,3E0,1.9501058E0,-4.989333E-1,-3.537711E-2,3E0,-1.9972514E-2,2.4E-1,-4.2068712E-2,2.1047023E-1,3E0,-2.6479162E-2,2.4E-1,-2.1817353E-2],"categories":[],"categories_nodes":[],"categories_segments":[],"categories_sizes":[],"default_left":[0,0,0,0,0,0,0,0,0,0,0,0,0,0,0,0,0],"id":8,"left_children":[1,-1,3,5,7,9,11,-1,13,-1,-1,-1,-1,15,-1,-1,-1],"loss_changes":[4.2558494E5,0E0,5.4578438E3,5.6118423E1,1.959375E2,3.399655E1,4.225109E1,0E0,7.103125E1,0E0,0E0,0E0,0E0,4.88125E1,0E0,0E0,0E0],"parents":[2147483647,0,0,2,2,3,3,4,4,5,5,6,6,8,8,13,13],"right_children":[2,-1,4,6,8,10,12,-1,14,-1,-1,-1,-1,16,-1,-1,-1],"split_conditions":[5.630436E-1,-4.2342506E-2,5.858753E-1,-7.490534E-1,1.8110214E-1,-9.2730856E-1,1.2629313E0,-3.537711E-2,5.1419795E-1,-1.9972514E-2,2.4E-1,-4.2068712E-2,2.1047023E-1,2.5590675E0,-2.6479162E-2,2.4E-1,-2.1817353E-2],"split_indices":[20,0,57,63,41,44,58,0,31,0,0,0,0,35,0,0,0],"split_type":[0,0,0,0,0,0,0,0,0,0,0,0,0,0,0,0,0],"sum_hessian":[1.5654238E5,1.473938E5,9.148582E3,4.576803E2,8.690902E3,7.238335E0,4.5044196E2,1.5893678E1,8.675008E3,3.5732746E0,3.6650605E0,4.4840805E2,2.0339184E0,8.669149E3,5.8588195E0,8.665075E3,4.0741367E0],"tree_param":{"num_deleted":"0","num_feature":"64","num_nodes":"17","size_leaf_vector":"1"}},{"base_weights":[-1.6794532E-3,-5.1144354E-2,2.2816427E0,-5.980896E-1,1.8342693E-1,1.2918602E-1,-5.0821617E-2],"categories":[],"categories_nodes":[],"categories_segments":[],"categories_sizes":[],"default_left":[0,0,0,0,0,0,0],"id":9,"left_children":[1,-1,3,5,-1,-1,-1],"loss_changes":[7.4359906E5,0E0,3.5971875E3,3.8551483E1,0E0,0E0,0E0],"parents":[2147483647,0,0,2,2,3,3],"right_children":[2,-1,4,6,-1,-1,-1],"split_conditions":[3.7742603E-1,-5.1144354E-2,3.9894447E-1,-2.0006122E-1,1.8342693E-1,1.2918602E-1,-5.0821617E-2],"split_indices":[3,0,63,8,0,0,0],"split_type":[0,0,0,0,0,0,0],"sum_hessian":[5.1074212E5,3.9925153E5,1.1149062E5,4.3112564E2,1.11059484E5,5.4994373E0,4.256262E2],"tree_param":{"num_deleted":"0","num_feature":"64","num_nodes":"7","size_leaf_vector":"1"}},{"base_weights":[7.3722866E-4,-5.215644E-1,3E0,5.678041E-1,-5.270043E-1,3E0,-4.233078E-2,2.4E-1,-4.206284E-2,3E0,-5.2767074E-1,2.4E-1,-2.151763E-2,2.4E-1,-3.453555E-2,-5.29954E-1,-2.181558E-1,-0E0,-4.240341E-2,2.4E-1,-4.236254E-2],"categories":[],"categories_nodes":[],"categories_segments":[],"categories_sizes":[],"default_left":[0,0,0,0,0,0,0,0,0,0,0,0,0,0,0,0,0,0,0,0,0],"id":10,"left_children":[1,3,5,7,9,11,-1,-1,-1,13,15,-1,-1,-1,-1,17,19,-1,-1,-1,-1],"loss_changes":[4.321793E5,9.1404297E2,1.0607375E4,3.833601E3,3.9190234E2,4.74375E1,0E0,0E0,0E0,1.6922263E2,1.0769141E2,0E0,0E0,0E0,0E0,7.0429688E0,1.870916E3,0E0,0E0,0E0,0E0],"parents":[2147483647,0,0,1,1,2,2,3,3,4,4,5,5,9,9,10,10,15,15,16,16],"right_children":[2,4,6,8,10,12,-1,-1,-1,14,16,-1,-1,-1,-1,18,20,-1,-1,-1,-1],"split_conditions":[2.2435963E0,-4.555162E-1,4.8344764E-3,1.6897914E-1,-9.391348E-1,3.7640333E-1,-4.233078E-2,2.4E-1,-4.206284E-2,-5.455492E-1,1.917837E0,2.4E-1,-2.151763E-2,2.4E-1,-3.453555E-2,-9.479209E-1,1.11601815E-1,-0E0,-4.240341E-2,2.4E-1,-4.236254E-2],"split_indices":[10,50,54,1,18,2,0,0,0,1,10,0,0,0,0,62,2,0,0,0,0],"split_type":[0,0,0,0,0,0,0,0,0,0,0,0,0,0,0,0,0,0,0,0,0],"sum_hessian":[1.643863E5,1.5408995E5,1.0296343E4,7.6415814E2,1.533258E5,9.445391E3,8.509529E2,9.21911E1,6.7196704E2,2.49664E1,1.5330083E5,9.441429E3,3.9616735E0,1.1232479E1,1.3733922E1,1.521752E5,1.12563E3,2.48517E1,1.5215034E5,3.857191E1,1.0870581E3],"tree_param":{"num_deleted":"0","num_feature":"64","num_nodes":"21","size_leaf_vector":"1"}},{"base_weights":[8.490008E-3,-5.13418E-1,3E0,-5.260939E-1,5.0592378E-2,3E0,-4.74171E-1,-5.294718E-1,-3.3629835E-1,-5.1699346E-1,3E0,-3.8935278E-2,2.4E-1,2.4E-1,-5.239134E-1,-4.241438E-2,-4.2983183E-1,-5.2462476E-1,3E0,2.4E-1,-4.2513907E-2,2.4E-1,-2.5351878E-2,3.400167E-2,-4.2358316E-2,2.4E-1,-4.0552385E-2,2.4E-1,-4.2493735E-2,2.4E-1,-2.4975572E-2],"categories":[],"categories_nodes":[],"categories_segments":[],"categories_sizes":[],"default_left":[0,0,0,0,0,0,0,0,0,0,0,0,0,0,0,0,0,0,0,0,0,0,0,0,0,0,0,0,0,0,0],"id":11,"left_children":[1,3,5,7,9,11,13,15,17,19,21,-1,-1,-1,23,-1,25,27,29,-1,-1,-1,-1,-1,-1,-1,-1,-1,-1,-1,-1],"loss_changes":[4.0204506E5,1.0998516E3,8.1127812E3,9.574219E1,8.898672E3,4.0709375E2,1.5568358E2,9.652344E0,2.4271125E3,2.166222E2,6.3870605E1,0E0,0E0,0E0,4.202057E0,0E0,3.3873114E2,6.965033E1,6.2295776E1,0E0,0E0,0E0,0E0,0E0,0E0,0E0,0E0,0E0,0E0,0E0,0E0],"parents":[2147483647,0,0,1,1,2,2,3,3,4,4,5,5,6,6,7,7,8,8,9,9,10,10,14,14,16,16,17,17,18,18],"right_children":[2,4,6,8,10,12,14,16,18,20,22,-1,-1,-1,24,-1,26,28,30,-1,-1,-1,-1,-1,-1,-1,-1,-1,-1,-1,-1],"split_conditions":[1.5402187E0,1.0901526E0,6.633613E-1,7.267979E-1,-4.20209E-1,-3.307381E-1,-6.162074E-1,1.2298037E0,-2.6809752E-1,-6.952415E-1,1.11601815E-1,-3.8935278E-2,2.4E-1,2.4E-1,3.0223164E-1,-4.241438E-2,2.8661987E-1,-7.256783E-1,1.11601815E-1,2.4E-1,-4.2513907E-2,2.4E-1,-2.5351878E-2,3.400167E-2,-4.2358316E-2,2.4E-1,-4.0552385E-2,2.4E-1,-4.2493735E-2,2.4E-1,-2.4975572E-2],"split_indices":[31,31,47,31,36,6,4,6,36,4,2,0,0,0,15,0,2,4,2,0,0,0,0,0,0,0,0,0,0,0,0],"split_type":[0,0,0,0,0,0,0,0,0,0,0,0,0,0,0,0,0,0,0,0,0,0,0,0,0,0,0,0,0,0,0],"sum_hessian":[1.6725422E5,1.5382481E5,1.3429407E4,1.5044466E5,3.380157E3,1.2757929E4,6.714789E2,1.4780781E5,2.6368372E3,3.0969473E3,2.8320972E2,3.2802372E1,1.2725126E4,4.8774376E0,6.6660144E2,1.4675155E5,1.056273E3,2.5591963E3,7.764086E1,6.441575E0,3.0905056E3,2.7793332E2,5.2763844E0,2.4841392E0,6.641173E2,1.6987692E1,1.0392853E3,2.4384131E0,2.556758E3,7.248689E1,5.1539683E0],"tree_param":{"num_deleted":"0","num_feature":"64","num_nodes":"31","size_leaf_vector":"1"}},{"base_weights":[-7.972376E-3,1.7861485E0,-6.3265246E-1,1.4329241E-1,-5.0845694E-2,-1.5427144E-1,-6.479111E-1,1.7866077E0,-6.4373523E-1,-5.7352954E-1,-6.482916E-1,-2.5676517E-2,1.4318421E-1,-5.1543716E-2,1.20399415E-1,1.3913798E-1,-5.1486596E-2,-5.2103512E-2,-6.449859E-1,7.117062E-2,-2.9052062E-2,8.589804E-2,-5.1629398E-2],"categories":[],"categories_nodes":[],"categories_segments":[],"categories_sizes":[],"default_left":[0,0,0,0,0,0,0,0,0,0,0,0,0,0,0,0,0,0,0,0,0,0,0],"id":12,"left_children":[1,3,5,-1,-1,7,9,11,13,15,17,-1,-1,-1,19,-1,-1,-1,21,-1,-1,-1,-1],"loss_changes":[6.1240956E5,1.7136875E3,2.9577656E3,0E0,0E0,1.1909043E4,1.0015625E1,1.8311035E1,4.5078125E0,3.3100568E2,2.71875E0,0E0,0E0,0E0,5.0975695E0,0E0,0E0,0E0,1.2409375E2,0E0,0E0,0E0,0E0],"parents":[2147483647,0,0,1,1,2,2,5,5,6,6,7,7,8,8,9,9,10,10,14,14,18,18],"right_children":[2,4,6,-1,-1,8,10,12,14,16,18,-1,-1,-1,20,-1,-1,-1,22,-1,-1,-1,-1],"split_conditions":[-1.3185275E-1,4.1551727E-1,-7.502439E-2,1.4329241E-1,-5.0845694E-2,1.8930297E-1,-6.708484E-2,-2.2601315E-1,2.3746178E-1,1.3501783E-1,-3.1648448E-1,-2.5676517E-2,1.4318421E-1,-5.1543716E-2,-4.6110877E-1,1.3913798E-1,-5.1486596E-2,-5.2103512E-2,-1.3977867E-1,7.117062E-2,-2.9052062E-2,8.589804E-2,-5.1629398E-2],"split_indices":[15,29,15,0,0,29,15,14,19,53,55,0,0,0,0,0,0,0,32,0,0,0,0],"split_type":[0,0,0,0,0,0,0,0,0,0,0,0,0,0,0,0,0,0,0,0,0,0,0],"sum_hessian":[5.4642194E5,1.4111788E5,4.0530403E5,1.4082745E5,2.9041727E2,1.2529831E4,3.9277422E5,2.5221973E3,1.0007634E4,2.0212198E3,3.90753E5,3.2799134E0,2.5189175E3,1.0001256E4,6.3771853E0,5.781163E1,1.9634082E3,2.0449002E5,1.8626297E5,2.2122927E0,4.1648927E0,3.980965E1,1.8622316E5],"tree_param":{"num_deleted":"0","num_feature":"64","num_nodes":"23","size_leaf_vector":"1"}},{"base_weights":[1.3333241E-2,-4.0845357E-2,3E0,2.4E-1,-3.9838534E-2],"categories":[],"categories_nodes":[],"categories_segments":[],"categories_sizes":[],"default_left":[0,0,0,0,0],"id":13,"left_children":[1,-1,3,-1,-1],"loss_changes":[1.8514044E5,0E0,1.4664531E3,0E0,0E0],"parents":[2147483647,0,0,2,2],"right_children":[2,-1,4,-1,-1],"split_conditions":[1.0001304E0,-4.0845357E-2,-7.6940185E-1,2.4E-1,-3.9838534E-2],"split_indices":[55,0,0,0,0],"split_type":[0,0,0,0,0],"sum_hessian":[6.123406E4,5.9344297E4,1.8897622E3,1.7706061E3,1.19156136E2],"tree_param":{"num_deleted":"0","num_feature":"64","num_nodes":"5","size_leaf_vector":"1"}},{"base_weights":[4.3294197E-3,3E0,-5.3976685E-1,-4.2929377E-2,2.4E-1,-5.4190624E-1,-9.141646E-3,-4.3324253E-1,-4.3389253E-2,2.4E-1,-4.3335166E-2,-4.3361265E-2,2.4E-1],"categories":[],"categories_nodes":[],"categories_segments":[],"categories_sizes":[],"default_left":[0,0,0,0,0,0,0,0,0,0,0,0,0],"id":14,"left_children":[1,3,5,-1,-1,7,9,11,-1,-1,-1,-1,-1],"loss_changes":[4.990548E5,2.743125E3,2.2508594E2,0E0,0E0,9.09375E0,1.7654156E3,4.0903113E2,0E0,0E0,0E0,0E0,0E0],"parents":[2147483647,0,0,1,1,2,2,5,5,6,6,7,7],"right_children":[2,4,6,-1,-1,8,10,12,-1,-1,-1,-1,-1],"split_conditions":[-5.160717E-1,9.148366E-3,4.8351273E-1,-4.2929377E-2,2.4E-1,-3.8881317E-1,-6.792513E-2,-1.08462304E-1,-4.3389253E-2,2.4E-1,-4.3335166E-2,-4.3361265E-2,2.4E-1],"split_indices":[25,16,8,0,0,25,25,8,0,0,0,0,0],"split_type":[0,0,0,0,0,0,0,0,0,0,0,0,0],"sum_hessian":[2.2190189E5,2.3144812E4,1.9875708E5,2.1859273E2,2.292622E4,1.9795795E5,7.991311E2,8.459058E2,1.9711205E5,8.06759E1,7.184552E2,8.286742E2,1.7231615E1],"tree_param":{"num_deleted":"0","num_feature":"64","num_nodes":"13","size_leaf_vector":"1"}},{"base_weights":[1.1463237E-2,-5.0513446E-1,3E0,-5.142396E-1,5.52232E-1,3E0,-3.856875E-1,-5.1703197E-1,-3.0074608E-1,3E0,-4.018025E-1,3E0,-3.0394086E-1,3E0,-4.7232303E-1,-4.1404452E-2,-4.7625962E-1,2.4E-1,-5.035341E-1,2.4E-1,-2.4707785E-2,-4.6376285E-1,3E0,3E0,-3.85014E-2,-3.8889445E-2,1.5085429E-1,2.4E-1,-2.8567715E-2,-4.9238965E-1,1.2514179E0,2.4E-1,-4.0138878E-2,6.15682E-2,-4.0817056E-2,-3.912271E-2,2.4E-1,2.4E-1,-2.239329E-2,2.4E-1,-3.1492077E-2,-4.0630225E-2,3.659735E-3,-2.2984989E-2,2.4E-1],"categories":[],"categories_nodes":[],"categories_segments":[],"categories_sizes":[],"default_left":[0,0,0,0,0,0,0,0,0,0,0,0,0,0,0,0,0,0,0,0,0,0,0,0,0,0,0,0,0,0,0,0,0,0,0,0,0,0,0,0,0,0,0,0,0],"id":15,"left_children":[1,3,5,7,9,11,13,15,17,19,21,23,25,27,29,-1,31,-1,33,-1,-1,35,37,39,-1,-1,-1,-1,-1,41,43,-1,-1,-1,-1,-1,-1,-1,-1,-1,-1,-1,-1,-1,-1],"loss_changes":[2.6848975E5,9.1110547E2,8.535531E3,5.520703E1,3.6083074E3,5.285156E2,2.6600778E2,1.203125E0,1.3822795E3,6.396704E1,1.8618651E2,4.836875E2,2.2954346E1,9.138103E1,2.7236572E1,0E0,1.5454648E2,0E0,1.1338135E1,0E0,0E0,8.188226E1,5.3088745E1,1.25328125E2,0E0,0E0,0E0,0E0,0E0,6.1446075E0,3.1720285E1,0E0,0E0,0E0,0E0,0E0,0E0,0E0,0E0,0E0,0E0,0E0,0E0,0E0,0E0],"parents":[2147483647,0,0,1,1,2,2,3,3,4,4,5,5,6,6,7,7,8,8,9,9,10,10,11,11,12,12,13,13,14,14,16,16,18,18,21,21,22,22,23,23,29,29,30,30],"right_children":[2,4,6,8,10,12,14,16,18,20,22,24,26,28,30,-1,32,-1,34,-1,-1,36,38,40,-1,-1,-1,-1,-1,42,44,-1,-1,-1,-1,-1,-1,-1,-1,-1,-1,-1,-1,-1,-1],"split_conditions":[8.298934E-1,6.1741203E-1,6.3439935E-1,3.9105502E-1,-5.8224523E-1,3.8037258E-1,-8.871685E-1,1.6569299E-1,-6.18574E-1,-7.184058E-1,-1.2686256E-2,1.093728E0,7.2007966E-1,1.8448249E0,1.0358603E0,-4.1404452E-2,-6.9362414E-1,2.4E-1,-5.0126962E-2,2.4E-1,-2.4707785E-2,1.2629313E0,-5.3470266E-1,6.502594E-1,-3.85014E-2,-3.8889445E-2,1.5085429E-1,2.4E-1,-2.8567715E-2,-7.9876065E-2,1.3064854E0,2.4E-1,-4.0138878E-2,6.15682E-2,-4.0817056E-2,-3.912271E-2,2.4E-1,2.4E-1,-2.239329E-2,2.4E-1,-3.1492077E-2,-4.0630225E-2,3.659735E-3,-2.2984989E-2,2.4E-1],"split_indices":[18,18,41,18,37,59,19,18,37,4,27,57,32,20,58,0,37,0,41,0,0,58,7,12,0,0,0,0,0,27,35,0,0,0,0,0,0,0,0,0,0,0,0,0,0],"split_type":[0,0,0,0,0,0,0,0,0,0,0,0,0,0,0,0,0,0,0,0,0,0,0,0,0,0,0,0,0,0,0,0,0,0,0,0,0,0,0,0,0,0,0,0,0],"sum_hessian":[9.99943E4,9.4545164E4,5.4491343E3,9.373946E4,8.057043E2,4.705104E3,7.440304E2,9.252412E4,1.2153412E3,7.66329E1,7.290714E2,4.6572046E3,4.7899666E1,1.3198779E1,7.3083167E2,9.131554E4,1.2085791E3,2.276969E1,1.1925715E3,7.1311485E1,5.321407E0,7.201807E2,8.890654E0,4.617973E3,3.9231327E1,4.586778E1,2.0318875E0,5.65814E0,7.540639E0,7.2412067E2,6.7109594E0,3.46188E0,1.2051172E3,4.6409144E0,1.1879307E3,7.179791E2,2.201649E0,4.4480247E0,4.442629E0,4.6076924E3,1.0280643E1,7.048752E2,1.9245478E1,4.6575413E0,2.0534182E0],"tree_param":{"num_deleted":"0","num_feature":"64","num_nodes":"45","size_leaf_vector":"1"}},{"base_weights":[1.9026393E-2,-5.0742173E-1,3E0,-4.0819526E-2,2.4E-1,-4.0541768E-2,2.4E-1],"categories":[],"categories_nodes":[],"categories_segments":[],"categories_sizes":[],"default_left":[0,0,0,0,0,0,0],"id":16,"left_children":[1,3,5,-1,-1,-1,-1],"loss_changes":[1.8044042E5,1.0267773E3,4.738453E3,0E0,0E0,0E0,0E0],"parents":[2147483647,0,0,1,1,2,2],"right_children":[2,4,6,-1,-1,-1,-1],"split_conditions":[4.491342E-1,2.120317E0,1.2394867E-1,-4.0819526E-2,2.4E-1,-4.0541768E-2,2.4E-1],"split_indices":[13,12,19,0,0,0,0],"split_type":[0,0,0,0,0,0,0],"sum_hessian":[6.0465977E4,5.8344797E4,2.121181E3,5.833582E4,8.975611E0,3.846205E2,1.7365603E3],"tree_param":{"num_deleted":"0","num_feature":"64","num_nodes":"7","size_leaf_vector":"1"}},{"base_weights":[5.862152E-3,-5.231344E-1,3E0,-5.3094953E-1,1.1517578E0,3E0,-5.3363013E-1,-4.75109E-1,-4.2846974E-2,3E0,-5.265843E-1,3E0,-3.2048784E-2,-4.2965483E-2,2.3132169E-1,3E0,-5.319722E-1,3E0,-3.524713E-2,3.458397E-2,-4.2647265E-2,2.4E-1,-2.5562508E-2,-3.2561284E-2,2.4E-1,-2.0136104E-3,-4.2869724E-2,-2.0876229E-2,2.4E-1],"categories":[],"categories_nodes":[],"categories_segments":[],"categories_sizes":[],"default_left":[0,0,0,0,0,0,0,0,0,0,0,0,0,0,0,0,0,0,0,0,0,0,0,0,0,0,0,0,0],"id":17,"left_children":[1,3,5,7,9,11,13,15,-1,17,19,21,-1,-1,-1,23,25,27,-1,-1,-1,-1,-1,-1,-1,-1,-1,-1,-1],"loss_changes":[4.0039425E5,2.2415742E3,5.250828E4,4.3304688E1,4.1833975E3,1.1778125E2,5.4097046E1,3.4961543E3,0E0,1.7719043E2,4.1544647E0,6.353125E1,0E0,0E0,0E0,1.2476758E2,2.5047607E1,4.442041E1,0E0,0E0,0E0,0E0,0E0,0E0,0E0,0E0,0E0,0E0,0E0],"parents":[2147483647,0,0,1,1,2,2,3,3,4,4,5,5,6,6,7,7,9,9,10,10,11,11,15,15,16,16,17,17],"right_children":[2,4,6,8,10,12,14,16,-1,18,20,22,-1,-1,-1,24,26,28,-1,-1,-1,-1,-1,-1,-1,-1,-1,-1,-1],"split_conditions":[9.906005E-1,4.1353288E-1,-3.1648448E-1,-7.385565E-1,-6.870853E-1,1.8930297E-1,6.614432E-1,1.7010334E-1,-4.2846974E-2,4.7233894E-1,-5.2217156E-1,1.093728E0,-3.2048784E-2,-4.2965483E-2,2.3132169E-1,5.282911E-1,4.7233894E-1,-7.6522106E-1,-3.524713E-2,3.458397E-2,-4.2647265E-2,2.4E-1,-2.5562508E-2,-3.2561284E-2,2.4E-1,-2.0136104E-3,-4.2869724E-2,-2.0876229E-2,2.4E-1],"split_indices":[59,59,55,24,55,29,16,61,0,61,4,57,0,0,0,48,61,14,0,0,0,0,0,0,0,0,0,0,0],"split_type":[0,0,0,0,0,0,0,0,0,0,0,0,0,0,0,0,0,0,0,0,0,0,0,0,0,0,0,0,0],"sum_hessian":[1.9225067E5,1.7111006E5,2.1140611E4,1.7031702E5,7.930409E2,1.6936143E4,4.204469E3,1.3084584E4,1.5723244E5,2.3923401E2,5.538069E2,1.6926562E4,9.5796795E0,4.202083E3,2.3859956E0,1.3627069E2,1.2948313E4,2.2490903E2,1.4324978E1,2.3324625E0,5.514744E2,1.692133E4,5.2337146E0,1.0135037E1,1.2613566E2,9.995605E1,1.2848357E4,3.7043931E0,2.2120464E2],"tree_param":{"num_deleted":"0","num_feature":"64","num_nodes":"29","size_leaf_vector":"1"}},{"base_weights":[-4.515527E-3,2.788688E0,-4.621293E-2,2.2386058E-1,-4.5585573E-2],"categories":[],"categories_nodes":[],"categories_segments":[],"categories_sizes":[],"default_left":[0,0,0,0,0],"id":18,"left_children":[1,3,-1,-1,-1],"loss_changes":[5.798589E5,1.9854688E3,0E0,0E0,0E0],"parents":[2147483647,0,0,1,1],"right_children":[2,4,-1,-1,-1],"split_conditions":[-5.7556367E-1,-3.6559808E-1,-4.621293E-2,2.2386058E-1,-4.5585573E-2],"split_indices":[39,6,0,0,0],"split_type":[0,0,0,0,0],"sum_hessian":[3.6219953E5,6.1665707E4,3.005338E5,6.149098E4,1.7472672E2],"tree_param":{"num_deleted":"0","num_feature":"64","num_nodes":"5","size_leaf_vector":"1"}},{"base_weights":[8.930375E-3,-5.209608E-1,2.4E-1,-5.279404E-1,1.061091E0,-4.224205E-2,4.9927413E-2,3E0,-4.1970186E-2,2.1249174E-1,-3.6098804E-2,2.4E-1,7.099463E-1,2.4E-1,-1.5247478E-2],"categories":[],"categories_nodes":[],"categories_segments":[],"categories_sizes":[],"default_left":[0,0,0,0,0,0,0,0,0,0,0,0,0,0,0],"id":19,"left_children":[1,3,-1,5,7,-1,9,11,-1,-1,-1,-1,13,-1,-1],"loss_changes":[3.9562353E5,1.5835E3,0E0,7.109375E0,3.4133325E3,0E0,3.5274918E1,1.5175684E2,0E0,0E0,0E0,0E0,1.00449745E2,0E0,0E0],"parents":[2147483647,0,0,1,1,3,3,4,4,6,6,7,7,12,12],"right_children":[2,4,-1,6,8,-1,10,12,-1,-1,-1,-1,14,-1,-1],"split_conditions":[1.093728E0,5.858753E-1,2.4E-1,4.3982774E-1,1.5519693E-1,-4.224205E-2,4.02597E-1,-9.414214E-2,-4.1970186E-2,2.1249174E-1,-3.6098804E-2,2.4E-1,-1.6227518E-1,2.4E-1,-1.5247478E-2],"split_indices":[57,57,0,50,12,0,47,36,0,0,0,0,40,0,0],"split_type":[0,0,0,0,0,0,0,0,0,0,0,0,0,0,0],"sum_hessian":[1.5428645E5,1.4325464E5,1.1031808E4,1.4262706E5,6.275784E2,1.4260706E5,2.0005983E1,1.6324838E2,4.6433002E2,2.000488E0,1.8005495E1,1.3215614E2,3.1092241E1,4.9120417E0,2.61802E1],"tree_param":{"num_deleted":"0","num_feature":"64","num_nodes":"15","size_leaf_vector":"1"}},{"base_weights":[-7.5216214E-3,-6.303107E-1,1.9108323E0,-6.324017E-1,1.8390881E0,-5.0275795E-2,1.54003E-1,-6.3259184E-1,-5.625304E-1,1.5292563E-1,-3.9729442E-2,-6.3521206E-1,-5.0404508E-2,1.5168852E-1,-5.020294E-2,-5.0820973E-2,9.317347E-2],"categories":[],"categories_nodes":[],"categories_segments":[],"categories_sizes":[],"default_left":[0,0,0,0,0,0,0,0,0,0,0,0,0,0,0,0,0],"id":20,"left_children":[1,3,5,7,9,-1,-1,11,13,-1,-1,15,-1,-1,-1,-1,-1],"loss_changes":[6.144204E5,2.0079219E3,4.5490938E3,4.09375E0,5.7916504E1,0E0,0E0,1.453125E0,1.7567444E2,0E0,0E0,1.9210938E1,0E0,0E0,0E0,0E0,0E0],"parents":[2147483647,0,0,1,1,2,2,3,3,4,4,7,7,8,8,11,11],"right_children":[2,4,6,8,10,-1,-1,12,14,-1,-1,16,-1,-1,-1,-1,-1],"split_conditions":[5.041725E-1,6.9213074E-1,-8.1150734E-1,5.1417047E-1,-4.3765028E-4,-5.0275795E-2,1.54003E-1,-4.2167386E-1,-1.1426338E-1,1.5292563E-1,-3.9729442E-2,3.2017288E-1,-5.0404508E-2,1.5168852E-1,-5.020294E-2,-5.0820973E-2,9.317347E-2],"split_indices":[63,5,4,5,22,0,0,55,8,0,0,63,0,0,0,0,0],"split_type":[0,0,0,0,0,0,0,0,0,0,0,0,0,0,0,0,0],"sum_hessian":[5.1426997E5,3.8823275E5,1.2603725E5,3.8790597E5,3.267756E2,7.0047284E2,1.2533677E5,3.8683025E5,1.0757214E3,3.1750012E2,9.275489E0,1.8989397E5,1.9693627E5,2.6060163E1,1.0496613E3,1.8989025E5,3.7208529E0],"tree_param":{"num_deleted":"0","num_feature":"64","num_nodes":"17","size_leaf_vector":"1"}},{"base_weights":[9.174333E-3,-5.195186E-1,3E0,-5.261585E-1,3E0,3E0,-4.2317234E-2,-5.2796614E-1,2.5324202E-1,2.4E-1,-4.1136965E-2,2.4E-1,-2.1340156E-2,9.81395E-1,-5.2847165E-1,2.4E-1,-4.2036787E-2,2.4E-1,-3.9368745E-2,-1.5034318E-2,-4.2303555E-2],"categories":[],"categories_nodes":[],"categories_segments":[],"categories_sizes":[],"default_left":[0,0,0,0,0,0,0,0,0,0,0,0,0,0,0,0,0,0,0,0,0],"id":21,"left_children":[1,3,5,7,9,11,-1,13,15,-1,-1,-1,-1,17,19,-1,-1,-1,-1,-1,-1],"loss_changes":[3.968447E5,4.0549727E3,1.0693844E4,2.0999219E2,1.1729551E3,4.68125E1,0E0,1.1478125E2,1.2174222E3,0E0,0E0,0E0,0E0,2.6918127E2,1.5675781E1,0E0,0E0,0E0,0E0,0E0,0E0],"parents":[2147483647,0,0,1,1,2,2,3,3,4,4,5,5,7,7,8,8,13,13,14,14],"right_children":[2,4,6,8,10,12,-1,14,16,-1,-1,-1,-1,18,20,-1,-1,-1,-1,-1,-1],"split_conditions":[2.2435963E0,1.2952775E0,4.8344764E-3,1.1992288E0,2.730069E-1,4.388805E-1,-4.2317234E-2,-9.479209E-1,8.8659234E-2,2.4E-1,-4.1136965E-2,2.4E-1,-2.1340156E-2,-5.455492E-1,-1.80647E-1,2.4E-1,-4.2036787E-2,2.4E-1,-3.9368745E-2,-1.5034318E-2,-4.2303555E-2],"split_indices":[10,7,54,7,1,2,0,62,44,0,0,0,0,1,17,0,0,0,0,0,0],"split_type":[0,0,0,0,0,0,0,0,0,0,0,0,0,0,0,0,0,0,0,0,0],"sum_hessian":[1.6195961E5,1.489935E5,1.2966105E4,1.4876048E5,2.3300449E2,1.2108129E4,8.579769E2,1.4841755E5,3.429389E2,1.3873154E2,9.427295E1,1.2104221E4,3.9083414E0,4.8061195E1,1.4836948E5,3.664611E1,3.062928E2,1.0196024E1,3.7865173E1,1.4306793E2,1.4822642E5],"tree_param":{"num_deleted":"0","num_feature":"64","num_nodes":"21","size_leaf_vector":"1"}},{"base_weights":[1.559623E-2,-5.292915E-1,3E0,-4.236501E-2,-4.6544316E-1,-4.4508076E-1,3E0,2.4E-1,-4.20613E-2,-1.5650325E-1,-4.1603282E-2,2.4E-1,-2.3238178E-2,-4.6679798E-1,2.4991767E0,3.885621E-2,-4.1860238E-2,1.3618384E-2,2.4E-1],"categories":[],"categories_nodes":[],"categories_segments":[],"categories_sizes":[],"default_left":[0,0,0,0,0,0,0,0,0,0,0,0,0,0,0,0,0,0,0],"id":22,"left_children":[1,3,5,-1,7,9,11,-1,-1,13,-1,-1,-1,15,17,-1,-1,-1,-1],"loss_changes":[3.6612484E5,1.7617188E0,1.2268906E4,0E0,1.6916957E2,2.189859E1,5.409375E1,0E0,0E0,1.834152E2,0E0,0E0,0E0,1.1415672E1,4.281906E1,0E0,0E0,0E0,0E0],"parents":[2147483647,0,0,1,1,2,2,4,4,5,5,6,6,9,9,13,13,14,14],"right_children":[2,4,6,-1,8,10,12,-1,-1,14,-1,-1,-1,16,18,-1,-1,-1,-1],"split_conditions":[4.773868E-1,1.3348027E-1,5.1419795E-1,-4.236501E-2,-1.3480657E-1,2.039522E0,-8.6152285E-2,2.4E-1,-4.20613E-2,6.0886208E-2,-4.1603282E-2,2.4E-1,-2.3238178E-2,9.548635E-2,-4.7296727E-1,3.885621E-2,-4.1860238E-2,1.3618384E-2,2.4E-1],"split_indices":[33,33,31,0,56,20,56,0,0,31,0,0,0,56,12,0,0,0,0],"split_type":[0,0,0,0,0,0,0,0,0,0,0,0,0,0,0,0,0,0,0],"sum_hessian":[1.650118E5,1.4738673E5,1.7625064E4,1.4674114E5,6.4558954E2,1.0330824E3,1.659198E4,6.8994236E0,6.386901E2,2.1566685E2,8.174156E2,1.658749E4,4.491664E0,1.9474876E2,2.091809E1,9.550508E0,1.8519826E2,6.75993E0,1.415816E1],"tree_param":{"num_deleted":"0","num_feature":"64","num_nodes":"19","size_leaf_vector":"1"}},{"base_weights":[-1.280876E-2,1.5649216E0,-6.245207E-1,1.5691472E0,-6.23982E-1,-1.4842342E-1,-6.3991195E-1,1.2553306E-1,1.4641939E-2,3.1662564E-4,-5.0403547E-2,1.5638868E0,-6.328661E-1,-5.162422E-2,-6.3383174E-1,1.2545632E-1,-3.2517493E-2,-5.067061E-2,2.5304966E-2,1.311748E-1,-6.347392E-1,-5.0811596E-2,7.639187E-3],"categories":[],"categories_nodes":[],"categories_segments":[],"categories_sizes":[],"default_left":[0,0,0,0,0,0,0,0,0,0,0,0,0,0,0,0,0,0,0,0,0,0,0],"id":23,"left_children":[1,3,5,7,9,11,13,-1,-1,-1,-1,15,17,-1,19,-1,-1,-1,-1,-1,21,-1,-1],"loss_changes":[5.2622825E5,1.4113125E3,2.8784062E3,1.34375E0,1.1380005E0,1.0213007E4,1.134375E1,0E0,0E0,0E0,0E0,2.4575195E1,5.2644043E0,0E0,3.722578E2,0E0,0E0,0E0,0E0,0E0,5.31875E1,0E0,0E0],"parents":[2147483647,0,0,1,1,2,2,3,3,4,4,5,5,6,6,11,11,12,12,14,14,20,20],"right_children":[2,4,6,8,10,12,14,-1,-1,-1,-1,16,18,-1,20,-1,-1,-1,-1,-1,22,-1,-1],"split_conditions":[-1.3185275E-1,4.0092206E-1,-7.502439E-2,-7.8123614E-2,-2.9008806E-1,1.8930297E-1,6.1990894E-2,1.2553306E-1,1.4641939E-2,3.1662564E-4,-5.0403547E-2,3.4733632E-1,3.8601792E-1,-5.162422E-2,-1.5484096E-1,1.2545632E-1,-3.2517493E-2,-5.067061E-2,2.5304966E-2,1.311748E-1,3.704431E-2,-5.0811596E-2,7.639187E-3],"split_indices":[15,29,15,32,6,29,55,0,0,0,0,6,4,0,32,0,0,0,0,0,51,0,0],"split_type":[0,0,0,0,0,0,0,0,0,0,0,0,0,0,0,0,0,0,0,0,0,0,0],"sum_hessian":[5.452427E5,1.5233516E5,3.929075E5,1.5204244E5,2.927185E2,1.2305802E4,3.806017E5,1.5204005E5,2.3928971E0,2.0169864E0,2.907015E2,2.7125474E3,9.593254E3,2.015822E5,1.790195E5,2.7072776E3,5.269956E0,9.589228E3,4.0265875E0,6.9764465E1,1.7894973E5,1.7885131E5,9.842269E1],"tree_param":{"num_deleted":"0","num_feature":"64","num_nodes":"23","size_leaf_vector":"1"}},{"base_weights":[3.340754E-2,-5.0860834E-1,3E0,-5.09068E-1,2.2645497E0,2.4E-1,-4.0433884E-2,-5.096178E-1,-2.4399664E-1,2.4E-1,-2.478076E-2,-4.0806115E-2,-3.828617E-1,2.4E-1,-3.9851807E-2,2.4E-1,-4.028776E-2],"categories":[],"categories_nodes":[],"categories_segments":[],"categories_sizes":[],"default_left":[0,0,0,0,0,0,0,0,0,0,0,0,0,0,0,0,0],"id":24,"left_children":[1,3,5,7,9,-1,-1,11,13,-1,-1,-1,15,-1,-1,-1,-1],"loss_changes":[1.7649603E5,7.6100586E1,4.1567656E3,7.6689453E0,6.262027E1,0E0,0E0,2.5976562E0,1.69225E2,0E0,0E0,0E0,1.3725099E2,0E0,0E0,0E0,0E0],"parents":[2147483647,0,0,1,1,2,2,3,3,4,4,7,7,8,8,12,12],"right_children":[2,4,6,8,10,-1,-1,12,14,-1,-1,-1,16,-1,-1,-1,-1],"split_conditions":[1.0887734E0,6.523532E-1,-4.3873173E-1,5.9478474E-1,-5.269077E-1,2.4E-1,-4.0433884E-2,4.8351273E-1,-7.590622E-1,2.4E-1,-2.478076E-2,-4.0806115E-2,1.6976692E-2,2.4E-1,-3.9851807E-2,2.4E-1,-4.028776E-2],"split_indices":[9,14,53,14,29,0,0,8,0,0,0,0,30,0,0,0,0],"split_type":[0,0,0,0,0,0,0,0,0,0,0,0,0,0,0,0,0],"sum_hessian":[5.9665863E4,5.699279E4,2.6730735E3,5.6985156E4,7.633535E0,2.3354934E3,3.3758008E2,5.6863484E4,1.216699E2,2.0642319E0,5.569303E0,5.6648527E4,2.1495901E2,2.028127E0,1.1964177E2,2.0420442E0,2.1291696E2],"tree_param":{"num_deleted":"0","num_feature":"64","num_nodes":"17","size_leaf_vector":"1"}},{"base_weights":[7.7364836E-3,3E0,-5.3779525E-1,-4.289425E-2,2.4E-1,-5.400989E-1,9.814755E-4,1.5692411E-1,-5.401707E-1,2.4E-1,-4.3123987E-2,-4.541714E-1,-4.3243665E-2,-4.332073E-2,2.4E-1],"categories":[],"categories_nodes":[],"categories_segments":[],"categories_sizes":[],"default_left":[0,0,0,0,0,0,0,0,0,0,0,0,0,0,0],"id":25,"left_children":[1,3,5,-1,-1,7,9,-1,11,-1,-1,13,-1,-1,-1],"loss_changes":[4.2450625E5,2.7925938E3,2.3766797E2,0E0,0E0,3.7339844E1,1.5604634E3,0E0,5.34375E0,0E0,0E0,2.8055167E2,0E0,0E0,0E0],"parents":[2147483647,0,0,1,1,2,2,5,5,6,6,8,8,11,11],"right_children":[2,4,6,-1,-1,8,10,-1,12,-1,-1,14,-1,-1,-1],"split_conditions":[-5.160717E-1,-3.4284818E-1,4.8351273E-1,-4.289425E-2,2.4E-1,-8.2938695E-1,-8.8677526E-2,1.5692411E-1,-3.8881317E-1,2.4E-1,-4.3123987E-2,-1.08462304E-1,-4.3243665E-2,-4.332073E-2,2.4E-1],"split_indices":[25,8,8,0,0,14,25,0,25,0,0,8,0,0,0],"split_type":[0,0,0,0,0,0,0,0,0,0,0,0,0,0,0],"sum_hessian":[2.2025953E5,2.8773732E4,1.914858E5,2.2260133E2,2.855113E4,1.9067147E5,8.143375E2,3.703669E0,1.9066777E5,1.0462121E2,7.097163E2,8.443725E2,1.8982339E5,8.269569E2,1.7415585E1],"tree_param":{"num_deleted":"0","num_feature":"64","num_nodes":"15","size_leaf_vector":"1"}},{"base_weights":[2.1743434E-2,-4.9223983E-1,3E0,-5.095531E-1,7.304671E-1,-4.9665573E-1,3E0,-5.162839E-1,-1.010238E-2,-5.0193995E-1,3E0,1.2166759E-1,-5.090368E-1,2.3061022E-1,3E0,-4.133947E-2,-4.1117373E-1,-5.1062375E-1,2.4E-1,-5.124603E-1,6.682539E-1,3E0,-2.8119884E-2,3.767458E-2,-5.1276326E-1,1.3878794E-1,-3.2143433E-2,-2.018554E-2,2.4E-1,-4.0642653E-2,2.4E-1,4.227395E-2,-4.1254766E-2,1.2972572E-2,-4.1166667E-2,-2.6343293E-2,1.970397E-1,-0E0,2.4E-1,8.139443E-4,-4.132053E-2],"categories":[],"categories_nodes":[],"categories_segments":[],"categories_sizes":[],"default_left":[0,0,0,0,0,0,0,0,0,0,0,0,0,0,0,0,0,0,0,0,0,0,0,0,0,0,0,0,0,0,0,0,0,0,0,0,0,0,0,0,0],"id":26,"left_children":[1,3,5,7,9,11,13,15,17,19,21,-1,23,25,27,-1,29,31,-1,33,35,37,-1,-1,39,-1,-1,-1,-1,-1,-1,-1,-1,-1,-1,-1,-1,-1,-1,-1,-1],"loss_changes":[2.4325084E5,1.9306309E3,1.1250359E4,3.0162695E2,6.6963657E3,2.534433E1,9.9296875E1,3.5488281E0,3.045226E3,1.4351898E1,8.553027E1,0E0,4.074951E0,1.892757E1,4.4875E1,0E0,1.4421921E2,6.7555237E0,0E0,1.7888794E0,2.2530874E1,2.8333984E1,0E0,0E0,1.8134918E0,0E0,0E0,0E0,0E0,0E0,0E0,0E0,0E0,0E0,0E0,0E0,0E0,0E0,0E0,0E0,0E0],"parents":[2147483647,0,0,1,1,2,2,3,3,4,4,5,5,6,6,7,7,8,8,9,9,10,10,12,12,13,13,14,14,16,16,17,17,19,19,20,20,21,21,24,24],"right_children":[2,4,6,8,10,12,14,16,18,20,22,-1,24,26,28,-1,30,32,-1,34,36,38,-1,-1,40,-1,-1,-1,-1,-1,-1,-1,-1,-1,-1,-1,-1,-1,-1,-1,-1],"split_conditions":[1.564054E0,1.1975638E0,-1.579598E-1,6.700649E-1,1.8930297E-1,-8.8468564E-1,2.9775187E-1,4.0860206E-1,3.6193597E-1,-2.5293069E-2,3.6777773E-1,1.2166759E-1,-9.05717E-1,-4.643675E-3,-7.551513E-1,-4.133947E-2,1.8930297E-1,-2.3762883E-1,2.4E-1,-2.4967155E-1,-7.337833E-2,-8.417353E-1,-2.8119884E-2,3.767458E-2,-8.7823397E-1,1.3878794E-1,-3.2143433E-2,-2.018554E-2,2.4E-1,-4.0642653E-2,2.4E-1,4.227395E-2,-4.1254766E-2,1.2972572E-2,-4.1166667E-2,-2.6343293E-2,1.970397E-1,-0E0,2.4E-1,8.139443E-4,-4.132053E-2],"split_indices":[35,35,29,35,29,19,61,35,29,36,16,0,5,32,0,0,29,47,0,32,37,43,0,0,19,0,0,0,0,0,0,0,0,0,0,0,0,0,0,0,0],"split_type":[0,0,0,0,0,0,0,0,0,0,0,0,0,0,0,0,0,0,0,0,0,0,0,0,0,0,0,0,0,0,0,0,0,0,0,0,0,0,0,0,0],"sum_hessian":[9.789461E4,9.114512E4,6.7494873E3,8.98741E4,1.2710211E3,9.1946423E2,5.8300234E3,8.867796E4,1.196136E3,1.0797401E3,1.9128096E2,3.875589E0,9.155886E2,1.3848259E1,5.816175E3,8.827951E4,3.9845245E2,1.1273541E3,6.878192E1,1.0716571E3,8.083036E0,1.8422876E2,7.0522003E0,2.010334E0,9.135783E2,3.3008757E0,1.0547383E1,3.7785954E0,5.8123965E3,3.898348E2,8.617651E0,3.9829595E0,1.1233711E3,2.15015E0,1.069507E3,6.0659485E0,2.0170884E0,3.5800927E0,1.8064867E2,5.5193973E0,9.080589E2],"tree_param":{"num_deleted":"0","num_feature":"64","num_nodes":"41","size_leaf_vector":"1"}},{"base_weights":[2.6626265E-2,-4.080289E-2,3E0,-3.993053E-2,3E0,-1.6585344E-2,2.4E-1],"categories":[],"categories_nodes":[],"categories_segments":[],"categories_sizes":[],"default_left":[0,0,0,0,0,0,0],"id":27,"left_children":[1,-1,3,-1,5,-1,-1],"loss_changes":[1.7537472E5,0E0,1.6315E3,0E0,3.53125E1,0E0,0E0],"parents":[2147483647,0,0,2,2,4,4],"right_children":[2,-1,4,-1,6,-1,-1],"split_conditions":[4.8215652E-1,-4.080289E-2,8.9266986E-1,-3.993053E-2,-6.660836E-2,-1.6585344E-2,2.4E-1],"split_indices":[49,0,12,0,13,0,0],"split_type":[0,0,0,0,0,0,0],"sum_hessian":[5.8865824E4,5.64764E4,2.3894265E3,1.3255685E2,2.2568696E3,3.0163817E0,2.2538533E3],"tree_param":{"num_deleted":"0","num_feature":"64","num_nodes":"7","size_leaf_vector":"1"}},{"base_weights":[1.3857275E-2,-5.0359064E-1,3E0,-5.2893335E-1,1.1250447E0,3E0,-4.293745E-2,-4.719928E-1,-4.2714667E-2,3E0,-5.243215E-1,2.4E-1,1.2648758E0,3E0,-5.2672476E-1,3E0,2.38176E-2,2.899205E-1,-4.2822137E-2,1.9709253E-1,-2.0104486E-2,2.4E-1,-3.7979424E-2,1.7610176E-2,-4.275447E-2,-2.3290658E-2,2.4E-1,-3.760735E-2,1.9660436E-1,2.1485843E-1,-3.621537E-2],"categories":[],"categories_nodes":[],"categories_segments":[],"categories_sizes":[],"default_left":[0,0,0,0,0,0,0,0,0,0,0,0,0,0,0,0,0,0,0,0,0,0,0,0,0,0,0,0,0,0,0],"id":28,"left_children":[1,3,5,7,9,11,-1,13,-1,15,17,-1,19,21,23,25,27,29,-1,-1,-1,-1,-1,-1,-1,-1,-1,-1,-1,-1,-1],"loss_changes":[3.470071E5,6.873508E3,3.7846812E4,4.5882812E1,1.1395467E4,3.71875E0,0E0,2.7958074E3,0E0,2.1433105E2,1.5106323E1,0E0,1.820876E1,2.956433E2,7.5619385E1,5.322461E1,3.833262E1,4.6232803E1,0E0,0E0,0E0,0E0,0E0,0E0,0E0,0E0,0E0,0E0,0E0,0E0,0E0],"parents":[2147483647,0,0,1,1,2,2,3,3,4,4,5,5,7,7,9,9,10,10,12,12,13,13,14,14,15,15,16,16,17,17],"right_children":[2,4,6,8,10,12,-1,14,-1,16,18,-1,20,22,24,26,28,30,-1,-1,-1,-1,-1,-1,-1,-1,-1,-1,-1,-1,-1],"split_conditions":[1.5623451E0,4.1353288E-1,5.6666785E-1,-7.243129E-1,-6.192732E-1,-1.10144705E-1,-4.293745E-2,-2.2601315E-1,-4.2714667E-2,1.8216088E-2,-5.7016873E-1,2.4E-1,3.134338E-1,-7.072642E-1,-1.5666467E-1,-4.0718135E-1,9.873236E-1,-2.3091108E-1,-4.2822137E-2,1.9709253E-1,-2.0104486E-2,2.4E-1,-3.7979424E-2,1.7610176E-2,-4.275447E-2,-2.3290658E-2,2.4E-1,-3.760735E-2,1.9660436E-1,2.1485843E-1,-3.621537E-2],"split_indices":[59,59,9,24,55,14,0,14,0,14,55,0,1,3,14,54,44,13,0,0,0,0,0,0,0,0,0,0,0,0,0],"split_type":[0,0,0,0,0,0,0,0,0,0,0,0,0,0,0,0,0,0,0,0,0,0,0,0,0,0,0,0,0,0,0],"sum_hessian":[1.9027112E5,1.6648831E5,2.3782803E4,1.6393897E5,2.549344E3,2.0757809E4,3.024995E3,1.3257091E4,1.5068189E5,9.1073285E2,1.6386112E3,2.075153E4,6.278455E0,1.8210268E2,1.3074987E4,8.8599805E2,2.4734772E1,2.0471926E1,1.6181393E3,2.9924276E0,3.2860272E0,1.5828912E2,2.3813549E1,1.3230614E2,1.2942682E4,4.4104366E0,8.8158765E2,2.1732548E1,3.002223E0,3.7651002E0,1.6706827E1],"tree_param":{"num_deleted":"0","num_feature":"64","num_nodes":"31","size_leaf_vector":"1"}},{"base_weights":[-9.171073E-3,2.2478187E0,-5.7453984E-1,1.8026355E-1,-4.545996E-2,-5.716172E-1,-4.6208248E-2,1.4451502E-1,-4.5735825E-2],"categories":[],"categories_nodes":[],"categories_segments":[],"categories_sizes":[],"default_left":[0,0,0,0,0,0,0,0,0],"id":29,"left_children":[1,3,5,-1,-1,7,-1,-1,-1],"loss_changes":[4.6314678E5,1.124E3,1.65625E0,0E0,0E0,3.1507812E1,0E0,0E0,0E0],"parents":[2147483647,0,0,1,1,2,2,5,5],"right_children":[2,4,6,-1,-1,8,-1,-1,-1],"split_conditions":[-2.1772774E-1,1.6897914E-1,1.0450145E-1,1.8026355E-1,-4.545996E-2,-4.3609127E-1,-4.6208248E-2,1.4451502E-1,-4.5735825E-2],"split_indices":[46,1,15,0,0,28,0,0,0],"split_type":[0,0,0,0,0,0,0,0,0],"sum_hessian":[3.6295322E5,7.270464E4,2.902486E5,7.256412E4,1.4052463E2,1.4881088E5,1.4143773E5,3.3165958E0,1.4880755E5],"tree_param":{"num_deleted":"0","num_feature":"64","num_nodes":"9","size_leaf_vector":"1"}},{"base_weights":[1.4517214E-2,-5.1929265E-1,3E0,-4.216596E-2,1.0791695E0,-2.0161835E-2,3E0,-2.0269868E-1,3E0,2.4E-1,-1.1938436E-2,2.4E-1,-3.9726698E-1,-4.1097265E-1,3E0,2.1223563E-1,-4.12756E-2,8.940565E-3,-3.8184885E-2,-3.5981074E-2,2.4E-1],"categories":[],"categories_nodes":[],"categories_segments":[],"categories_sizes":[],"default_left":[0,0,0,0,0,0,0,0,0,0,0,0,0,0,0,0,0,0,0,0,0],"id":30,"left_children":[1,3,5,-1,7,-1,9,11,13,-1,-1,-1,15,17,19,-1,-1,-1,-1,-1,-1],"loss_changes":[3.5450016E5,1.7168984E3,4.3125E1,0E0,2.2122732E3,0E0,2.365625E1,3.850387E2,3.1862354E2,0E0,0E0,0E0,1.6403586E2,1.259675E0,2.186167E2,0E0,0E0,0E0,0E0,0E0,0E0],"parents":[2147483647,0,0,1,1,2,2,4,4,6,6,7,7,8,8,12,12,13,13,14,14],"right_children":[2,4,6,-1,8,-1,10,12,14,-1,-1,-1,16,18,20,-1,-1,-1,-1,-1,-1],"split_conditions":[1.6172132E0,5.630436E-1,1.8110214E-1,-4.216596E-2,9.2343666E-2,-2.0161835E-2,8.7996446E-2,-8.492002E-1,-9.3655366E-1,2.4E-1,-1.1938436E-2,2.4E-1,4.435201E-1,-1.6584864E-1,-2.2601315E-1,2.1223563E-1,-4.12756E-2,8.940565E-3,-3.8184885E-2,-3.5981074E-2,2.4E-1],"split_indices":[20,20,41,0,62,0,4,19,44,0,0,0,6,58,14,0,0,0,0,0,0],"split_type":[0,0,0,0,0,0,0,0,0,0,0,0,0,0,0,0,0,0,0,0,0],"sum_hessian":[1.518307E5,1.3788697E5,1.3943733E4,1.3722058E5,6.663855E2,3.615972E0,1.3940117E4,4.5540762E2,2.1097789E2,1.3938084E4,2.0328553E0,1.5979991E1,4.394276E2,2.6768381E1,1.842095E2,1.4699741E1,4.2472787E2,2.0115407E0,2.4756842E1,1.7718473E1,1.6649103E2],"tree_param":{"num_deleted":"0","num_feature":"64","num_nodes":"21","size_leaf_vector":"1"}},{"base_weights":[-1.3198985E-2,-6.257114E-1,1.6602656E0,-6.216994E-1,-5.04701E-2,-6.047413E-1,1.3334392E-1,1.2681405E-1,-6.218044E-1,7.45392E-2,-4.9648084E-2,-6.2036395E-1,-5.0335106E-2,-4.9633425E-2,-2.7854802E-2],"categories":[],"categories_nodes":[],"categories_segments":[],"categories_sizes":[],"default_left":[0,0,0,0,0,0,0,0,0,0,0,0,0,0,0],"id":31,"left_children":[1,3,5,7,-1,9,-1,-1,11,-1,-1,13,-1,-1,-1],"loss_changes":[5.2569206E5,6.703125E0,2.0359062E3,5.1796875E1,0E0,1.130809E1,0E0,0E0,1.171875E0,0E0,0E0,1.7109375E0,0E0,0E0,0E0],"parents":[2147483647,0,0,1,1,2,2,3,3,5,5,8,8,11,11],"right_children":[2,4,6,8,-1,10,-1,-1,12,-1,-1,14,-1,-1,-1],"split_conditions":[3.7742603E-1,-1.189483E-1,3.846892E-1,-7.82156E-1,-5.04701E-2,-2.8185034E-1,1.3334392E-1,1.2681405E-1,4.897211E-2,7.45392E-2,-4.9648084E-2,-7.311804E-2,-5.0335106E-2,-4.9633425E-2,-2.7854802E-2],"split_indices":[3,61,63,0,0,13,0,0,6,0,0,6,0,0,0],"split_type":[0,0,0,0,0,0,0,0,0,0,0,0,0,0,0],"sum_hessian":[5.1285572E5,3.7544053E5,1.3741516E5,2.1149517E5,1.6394538E5,3.94498E2,1.3702066E5,8.402445E0,2.1148677E5,2.5283651E0,3.9196964E2,1.7716481E5,3.4321953E4,1.7712538E5,3.9450512E1],"tree_param":{"num_deleted":"0","num_feature":"64","num_nodes":"15","size_leaf_vector":"1"}},{"base_weights":[1.5030855E-2,-5.180865E-1,3E0,2.3763177E0,-5.244192E-1,3E0,-4.228953E-2,2.4E-1,-5.085711E-1,3E0,-5.2517015E-1,2.4E-1,-2.1348488E-2,6.072211E-3,-4.167957E-2,-2.6667885E-2,2.4E-1,4.7956064E-1,-5.2662814E-1,-4.1699782E-2,2.4E-1,2.4E-1,-4.2152803E-2],"categories":[],"categories_nodes":[],"categories_segments":[],"categories_sizes":[],"default_left":[0,0,0,0,0,0,0,0,0,0,0,0,0,0,0,0,0,0,0,0,0,0,0],"id":32,"left_children":[1,3,5,7,9,11,-1,-1,13,15,17,-1,-1,-1,-1,-1,-1,19,21,-1,-1,-1,-1],"loss_changes":[3.5364703E5,2.6341133E3,1.042025E4,1.7518507E3,4.3667578E2,4.6875E1,0E0,0E0,1.2498322E0,7.260327E1,2.1048047E2,0E0,0E0,0E0,0E0,0E0,0E0,7.9956024E2,1.6111719E2,0E0,0E0,0E0,0E0],"parents":[2147483647,0,0,1,1,2,2,3,3,4,4,5,5,8,8,9,9,10,10,17,17,18,18],"right_children":[2,4,6,8,10,12,-1,-1,14,16,18,-1,-1,-1,-1,-1,-1,20,22,-1,-1,-1,-1],"split_conditions":[2.2435963E0,-1.80647E-1,4.8344764E-3,1.6897914E-1,-9.223617E-1,4.388805E-1,-4.228953E-2,2.4E-1,-8.615434E-1,1.7837521E0,-1.7672066E-1,2.4E-1,-2.1348488E-2,6.072211E-3,-4.167957E-2,-2.6667885E-2,2.4E-1,3.0420023E-1,-9.528251E-1,-4.1699782E-2,2.4E-1,2.4E-1,-4.2152803E-2],"split_indices":[10,17,54,1,6,2,0,0,18,0,17,0,0,0,0,0,0,34,18,0,0,0,0],"split_type":[0,0,0,0,0,0,0,0,0,0,0,0,0,0,0,0,0,0,0,0,0,0,0],"sum_hessian":[1.5965319E5,1.4350633E5,1.6146869E4,3.1148746E2,1.4319484E5,1.5310695E4,8.361736E2,1.6004834E2,1.5143912E2,2.4391342E1,1.4317045E5,1.5306785E4,3.910253E0,2.1016111E0,1.4933751E2,5.989219E0,1.8402122E1,2.0601016E2,1.4296444E5,1.7004092E2,3.5969242E1,8.438422E0,1.42956E5],"tree_param":{"num_deleted":"0","num_feature":"64","num_nodes":"23","size_leaf_vector":"1"}},{"base_weights":[1.8889777E-2,-4.224429E-2,3E0,-4.5695537E-1,3E0,4.7695134E-2,-5.2437377E-1,2.4E-1,-2.3330854E-2,-3.5322553E-1,2.2186053E0,-4.2116392E-2,1.6610075E-3,-3.5272565E-2,1.00959346E-1,2.4E-1,-0E0],"categories":[],"categories_nodes":[],"categories_segments":[],"categories_sizes":[],"default_left":[0,0,0,0,0,0,0,0,0,0,0,0,0,0,0,0,0],"id":33,"left_children":[1,-1,3,5,7,9,11,-1,-1,13,15,-1,-1,-1,-1,-1,-1],"loss_changes":[3.1097028E5,0E0,1.20163125E4,3.443077E1,5.46875E1,1.0911012E2,1.0442047E0,0E0,0E0,1.639198E1,4.4233032E1,0E0,0E0,0E0,0E0,0E0,0E0],"parents":[2147483647,0,0,2,2,3,3,4,4,5,5,6,6,9,9,10,10],"right_children":[2,-1,4,6,8,10,12,-1,-1,14,16,-1,-1,-1,-1,-1,-1],"split_conditions":[4.773868E-1,-4.224429E-2,5.1419795E-1,4.9706107E-1,-3.956205E-2,3.3943695E-1,1.06646866E-1,2.4E-1,-2.3330854E-2,5.699774E-2,4.0986636E-1,-4.2116392E-2,1.6610075E-3,-3.5272565E-2,1.00959346E-1,2.4E-1,-0E0],"split_indices":[33,0,31,2,56,46,12,0,0,51,26,0,0,0,0,0,0],"split_type":[0,0,0,0,0,0,0,0,0,0,0,0,0,0,0,0,0],"sum_hessian":[1.6296445E5,1.4133686E5,2.1627604E4,1.00484937E3,2.0622754E4,1.17616585E2,8.872328E2,2.0618213E4,4.5423784E0,1.0050055E2,1.7116037E1,8.848405E2,2.392297E0,9.699863E1,3.5019252E0,1.0671644E1,6.444392E0],"tree_param":{"num_deleted":"0","num_feature":"64","num_nodes":"17","size_leaf_vector":"1"}},{"base_weights":[-1.6783595E-2,1.3978133E0,-6.1633897E-1,1.12121925E-1,-4.925206E-2,-1.440389E-1,-6.3182825E-1,1.3971728E0,-4.98681E-2,-6.382277E-1,-6.2370783E-1,-3.3395667E-2,1.12087496E-1,9.832149E-1,-6.386753E-1,1.0616277E0,-6.2443346E-1,1.3425018E-1,-4.372258E-2,-2.4072861E-2,-5.1107086E-2,-4.0886953E-2,1.1298334E-1,-1.7094655E-2,-4.995954E-2],"categories":[],"categories_nodes":[],"categories_segments":[],"categories_sizes":[],"default_left":[0,0,0,0,0,0,0,0,0,0,0,0,0,0,0,0,0,0,0,0,0,0,0,0,0],"id":34,"left_children":[1,3,5,-1,-1,7,9,11,-1,13,15,-1,-1,17,19,21,23,-1,-1,-1,-1,-1,-1,-1,-1],"loss_changes":[4.583322E5,1.203875E3,2.7758438E3,0E0,0E0,8.908849E3,1.7984375E1,2.1734375E1,0E0,1.5082031E2,2.0007812E2,0E0,0E0,6.391915E1,1.0453125E1,4.0940247E1,3.2617188E0,0E0,0E0,0E0,0E0,0E0,0E0,0E0,0E0],"parents":[2147483647,0,0,1,1,2,2,5,5,6,6,7,7,9,9,10,10,13,13,14,14,15,15,16,16],"right_children":[2,4,6,-1,-1,8,10,12,-1,14,16,-1,-1,18,20,22,24,-1,-1,-1,-1,-1,-1,-1,-1],"split_conditions":[-1.3185275E-1,4.1551727E-1,-7.502439E-2,1.12121925E-1,-4.925206E-2,4.6386802E-1,1.2687378E-1,-9.223901E-2,-4.98681E-2,-5.471363E-2,4.8344764E-3,-3.3395667E-2,1.12087496E-1,-2.2784142E-1,-2.086857E-2,-7.7690524E-1,6.955792E-2,1.3425018E-1,-4.372258E-2,-2.4072861E-2,-5.1107086E-2,-4.0886953E-2,1.1298334E-1,-1.7094655E-2,-4.995954E-2],"split_indices":[15,29,15,0,0,36,63,37,0,15,54,0,0,54,15,0,54,0,0,0,0,0,0,0,0],"split_type":[0,0,0,0,0,0,0,0,0,0,0,0,0,0,0,0,0,0,0,0,0,0,0,0,0],"sum_hessian":[5.4039775E5,1.6085988E5,3.7953788E5,1.6056481E5,2.9505252E2,1.2053539E4,3.6748434E5,2.8582063E3,9.195333E3,2.0539964E5,1.620847E5,5.4326367E0,2.8527734E3,5.516547E1,2.0534447E5,6.8200325E1,1.620165E5,3.8024902E1,1.714057E1,1.0248195E2,2.05242E5,1.2007282E1,5.6193043E1,2.6243526E1,1.6199027E5],"tree_param":{"num_deleted":"0","num_feature":"64","num_nodes":"25","size_leaf_vector":"1"}},{"base_weights":[4.1726466E-2,-4.0780235E-2,3E0,-3.9666597E-2,2.4E-1],"categories":[],"categories_nodes":[],"categories_segments":[],"categories_sizes":[],"default_left":[0,0,0,0,0],"id":35,"left_children":[1,-1,3,-1,-1],"loss_changes":[1.6860295E5,0E0,1.336625E3,0E0,0E0],"parents":[2147483647,0,0,2,2],"right_children":[2,-1,4,-1,-1],"split_conditions":[1.0001304E0,-4.0780235E-2,7.644087E-1,-3.9666597E-2,2.4E-1],"split_indices":[55,0,9,0,0],"split_type":[0,0,0,0,0],"sum_hessian":[5.8020445E4,5.490716E4,3.113285E3,1.0868327E2,3.0046016E3],"tree_param":{"num_deleted":"0","num_feature":"64","num_nodes":"5","size_leaf_vector":"1"}},{"base_weights":[6.589266E-3,2.8570526E0,-5.3591835E-1,-4.2857252E-2,2.3034881E-1,-5.380923E-1,-4.7131218E-2,-4.3101512E-2,-4.1256064E-1,2.2911467E-1,-4.31202E-2,2.7686791E0,-5.3103054E-1,4.56278E-2,2.2908664E-1,-4.3164242E-2,-2.105208E-2],"categories":[],"categories_nodes":[],"categories_segments":[],"categories_sizes":[],"default_left":[0,0,0,0,0,0,0,0,0,0,0,0,0,0,0,0,0],"id":36,"left_children":[1,3,5,-1,-1,7,9,-1,11,-1,-1,13,15,-1,-1,-1,-1],"loss_changes":[3.3891416E5,2.6555E3,1.9508984E2,0E0,0E0,1.47890625E1,1.1772283E3,0E0,3.7954095E2,0E0,0E0,1.7868958E0,1.5153198E0,0E0,0E0,0E0,0E0],"parents":[2147483647,0,0,1,1,2,2,5,5,6,6,8,8,11,11,12,12],"right_children":[2,4,6,-1,-1,8,10,-1,12,-1,-1,14,16,-1,-1,-1,-1],"split_conditions":[-5.160717E-1,9.148366E-3,6.075298E-1,-4.2857252E-2,2.3034881E-1,4.417504E-1,-1.5260982E-2,-4.3101512E-2,4.4010993E-2,2.2911467E-1,-4.31202E-2,-4.5583296E-1,4.3982774E-1,4.56278E-2,2.2908664E-1,-4.3164242E-2,-2.105208E-2],"split_indices":[25,16,16,0,0,16,25,0,25,0,0,11,50,0,0,0,0],"split_type":[0,0,0,0,0,0,0,0,0,0,0,0,0,0,0,0,0],"sum_hessian":[2.1915667E5,3.5040098E4,1.8411656E5,2.2843878E2,3.481166E4,1.8330008E5,8.1649036E2,1.8230697E5,9.9311035E2,1.1647709E2,7.000133E2,3.3897915E1,9.5921246E2,2.2010608E0,3.1696856E1,9.258616E2,3.3350876E1],"tree_param":{"num_deleted":"0","num_feature":"64","num_nodes":"17","size_leaf_vector":"1"}},{"base_weights":[3.485579E-2,-5.0314677E-1,3E0,-5.1445425E-1,4.1727114E-1,3E0,-3.782348E-1,-5.152242E-1,-3.0845243E-1,3E0,-4.8325348E-1,2.9854245E-2,3E0,-4.825528E-1,2.145593E0,-4.127605E-2,-4.713142E-1,2.8829021E0,-4.7275722E-1,2.4E-1,-3.547211E-2,-4.1291945E-2,1.9896796E0,3E0,-4.5854536E-1,3E0,-3.2482944E-2,1.113052E0,-5.053181E-1,-3.4695085E-2,2.4E-1,2.4E-1,-4.0241055E-2,2.4E-1,-2.0073107E-2,1.0279768E-1,-3.954824E-2,-2.4945322E-2,2.4E-1,-2.1793017E-2,2.4E-1,-3.9892968E-2,1.6675005E-2,2.4E-1,-2.0561596E-2,2.4E-1,-2.558919E-2,-4.095116E-2,-0E0],"categories":[],"categories_nodes":[],"categories_segments":[],"categories_sizes":[],"default_left":[0,0,0,0,0,0,0,0,0,0,0,0,0,0,0,0,0,0,0,0,0,0,0,0,0,0,0,0,0,0,0,0,0,0,0,0,0,0,0,0,0,0,0,0,0,0,0,0,0],"id":37,"left_children":[1,3,5,7,9,11,13,15,17,19,21,23,25,27,29,-1,31,33,35,-1,-1,-1,37,39,41,43,-1,45,47,-1,-1,-1,-1,-1,-1,-1,-1,-1,-1,-1,-1,-1,-1,-1,-1,-1,-1,-1,-1],"loss_changes":[2.2998883E5,9.1088477E2,8.2473125E3,1.3027344E1,3.8392852E3,8.132031E2,1.9393344E2,1.9824219E0,1.7699722E2,2.3171313E2,7.641617E1,1.5431339E2,1.4209375E2,2.70392E1,1.7706648E2,0E0,1.9673257E2,4.4421753E1,1.3898277E1,0E0,0E0,0E0,5.3945053E1,5.0136856E1,2.612709E0,4.490625E1,0E0,3.619693E1,1.9841766E0,0E0,0E0,0E0,0E0,0E0,0E0,0E0,0E0,0E0,0E0,0E0,0E0,0E0,0E0,0E0,0E0,0E0,0E0,0E0,0E0],"parents":[2147483647,0,0,1,1,2,2,3,3,4,4,5,5,6,6,7,7,8,8,9,9,10,10,11,11,12,12,13,13,14,14,16,16,17,17,18,18,22,22,23,23,24,24,25,25,27,27,28,28],"right_children":[2,4,6,8,10,12,14,16,18,20,22,24,26,28,30,-1,32,34,36,-1,-1,-1,38,40,42,44,-1,46,48,-1,-1,-1,-1,-1,-1,-1,-1,-1,-1,-1,-1,-1,-1,-1,-1,-1,-1,-1,-1],"split_conditions":[8.298934E-1,5.0321907E-1,6.3439935E-1,7.174254E-1,8.26032E-2,1.8930297E-1,-1.2288004E-1,3.9105502E-1,-4.909608E-1,-2.5592482E-1,-8.9320004E-2,-9.477071E-1,6.502594E-1,8.258314E-1,9.070933E-1,-4.127605E-2,-6.18574E-1,-8.5730916E-1,-8.462942E-1,2.4E-1,-3.547211E-2,-4.1291945E-2,5.563898E-1,-2.6746514E-1,8.948702E-1,1.5076442E-1,-3.2482944E-2,-4.217513E-1,-1.7895171E-1,-3.4695085E-2,2.4E-1,2.4E-1,-4.0241055E-2,2.4E-1,-2.0073107E-2,1.0279768E-1,-3.954824E-2,-2.4945322E-2,2.4E-1,-2.1793017E-2,2.4E-1,-3.9892968E-2,1.6675005E-2,2.4E-1,-2.0561596E-2,2.4E-1,-2.558919E-2,-4.095116E-2,-0E0],"split_indices":[18,38,41,18,31,29,36,18,37,44,50,11,12,54,47,0,37,11,36,0,0,0,36,52,47,39,0,20,36,0,0,0,0,0,0,0,0,0,0,0,0,0,0,0,0,0,0,0,0],"split_type":[0,0,0,0,0,0,0,0,0,0,0,0,0,0,0,0,0,0,0,0,0,0,0,0,0,0,0,0,0,0,0,0,0,0,0,0,0,0,0,0,0,0,0,0,0,0,0,0,0],"sum_hessian":[9.591237E4,8.7455945E4,8.45642E3,8.6395984E4,1.059961E3,7.7343506E3,7.220693E2,8.606885E4,3.271349E2,1.6068542E2,8.9927563E2,9.272752E1,7.641623E3,6.951521E2,2.6917183E1,8.463591E4,1.4329431E3,1.4248358E1,3.1288654E2,1.4178897E2,1.8896458E1,8.892315E2,1.0044124E1,1.0995495E1,8.1732025E1,7.629989E3,1.1634289E1,8.122229E0,6.8702985E2,1.6062523E1,1.085466E1,8.336658E0,1.4246064E3,1.050314E1,3.7452173E0,2.0964582E0,3.1079007E2,5.376989E0,4.6671343E0,4.1972547E0,6.7982407E0,7.827823E1,3.4538026E0,7.6262246E3,3.764291E0,2.3567197E0,5.7655087E0,6.779639E2,9.065917E0],"tree_param":{"num_deleted":"0","num_feature":"64","num_nodes":"49","size_leaf_vector":"1"}},{"base_weights":[4.3883096E-2,-4.0769935E-2,3E0,3E0,-4.577739E-1,2.4E-1,-2.0393252E-2,7.554596E-2,-3.986602E-2],"categories":[],"categories_nodes":[],"categories_segments":[],"categories_sizes":[],"default_left":[0,0,0,0,0,0,0,0,0],"id":38,"left_children":[1,-1,3,5,7,-1,-1,-1,-1],"loss_changes":[1.6697253E5,0E0,1.5416875E3,4.6546875E1,8.881821E0,0E0,0E0,0E0,0E0],"parents":[2147483647,0,0,2,2,3,3,4,4],"right_children":[2,-1,4,6,8,-1,-1,-1,-1],"split_conditions":[4.8215652E-1,-4.0769935E-2,3.664195E-1,-2.2432777E-1,-8.174343E-2,2.4E-1,-2.0393252E-2,7.554596E-2,-3.986602E-2],"split_indices":[49,0,47,9,34,0,0,0,0],"split_type":[0,0,0,0,0,0,0,0,0],"sum_hessian":[5.7228367E4,5.4156797E4,3.0715688E3,2.9432827E3,1.2828615E2,2.9393564E3,3.9262538E0,2.006468E0,1.26279686E2],"tree_param":{"num_deleted":"0","num_feature":"64","num_nodes":"9","size_leaf_vector":"1"}},{"base_weights":[1.3474003E-2,-4.7190157E-1,3E0,-5.273936E-1,1.0786084E0,2.4E-1,-4.286188E-2,-4.715082E-1,-5.323069E-1,3E0,-4.9289322E-1,3E0,-5.2977973E-1,-3.944431E-1,-4.259241E-2,3E0,-3.6546963E-1,2.8118052E0,-5.246746E-1,-3.273326E-2,2.4E-1,1.5719173E-2,-4.2703442E-2,-4.1638188E-2,2.2011702E-1,2.4E-1,-1.2089632E-2,-4.011088E-2,1.0350137E-1,-1.4661562E-2,2.4E-1,1.766252E-1,-4.2861734E-2],"categories":[],"categories_nodes":[],"categories_segments":[],"categories_sizes":[],"default_left":[0,0,0,0,0,0,0,0,0,0,0,0,0,0,0,0,0,0,0,0,0,0,0,0,0,0,0,0,0,0,0,0,0],"id":39,"left_children":[1,3,5,7,9,-1,-1,11,13,15,17,19,21,23,-1,25,27,29,31,-1,-1,-1,-1,-1,-1,-1,-1,-1,-1,-1,-1,-1,-1],"loss_changes":[2.824766E5,1.4024855E4,1.7330797E4,4.2410156E1,1.8893652E4,0E0,0E0,2.6226885E3,1.203125E0,5.7330664E2,3.461504E2,1.2853027E2,3.685498E1,4.974342E1,0E0,2.3835938E1,1.3884291E1,2.7677261E1,1.0126752E2,0E0,0E0,0E0,0E0,0E0,0E0,0E0,0E0,0E0,0E0,0E0,0E0,0E0,0E0],"parents":[2147483647,0,0,1,1,2,2,3,3,4,4,7,7,8,8,9,9,10,10,11,11,12,12,13,13,15,15,16,16,17,17,18,18],"right_children":[2,4,6,8,10,-1,-1,12,14,16,18,20,22,24,-1,26,28,30,32,-1,-1,-1,-1,-1,-1,-1,-1,-1,-1,-1,-1,-1,-1],"split_conditions":[1.9448917E0,4.1353288E-1,4.4416077E-3,-7.385565E-1,-1.5666467E-1,2.4E-1,-4.286188E-2,1.7010334E-1,-8.874983E-1,-4.2615613E-1,-8.288292E-1,6.471132E-1,3.9951918E-1,8.722831E-1,-4.259241E-2,5.759314E-1,-1.4666472E-1,9.873236E-1,-7.893614E-1,-3.273326E-2,2.4E-1,1.5719173E-2,-4.2703442E-2,-4.1638188E-2,2.2011702E-1,2.4E-1,-1.2089632E-2,-4.011088E-2,1.0350137E-1,-1.4661562E-2,2.4E-1,1.766252E-1,-4.2861734E-2],"split_indices":[59,59,14,24,14,0,0,61,49,11,52,6,61,21,0,29,39,44,31,0,0,0,0,0,0,0,0,0,0,0,0,0,0],"split_type":[0,0,0,0,0,0,0,0,0,0,0,0,0,0,0,0,0,0,0,0,0,0,0,0,0,0,0,0,0,0,0,0,0],"sum_hessian":[1.8858936E5,1.6297972E5,2.5609633E4,1.5734989E5,5.6298364E3,2.422408E4,1.3855509E3,1.2739798E4,1.446101E5,2.3779758E3,3.2518606E3,2.052658E2,1.2534531E4,1.1228859E2,1.444978E5,2.3279346E3,5.004112E1,2.9159058E1,3.2227014E3,1.0443284E1,1.9482251E2,6.767223E1,1.2466859E4,1.0972089E2,2.567697E0,2.3258875E3,2.0470889E0,4.7820858E1,2.2202592E0,2.4226122E0,2.6736444E1,1.1251343E1,3.2114502E3],"tree_param":{"num_deleted":"0","num_feature":"64","num_nodes":"33","size_leaf_vector":"1"}},{"base_weights":[-1.3019849E-2,1.8934032E0,-5.7085884E-1,-4.5393877E-2,1.5181157E-1,-5.6707346E-1,-4.5979552E-2,1.07961826E-1,-5.67124E-1,7.393779E-4,-4.537128E-2],"categories":[],"categories_nodes":[],"categories_segments":[],"categories_sizes":[],"default_left":[0,0,0,0,0,0,0,0,0,0,0],"id":40,"left_children":[1,3,5,-1,-1,7,-1,-1,9,-1,-1],"loss_changes":[3.8357047E5,8.54625E2,3.171875E0,0E0,0E0,1.5921875E1,0E0,0E0,1.4023438E0,0E0,0E0],"parents":[2147483647,0,0,1,1,2,2,5,5,8,8],"right_children":[2,4,6,-1,-1,8,-1,-1,10,-1,-1],"split_conditions":[-5.4444385E-1,-8.823234E-1,1.0450145E-1,-4.5393877E-2,1.5181157E-1,-5.046326E-1,-4.5979552E-2,1.07961826E-1,-2.9277128E-1,7.393779E-4,-4.537128E-2],"split_indices":[30,0,15,0,0,28,0,0,42,0,0],"split_type":[0,0,0,0,0,0,0,0,0,0,0],"sum_hessian":[3.6067006E5,8.164419E4,2.790259E5,1.3981972E2,8.150437E4,1.4154858E5,1.3747733E5,2.0636284E0,1.415465E5,3.265763E0,1.4154323E5],"tree_param":{"num_deleted":"0","num_feature":"64","num_nodes":"11","size_leaf_vector":"1"}},{"base_weights":[2.0808464E-2,-5.178535E-1,3E0,-4.207188E-2,1.0015628E0,5.8028507E-3,2.4E-1,-5.094752E-1,2.382905E0,-4.1707814E-2,-1.05171E-1,3E0,-1.3869579E-1,4.9953483E-2,-3.1225523E-2,-3.8525768E-2,2.4E-1,-4.0763907E-2,2.4E-1],"categories":[],"categories_nodes":[],"categories_segments":[],"categories_sizes":[],"default_left":[0,0,0,0,0,0,0,0,0,0,0,0,0,0,0,0,0,0,0],"id":41,"left_children":[1,3,5,-1,7,-1,-1,9,11,-1,13,15,17,-1,-1,-1,-1,-1,-1],"loss_changes":[3.0838475E5,1.6213945E3,1.421875E1,0E0,1.4623003E3,0E0,0E0,1.0472794E0,6.983628E2,0E0,3.9865713E0,3.352942E2,1.11682594E2,0E0,0E0,0E0,0E0,0E0,0E0],"parents":[2147483647,0,0,1,1,2,2,4,4,7,7,8,8,10,10,11,11,12,12],"right_children":[2,4,6,-1,8,-1,-1,10,12,-1,14,16,18,-1,-1,-1,-1,-1,-1],"split_conditions":[1.412508E0,4.4530433E-2,2.3521134E-1,-4.207188E-2,5.630436E-1,5.8028507E-3,2.4E-1,6.991143E-2,7.3620796E-1,-4.1707814E-2,-4.557939E-1,-6.901911E-1,6.1704204E-3,4.9953483E-2,-3.1225523E-2,-3.8525768E-2,2.4E-1,-4.0763907E-2,2.4E-1],"split_indices":[45,45,41,0,20,0,0,27,44,0,51,7,28,0,0,0,0,0,0],"split_type":[0,0,0,0,0,0,0,0,0,0,0,0,0,0,0,0,0,0,0],"sum_hessian":[1.5001758E5,1.3251262E5,1.7504955E4,1.3181631E5,6.963055E2,2.2761054E0,1.750268E4,3.329714E2,3.633341E2,3.2170868E2,1.1262744E1,2.7875565E2,8.4578445E1,2.0034819E0,9.259262E0,2.698296E1,2.5177269E2,7.775207E1,6.826372E0],"tree_param":{"num_deleted":"0","num_feature":"64","num_nodes":"19","size_leaf_vector":"1"}},{"base_weights":[-1.5469788E-2,-6.1864096E-1,1.4703039E0,-4.8994698E-2,-6.242433E-1,-4.8292335E-2,1.4734468E0,-4.9974594E-2,-5.923676E-1,-5.626905E-1,1.1805839E-1,1.386323E-1,-4.8826918E-2,7.448564E-2,-4.94073E-2],"categories":[],"categories_nodes":[],"categories_segments":[],"categories_sizes":[],"default_left":[0,0,0,0,0,0,0,0,0,0,0,0,0,0,0],"id":42,"left_children":[1,3,5,-1,7,-1,9,-1,11,13,-1,-1,-1,-1,-1],"loss_changes":[4.554315E5,1.15E1,9.58625E2,0E0,1.59375E0,0E0,6.830625E2,0E0,1.13054565E2,1.5254444E1,0E0,0E0,0E0,0E0,0E0],"parents":[2147483647,0,0,1,1,2,2,4,4,6,6,8,8,9,9],"right_children":[2,4,6,-1,8,-1,10,-1,12,14,-1,-1,-1,-1,-1],"split_conditions":[3.7742603E-1,-3.6419597E-1,1.9334868E-1,-4.8994698E-2,2.0564702E-1,-4.8292335E-2,-8.713848E-2,-4.9974594E-2,-2.1680202E-1,-8.140407E-1,1.1805839E-1,1.386323E-1,-4.8826918E-2,7.448564E-2,-4.94073E-2],"split_indices":[3,40,40,0,5,0,5,0,8,0,0,0,0,0,0],"split_type":[0,0,0,0,0,0,0,0,0,0,0,0,0,0,0],"sum_hessian":[5.0818844E5,3.6145294E5,1.467355E5,1.7161747E5,1.8983545E5,2.2121956E2,1.4651428E5,1.8720369E5,2.6317715E3,1.6330592E2,1.4635098E5,1.8504372E1,2.613267E3,4.3348947E0,1.5897102E2],"tree_param":{"num_deleted":"0","num_feature":"64","num_nodes":"15","size_leaf_vector":"1"}},{"base_weights":[2.021869E-2,-5.164787E-1,3E0,-5.2364767E-1,2.650328E0,3E0,-4.2254984E-2,2.7685394E0,-5.2420366E-1,2.4E-1,-4.092903E-2,2.4E-1,-2.3321487E-2,-2.5537612E-2,2.4E-1,-5.2582467E-1,1.1433722E-1,3.9843753E-2,-4.2079348E-2,2.4E-1,-4.191215E-2],"categories":[],"categories_nodes":[],"categories_segments":[],"categories_sizes":[],"default_left":[0,0,0,0,0,0,0,0,0,0,0,0,0,0,0,0,0,0,0,0,0],"id":43,"left_children":[1,3,5,7,9,11,-1,13,15,-1,-1,-1,-1,-1,-1,17,19,-1,-1,-1,-1],"loss_changes":[3.031568E5,3.1336602E3,1.0440969E4,2.560547E2,1.0671536E3,5.44375E1,0E0,6.52825E1,1.4251953E2,0E0,0E0,0E0,0E0,0E0,0E0,2.425E1,8.473106E2,0E0,0E0,0E0,0E0],"parents":[2147483647,0,0,1,1,2,2,3,3,4,4,5,5,7,7,8,8,15,15,16,16],"right_children":[2,4,6,8,10,12,-1,14,16,-1,-1,-1,-1,-1,-1,18,20,-1,-1,-1,-1],"split_conditions":[2.2435963E0,1.2952775E0,4.8344764E-3,-9.223617E-1,2.730069E-1,-3.307381E-1,-4.2254984E-2,1.7837521E0,1.1992288E0,2.4E-1,-4.092903E-2,2.4E-1,-2.3321487E-2,-2.5537612E-2,2.4E-1,-9.391348E-1,1.6897914E-1,3.9843753E-2,-4.2079348E-2,2.4E-1,-4.191215E-2],"split_indices":[10,7,54,6,1,6,0,0,7,0,0,0,0,0,0,18,1,0,0,0,0],"split_type":[0,0,0,0,0,0,0,0,0,0,0,0,0,0,0,0,0,0,0,0,0],"sum_hessian":[1.5783164E5,1.3784698E5,1.9984656E4,1.3753745E5,3.0952832E2,1.9146615E4,8.380412E2,2.139156E1,1.3751606E5,2.2064601E2,8.88823E1,1.9142094E4,4.521506E0,5.476408E0,1.5915152E1,1.3716898E5,3.4708197E2,2.0932995E1,1.3714805E5,4.5827324E1,3.0125464E2],"tree_param":{"num_deleted":"0","num_feature":"64","num_nodes":"21","size_leaf_vector":"1"}},{"base_weights":[1.7821716E-2,-5.2665836E-1,2.8392377E0,-4.2152666E-2,-4.69291E-1,-4.5018825E-1,2.9702601E0,2.4E-1,-5.175491E-1,3.1972775E-1,-4.8161405E-1,2.3767485E-1,-2.4133455E-2,2.8931247E-2,-4.189302E-2,-2.9290316E-1,1.8690625E0,-2.9227507E-1,-4.1981783E-2,-3.7467413E-2,2.6911113E-2,2.1478286E-1,-0E0,-3.9074514E-2,1.4229678E-1],"categories":[],"categories_nodes":[],"categories_segments":[],"categories_sizes":[],"default_left":[0,0,0,0,0,0,0,0,0,0,0,0,0,0,0,0,0,0,0,0,0,0,0,0,0],"id":44,"left_children":[1,3,5,-1,7,9,11,-1,13,15,17,-1,-1,-1,-1,19,21,23,-1,-1,-1,-1,-1,-1,-1],"loss_changes":[2.474543E5,1.1523438E0,1.1233328E4,0E0,1.1028731E2,2.4703323E1,5.734375E1,0E0,3.8288727E0,4.132658E1,7.239807E0,0E0,0E0,0E0,0E0,4.059391E0,1.8081581E1,7.8167305E1,0E0,0E0,0E0,0E0,0E0,0E0,0E0],"parents":[2147483647,0,0,1,1,2,2,4,4,5,5,6,6,8,8,9,9,10,10,15,15,16,16,17,17],"right_children":[2,4,6,-1,8,10,12,-1,14,16,18,-1,-1,-1,-1,20,22,24,-1,-1,-1,-1,-1,-1,-1],"split_conditions":[4.773868E-1,1.3348027E-1,5.1419795E-1,-4.2152666E-2,-1.7610519E-1,3.0733675E-1,-8.6152285E-2,2.4E-1,-1.124521E-1,6.883349E-2,2.039522E0,2.3767485E-1,-2.4133455E-2,2.8931247E-2,-4.189302E-2,9.3345577E-1,1.2179021E0,8.26032E-2,-4.1981783E-2,-3.7467413E-2,2.6911113E-2,2.1478286E-1,-0E0,-3.9074514E-2,1.4229678E-1],"split_indices":[33,33,31,0,56,14,56,0,56,31,20,0,0,0,0,1,61,31,0,0,0,0,0,0,0],"split_type":[0,0,0,0,0,0,0,0,0,0,0,0,0,0,0,0,0,0,0,0,0,0,0,0,0],"sum_hessian":[1.6107472E5,1.3501988E5,2.6054842E4,1.3440903E5,6.1084595E2,9.977156E2,2.5057125E4,6.316948E0,6.04529E2,3.778339E1,9.599322E2,2.5052291E4,4.835145E0,2.8067603E0,6.017222E2,2.800784E1,9.775553E0,1.8322728E2,7.7670496E2,2.2923182E1,5.0846567E0,6.2320237E0,3.5435286E0,1.689908E2,1.4236473E1],"tree_param":{"num_deleted":"0","num_feature":"64","num_nodes":"25","size_leaf_vector":"1"}},{"base_weights":[-1.8879734E-2,1.2676678E0,-6.07913E-1,1.01655155E-1,-6.031246E-1,-1.3721694E-1,-6.2354076E-1,-4.8933815E-2,2.5352088E-4,1.2655091E0,-4.9126104E-2,-6.305303E-1,-6.1452734E-1,1.0162883E-1,-3.744289E-2,9.332926E-1,-6.309893E-1,1.0480369E0,-6.1525106E-1,-4.040288E-2,1.2057649E-1,-2.4497554E-2,-5.0493088E-2,-3.6806006E-2,1.028608E-1,-2.3204906E-2,-4.9224988E-2],"categories":[],"categories_nodes":[],"categories_segments":[],"categories_sizes":[],"default_left":[0,0,0,0,0,0,0,0,0,0,0,0,0,0,0,0,0,0,0,0,0,0,0,0,0,0,0],"id":45,"left_children":[1,3,5,-1,7,9,11,-1,-1,13,-1,15,17,-1,-1,19,21,23,25,-1,-1,-1,-1,-1,-1,-1,-1],"loss_changes":[4.0351484E5,9.4715625E2,2.6860156E3,0E0,1.4215317E0,7.8561704E3,2.1203125E1,0E0,0E0,2.6484375E1,0E0,1.4449219E2,1.8773828E2,0E0,0E0,5.1239254E1,1.03984375E1,2.6030785E1,2.25E0,0E0,0E0,0E0,0E0,0E0,0E0,0E0,0E0],"parents":[2147483647,0,0,1,1,2,2,4,4,5,5,6,6,9,9,11,11,12,12,15,15,16,16,17,17,18,18],"right_children":[2,4,6,-1,8,10,12,-1,-1,14,-1,16,18,-1,-1,20,22,24,26,-1,-1,-1,-1,-1,-1,-1,-1],"split_conditions":[-1.3185275E-1,3.6193597E-1,-7.502439E-2,1.01655155E-1,-1.5482447E-1,4.6386802E-1,1.2687378E-1,-4.8933815E-2,2.5352088E-4,3.6193597E-1,-4.9126104E-2,-5.471363E-2,4.8344764E-3,1.0162883E-1,-3.744289E-2,1.328221E-1,-2.086857E-2,-7.7690524E-1,6.955792E-2,-4.040288E-2,1.2057649E-1,-2.4497554E-2,-5.0493088E-2,-3.6806006E-2,1.028608E-1,-2.3204906E-2,-4.9224988E-2],"split_indices":[15,29,15,0,34,36,63,0,0,29,0,15,54,0,0,37,15,0,54,0,0,0,0,0,0,0,0],"split_type":[0,0,0,0,0,0,0,0,0,0,0,0,0,0,0,0,0,0,0,0,0,0,0,0,0,0,0],"sum_hessian":[5.3246244E5,1.6722088E5,3.652416E5,1.6695211E5,2.6875845E2,1.1738517E4,3.5350306E5,2.6581763E2,2.9408207E0,2.9770098E3,8.761507E3,1.9899688E5,1.5450619E5,2.9695225E3,7.4873E0,5.687933E1,1.9894E5,6.567139E1,1.5444052E5,1.6042587E1,4.0836742E1,1.1012473E2,1.9882988E5,8.401081E0,5.7270306E1,3.2398388E1,1.5440812E5],"tree_param":{"num_deleted":"0","num_feature":"64","num_nodes":"27","size_leaf_vector":"1"}},{"base_weights":[5.6238398E-2,-5.0780857E-1,3E0,-5.08109E-1,1.059486E0,2.4E-1,-4.031638E-2,-5.087072E-1,-2.2538352E-1,-2.6172081E-2,2.4E-1,-4.0745027E-2,-4.2845526E-1,2.4E-1,-3.972221E-2,2.4E-1,-4.0410947E-2],"categories":[],"categories_nodes":[],"categories_segments":[],"categories_sizes":[],"default_left":[0,0,0,0,0,0,0,0,0,0,0,0,0,0,0,0,0],"id":46,"left_children":[1,3,5,7,9,-1,-1,11,13,-1,-1,-1,15,-1,-1,-1,-1],"loss_changes":[1.539572E5,2.619336E1,3.7629375E3,8.208008E0,3.952556E1,0E0,0E0,1.8007812E0,1.511582E2,0E0,0E0,0E0,1.5433176E2,0E0,0E0,0E0,0E0],"parents":[2147483647,0,0,1,1,2,2,3,3,4,4,7,7,8,8,12,12],"right_children":[2,4,6,8,10,-1,-1,12,14,-1,-1,-1,16,-1,-1,-1,-1],"split_conditions":[1.0887734E0,6.523532E-1,-5.1701057E-1,5.9478474E-1,-3.9994532E-1,2.4E-1,-4.031638E-2,9.8319465E-1,-7.590622E-1,-2.6172081E-2,2.4E-1,-4.0745027E-2,-6.628067E-1,2.4E-1,-3.972221E-2,2.4E-1,-4.0410947E-2],"split_indices":[9,14,3,14,59,0,0,9,0,0,0,0,3,0,0,0,0],"split_type":[0,0,0,0,0,0,0,0,0,0,0,0,0,0,0,0,0],"sum_hessian":[5.638855E4,5.2224637E4,4.1639136E3,5.22163E4,8.336337E0,3.858125E3,3.0578882E2,5.2102676E4,1.13624405E2,6.2846103E0,2.0517266E0,5.1695617E4,4.070588E2,3.4139595E0,1.1021045E2,3.664219E0,4.033946E2],"tree_param":{"num_deleted":"0","num_feature":"64","num_nodes":"17","size_leaf_vector":"1"}},{"base_weights":[4.3313727E-3,2.2885273E0,-5.3397524E-1,-4.276474E-2,1.8427815E-1,-5.3644246E-1,-8.945413E-2,-4.2948745E-2,-4.4467926E-1,1.8628168E-1,-4.301136E-2,1.757973E-1,-4.2314112E-2],"categories":[],"categories_nodes":[],"categories_segments":[],"categories_sizes":[],"default_left":[0,0,0,0,0,0,0,0,0,0,0,0,0],"id":47,"left_children":[1,3,5,-1,-1,7,9,-1,11,-1,-1,-1,-1],"loss_changes":[2.6734516E5,1.7528125E3,1.9238672E2,0E0,0E0,5.90625E0,1.0606509E3,0E0,1.8349965E2,0E0,0E0,0E0,0E0],"parents":[2147483647,0,0,1,1,2,2,5,5,6,6,8,8],"right_children":[2,4,6,-1,-1,8,10,-1,12,-1,-1,-1,-1],"split_conditions":[-5.160717E-1,-9.988845E-3,5.602214E-1,-4.276474E-2,1.8427815E-1,4.417504E-1,1.6013424E-1,-4.2948745E-2,1.2642634E-1,1.8628168E-1,-4.301136E-2,1.757973E-1,-4.2314112E-2],"split_indices":[25,16,16,0,0,16,41,0,41,0,0,0,0],"split_type":[0,0,0,0,0,0,0,0,0,0,0,0,0],"sum_hessian":[2.1741792E5,4.1464805E4,1.7595312E5,2.1787764E2,4.1246926E4,1.7498039E5,9.7271967E2,1.7417397E5,8.064247E2,1.5061966E2,8.221E2,2.318542E1,7.8323926E2],"tree_param":{"num_deleted":"0","num_feature":"64","num_nodes":"13","size_leaf_vector":"1"}},{"base_weights":[4.303256E-2,-5.015885E-1,3E0,-5.135293E-1,4.0992656E-1,3E0,-3.9052868E-1,-5.1433116E-1,-3.0409893E-1,3E0,-4.898323E-1,7.151194E-2,3E0,2.3041441E0,-4.6732163E-1,-4.121217E-2,-4.6668783E-1,-4.4457272E-1,1.6603214E0,2.4E-1,-3.631105E-2,-4.12629E-2,1.4871135E0,3E0,-4.2730087E-1,3E0,-8.768186E-2,2.4E-1,-2.8935121E-2,-4.8191735E-1,1.673804E-1,1.2170802E-1,-4.0256366E-2,1.8232307E-1,-3.8854327E-2,2.4E-1,-3.2248817E-2,-2.4936846E-2,2.4E-1,2.4E-1,-0E0,8.143637E-2,-3.981075E-2,2.4E-1,-1.7458536E-2,-3.4535628E-2,1.0019921E-1,-3.972031E-2,5.9731185E-2],"categories":[],"categories_nodes":[],"categories_segments":[],"categories_sizes":[],"default_left":[0,0,0,0,0,0,0,0,0,0,0,0,0,0,0,0,0,0,0,0,0,0,0,0,0,0,0,0,0,0,0,0,0,0,0,0,0,0,0,0,0,0,0,0,0,0,0,0,0],"id":48,"left_children":[1,3,5,7,9,11,13,15,17,19,21,23,25,27,29,-1,31,33,35,-1,-1,-1,37,39,41,43,45,-1,-1,47,-1,-1,-1,-1,-1,-1,-1,-1,-1,-1,-1,-1,-1,-1,-1,-1,-1,-1,-1],"loss_changes":[2.0282612E5,9.105371E2,8.19E3,1.3181641E1,3.4033557E3,7.639375E2,1.5113745E2,2.453125E0,9.137669E1,2.7625537E2,4.7272858E1,1.4481358E2,1.675E2,8.634507E1,2.908281E1,0E0,1.0572418E2,3.726411E1,1.0214725E2,0E0,0E0,0E0,4.0589756E1,1.7521378E1,9.786743E0,3.603125E1,1.1117742E1,0E0,0E0,1.3569458E1,0E0,0E0,0E0,0E0,0E0,0E0,0E0,0E0,0E0,0E0,0E0,0E0,0E0,0E0,0E0,0E0,0E0,0E0,0E0],"parents":[2147483647,0,0,1,1,2,2,3,3,4,4,5,5,6,6,7,7,8,8,9,9,10,10,11,11,12,12,13,13,14,14,16,16,17,17,18,18,22,22,23,23,24,24,25,25,26,26,29,29],"right_children":[2,4,6,8,10,12,14,16,18,20,22,24,26,28,30,-1,32,34,36,-1,-1,-1,38,40,42,44,46,-1,-1,48,-1,-1,-1,-1,-1,-1,-1,-1,-1,-1,-1,-1,-1,-1,-1,-1,-1,-1,-1],"split_conditions":[8.298934E-1,5.0321907E-1,6.3439935E-1,7.174254E-1,1.703102E-1,1.8930297E-1,-8.871685E-1,3.9105502E-1,3.4086254E-1,-2.5592482E-1,-7.5229384E-2,-8.57466E-1,-3.7365437E-2,1.6172132E0,4.825508E-1,-4.121217E-2,3.7610087E-1,2.1950379E-1,-4.6545357E-1,2.4E-1,-3.631105E-2,-4.12629E-2,5.5101596E-2,-3.9994532E-1,-8.779224E-1,1.5076442E-1,8.008918E-1,2.4E-1,-2.8935121E-2,-6.25328E-2,1.673804E-1,1.2170802E-1,-4.0256366E-2,1.8232307E-1,-3.8854327E-2,2.4E-1,-3.2248817E-2,-2.4936846E-2,2.4E-1,2.4E-1,-0E0,8.143637E-2,-3.981075E-2,2.4E-1,-1.7458536E-2,-3.4535628E-2,1.0019921E-1,-3.972031E-2,5.9731185E-2],"split_indices":[18,38,41,18,31,29,19,18,38,44,50,49,44,20,40,0,41,41,19,0,0,0,34,59,3,39,6,0,0,27,0,0,0,0,0,0,0,0,0,0,0,0,0,0,0,0,0,0,0],"split_type":[0,0,0,0,0,0,0,0,0,0,0,0,0,0,0,0,0,0,0,0,0,0,0,0,0,0,0,0,0,0,0,0,0,0,0,0,0,0,0,0,0,0,0,0,0,0,0,0,0],"sum_hessian":[9.402798E4,8.359585E4,1.0432123E4,8.251632E4,1.0795339E3,9.720281E3,7.118416E2,8.2196305E4,3.2001376E2,2.053543E2,8.741796E2,8.969194E1,9.630589E3,1.793626E1,6.939054E2,8.0774305E4,1.421998E3,3.003387E2,1.9675028E1,1.8285158E2,2.2502722E1,8.6456055E2,9.619083E0,1.1424948E1,7.826699E1,9.613298E3,1.7291471E1,1.0105846E1,7.830414E0,6.9177936E2,2.1260142E0,2.3934698E1,1.3980632E3,2.6657236E0,2.97673E2,8.27951E0,1.1395518E1,5.394877E0,4.224207E0,9.296131E0,2.1288168E0,2.0517101E0,7.621529E1,9.610245E3,3.052716E0,1.5135209E1,2.1562626E0,6.8524225E2,6.537118E0],"tree_param":{"num_deleted":"0","num_feature":"64","num_nodes":"49","size_leaf_vector":"1"}},{"base_weights":[5.5884883E-2,-4.073484E-2,3E0,-3.9820474E-2,3E0,2.4E-1,-1.4695233E-2],"categories":[],"categories_nodes":[],"categories_segments":[],"categories_sizes":[],"default_left":[0,0,0,0,0,0,0],"id":49,"left_children":[1,-1,3,-1,5,-1,-1],"loss_changes":[1.55059E5,0E0,1.5250156E3,0E0,3.0765625E1,0E0,0E0],"parents":[2147483647,0,0,2,2,4,4],"right_children":[2,-1,4,-1,6,-1,-1],"split_conditions":[4.8215652E-1,-4.073484E-2,8.9266986E-1,-3.9820474E-2,2.432131E-1,2.4E-1,-1.4695233E-2],"split_indices":[49,0,12,0,53,0,0],"split_type":[0,0,0,0,0,0,0],"sum_hessian":[5.5692016E4,5.179239E4,3.899628E3,1.2395835E2,3.7756694E3,3.773025E3,2.64467E0],"tree_param":{"num_deleted":"0","num_feature":"64","num_nodes":"7","size_leaf_vector":"1"}},{"base_weights":[1.085671E-2,-5.156389E-1,2.2502043E0,-5.1984715E-1,3.022319E-1,2.607383E0,-4.2877626E-2,-4.0174976E-1,-5.2956146E-1,2.5392244E0,-4.220042E-2,-3.4438875E-2,2.608667E0,2.534944E0,-5.2297467E-1,-4.7298357E-1,-4.24606E-2,2.078722E-1,-2.2333538E-2,2.0877357E-1,-3.2174423E-2,2.0711763E-1,-3.0243024E-2,5.70611E-2,-4.23562E-2,-4.162794E-2,1.7830606E-1],"categories":[],"categories_nodes":[],"categories_segments":[],"categories_sizes":[],"default_left":[0,0,0,0,0,0,0,0,0,0,0,0,0,0,0,0,0,0,0,0,0,0,0,0,0,0,0],"id":50,"left_children":[1,3,5,7,9,11,-1,13,15,17,-1,-1,19,21,23,25,-1,-1,-1,-1,-1,-1,-1,-1,-1,-1,-1],"loss_changes":[2.2045134E5,5.215078E2,3.5423938E4,1.7204688E2,1.4459036E3,1.25546875E2,0E0,4.0836592E3,8.621094E0,3.676355E1,0E0,0E0,9.753125E1,7.374951E1,8.92666E1,3.7563495E2,0E0,0E0,0E0,0E0,0E0,0E0,0E0,0E0,0E0,0E0,0E0],"parents":[2147483647,0,0,1,1,2,2,3,3,4,4,5,5,7,7,8,8,9,9,12,12,13,13,14,14,15,15],"right_children":[2,4,6,8,10,12,-1,14,16,18,-1,-1,20,22,24,26,-1,-1,-1,-1,-1,-1,-1,-1,-1,-1,-1],"split_conditions":[9.873236E-1,7.3620796E-1,4.9381427E-2,-7.9043233E-1,-4.624908E-1,-2.1657567E-1,-4.2877626E-2,-2.2601315E-1,-8.147215E-1,-8.623894E-2,-4.220042E-2,-3.4438875E-2,3.7742603E-1,5.630436E-1,-1.8065646E-1,-3.7365437E-2,-4.24606E-2,2.078722E-1,-2.2333538E-2,2.0877357E-1,-3.2174423E-2,2.0711763E-1,-3.0243024E-2,5.70611E-2,-4.23562E-2,-4.162794E-2,1.7830606E-1],"split_indices":[44,44,43,24,43,25,0,14,31,26,0,0,3,20,14,44,0,0,0,0,0,0,0,0,0,0,0],"split_type":[0,0,0,0,0,0,0,0,0,0,0,0,0,0,0,0,0,0,0,0,0,0,0,0,0,0,0],"sum_hessian":[1.8697355E5,1.5138302E5,3.5590523E4,1.5060942E5,7.73601E2,3.154665E4,4.0438726E3,1.1457417E4,1.39152E5,2.0835437E2,5.6524664E2,1.2881535E1,3.1533768E4,4.5246362E2,1.1004953E4,2.905877E3,1.3624612E5,2.0439616E2,3.9582047E0,3.1523703E4,1.0065167E1,4.4461166E2,7.85197E0,5.5824898E1,1.0949129E4,2.8575803E3,4.829666E1],"tree_param":{"num_deleted":"0","num_feature":"64","num_nodes":"27","size_leaf_vector":"1"}},{"base_weights":[-1.4989554E-2,1.6436235E0,-5.6706196E-1,-4.5183845E-2,1.3174151E-1,-5.627368E-1,-4.5714427E-2,1.06874205E-1,-4.5024574E-2],"categories":[],"categories_nodes":[],"categories_segments":[],"categories_sizes":[],"default_left":[0,0,0,0,0,0,0,0,0],"id":51,"left_children":[1,3,5,-1,-1,7,-1,-1,-1],"loss_changes":[3.263211E5,6.203594E2,4.125E0,0E0,0E0,2.0160156E1,0E0,0E0,0E0],"parents":[2147483647,0,0,1,1,2,2,5,5],"right_children":[2,4,6,-1,-1,8,-1,-1,-1],"split_conditions":[-5.4444385E-1,-8.823234E-1,1.0450145E-1,-4.5183845E-2,1.3174151E-1,-4.3609127E-1,-4.5714427E-2,1.06874205E-1,-4.5024574E-2],"split_indices":[30,0,15,0,0,28,0,0,0],"split_type":[0,0,0,0,0,0,0,0,0],"sum_hessian":[3.5636653E5,8.899387E4,2.6737266E5,1.2583661E2,8.886803E4,1.3453855E5,1.3283412E5,3.3185208E0,1.3453522E5],"tree_param":{"num_deleted":"0","num_feature":"64","num_nodes":"9","size_leaf_vector":"1"}},{"base_weights":[2.5157807E-2,-5.165445E-1,3E0,-4.197332E-2,8.5630006E-1,6.892971E-3,2.4E-1,-4.1147918E-2,1.9390537E0,-3.820414E-1,2.5847852E0,-4.0888123E-2,1.2452725E-1,-5.158721E-3,2.3254474E-1],"categories":[],"categories_nodes":[],"categories_segments":[],"categories_sizes":[],"default_left":[0,0,0,0,0,0,0,0,0,0,0,0,0,0,0],"id":52,"left_children":[1,3,5,-1,7,-1,-1,-1,9,11,13,-1,-1,-1,-1],"loss_changes":[2.5421044E5,1.4135273E3,1.284375E1,0E0,1.109928E3,0E0,0E0,0E0,6.281223E2,2.5664581E1,2.7957227E2,0E0,0E0,0E0,0E0],"parents":[2147483647,0,0,1,1,2,2,4,4,8,8,9,9,10,10],"right_children":[2,4,6,-1,8,-1,-1,-1,10,12,14,-1,-1,-1,-1],"split_conditions":[1.412508E0,4.4530433E-2,3.3246908E-1,-4.197332E-2,5.630436E-1,6.892971E-3,2.4E-1,-4.1147918E-2,-2.6149842E-1,8.1219107E-1,-9.3485934E-1,-4.0888123E-2,1.2452725E-1,-5.158721E-3,2.3254474E-1],"split_indices":[45,45,47,0,20,0,0,0,26,15,44,0,0,0,0],"split_type":[0,0,0,0,0,0,0,0,0,0,0,0,0,0,0],"sum_hessian":[1.4824639E5,1.26648734E5,2.1597666E4,1.2590545E5,7.4328033E2,2.1529155E0,2.1595512E4,3.282895E2,4.1499084E2,9.0332245E1,3.2465863E2,8.631654E1,4.0157003E0,3.5191067E1,2.8946756E2],"tree_param":{"num_deleted":"0","num_feature":"64","num_nodes":"15","size_leaf_vector":"1"}},{"base_weights":[-1.864624E-2,-6.1143893E-1,1.3242881E0,-6.0535043E-1,-6.19023E-1,-5.7441896E-1,1.3288543E0,-6.053819E-1,6.446909E-2,-5.0092146E-2,-4.9348343E-2,8.3587386E-2,-4.856817E-2,6.0974747E-1,1.0631321E-1,-6.034704E-1,-4.9197473E-2,-3.5024527E-2,9.257648E-2,-4.8288163E-2,3.1196998E-2],"categories":[],"categories_nodes":[],"categories_segments":[],"categories_sizes":[],"default_left":[0,0,0,0,0,0,0,0,0,0,0,0,0,0,0,0,0,0,0,0,0],"id":53,"left_children":[1,3,5,7,9,11,13,15,-1,-1,-1,-1,-1,17,-1,19,-1,-1,-1,-1,-1],"loss_changes":[3.988468E5,1.50078125E1,1.3320938E3,9.953125E0,1.3164062E0,2.138089E1,4.03125E0,2.4921875E0,0E0,0E0,0E0,0E0,0E0,1.1997248E1,0E0,2.1726562E1,0E0,0E0,0E0,0E0,0E0],"parents":[2147483647,0,0,1,1,2,2,3,3,4,4,5,5,6,6,7,7,13,13,15,15],"right_children":[2,4,6,8,10,12,14,16,-1,-1,-1,-1,-1,18,-1,20,-1,-1,-1,-1,-1],"split_conditions":[3.7742603E-1,-1.1968461E-1,3.846892E-1,5.6666785E-1,-5.563046E-1,-2.8185034E-1,4.3475732E-1,4.897211E-2,6.446909E-2,-5.0092146E-2,-4.9348343E-2,8.3587386E-2,-4.856817E-2,9.6401423E-1,1.0631321E-1,9.873236E-1,-4.9197473E-2,-3.5024527E-2,9.257648E-2,-4.8288163E-2,3.1196998E-2],"split_indices":[3,61,63,9,53,13,63,6,0,0,0,0,0,10,0,44,0,0,0,0,0],"split_type":[0,0,0,0,0,0,0,0,0,0,0,0,0,0,0,0,0,0,0,0,0],"sum_hessian":[5.010064E5,3.4758034E5,1.5342605E5,1.9292722E5,1.5465312E5,3.672334E2,1.5305881E5,1.929244E5,2.812996E0,3.5886426E4,1.187667E5,5.7374997E0,3.614959E2,1.5339185E1,1.5304348E5,1.6100098E5,3.1923416E4,5.0889077E0,1.02502775E1,1.6098094E5,2.0051294E1],"tree_param":{"num_deleted":"0","num_feature":"64","num_nodes":"21","size_leaf_vector":"1"}},{"base_weights":[2.3177966E-2,-5.0314975E-1,3E0,-5.213205E-1,2.1815794E0,2.4E-1,-4.2027157E-2,-5.219971E-1,2.4E-1,2.4E-1,-4.168231E-2,2.2002914E0,-5.22572E-1,-2.6799321E-2,2.3696749E-1,-4.197222E-2,6.9759563E-3],"categories":[],"categories_nodes":[],"categories_segments":[],"categories_sizes":[],"default_left":[0,0,0,0,0,0,0,0,0,0,0,0,0,0,0,0,0],"id":54,"left_children":[1,3,5,7,9,-1,-1,11,-1,-1,-1,13,15,-1,-1,-1,-1],"loss_changes":[2.4486744E5,6.4791055E3,4.682625E3,3.3754297E2,2.1698105E3,0E0,0E0,2.0971484E2,0E0,0E0,0E0,5.7440292E1,1.673711E2,0E0,0E0,0E0,0E0],"parents":[2147483647,0,0,1,1,2,2,3,3,4,4,7,7,11,11,12,12],"right_children":[2,4,6,8,10,-1,-1,12,-1,-1,-1,14,16,-1,-1,-1,-1],"split_conditions":[2.5016766E0,1.2421484E0,4.8344764E-3,4.1156158E-1,1.6897914E-1,2.4E-1,-4.2027157E-2,-9.223617E-1,2.4E-1,2.4E-1,-4.168231E-2,1.7837521E0,1.1623836E0,-2.6799321E-2,2.3696749E-1,-4.197222E-2,6.9759563E-3],"split_indices":[10,7,54,27,1,0,0,6,0,0,0,0,7,0,0,0,0],"split_type":[0,0,0,0,0,0,0,0,0,0,0,0,0,0,0,0,0],"sum_hessian":[1.5619772E5,1.3274167E5,2.3456053E4,1.3185106E5,8.9059485E2,2.3079988E4,3.760653E2,1.318291E5,2.1972311E1,6.681625E2,2.2243239E2,2.6034576E1,1.3180306E5,6.122625E0,1.9911951E1,1.3135592E5,4.4713358E2],"tree_param":{"num_deleted":"0","num_feature":"64","num_nodes":"17","size_leaf_vector":"1"}},{"base_weights":[1.9806523E-2,-5.252842E-1,2.2746434E0,-4.2042445E-2,-4.689794E-1,-4.3170604E-1,2.359765E0,2.0446372E-1,-5.0632674E-1,1.639328E-1,-5.171964E-1,-2.2225466E-2,1.8881351E-1,2.9109174E-1,-4.1773256E-2,-2.0470724E-1,1.9873979E0,4.234502E-2,-4.172995E-2,1.5402514E-1,-2.9750993E-2,-3.2998014E-2,1.1205017E-1,9.2466725E-3,1.9815281E-1],"categories":[],"categories_nodes":[],"categories_segments":[],"categories_sizes":[],"default_left":[0,0,0,0,0,0,0,0,0,0,0,0,0,0,0,0,0,0,0,0,0,0,0,0,0],"id":55,"left_children":[1,3,5,-1,7,9,11,-1,13,15,17,-1,-1,19,-1,21,23,-1,-1,-1,-1,-1,-1,-1,-1],"loss_changes":[1.9657736E5,1.0039062E0,7.1751875E3,0E0,7.042297E1,4.880403E1,3.3609375E1,0E0,7.840927E0,8.4411156E1,4.6826935E0,0E0,0E0,1.7103464E1,0E0,3.602926E1,1.6635132E1,0E0,0E0,0E0,0E0,0E0,0E0,0E0,0E0],"parents":[2147483647,0,0,1,1,2,2,4,4,5,5,6,6,8,8,9,9,10,10,13,13,15,15,16,16],"right_children":[2,4,6,-1,8,10,12,-1,14,16,18,-1,-1,20,-1,22,24,-1,-1,-1,-1,-1,-1,-1,-1],"split_conditions":[4.773868E-1,1.3348027E-1,5.1419795E-1,-4.2042445E-2,-3.715247E-1,4.9706107E-1,-1.0387171E-1,2.0446372E-1,-3.347749E-1,3.464862E-1,-6.801685E-2,-2.2225466E-2,1.8881351E-1,2.3645817E-1,-4.1773256E-2,2.0041125E-2,6.0886208E-2,4.234502E-2,-4.172995E-2,1.5402514E-1,-2.9750993E-2,-3.2998014E-2,1.1205017E-1,9.2466725E-3,1.9815281E-1],"split_indices":[33,33,31,0,2,2,51,0,62,46,60,0,0,37,0,51,31,0,0,0,0,0,0,0,0],"split_type":[0,0,0,0,0,0,0,0,0,0,0,0,0,0,0,0,0,0,0,0,0,0,0,0,0],"sum_hessian":[1.5993034E5,1.2879612E5,3.1134227E4,1.28209445E5,5.86674E2,9.4896155E2,3.0185266E4,5.347208E0,5.813268E2,1.18142334E2,8.308192E2,4.222392E0,3.0181043E4,1.0030202E1,5.712966E2,9.952348E1,1.861885E1,2.0258615E0,8.2879333E2,2.0133822E0,8.01682E0,8.971043E1,9.813056E0,4.5840096E0,1.4034841E1],"tree_param":{"num_deleted":"0","num_feature":"64","num_nodes":"25","size_leaf_vector":"1"}},{"base_weights":[-1.8385276E-2,1.1524202E0,-6.048872E-1,9.327804E-2,-4.8272617E-2,-2.234908E-1,-6.152722E-1,1.160693E0,-4.8437238E-2,-6.076931E-1,-6.238961E-1,-3.2119647E-2,9.322583E-2,-6.084185E-1,7.975708E-1,-5.0780125E-2,-4.9656413E-2,1.0427803E-1,-4.868511E-2,-4.3429874E-2,9.5428176E-2],"categories":[],"categories_nodes":[],"categories_segments":[],"categories_sizes":[],"default_left":[0,0,0,0,0,0,0,0,0,0,0,0,0,0,0,0,0,0,0,0,0],"id":56,"left_children":[1,3,5,-1,-1,7,9,11,-1,13,15,-1,-1,17,19,-1,-1,-1,-1,-1,-1],"loss_changes":[3.5811066E5,4.1443594E3,1.3754375E3,0E0,0E0,4.87447E3,2.1039062E1,1.5560059E1,0E0,1.85E2,4.3828125E0,0E0,0E0,5.2289062E1,5.1676414E1,0E0,0E0,0E0,0E0,0E0,0E0],"parents":[2147483647,0,0,1,1,2,2,5,5,6,6,7,7,9,9,10,10,13,13,14,14],"right_children":[2,4,6,-1,-1,8,10,12,-1,14,16,-1,-1,18,20,-1,-1,-1,-1,-1,-1],"split_conditions":[-1.1790741E-1,5.563898E-1,-7.502439E-2,9.327804E-2,-4.8272617E-2,4.6386802E-1,1.7010334E-1,-9.223901E-2,-4.8437238E-2,2.5435561E-2,-5.686649E-1,-3.2119647E-2,9.322583E-2,-6.566844E-1,4.9381427E-2,-5.0780125E-2,-4.9656413E-2,1.0427803E-1,-4.868511E-2,-4.3429874E-2,9.5428176E-2],"split_indices":[15,36,15,0,0,36,61,37,0,39,53,0,0,40,43,0,0,0,0,0,0],"split_type":[0,0,0,0,0,0,0,0,0,0,0,0,0,0,0,0,0,0,0,0,0],"sum_hessian":[5.215044E5,1.7405133E5,3.4745306E5,1.7271886E5,1.3324731E3,9.212485E3,3.3824056E5,1.9912587E3,7.2212266E3,1.8013203E5,1.5810855E5,5.058435E0,1.9862002E3,1.8004058E5,9.1454124E1,3.579219E4,1.2231635E5,1.2067716E1,1.8002852E5,2.0368967E1,7.108516E1],"tree_param":{"num_deleted":"0","num_feature":"64","num_nodes":"21","size_leaf_vector":"1"}},{"base_weights":[7.1147695E-2,-5.019891E-1,3E0,9.009582E-1,-4.069874E-2,2.4E-1,-4.0559143E-2,2.4E-1,-4.0017594E-2],"categories":[],"categories_nodes":[],"categories_segments":[],"categories_sizes":[],"default_left":[0,0,0,0,0,0,0,0,0],"id":57,"left_children":[1,3,5,7,-1,-1,-1,-1,-1],"loss_changes":[1.3567389E5,4.6970898E2,6.8418906E3,1.2133334E3,0E0,0E0,0E0,0E0,0E0],"parents":[2147483647,0,0,1,1,2,2,3,3],"right_children":[2,4,6,8,-1,-1,-1,-1,-1],"split_conditions":[4.8086095E-1,-8.270024E-1,-7.590622E-1,-7.1172553E-1,-4.069874E-2,2.4E-1,-4.0559143E-2,2.4E-1,-4.0017594E-2],"split_indices":[14,0,0,3,0,0,0,0,0],"split_type":[0,0,0,0,0,0,0,0,0],"sum_hessian":[5.4934863E4,4.9488145E4,5.446717E3,2.3517029E2,4.9252977E4,4.891118E3,5.555985E2,5.179347E1,1.8337682E2],"tree_param":{"num_deleted":"0","num_feature":"64","num_nodes":"9","size_leaf_vector":"1"}},{"base_weights":[2.2045146E-3,1.9211453E0,-5.318534E-1,-4.26469E-2,1.5455623E-1,-5.343508E-1,-2.8133428E-2,-4.4397977E-1,-4.2782992E-2,1.5494804E-1,-4.2823676E-2,-4.3132007E-2,1.6191982E-1],"categories":[],"categories_nodes":[],"categories_segments":[],"categories_sizes":[],"default_left":[0,0,0,0,0,0,0,0,0,0,0,0,0],"id":58,"left_children":[1,3,5,-1,-1,7,9,11,-1,-1,-1,-1,-1],"loss_changes":[2.1991603E5,1.2415156E3,2.106289E2,0E0,0E0,5.8046875E0,8.322078E2,1.9605492E2,0E0,0E0,0E0,0E0,0E0],"parents":[2147483647,0,0,1,1,2,2,5,5,6,6,7,7],"right_children":[2,4,6,-1,-1,8,10,12,-1,-1,-1,-1,-1],"split_conditions":[-5.160717E-1,-3.4284818E-1,4.8351273E-1,-4.26469E-2,1.5455623E-1,-3.8881317E-1,-6.792513E-2,-1.08462304E-1,-4.2782992E-2,1.5494804E-1,-4.2823676E-2,-4.3132007E-2,1.6191982E-1],"split_indices":[25,8,8,0,0,25,25,8,0,0,0,0,0],"split_type":[0,0,0,0,0,0,0,0,0,0,0,0,0],"sum_hessian":[2.145817E5,4.6717016E4,1.6786469E5,2.041956E2,4.651282E4,1.6703542E5,8.2925946E2,8.185002E2,1.6621692E5,1.6876424E2,6.604952E2,7.8980914E2,2.8691006E1],"tree_param":{"num_deleted":"0","num_feature":"64","num_nodes":"13","size_leaf_vector":"1"}},{"base_weights":[5.0374813E-2,-5.0045764E-1,3E0,-5.1272565E-1,3.760238E-1,3E0,-3.6829764E-1,-5.135782E-1,-2.949833E-1,3E0,-4.783993E-1,-0E0,3E0,2.2483084E0,-4.590874E-1,-4.1113652E-2,-3.964965E-1,-4.761851E-1,1.9542936E0,2.4E-1,-3.591645E-2,-5.113185E-1,1.9715781E0,2.1833538E-1,-3.989539E-1,3E0,-3.427544E-2,2.4E-1,-2.7840128E-2,-4.7256705E-1,1.2180919E-1,-3.7677374E-2,2.0681387E-1,5.9737097E-2,-3.9327495E-2,2.4E-1,1.5727751E-2,3.7384253E-2,-4.122671E-2,2.3765285E-1,-1.8703034E-2,8.0978565E-2,-3.7468273E-2,7.1224654E-3,2.4E-1,2.7484526E-3,-4.052528E-2],"categories":[],"categories_nodes":[],"categories_segments":[],"categories_sizes":[],"default_left":[0,0,0,0,0,0,0,0,0,0,0,0,0,0,0,0,0,0,0,0,0,0,0,0,0,0,0,0,0,0,0,0,0,0,0,0,0,0,0,0,0,0,0,0,0,0,0],"id":59,"left_children":[1,3,5,7,9,11,13,15,17,19,21,23,25,27,29,-1,31,33,35,-1,-1,37,39,-1,41,43,-1,-1,-1,45,-1,-1,-1,-1,-1,-1,-1,-1,-1,-1,-1,-1,-1,-1,-1,-1,-1],"loss_changes":[1.7182605E5,8.566797E2,7.7458438E3,1.390625E1,2.7854138E3,7.8715625E2,1.6585202E2,2.4140625E0,1.307691E2,2.5598535E2,7.216531E1,1.0255057E2,1.8414062E2,7.3517525E1,1.9932495E1,0E0,5.7378395E1,6.6267853E0,4.5552017E1,0E0,0E0,4.0511017E0,2.8502129E1,0E0,9.384659E0,9.375E1,0E0,0E0,0E0,1.1483978E1,0E0,0E0,0E0,0E0,0E0,0E0,0E0,0E0,0E0,0E0,0E0,0E0,0E0,0E0,0E0,0E0,0E0],"parents":[2147483647,0,0,1,1,2,2,3,3,4,4,5,5,6,6,7,7,8,8,9,9,10,10,11,11,12,12,13,13,14,14,16,16,17,17,18,18,21,21,22,22,24,24,25,25,29,29],"right_children":[2,4,6,8,10,12,14,16,18,20,22,24,26,28,30,-1,32,34,36,-1,-1,38,40,-1,42,44,-1,-1,-1,46,-1,-1,-1,-1,-1,-1,-1,-1,-1,-1,-1,-1,-1,-1,-1,-1,-1],"split_conditions":[8.298934E-1,5.0321907E-1,6.3439935E-1,7.174254E-1,8.26032E-2,-2.313323E-2,-8.871685E-1,4.243573E-1,1.0821689E0,-2.5592482E-1,2.7638204E-2,-8.7823397E-1,1.093728E0,1.8448249E0,2.6776162E-1,-4.1113652E-2,4.4638842E-1,3.682001E-1,1.0267838E0,2.4E-1,-3.591645E-2,-8.4541154E-1,2.3032063E-1,2.1833538E-1,-1.48406E-1,1.7010334E-1,-3.427544E-2,2.4E-1,-2.7840128E-2,-8.7393016E-1,1.2180919E-1,-3.7677374E-2,2.0681387E-1,5.9737097E-2,-3.9327495E-2,2.4E-1,1.5727751E-2,3.7384253E-2,-4.122671E-2,2.3765285E-1,-1.8703034E-2,8.0978565E-2,-3.7468273E-2,7.1224654E-3,2.4E-1,2.7484526E-3,-4.052528E-2],"split_indices":[18,38,41,18,31,38,19,38,35,44,42,19,57,20,8,0,62,41,10,0,0,4,53,0,30,61,0,0,0,19,0,0,0,0,0,0,0,0,0,0,0,0,0,0,0,0,0],"split_type":[0,0,0,0,0,0,0,0,0,0,0,0,0,0,0,0,0,0,0,0,0,0,0,0,0,0,0,0,0,0,0,0,0,0,0,0,0,0,0,0,0,0,0,0,0,0,0],"sum_hessian":[9.237651E4,7.9614516E4,1.2761999E4,7.851692E4,1.0975883E3,1.207985E4,6.821498E2,7.82057E4,3.112173E2,2.4264008E2,8.5494824E2,8.755287E1,1.1992297E4,2.1096725E1,6.610531E2,7.796659E4,2.3911581E2,2.8967957E2,2.1537714E1,2.2177084E2,2.0869223E1,8.45376E2,9.572241E0,9.640374E0,7.79125E1,1.1977264E4,1.503298E1,1.4033336E1,7.0633893E0,6.5835034E2,2.7027555E0,2.3509581E2,4.0200095E0,2.0196438E0,2.876599E2,1.1828261E1,9.709453E0,2.0027204E0,8.433732E2,6.2661967E0,3.306044E0,2.040695E0,7.58718E1,1.1705662E1,1.1965558E4,4.0454086E1,6.1789624E2],"tree_param":{"num_deleted":"0","num_feature":"64","num_nodes":"47","size_leaf_vector":"1"}},{"base_weights":[7.41313E-2,-4.0698543E-2,3E0,3E0,-3.9731625E-2,2.4E-1,-2.497251E-2],"categories":[],"categories_nodes":[],"categories_segments":[],"categories_sizes":[],"default_left":[0,0,0,0,0,0,0],"id":60,"left_children":[1,-1,3,5,-1,-1,-1],"loss_changes":[1.4214456E5,0E0,1.4386562E3,6.8140625E1,0E0,0E0,0E0],"parents":[2147483647,0,0,2,2,3,3],"right_children":[2,-1,4,6,-1,-1,-1],"split_conditions":[4.8215652E-1,-4.0698543E-2,2.432131E-1,8.265495E-3,-3.9731625E-2,2.4E-1,-2.497251E-2],"split_indices":[49,0,53,34,0,0,0],"split_type":[0,0,0,0,0,0,0],"sum_hessian":[5.4230914E4,4.925626E4,4.9746504E3,4.8576743E3,1.16976295E2,4.851987E3,5.6873474E0],"tree_param":{"num_deleted":"0","num_feature":"64","num_nodes":"7","size_leaf_vector":"1"}},{"base_weights":[9.340479E-3,-5.236583E-1,1.8490232E0,-4.6953148E-1,-4.2318955E-2,2.1287332E0,-5.2837384E-1,2.173346E0,-5.267522E-1,2.1322343E0,-4.3660888E-1,-4.2778324E-2,1.4140464E-1,-2.6487755E-2,2.2270133E0,6.549017E-2,-4.254978E-2,2.133673E0,-3.7127286E-2,3.7753582E-2,-4.0152777E-2,2.7033936E-2,1.792901E-1,-4.1476257E-2,1.8220694E-1,1.7074765E-1,4.6768274E-2],"categories":[],"categories_nodes":[],"categories_segments":[],"categories_sizes":[],"default_left":[0,0,0,0,0,0,0,0,0,0,0,0,0,0,0,0,0,0,0,0,0,0,0,0,0,0,0],"id":61,"left_children":[1,3,5,7,-1,9,11,13,15,17,19,-1,-1,-1,21,23,-1,25,-1,-1,-1,-1,-1,-1,-1,-1,-1],"loss_changes":[1.8126461E5,4.0558594E1,2.7617312E4,1.9500833E3,0E0,3.3579688E2,6.6588745E1,3.841284E1,3.8320557E1,1.4078125E2,3.899085E0,0E0,0E0,0E0,3.5720215E0,1.4667372E2,0E0,3.43125E1,0E0,0E0,0E0,0E0,0E0,0E0,0E0,0E0,0E0],"parents":[2147483647,0,0,1,1,2,2,3,3,5,5,6,6,7,7,8,8,9,9,10,10,14,14,15,15,17,17],"right_children":[2,4,6,8,-1,10,12,14,16,18,20,-1,-1,-1,22,24,-1,26,-1,-1,-1,-1,-1,-1,-1,-1,-1],"split_conditions":[4.1353288E-1,-8.643227E-1,-4.2167386E-1,1.7010334E-1,-4.2318955E-2,4.0092206E-1,9.474524E-1,-4.8946103E-1,4.7233894E-1,1.093728E0,-7.2741336E-1,-4.2778324E-2,1.4140464E-1,-2.6487755E-2,-7.208737E-1,-4.0763132E-2,-4.254978E-2,7.455507E-2,-3.7127286E-2,3.7753582E-2,-4.0152777E-2,2.7033936E-2,1.792901E-1,-4.1476257E-2,1.8220694E-1,1.7074765E-1,4.6768274E-2],"split_indices":[59,31,55,61,0,29,21,32,61,57,19,0,0,0,37,58,0,14,0,0,0,0,0,0,0,0,0],"split_type":[0,0,0,0,0,0,0,0,0,0,0,0,0,0,0,0,0,0,0,0,0,0,0,0,0,0,0],"sum_hessian":[1.8485333E5,1.4332881E5,4.152452E4,1.2870154E4,1.3045866E5,3.7153668E4,4.370852E3,2.7099277E2,1.2599161E4,3.7103562E4,5.0108013E1,4.360534E3,1.0318211E1,5.2728596E0,2.6571988E2,1.0694977E2,1.2492211E4,3.7083562E4,1.9996876E1,2.0115006E0,4.809651E1,2.6030822E0,2.6311682E2,8.564631E1,2.1303457E1,3.7066387E4,1.7179235E1],"tree_param":{"num_deleted":"0","num_feature":"64","num_nodes":"27","size_leaf_vector":"1"}},{"base_weights":[-1.6177889E-2,1.4574478E0,-5.6318176E-1,-4.514246E-2,1.1683536E-1,-5.595989E-1,-4.545651E-2,9.1571325E-1,-5.5967224E-1,1.1646847E-1,-1.3295468E-2,-6.413252E-2,-4.4775862E-2,-3.0741233E-2,4.5373615E-2],"categories":[],"categories_nodes":[],"categories_segments":[],"categories_sizes":[],"default_left":[0,0,0,0,0,0,0,0,0,0,0,0,0,0,0],"id":62,"left_children":[1,3,5,-1,-1,7,-1,9,11,-1,-1,13,-1,-1,-1],"loss_changes":[2.8216994E5,5.755781E2,3.6875E0,0E0,0E0,1.7632812E1,0E0,5.957241E0,1.3320312E0,0E0,0E0,3.444874E0,0E0,0E0,0E0],"parents":[2147483647,0,0,1,1,2,2,5,5,7,7,8,8,11,11],"right_children":[2,4,6,-1,-1,8,-1,10,12,-1,-1,14,-1,-1,-1],"split_conditions":[-5.4444385E-1,-8.823234E-1,8.5523175E-3,-4.514246E-2,1.1683536E-1,-5.1241577E-1,-4.545651E-2,3.4733632E-1,-5.0126962E-2,1.1646847E-1,-1.3295468E-2,-2.1521315E-2,-4.4775862E-2,-3.0741233E-2,4.5373615E-2],"split_indices":[30,0,61,0,0,7,0,6,41,0,0,25,0,0,0],"split_type":[0,0,0,0,0,0,0,0,0,0,0,0,0,0,0],"sum_hessian":[3.500465E5,9.475981E4,2.5528669E5,1.3933275E2,9.462048E4,1.492127E5,1.06073984E5,5.8373547E0,1.4920686E5,3.7406843E0,2.0966702E0,9.109317E0,1.4919775E5,7.0890884E0,2.0202286E0],"tree_param":{"num_deleted":"0","num_feature":"64","num_nodes":"15","size_leaf_vector":"1"}},{"base_weights":[2.5708057E-2,-5.153042E-1,2.5286665E0,-5.192804E-1,2.439264E0,-1.7991705E-2,2.0231925E-1,-4.1872587E-2,3.0659208E-1,-1.5384772E-2,2.4838932E0,-5.056481E-1,1.1364036E0,2.0310746E-1,-0E0,-4.1498806E-2,-4.896476E-3,-4.077682E-2,1.448039E-1],"categories":[],"categories_nodes":[],"categories_segments":[],"categories_sizes":[],"default_left":[0,0,0,0,0,0,0,0,0,0,0,0,0,0,0,0,0,0,0],"id":63,"left_children":[1,3,5,7,9,-1,-1,-1,11,-1,13,15,17,-1,-1,-1,-1,-1,-1],"loss_changes":[1.986691E5,1.4209688E3,2.45E1,4.110996E2,2.0181091E1,0E0,0E0,0E0,4.0683954E2,0E0,2.0833618E1,1.2369537E0,3.330684E2,0E0,0E0,0E0,0E0,0E0,0E0],"parents":[2147483647,0,0,1,1,2,2,3,3,4,4,8,8,10,10,11,11,12,12],"right_children":[2,4,6,8,10,-1,-1,-1,12,-1,14,16,18,-1,-1,-1,-1,-1,-1],"split_conditions":[1.412508E0,1.093728E0,-5.0178665E-1,4.4530433E-2,-8.667975E-1,-1.7991705E-2,2.0231925E-1,-4.1872587E-2,5.630436E-1,-1.5384772E-2,6.3060254E-2,3.6777773E-1,-2.6149842E-1,2.0310746E-1,-0E0,-4.1498806E-2,-4.896476E-3,-4.077682E-2,1.448039E-1],"split_indices":[45,57,26,45,4,0,0,0,20,0,31,16,26,0,0,0,0,0,0],"split_type":[0,0,0,0,0,0,0,0,0,0,0,0,0,0,0,0,0,0,0],"sum_hessian":[1.4670645E5,1.2063309E5,2.607335E4,1.2047279E5,1.6031169E2,2.7259579E0,2.6070625E4,1.198751E5,5.976869E2,2.3762121E0,